
\data\
ngram 1=18163
ngram 2=78659
ngram 3=6125
ngram 4=1670
ngram 5=473

\1-grams:
-3.543748	!	-0.7115063
-4.801848	#	-0.07848094
-3.835407	$	-0.07848095
-3.0415	%	-0.2921373
-4.499451	&#91;	-0.07848094
-4.499451	&#93;	-0.07848094
-3.397568	&amp;	-0.929562
-3.835407	&apos;	-0.1178589
-2.111495	&quot;	-0.2345476
-2.550393	(	-0.1971346
-2.534984	)	-0.3558432
-4.801848	+	-0.07848094
-1.330551	,	-0.6875163
-4.801848	,Einflusszone	-0.07848094
-4.801848	,Expansion	-0.07848094
-4.801848	,Sehen	-0.07848095
-4.801848	,Wir	-0.07848094
-4.801848	,die	-0.07848094
-4.801848	,großen	-0.07848094
-4.801848	,gute	-0.07848094
-4.801848	,parlamentarische	-0.07848094
-4.801848	,sehr	-0.07848094
-4.801848	,umgebendes	-0.07848094
-4.801848	,unartig	-0.07848094
-4.801848	,zwei	-0.07848094
-2.119417	-	-0.3627093
-4.801848	-------------------------------------------------------------------------	-0.07848095
-4.801848	-273	-0.07848094
-4.801848	-Ansatz	-0.07848094
-4.801848	-Computer	-0.07848094
-4.801848	-Effekt	-0.07848094
-4.801848	-Fluktuation	-0.07848094
-4.801848	-Investoren	-0.07848094
-4.801848	-Miliz	-0.07848094
-4.801848	-Supraleiter	-0.07848094
-4.801848	-also	-0.07848094
-4.801848	-beherrschung	-0.07848094
-4.801848	-des	-0.07848094
-4.801848	-dienstleistungen	-0.07848094
-4.801848	-diversifizierung	-0.07848094
-4.801848	-effizienz	-0.07848094
-4.801848	-garantien	-0.07848095
-4.801848	-in	-0.07848094
-4.801848	-von	-0.07848094
-4.801848	-zu	-0.07848094
-1.502965	.	-1.427572
-4.801848	..	-0.07848095
-4.627525	...	-0.07848094
-3.734663	/	-0.1123976
-4.801848	0	-0.07848094
-4.801848	0,015	-0.07848094
-4.801848	0,06	-0.07848095
-4.801848	0,1	-0.07848094
-4.801848	0,25	-0.07848094
-4.801848	0,3	-0.07848094
-4.627525	0,6	-0.2221849
-4.801848	0,7	-0.07848094
-4.801848	0,80	-0.07848095
-4.801848	0,88	-0.07848094
-4.801848	0.2	-0.07848094
-4.801848	08	-0.07848094
-3.918457	1	-0.2049314
-4.801848	1,1	-0.07848094
-4.801848	1,26	-0.07848095
-4.801848	1,4	-0.07848094
-4.243448	1,5	-0.1304038
-4.801848	1,7	-0.07848094
-4.801848	1,8	-0.07848094
-4.801848	1,9	-0.07848094
-4.499451	1.	-0.07848094
-4.801848	1.000	-0.07848094
-4.801848	1.100	-0.07848094
-4.801848	1.110	-0.07848094
-4.801848	1.200	-0.07848094
-4.801848	1.300	-0.07848095
-4.499451	1.75	-0.304021
-3.705681	10	-0.29212
-4.801848	10,000	-0.07848094
-4.801848	10.	-0.07848094
-4.801848	10.000	-0.07848094
-3.966812	100	-0.1509378
-4.801848	1000	-0.07848095
-4.801848	106	-0.07848094
-4.021234	11	-0.1101984
-4.801848	11,1	-0.07848094
-4.156132	11.	-0.4118435
-4.801848	11.September	-0.07848094
-4.801848	113,3	-0.07848095
-4.352853	12	-0.07848094
-4.801848	12,9	-0.07848095
-4.801848	120	-0.07848094
-4.627525	13	-0.07848095
-4.627525	13.	-0.07848095
-4.801848	1373	-0.07848094
-4.801848	1389	-0.07848094
-4.627525	14	-0.07848094
-4.801848	14.	-0.07848094
-4.801848	145	-0.07848094
-3.87495	15	-0.1254185
-4.801848	15.	-0.07848094
-4.801848	15.000	-0.07848094
-4.627525	150	-0.2221849
-4.801848	155	-0.07848094
-4.801848	158	-0.07848094
-4.156132	16	-0.4787903
-4.801848	16.	-0.07848094
-4.499451	160	-0.07848095
-4.801848	17	-0.07848094
-4.801848	1787	-0.07848094
-4.243448	18	-0.07848095
-4.801848	18,8	-0.07848095
-4.801848	18.	-0.07848094
-4.801848	180	-0.07848094
-4.801848	1862	-0.07848094
-4.801848	1868	-0.07848094
-4.801848	189	-0.07848094
-4.352853	19	-0.2357523
-4.627525	19.	-0.07848094
-4.801848	1914	-0.07848094
-4.801848	1920er	-0.07848094
-4.499451	1929	-0.07848094
-4.627525	193	-0.07848095
-4.627525	1930er	-0.07848095
-4.627525	1930ern	-0.07848094
-4.801848	1931	-0.07848094
-4.801848	1938	-0.07848094
-4.627525	1939	-0.07848094
-4.801848	1944	-0.07848094
-4.083466	1945	-0.1213074
-4.801848	1946	-0.07848094
-4.627525	1949	-0.07848094
-4.627525	1950	-0.07848094
-4.801848	1950er	-0.07848094
-4.801848	1950ern	-0.07848094
-4.801848	1955	-0.07848094
-4.801848	1956	-0.07848094
-4.627525	1957	-0.07848094
-4.801848	1958	-0.07848094
-4.801848	1959	-0.07848094
-4.627525	1960	-0.07848094
-4.352853	1960er	-0.1893883
-4.801848	1960ern	-0.07848094
-4.627525	1961	-0.07848094
-4.801848	1964	-0.07848094
-4.627525	1967	-0.07848094
-4.627525	1968	-0.07848094
-4.499451	1970	-0.07848094
-4.801848	1970er	-0.07848094
-4.627525	1970ern	-0.07848094
-4.243448	1973	-0.07848094
-4.801848	1975	-0.07848094
-4.801848	1977	-0.07848095
-4.801848	1978	-0.07848094
-4.499451	1979	-0.07848094
-4.499451	1980	-0.144416
-4.499451	1980er	-0.1893883
-4.801848	1981	-0.07848094
-4.499451	1982	-0.07848095
-4.627525	1985	-0.07848094
-4.352853	1986	-0.07848094
-4.627525	1987	-0.07848094
-4.801848	1988	-0.07848094
-4.083466	1989	-0.09936649
-4.499451	1990	-0.07848094
-4.499451	1990er	-0.2221849
-4.627525	1990ern	-0.07848094
-4.499451	1991	-0.07848094
-4.499451	1992	-0.07848094
-4.499451	1993	-0.07848094
-4.499451	1994	-0.07848095
-4.627525	1995	-0.07848094
-4.627525	1996	-0.07848094
-4.801848	1997	-0.07848094
-4.627525	1998	-0.07848094
-4.243448	1999	-0.07848094
-4.021234	2	-0.23884
-4.627525	2,1	-0.07848094
-4.801848	2,2	-0.07848094
-4.801848	2,3	-0.07848095
-4.801848	2,5	-0.07848095
-4.801848	2,8	-0.07848095
-4.801848	2,9	-0.07848094
-4.352853	2.	-0.1149247
-4.627525	2.000	-0.2221849
-4.801848	2.116	-0.07848094
-4.801848	2.172	-0.07848094
-3.678513	20	-0.2863496
-4.352853	20.	-0.2357523
-4.801848	20.000	-0.07848094
-4.352853	200	-0.1304038
-4.801848	200.000	-0.07848094
-4.243448	2000	-0.07848094
-4.627525	2000er	-0.07848095
-4.156132	2001	-0.07848095
-3.799166	2002	-0.1123976
-4.083466	2003	-0.1101984
-3.918457	2004	-0.09936648
-3.87495	2005	-0.09510826
-3.734663	2006	-0.1168296
-3.835407	2007	-0.07848094
-3.765718	2008	-0.1325718
-3.799166	2009	-0.147148
-4.156132	2010	-0.1065577
-4.801848	2010.Es	-0.07848094
-4.083466	2011	-0.07848094
-4.156132	2012	-0.07848094
-4.352853	2013	-0.07848094
-4.243448	2014	-0.07848094
-4.627525	2015	-0.07848095
-4.801848	2020	-0.07848094
-4.801848	2028	-0.07848094
-4.801848	2030	-0.07848094
-4.801848	2041	-0.07848094
-4.801848	205	-0.07848094
-4.627525	2050	-0.07848094
-4.801848	21	-0.07848094
-4.499451	21.	-0.1688237
-4.801848	21.000	-0.07848094
-4.627525	2100	-0.07848094
-4.801848	216	-0.07848094
-4.801848	220	-0.07848094
-4.801848	224	-0.07848094
-4.801848	23	-0.07848094
-4.801848	23andMe	-0.07848094
-4.243448	24	-0.1994119
-4.627525	24.	-0.1688237
-3.835407	25	-0.1647526
-4.801848	25.	-0.07848094
-4.801848	250	-0.07848094
-4.801848	26.	-0.07848094
-4.499451	27	-0.07848094
-4.801848	27.	-0.07848094
-4.801848	27.000	-0.07848094
-4.801848	28	-0.07848094
-4.801848	28,2	-0.07848095
-4.801848	28,5	-0.07848094
-4.801848	28oC	-0.07848094
-4.801848	29	-0.07848094
-4.801848	29oC	-0.07848094
-4.156132	3	-0.1767715
-4.801848	3,5	-0.07848094
-4.801848	3,7	-0.07848094
-4.627525	3.	-0.07848094
-4.499451	3.000	-0.07848094
-3.705681	30	-0.3216993
-4.801848	30.	-0.07848094
-4.499451	30.000	-0.1688237
-4.499451	300	-0.07848094
-4.801848	3000	-0.07848094
-4.801848	3115	-0.07848094
-4.801848	32	-0.07848095
-4.627525	33	-0.07848094
-4.801848	330	-0.07848094
-4.801848	34oC	-0.07848094
-4.352853	35	-0.07848095
-4.156132	350	-0.1149246
-4.801848	350.000	-0.07848094
-4.801848	37	-0.07848094
-4.801848	38	-0.07848095
-4.801848	386	-0.07848094
-4.801848	4	-0.07848095
-4.801848	4,2	-0.07848094
-4.499451	4,3	-0.304021
-4.801848	4,7	-0.07848094
-4.627525	4,8	-0.07848094
-4.801848	4.	-0.07848093
-4.801848	4.700	-0.07848094
-3.678513	40	-0.2546636
-4.801848	40.	-0.07848094
-4.801848	400	-0.07848094
-4.801848	4000	-0.07848094
-4.627525	41	-0.07848095
-4.801848	410	-0.07848094
-4.801848	42	-0.07848094
-4.627525	43	-0.07848095
-4.801848	44	-0.07848094
-4.801848	440	-0.07848095
-4.499451	45	-0.07848094
-4.627525	450	-0.07848095
-4.801848	46	-0.07848094
-4.801848	48	-0.07848094
-4.021234	5	-0.4072738
-4.627525	5,1	-0.2221849
-4.801848	5,4	-0.07848094
-4.801848	5,8	-0.07848094
-4.352853	5.	-0.1304038
-4.801848	5.000	-0.07848094
-3.734663	50	-0.2938003
-3.966812	500	-0.2845975
-4.801848	500.000	-0.07848094
-4.801848	5000	-0.07848094
-4.801848	50er	-0.07848094
-4.801848	50ern	-0.07848094
-4.801848	51	-0.07848094
-4.801848	52	-0.07848094
-4.801848	54	-0.07848094
-4.627525	55	-0.07848095
-4.801848	550	-0.07848094
-4.627525	57	-0.07848095
-4.801848	58,5	-0.07848094
-4.801848	59	-0.07848094
-4.021234	6	-0.2551436
-4.627525	6,2	-0.2221849
-4.627525	6,5	-0.07848094
-4.627525	6.	-0.07848094
-4.801848	6.-10	-0.07848094
-4.156132	60	-0.1213074
-4.801848	60.	-0.07848094
-4.801848	600	-0.07848094
-4.627525	60er	-0.07848095
-4.627525	61	-0.07848094
-4.801848	63	-0.07848094
-4.627525	65	-0.07848095
-4.801848	66.	-0.07848094
-4.801848	660	-0.07848094
-4.801848	67.000	-0.07848094
-4.801848	685	-0.07848095
-4.243448	7	-0.1893883
-4.801848	7,4	-0.07848094
-4.801848	7.	-0.07848094
-4.801848	7.000	-0.07848095
-4.352853	70	-0.144416
-4.801848	700.000	-0.07848094
-4.801848	70er	-0.07848094
-4.801848	72	-0.07848094
-4.627525	750	-0.07848095
-4.627525	77	-0.07848094
-4.801848	78	-0.07848094
-4.156132	8	-0.2011886
-4.801848	8,500	-0.07848094
-4.801848	8-Gipfel	-0.07848094
-4.243448	8.	-0.3326623
-4.801848	8.000	-0.07848094
-4.083466	80	-0.1149246
-4.243448	800	-0.1304038
-4.627525	80er	-0.07848095
-4.801848	825	-0.07848095
-4.801848	848	-0.07848094
-4.801848	850	-0.07848095
-4.801848	875	-0.07848094
-4.801848	88	-0.07848094
-4.627525	9	-0.07848094
-4.801848	9,6	-0.07848094
-4.627525	9.	-0.07848094
-3.966812	90	-0.1872354
-4.627525	90er	-0.07848095
-4.801848	93,1	-0.07848094
-4.627525	95	-0.07848094
-4.801848	95.000	-0.07848094
-2.478292	:	-0.3754895
-2.906786	;	-0.2510261
-3.705681	</s>
-99	<s>	-0.7588609
-4.933459	<unk>
-2.767057	?	-1.339291
-2.425205	@-@	-0.1221182
-4.156132	A	-0.1149246
-4.243448	A.	-0.1994119
-4.627525	AAA	-0.2221849
-4.499451	AIDS	-0.07848094
-4.801848	AIG	-0.07848094
-4.801848	AIRES	-0.07848094
-4.352853	AKP	-0.07848094
-4.801848	AMSTERDAM	-0.07848094
-4.801848	ANKARA	-0.07848094
-4.801848	ASEAN	-0.07848094
-4.627525	AU	-0.07848094
-4.801848	AUT	-0.07848094
-4.801848	Aasgeier	-0.07848094
-4.243448	Abbas	-0.07848094
-4.352853	Abbau	-0.1213074
-4.627525	Abbild	-0.07848094
-4.801848	Abbruch	-0.07848094
-4.801848	Abchasien	-0.07848095
-4.801848	Abduktive	-0.07848094
-4.243448	Abdullah	-0.07848094
-4.627525	Abdullahs	-0.07848094
-4.627525	Abe	-0.07848094
-4.801848	Abeba	-0.07848094
-4.801848	Abends	-0.07848094
-4.801848	Abenteuer	-0.07848095
-4.801848	Abenteuern	-0.07848094
-4.801848	Abes	-0.07848094
-4.801848	Abfallmethan	-0.07848094
-4.801848	Abfassung	-0.07848094
-4.499451	Abfederung	-0.07848094
-4.801848	Abfederungalleineiner	-0.07848094
-4.499451	Abfederungs-	-0.1688237
-4.801848	Abfederungsbemühungen	-0.07848094
-4.801848	Abfederungsmaßnahmen	-0.07848094
-4.801848	Abfindungen	-0.07848094
-4.801848	Abgase	-0.07848094
-4.499451	Abgeordnete	-0.07848095
-4.499451	Abgeordneten	-0.07848095
-4.801848	Abgrund	-0.07848094
-4.801848	Abgrunds	-0.07848094
-4.801848	Abhilfe	-0.07848094
-4.801848	Abhilfen	-0.07848094
-4.021234	Abhängigkeit	-0.213932
-4.801848	Abhängigkeitsrisiko	-0.07848094
-4.801848	Abhöraktionen	-0.07848094
-4.801848	Abidine	-0.07848094
-4.627525	Abkehr	-0.07848094
-4.801848	Abklingen	-0.07848094
-3.584195	Abkommen	-0.1707971
-4.243448	Abkommens	-0.1304038
-4.801848	Abkopplung	-0.07848094
-4.801848	Abkürzung	-0.07848094
-4.801848	Ableger	-0.07848094
-4.243448	Ablehnung	-0.07848094
-4.801848	Ablösung	-0.07848094
-4.801848	Abmilderung	-0.07848094
-4.499451	Abraham	-0.1688237
-4.801848	Abreißgeschwindigkeit	-0.07848094
-4.801848	Abrundungsfehler	-0.07848094
-4.021234	Abrüstung	-0.1013159
-4.801848	Abrüstungsabkommen	-0.07848094
-4.801848	Abrüstungsforderungen	-0.07848094
-4.801848	Abrüstungsgespräche	-0.07848094
-4.801848	Abrüstungsinitiativen	-0.07848094
-4.801848	Abrüstungskonferenz	-0.07848094
-4.801848	Abrüstungsverhandlungen	-0.07848094
-4.801848	Abrüstungsverpflichtungen	-0.07848094
-4.801848	Absage	-0.07848094
-4.801848	Absatzmarkt	-0.07848094
-4.499451	Abschaffung	-0.144416
-4.801848	Abscheu	-0.07848094
-4.801848	Abschied	-0.07848094
-4.801848	Abschließend	-0.07848094
-4.627525	Abschluss	-0.07848094
-4.352853	Abschreckung	-0.07848094
-4.801848	Abschreibungen	-0.07848094
-4.156132	Abschwung	-0.07848094
-4.801848	Abschwungs	-0.07848094
-4.627525	Abschwächung	-0.07848094
-4.627525	Abseits	-0.07848093
-4.801848	Absenkung	-0.07848094
-4.801848	Absetzung	-0.07848094
-4.499451	Absicherung	-0.07848094
-4.352853	Absicht	-0.07848094
-4.243448	Absichten	-0.07848094
-4.499451	Abspaltung	-0.1688237
-4.801848	Absprachen	-0.07848094
-4.352853	Abstand	-0.07848094
-4.801848	Abstecken	-0.07848094
-4.801848	Abstieg	-0.07848094
-4.499451	Abstimmung	-0.07848094
-4.801848	Abstraktionen	-0.07848094
-4.801848	Absturz	-0.07848094
-4.627525	Abständen	-0.07848094
-4.801848	Abtretung	-0.07848094
-4.801848	Abwendung	-0.07848094
-3.918457	Abwertung	-0.1179162
-4.499451	Abwertungen	-0.304021
-4.801848	Abwertungswettläufe	-0.07848094
-4.627525	Abwesenheit	-0.07848094
-4.627525	Abwärtsspirale	-0.2221849
-4.627525	Abzug	-0.07848094
-4.801848	Abzugs	-0.07848094
-4.801848	Academy	-0.07848094
-4.801848	Accra	-0.07848094
-4.801848	Achillesferse	-0.07848094
-4.801848	Acht	-0.07848094
-4.801848	Achtsamkeit	-0.07848094
-4.627525	Achtung	-0.2221849
-4.801848	Achtzigerjahren	-0.07848094
-4.801848	Ackerland	-0.07848094
-4.627525	Act	-0.07848094
-4.801848	Action	-0.07848094
-4.801848	Adam	-0.07848094
-4.801848	Adaptive	-0.07848095
-4.801848	Addis	-0.07848094
-4.801848	Adler	-0.07848094
-4.499451	Administration	-0.07848093
-4.627525	Adressat	-0.07848094
-4.801848	Adventures	-0.07848094
-4.801848	Aerospace	-0.07848094
-4.352853	Affäre	-0.07848094
-4.243448	Afghanistan	-0.07848094
-4.083466	Afrika	-0.09155447
-4.801848	Afrikaner	-0.07848094
-4.801848	Afrikanische	-0.07848094
-4.627525	Afrikanischen	-0.07848094
-4.156132	Afrikas	-0.1213074
-3.799166	Agenda	-0.07848094
-4.801848	Agenten	-0.07848094
-4.627525	Agenturen	-0.07848094
-4.801848	Agglomerationsvorteile	-0.07848094
-4.627525	Aggression	-0.07848094
-4.801848	Agrarerfahrung	-0.07848094
-4.627525	Agrarindustrie	-0.07848094
-4.801848	Agrarpolitik	-0.07848094
-4.801848	Agrarwirtschaft	-0.07848094
-4.801848	Ahmadinedschad	-0.07848094
-4.801848	Ahmadinejad	-0.07848094
-4.801848	Ahmet	-0.07848094
-4.801848	Ahnung	-0.07848094
-4.801848	Airbus	-0.07848094
-4.499451	Akademiker	-0.1688237
-4.801848	Akademikergewerkschaft	-0.07848094
-4.801848	Akademikern	-0.07848094
-4.801848	Akio	-0.07848094
-4.801848	Akt	-0.07848094
-4.627525	Akte	-0.07848094
-4.801848	Akten	-0.07848094
-4.801848	Akteur	-0.07848094
-4.499451	Akteure	-0.07848095
-4.801848	Akteuren	-0.07848094
-4.499451	Aktien	-0.07848094
-4.801848	Aktienblase	-0.07848094
-4.801848	Aktieneinbrücke	-0.07848094
-4.801848	Aktienkurse	-0.07848094
-4.801848	Aktienmarktes	-0.07848094
-4.627525	Aktienmärkte	-0.07848094
-4.801848	Aktienmärkten	-0.07848094
-4.801848	Aktienpreisen	-0.07848094
-4.801848	Aktienwerten	-0.07848094
-4.499451	Aktion	-0.07848094
-4.083466	Aktionen	-0.07848094
-4.801848	Aktionsnetzwerken	-0.07848094
-4.801848	Aktionspläne	-0.07848094
-4.801848	Aktionstag	-0.07848094
-4.801848	Aktivamärkte	-0.07848094
-4.801848	Aktivierende	-0.07848094
-4.801848	Aktivismus	-0.07848094
-4.627525	Aktivisten	-0.07848094
-4.499451	Aktivität	-0.07848094
-3.734663	Aktivitäten	-0.1123976
-4.627525	Aktivposten	-0.07848094
-4.499451	Akzeptanz	-0.1688237
-4.801848	Akzeptanzraten	-0.07848094
-4.801848	Al	-0.07848094
-4.801848	Alan	-0.07848094
-4.801848	Alarm	-0.07848094
-4.801848	Alarmanlagen	-0.07848094
-4.801848	Alarmierender	-0.07848095
-4.801848	Alarmierung	-0.07848094
-4.627525	Albaner	-0.07848094
-4.499451	Albanien	-0.07848094
-4.801848	Albert	-0.07848094
-4.352853	Albtraum	-0.07848094
-4.801848	Alchemie	-0.07848094
-4.627525	Alchemisten	-0.07848094
-4.801848	Alesina	-0.07848094
-4.352853	Alex	-0.1304038
-4.801848	Alexander	-0.07848094
-4.801848	Alfred	-0.07848094
-4.499451	Algen	-0.144416
-4.801848	Algenwachstum	-0.07848094
-4.801848	Algerien	-0.07848094
-4.801848	Algorithmen	-0.07848094
-4.801848	Ali	-0.07848094
-4.801848	All	-0.07848094
-4.801848	Alleingang	-0.07848094
-4.801848	Alleingänge	-0.07848094
-4.801848	Alleingültigkeit	-0.07848094
-4.801848	Allererstes	-0.07848094
-4.801848	Allergie	-0.07848095
-4.801848	Allerweltsbegriff	-0.07848094
-4.801848	Allgemeinen	-0.07848094
-4.627525	Allgemeinheit	-0.07848094
-4.801848	Allheilmittel	-0.07848094
-4.021234	Allianz	-0.1635387
-4.801848	Allianzmitglieder	-0.07848094
-4.801848	Alliierten	-0.07848095
-4.801848	Alltag	-0.07848094
-4.801848	Allzeithoch	-0.07848094
-4.801848	Als	-0.07848094
-4.801848	Alt	-0.07848094
-4.801848	Alte	-0.07848094
-4.801848	Alternativ	-0.07848094
-3.835407	Alternative	-0.1647526
-3.966812	Alternativen	-0.174106
-4.801848	Alternativlösung	-0.07848094
-4.801848	Alzheimer	-0.07848094
-4.801848	Am	-0.07848093
-4.801848	Amartya	-0.07848094
-4.801848	Amateurvereins	-0.07848094
-4.627525	Amazon	-0.07848094
-4.156132	Ambitionen	-0.07848094
-4.801848	Amen	-0.07848094
-4.627525	America	-0.07848094
-4.627525	American	-0.07848094
-3.358048	Amerika	-0.1443891
-3.918457	Amerikaner	-0.07848094
-4.627525	Amerikanern	-0.07848094
-3.383991	Amerikas	-0.08395295
-4.243448	Amt	-0.1101984
-4.801848	Amtes	-0.07848094
-4.801848	Amtsantritt	-0.07848094
-4.801848	Amtseinführung	-0.07848094
-4.801848	Amtskollege	-0.07848094
-4.801848	Amtsmissbrauch	-0.07848094
-4.801848	Amtsträgern	-0.07848094
-4.801848	Amtsvorgänger	-0.07848094
-4.801848	Amtswechsel	-0.07848095
-4.156132	Amtszeit	-0.1635387
-4.801848	Anachronismus	-0.07848094
-4.801848	Analog	-0.07848095
-4.801848	Analogien	-0.07848094
-4.801848	Analogpräparat	-0.07848094
-4.801848	Analphabetismus	-0.07848094
-4.156132	Analyse	-0.07848094
-4.801848	Analyselabore	-0.07848094
-4.499451	Analysen	-0.07848094
-4.499451	Analysten	-0.07848094
-4.801848	Analytiker	-0.07848094
-4.801848	Anbaufläche	-0.07848094
-4.801848	Anbauflächen	-0.07848094
-4.801848	Anbaufähigkeit	-0.07848094
-4.801848	Anbausaison	-0.07848094
-4.801848	Anbetracht	-0.07848094
-4.801848	Anbindung	-0.07848094
-4.801848	Andauern	-0.07848094
-4.801848	Andengemeinschaft	-0.07848094
-4.801848	Andere	-0.07848094
-4.801848	Anderen	-0.07848094
-4.801848	Andernfalls	-0.07848094
-4.801848	Andersen	-0.07848094
-4.801848	Anderson	-0.07848094
-4.801848	Andeutungen	-0.07848094
-4.801848	Andrej	-0.07848094
-4.627525	Androhung	-0.07848094
-4.801848	Andropow	-0.07848094
-4.801848	André	-0.07848094
-4.801848	Anekdoten	-0.07848094
-3.966812	Anerkennung	-0.07848094
-3.799166	Anfang	-0.1169167
-4.801848	Anfangsphase	-0.07848094
-4.801848	Anforderung	-0.07848094
-4.627525	Anforderungen	-0.07848094
-4.801848	Anfälle	-0.07848094
-4.801848	Anfällen	-0.07848094
-4.352853	Anfälligkeit	-0.144416
-4.801848	Anfängen	-0.07848094
-4.499451	Anführer	-0.07848094
-4.801848	Angabe	-0.07848094
-4.352853	Angebot	-0.1149246
-4.801848	Angebotsreaktionen	-0.07848094
-4.801848	Angebotsseite	-0.07848094
-4.801848	Angebotsunsicherheit	-0.07848094
-4.801848	Angehörige	-0.07848094
-4.801848	Angehörigen	-0.07848094
-4.801848	Angeklagten	-0.07848094
-4.243448	Angela	-0.5258697
-4.156132	Angelegenheit	-0.154709
-4.243448	Angelegenheiten	-0.1149246
-4.801848	Angelika	-0.07848094
-4.801848	Angeloni	-0.07848094
-4.801848	Angelpunkt	-0.07848095
-4.801848	Angesichts	-0.07848094
-4.801848	Angestellte	-0.07848094
-4.801848	Angestellten	-0.07848095
-4.801848	Angreifern	-0.07848094
-4.156132	Angriff	-0.1347508
-4.352853	Angriffe	-0.1304039
-4.801848	Angriffs	-0.07848094
-3.765718	Angst	-0.1969373
-4.627525	Anhand	-0.07848094
-4.499451	Anhebung	-0.304021
-4.021234	Anhänger	-0.1036669
-4.627525	Anhörungen	-0.07848094
-4.801848	Anisotropie	-0.07848094
-4.801848	Anklagen	-0.07848095
-4.499451	Ankurbelung	-0.2357523
-4.801848	Ankäufe	-0.07848094
-4.801848	Ankündigung	-0.07848094
-4.801848	Anlagen	-0.07848094
-4.801848	Anlagenblasen	-0.07848095
-4.801848	Anlagensicherheit	-0.07848094
-4.627525	Anlagevolumen	-0.07848093
-4.499451	Anlass	-0.1688237
-4.801848	Anlaufstellen	-0.07848094
-4.627525	Anleger	-0.07848094
-4.801848	Anlehnung	-0.07848094
-4.627525	Anleihebesitzer	-0.07848094
-4.801848	Anleihegläubiger	-0.07848094
-4.627525	Anleihehalter	-0.07848094
-4.801848	Anleiheinhaber	-0.07848094
-4.627525	Anleiheinvestoren	-0.07848094
-4.801848	Anleihekäufe	-0.07848094
-3.734663	Anleihen	-0.1211678
-4.801848	Anleihengläubiger	-0.07848094
-4.801848	Anleiheninhaber	-0.07848095
-4.801848	Anleihenrückkauf	-0.07848094
-4.801848	Anleihepreise	-0.07848094
-4.801848	Anleiherenditen	-0.07848094
-4.801848	Anleiheverträgen	-0.07848094
-4.352853	Anliegen	-0.144416
-4.801848	Anna	-0.07848094
-4.499451	Annahme	-0.07848095
-4.801848	Annahmen	-0.07848094
-4.352853	Annan	-0.07848094
-4.801848	Annapolis	-0.07848094
-4.801848	Annehmlichkeit	-0.07848094
-4.801848	Annäherung	-0.07848094
-4.801848	Anomalie	-0.07848094
-4.801848	Anonymität	-0.07848094
-4.801848	Anordnungen	-0.07848094
-4.083466	Anpassung	-0.1612932
-4.627525	Anpassungen	-0.07848094
-4.627525	Anpassungs-	-0.07848094
-4.801848	Anpassungsfähigkeit	-0.07848094
-4.627525	Anpassungsmaßnahmen	-0.07848095
-4.801848	Anpassungsprogramm	-0.07848094
-4.801848	Anpassungsvorgang	-0.07848094
-4.499451	Anreicherung	-0.07848095
-4.801848	Anreicherungs-	-0.07848094
-4.801848	Anreicherungsanlagen	-0.07848094
-4.801848	Anreicherungsprogramms	-0.07848095
-4.156132	Anreiz	-0.07848094
-3.734663	Anreize	-0.1574856
-4.627525	Anreizen	-0.07848094
-4.801848	Anreizstruktur	-0.07848094
-4.801848	Anruf	-0.07848094
-4.801848	Ansammlung	-0.07848094
-3.678513	Ansatz	-0.1279273
-4.627525	Ansatzes	-0.07848094
-4.801848	Ansatzpunkt	-0.07848094
-4.801848	Anschaffung	-0.07848094
-4.627525	Anschlag	-0.2221849
-4.801848	Anschluss	-0.07848094
-4.627525	Anschläge	-0.07848094
-4.801848	Anschlägen	-0.07848095
-4.801848	Anschuldigungen	-0.07848095
-4.627525	Ansehen	-0.07848094
-3.799166	Ansicht	-0.1802392
-4.021234	Ansichten	-0.07848094
-4.243448	Anspruch	-0.1612932
-4.352853	Ansprüche	-0.07848094
-4.801848	Anstand	-0.07848094
-4.499451	Ansteckung	-0.07848094
-4.801848	Ansteckungsrisiko	-0.07848094
-4.801848	Anstellung	-0.07848094
-3.87495	Anstieg	-0.277482
-4.801848	Anstoß	-0.07848094
-4.627525	Anstrengung	-0.07848094
-3.765718	Anstrengungen	-0.2585452
-4.801848	Anstrich	-0.07848094
-4.627525	Ansturm	-0.2221849
-3.966812	Ansätze	-0.1365757
-4.499451	Ansätzen	-0.07848094
-3.652945	Anteil	-0.1907886
-4.801848	Anteile	-0.07848094
-4.801848	Anteilseigner	-0.07848094
-4.801848	Antenne	-0.07848094
-4.801848	Anthony	-0.07848094
-4.801848	Anti	-0.07848094
-4.801848	Antiamerikanismus	-0.07848095
-3.966812	Antidepressiva	-0.1213074
-4.801848	Antidepressivum	-0.07848094
-4.801848	Antikommunismus	-0.07848094
-4.801848	Antikommunisten	-0.07848094
-4.801848	Antisemiten	-0.07848095
-4.156132	Antisemitismus	-0.1065577
-4.801848	Antithese	-0.07848094
-4.801848	Antitrust	-0.07848094
-4.801848	Antizionismus	-0.07848094
-4.352853	Antrag	-0.1304038
-4.801848	Antrags	-0.07848094
-4.801848	Antriebskräfte	-0.07848094
-4.801848	Antrittsrede	-0.07848095
-4.801848	Anträge	-0.07848094
-3.765718	Antwort	-0.3506558
-4.021234	Antworten	-0.07848094
-4.801848	Anwachsen	-0.07848094
-4.801848	Anwalt	-0.07848094
-4.801848	Anweisungen	-0.07848094
-4.801848	Anwendbarkeit	-0.07848094
-4.352853	Anwenderberichte	-0.07848094
-4.627525	Anwendung	-0.07848094
-4.801848	Anwendungen	-0.07848094
-4.801848	Anwesenheit	-0.07848094
-4.801848	Anwälten	-0.07848094
-3.835407	Anzahl	-0.2276306
-4.156132	Anzeichen	-0.1213074
-4.627525	Anzeige	-0.07848094
-4.801848	Anziehung	-0.07848094
-4.801848	Anziehungskraft	-0.07848094
-4.801848	Apartheid	-0.07848094
-4.801848	Apartheidpolitik	-0.07848094
-4.801848	Apartheidstaat	-0.07848094
-4.801848	Apologet	-0.07848094
-4.499451	Appeasement	-0.07848094
-4.801848	Appell	-0.07848094
-4.801848	Appetit	-0.07848094
-4.801848	Applaus	-0.07848094
-4.499451	April	-0.1213074
-4.801848	Aquila	-0.07848095
-4.352853	Araber	-0.07848094
-4.627525	Arabien	-0.07848094
-4.801848	Arabiens	-0.07848094
-4.499451	Arabische	-0.07848094
-4.352853	Arabischen	-0.07848095
-3.584195	Arbeit	-0.1328825
-4.499451	Arbeiten	-0.07848094
-4.156132	Arbeiter	-0.07848096
-4.627525	Arbeitern	-0.07848094
-4.499451	Arbeiterpartei	-0.07848094
-4.627525	Arbeitgeber	-0.07848094
-4.801848	Arbeitgeberbeiträge	-0.07848094
-4.801848	Arbeitgeberleistungen	-0.07848094
-4.801848	Arbeitgebern	-0.07848094
-4.801848	Arbeitgeberverbände	-0.07848094
-4.352853	Arbeitnehmer	-0.07848094
-4.801848	Arbeitnehmern	-0.07848094
-4.801848	Arbeitsaufnahme	-0.07848094
-4.801848	Arbeitsbeschaffungsmaßnahmen	-0.07848094
-4.801848	Arbeitseinkommen	-0.07848094
-4.801848	Arbeitsgeschehen	-0.07848094
-4.801848	Arbeitsgruppe	-0.07848094
-4.801848	Arbeitskraft	-0.07848094
-4.156132	Arbeitskräfte	-0.1149246
-4.627525	Arbeitskräftemobilität	-0.07848094
-4.627525	Arbeitskräften	-0.07848094
-4.801848	Arbeitskämpfen	-0.07848094
-4.627525	Arbeitslosen	-0.07848094
-4.801848	Arbeitslosengeld	-0.07848094
-4.499451	Arbeitslosenquote	-0.07848094
-4.499451	Arbeitslosenrate	-0.07848094
-4.801848	Arbeitslosenunterstützung	-0.07848094
-4.801848	Arbeitslosenzahlen	-0.07848094
-3.765718	Arbeitslosigkeit	-0.2484424
-4.156132	Arbeitsmarkt	-0.07848094
-4.627525	Arbeitsmarktes	-0.07848094
-4.801848	Arbeitsmarktflexibilität	-0.07848094
-4.801848	Arbeitsmarktreformen	-0.07848094
-4.801848	Arbeitsmobilität	-0.07848095
-4.352853	Arbeitsmärkte	-0.07848094
-4.801848	Arbeitsmärkten	-0.07848094
-4.801848	Arbeitsplatzfluktuation	-0.07848094
-4.801848	Arbeitsplatzmangel	-0.07848094
-4.499451	Arbeitsplatzschaffung	-0.07848094
-4.801848	Arbeitsplatzschutz	-0.07848095
-4.801848	Arbeitsplatzvernichtung	-0.07848094
-3.765718	Arbeitsplätze	-0.1466554
-4.352853	Arbeitsplätzen	-0.07848094
-4.801848	Arbeitsrechts	-0.07848094
-4.801848	Arbeitsroutine	-0.07848095
-4.801848	Arbeitsteilung	-0.07848094
-4.801848	Arbeitsverhältnisse	-0.07848094
-4.801848	Arbeitsweisen	-0.07848094
-4.801848	Arbeitszeit	-0.07848094
-4.801848	Arbeitszeiten	-0.07848094
-4.801848	Architektur	-0.07848094
-4.801848	Archiv	-0.07848094
-4.499451	Argentinien	-0.07848094
-4.499451	Argument	-0.07848094
-4.499451	Argumentation	-0.07848094
-4.156132	Argumente	-0.1213074
-4.627525	Argwohn	-0.07848094
-4.627525	Ariel	-0.07848094
-4.801848	Arme	-0.07848094
-4.021234	Armee	-0.07848094
-4.801848	Armeen	-0.07848094
-4.499451	Armen	-0.07848094
-4.243448	Armenien	-0.07848094
-4.801848	Armeniens	-0.07848094
-3.765718	Armut	-0.2450603
-4.627525	Armutsbekämpfung	-0.07848094
-4.627525	Armutsfalle	-0.07848094
-4.801848	Arroganz	-0.07848094
-4.801848	Arrow	-0.07848094
-4.801848	Arsen	-0.07848094
-4.801848	Arsenal	-0.07848094
-4.801848	Arsenale	-0.07848094
-3.543748	Art	-0.2202359
-4.801848	Art.	-0.07848094
-4.243448	Arten	-0.199412
-4.801848	Artenvielfalt	-0.07848094
-4.627525	Arthur	-0.07848094
-4.156132	Artikel	-0.07848094
-4.627525	Artikeln	-0.07848094
-4.801848	Arzneien	-0.07848094
-4.801848	Arzt	-0.07848094
-4.083466	Asche	-0.2437183
-4.801848	Aserbaidschan	-0.07848094
-4.627525	Asiaten	-0.07848094
-4.156132	Asien	-0.1065577
-4.499451	Asiens	-0.07848094
-4.627525	Aso	-0.07848094
-4.083466	Aspekt	-0.1149246
-4.801848	Aspekte	-0.07848094
-4.801848	Aspekten	-0.07848094
-4.801848	Aspektes	-0.07848094
-4.801848	Aspekts	-0.07848094
-4.801848	Aspirationen	-0.07848094
-4.801848	Assoziierung	-0.07848095
-4.801848	Assoziierungsabkommen	-0.07848094
-4.801848	Assoziierungsstatus	-0.07848094
-4.801848	Asymmetrien	-0.07848094
-4.801848	Atatürk	-0.07848094
-4.801848	Atem	-0.07848094
-4.801848	Athen	-0.07848095
-4.801848	Atlanta	-0.07848094
-4.801848	Atlantiks	-0.07848094
-4.801848	Atlantis	-0.07848094
-4.352853	Atmosphäre	-0.07848094
-4.801848	Atom	-0.07848094
-4.801848	Atom-	-0.07848094
-4.801848	Atomambitionen	-0.07848095
-4.801848	Atomanlagen	-0.07848094
-4.801848	Atomarsenale	-0.07848094
-4.627525	Atombombe	-0.07848094
-4.801848	Atombomben	-0.07848094
-4.352853	Atomenergie	-0.07848094
-4.801848	Atomenergiebehörde	-0.07848094
-4.801848	Atomisierung	-0.07848094
-4.627525	Atomkatastrophe	-0.2221849
-4.627525	Atomkraft	-0.07848094
-4.801848	Atomkraftwerk	-0.07848094
-4.801848	Atomkrieges	-0.07848094
-4.627525	Atommacht	-0.07848095
-4.083466	Atommächte	-0.07848094
-4.801848	Atommächten	-0.07848094
-4.801848	Atommüll	-0.07848094
-4.801848	Atomoption	-0.07848094
-4.627525	Atomprogramm	-0.07848094
-4.801848	Atomprogrammen	-0.07848094
-4.801848	Atomreaktors	-0.07848094
-4.801848	Atomsicherheit	-0.07848094
-4.801848	Atomversuchen	-0.07848094
-4.801848	Atomwaffe	-0.07848094
-3.918457	Atomwaffen	-0.1127865
-4.627525	Atomwaffenarsenale	-0.07848094
-4.801848	Atomwaffenprogramm	-0.07848094
-4.499451	Atomwaffensperrvertrag	-0.07848094
-4.801848	Atomwaffensperrvertrages	-0.07848094
-4.627525	Atomwaffenstaaten	-0.07848094
-4.801848	Atomwissenschaftler	-0.07848094
-4.801848	Atomzeitalters	-0.07848094
-4.801848	Attraktivität	-0.07848095
-4.801848	Attribute	-0.07848094
-4.801848	Auf	-0.07848094
-4.801848	Auf-	-0.07848094
-4.801848	Aufatmen	-0.07848094
-4.156132	Aufbau	-0.1688237
-4.801848	Aufbaustudiengänge	-0.07848094
-4.801848	Aufbereitung	-0.07848094
-4.801848	Aufeinanderzugehen	-0.07848094
-4.499451	Auffassung	-0.07848094
-4.801848	Aufforderung	-0.07848094
-4.801848	Aufforstung	-0.07848094
-4.801848	Aufforstungsinitiative	-0.07848094
-4.801848	Auffrischung	-0.07848094
-3.87495	Aufgabe	-0.1269703
-4.156132	Aufgaben	-0.1767715
-4.801848	Aufhebens	-0.07848095
-4.801848	Aufhebung	-0.07848094
-4.627525	Aufkommen	-0.07848094
-4.801848	Aufladung	-0.07848094
-4.801848	Auflage	-0.07848094
-4.352853	Auflösung	-0.1994119
-4.801848	Aufmarsch	-0.07848095
-4.021234	Aufmerksamkeit	-0.09936649
-4.243448	Aufnahme	-0.144416
-4.801848	Aufnahmekriterien	-0.07848094
-4.801848	Aufpasser	-0.07848094
-4.627525	Aufrechterhaltung	-0.07848094
-4.801848	Aufregung	-0.07848094
-4.627525	Aufruf	-0.07848094
-4.801848	Aufruhr	-0.07848095
-4.801848	Aufräumaktion	-0.07848094
-4.801848	Aufrüstung	-0.07848094
-4.801848	Aufschlag	-0.07848094
-4.627525	Aufschub	-0.07848094
-4.021234	Aufschwung	-0.1550799
-4.801848	Aufschwungs	-0.07848095
-4.627525	Aufschwünge	-0.07848094
-4.499451	Aufsicht	-0.07848094
-4.801848	Aufsichts-	-0.07848094
-4.801848	Aufsichtsbeamte	-0.07848094
-4.627525	Aufsichtsbehörde	-0.07848094
-4.499451	Aufsichtsbehörden	-0.07848093
-4.801848	Aufsichtspersonen	-0.07848094
-4.801848	Aufstandes	-0.07848094
-4.801848	Aufstandsbewegungen	-0.07848094
-4.083466	Aufstieg	-0.1647526
-4.801848	Aufstiegs	-0.07848094
-4.801848	Aufstände	-0.07848094
-4.499451	Aufständischen	-0.07848094
-4.801848	Aufteilung	-0.07848094
-4.156132	Auftrag	-0.07848094
-4.801848	Auftragsbücher	-0.07848094
-4.801848	Auftragsmörder	-0.07848094
-4.627525	Auftreten	-0.07848094
-4.243448	Auftrieb	-0.1893883
-4.801848	Aufwand	-0.07848094
-4.801848	Aufwendungen	-0.07848094
-4.352853	Aufwertung	-0.1304038
-4.801848	Aufwind	-0.07848094
-4.801848	Aufwärmen	-0.07848094
-4.627525	Aufwärtstrend	-0.07848094
-4.801848	Aufwärtstrends	-0.07848094
-4.801848	Aufzug	-0.07848094
-4.801848	Auge	-0.07848094
-4.352853	Augen	-0.1304038
-4.801848	Augen.Doch	-0.07848094
-4.801848	Augenblick	-0.07848094
-4.801848	Augenhöhe	-0.07848094
-4.352853	Augenmerk	-0.2357523
-4.021234	August	-0.07848094
-4.499451	Aung	-0.304021
-4.801848	Aus	-0.07848094
-4.801848	Aus-	-0.07848094
-4.801848	Ausarbeitung	-0.07848095
-4.627525	Ausbau	-0.07848094
-4.801848	Ausbeutung	-0.07848094
-4.243448	Ausbildung	-0.07848094
-4.801848	Ausbildungskosten	-0.07848094
-4.801848	Ausbildungsmöglichkeiten	-0.07848094
-4.801848	Ausbildungsstiftung	-0.07848094
-4.801848	Ausbleiben	-0.07848094
-4.627525	Ausbleichen	-0.07848094
-4.801848	Ausbleichschwellen	-0.07848094
-4.627525	Ausbleichung	-0.07848094
-4.801848	Ausblick	-0.07848094
-4.627525	Ausbreitung	-0.07848094
-4.499451	Ausbruch	-0.07848094
-4.801848	Ausbruchs	-0.07848094
-4.801848	Ausbrüchen	-0.07848094
-4.627525	Ausdehnung	-0.2221849
-4.156132	Ausdruck	-0.1101984
-4.627525	Auseinanderbrechen	-0.07848094
-4.801848	Auseinanderfallen	-0.07848094
-4.352853	Auseinandersetzung	-0.144416
-4.801848	Auseinandersetzungen	-0.07848094
-4.801848	Auserwählten	-0.07848094
-4.801848	Ausfallrisiken	-0.07848094
-4.801848	Ausflug	-0.07848094
-4.801848	Ausfuhren	-0.07848094
-4.801848	Ausgabe	-0.07848094
-4.801848	Ausgabebegrenzung	-0.07848094
-4.801848	Ausgabemodalitäten	-0.07848094
-4.801848	Ausgabemöglichkeiten	-0.07848094
-3.799166	Ausgaben	-0.09311873
-4.801848	Ausgabenpläne	-0.07848095
-4.801848	Ausgabenpolitik	-0.07848094
-4.352853	Ausgabesenkungen	-0.144416
-4.801848	Ausgabeverringerungen	-0.07848094
-4.499451	Ausgang	-0.07848094
-4.801848	Ausgangsbedingungen	-0.07848094
-4.801848	Ausgangspunkt	-0.07848095
-4.801848	Ausgangswert	-0.07848094
-4.801848	Ausgeben	-0.07848094
-4.801848	Ausgestoßenen	-0.07848094
-4.801848	Ausgewogenheit	-0.07848094
-4.352853	Ausgleich	-0.07848094
-4.627525	Ausgleichsmechanismus	-0.2221849
-4.801848	Ausgleichszahlungen	-0.07848094
-4.801848	Ausgrabungen	-0.07848094
-4.801848	Aushandlung	-0.07848094
-4.801848	Aushöhlung	-0.07848094
-4.801848	Auskünfte	-0.07848094
-4.243448	Ausland	-0.07848094
-4.801848	Auslands	-0.07848094
-4.801848	Auslandshilfen	-0.07848094
-4.627525	Auslandsinvestitionen	-0.07848095
-4.801848	Auslandskredite	-0.07848094
-4.801848	Auslandsnachfrage	-0.07848094
-4.627525	Auslandsschulden	-0.07848094
-4.801848	Auslandsschuldenabbaus	-0.07848094
-4.801848	Auslandsschuldenquote	-0.07848094
-4.627525	Auslegung	-0.07848094
-4.627525	Ausländer	-0.07848094
-4.801848	Ausländern	-0.07848094
-4.801848	Auslöschung	-0.07848094
-4.801848	Auslöser	-0.07848094
-4.083466	Ausmaß	-0.07848094
-4.627525	Ausmaße	-0.2221849
-4.801848	Ausmaßen	-0.07848094
-4.627525	Ausmaßes	-0.07848093
-4.627525	Ausnahme	-0.07848094
-4.627525	Ausnahmen	-0.07848094
-4.801848	Ausnutzung	-0.07848094
-4.801848	Auspeitschung	-0.07848094
-4.801848	Ausreifen	-0.07848094
-4.801848	Ausreise	-0.07848095
-4.801848	Ausreisegenehmigung	-0.07848094
-4.801848	Ausreisegenehmigungen	-0.07848094
-4.801848	Ausreißer	-0.07848094
-4.627525	Ausrichtung	-0.07848094
-4.627525	Ausrüstung	-0.07848094
-4.243448	Aussage	-0.07848094
-4.801848	Aussagen	-0.07848094
-4.627525	Ausschlag	-0.07848094
-4.801848	Ausschluss	-0.07848094
-4.627525	Ausschuss	-0.07848094
-4.801848	Ausschusses	-0.07848094
-4.801848	Ausschüsse	-0.07848094
-4.801848	Ausschüttungen	-0.07848094
-4.801848	Aussetzung	-0.07848095
-4.352853	Aussicht	-0.2357523
-4.352853	Aussichten	-0.07848094
-4.801848	Ausspruch	-0.07848094
-4.801848	Ausstattung	-0.07848094
-4.499451	Ausstoß	-0.07848094
-4.801848	Ausstoßes	-0.07848095
-4.801848	Ausstoßreduktionen	-0.07848094
-4.499451	Aussöhnung	-0.07848094
-4.083466	Austausch	-0.1688237
-4.801848	Austauschs	-0.07848094
-4.352853	Australien	-0.1304038
-4.801848	Austritt	-0.07848094
-4.801848	Ausverkauf	-0.07848094
-4.499451	Auswahl	-0.07848095
-4.627525	Auswahlverfahren	-0.07848095
-4.352853	Ausweg	-0.144416
-4.801848	Ausweis	-0.07848094
-4.801848	Ausweises	-0.07848094
-4.801848	Ausweisung	-0.07848094
-4.627525	Ausweitung	-0.2221849
-4.499451	Auswirkung	-0.07848095
-3.489369	Auswirkungen	-0.342473
-4.801848	Auswärtige	-0.07848094
-4.801848	Auszahlungen	-0.07848094
-4.801848	Auszeichnung	-0.07848094
-4.801848	Auszeichnung.Durch	-0.07848094
-4.801848	Ausübung	-0.07848094
-4.801848	Authority	-0.07848094
-4.627525	Auto	-0.07848094
-4.801848	Autobahnen	-0.07848095
-4.801848	Autokratien	-0.07848094
-4.801848	Automobilindustrie	-0.07848094
-4.627525	Autonomie	-0.07848093
-4.627525	Autor	-0.07848094
-4.801848	Autoren	-0.07848094
-4.801848	Autorin	-0.07848094
-4.801848	Autoritarismus	-0.07848094
-4.083466	Autorität	-0.07848095
-4.801848	Autors	-0.07848094
-4.801848	Außen	-0.07848094
-4.156132	Außen-	-0.4787903
-4.801848	Außenbeiträge	-0.07848094
-4.801848	Außengrenze	-0.07848094
-4.801848	Außenhandel	-0.07848094
-3.918457	Außenminister	-0.07848094
-4.627525	Außenministerin	-0.2221849
-4.801848	Außenministeriums	-0.07848094
-3.705681	Außenpolitik	-0.1451422
-4.801848	Außenpolitiker	-0.07848094
-4.801848	Außenposten	-0.07848094
-4.801848	Außenseiter	-0.07848095
-4.801848	Außenstehende	-0.07848094
-4.627525	Außenwelt	-0.07848094
-4.801848	Außergewöhnliche	-0.07848094
-4.627525	Aversion	-0.07848093
-4.627525	Awe	-0.07848094
-4.801848	Ayatollah	-0.07848094
-4.499451	B	-0.07848094
-4.801848	B.	-0.07848094
-4.627525	BBC	-0.07848094
-4.499451	BCS	-0.07848094
-4.801848	BERKELEY	-0.07848094
-4.801848	BID	-0.07848094
-3.605924	BIP	-0.1390537
-4.801848	BP	-0.07848094
-4.801848	BRUNSWICK	-0.07848094
-4.801848	BUENOS	-0.07848094
-4.801848	Ba	-0.07848094
-4.627525	Baby	-0.07848094
-4.801848	Babylon	-0.07848094
-4.801848	Back	-0.07848094
-4.801848	Bade	-0.07848094
-4.801848	Bagdad	-0.07848094
-4.801848	Bagdads	-0.07848094
-4.627525	Bahnen	-0.07848094
-4.801848	Bahnverbindung	-0.07848094
-4.801848	Bahr	-0.07848094
-4.801848	Bahrain	-0.07848094
-4.801848	Bahrains	-0.07848094
-4.801848	Baikonur	-0.07848094
-4.801848	Bailout	-0.07848094
-4.801848	Bak	-0.07848094
-4.801848	Balance	-0.07848094
-4.499451	Balassa	-0.304021
-4.801848	Baldassarri	-0.07848094
-4.352853	Balkan	-0.1065577
-4.627525	Balkanländer	-0.07848094
-4.801848	Balkans	-0.07848094
-4.801848	Balsam	-0.07848094
-4.243448	Ban	-0.1304038
-4.801848	Banco	-0.07848094
-4.801848	Bangladesch	-0.07848094
-4.801848	Bangladeschs	-0.07848094
-3.87495	Bank	-0.1374904
-4.801848	Bank-	-0.07848094
-4.801848	Bankaufsichtsbehörde	-0.07848095
-4.801848	Bankchefs	-0.07848094
-3.489369	Banken	-0.1269272
-4.801848	Bankenanleihen	-0.07848094
-4.627525	Bankenaufsicht	-0.07848094
-4.627525	Bankenaufsichtsbehörde	-0.07848094
-4.801848	Bankengläubigern	-0.07848094
-4.801848	Bankengruppen	-0.07848094
-4.627525	Bankenkrise	-0.07848094
-4.801848	Bankenrettung	-0.07848094
-4.801848	Bankenrettungsfonds	-0.07848094
-4.801848	Bankenrisiken	-0.07848094
-4.801848	Bankensektors	-0.07848094
-4.801848	Bankensystem	-0.07848094
-4.801848	Bankensystemen	-0.07848094
-4.352853	Bankensystems	-0.07848094
-4.801848	Bankenunion	-0.07848094
-4.352853	Banker	-0.07848094
-4.801848	Bankexperten	-0.07848094
-4.627525	Bankguthaben	-0.07848094
-4.627525	Bankkredite	-0.07848093
-4.499451	Bankrott	-0.07848094
-4.801848	Bankrotts	-0.07848094
-4.801848	Bankruns	-0.07848094
-4.801848	Banksektor	-0.07848094
-4.801848	Bankwesens	-0.07848094
-4.801848	Bantustans	-0.07848094
-4.801848	Bar	-0.07848094
-4.352853	Barack	-0.3326623
-4.801848	Baradei	-0.07848094
-4.801848	Barak	-0.07848095
-4.801848	Bardeen	-0.07848094
-4.801848	Bargeld	-0.07848094
-4.801848	Barrel	-0.07848094
-4.801848	Barrier	-0.07848094
-4.801848	Barrieren	-0.07848094
-4.801848	Barroso	-0.07848094
-3.799166	Basis	-0.1151728
-4.801848	Basismaterial	-0.07848094
-4.801848	Basken	-0.07848094
-4.801848	Basketball	-0.07848094
-4.801848	Basketballtrainer	-0.07848094
-4.499451	Bau	-0.07848094
-4.801848	Bau-	-0.07848094
-4.801848	Bauarbeiten	-0.07848094
-3.734663	Bauern	-0.104562
-4.801848	Bauernfamilie	-0.07848094
-4.499451	Bauernfamilien	-0.07848095
-4.801848	Bauernfrauen	-0.07848094
-4.801848	Baugewerbe	-0.07848094
-4.801848	Bautätigkeit	-0.07848095
-4.801848	Bauverordnung	-0.07848094
-4.627525	Bauwesen	-0.07848094
-4.801848	Bay	-0.07848094
-4.801848	Bayern	-0.07848094
-4.801848	Bayerns	-0.07848094
-4.801848	Be	-0.07848094
-4.801848	Beachtung	-0.07848094
-4.801848	Beamte	-0.07848094
-4.352853	Beamten	-0.07848094
-4.801848	Beaufsichtigung	-0.07848094
-4.801848	Beauftragte	-0.07848095
-4.801848	Beauftragten	-0.07848094
-4.801848	Beckett	-0.07848094
-4.627525	Bedarf	-0.07848094
-4.801848	Bedarfserhebung	-0.07848094
-4.801848	Bedauerlicherweise	-0.07848093
-4.083466	Bedenken	-0.1101984
-3.563501	Bedeutung	-0.2543074
-4.801848	Bedeutungsspektrums	-0.07848094
-4.801848	Bedienung	-0.07848095
-4.801848	Bedingung	-0.07848094
-3.835407	Bedingungen	-0.07848094
-4.801848	Bedinungen	-0.07848094
-4.801848	Bedrohten	-0.07848094
-3.966812	Bedrohung	-0.1928685
-4.499451	Bedrohungen	-0.07848095
-4.627525	Bedrängnis	-0.07848094
-4.801848	Bedächtigkeit	-0.07848094
-4.801848	Bedürfnis	-0.07848094
-4.156132	Bedürfnisse	-0.1612932
-4.801848	Bedürfnissen	-0.07848094
-4.801848	Bedürftigen	-0.07848094
-4.801848	Beeinflussung	-0.07848094
-4.499451	Beendigung	-0.144416
-4.801848	Beerdigung	-0.07848094
-4.801848	Befehlshaber	-0.07848094
-4.801848	Befindlichkeit	-0.07848094
-4.801848	Befindlichkeiten	-0.07848095
-4.801848	Beflügelt	-0.07848094
-4.627525	Befragung	-0.07848095
-4.627525	Befragungen	-0.2221849
-4.801848	Befreier	-0.07848094
-4.499451	Befreiung	-0.07848095
-4.801848	Befreiungsversuche	-0.07848095
-4.801848	Befriedung	-0.07848094
-4.801848	Befugnis	-0.07848094
-4.352853	Befugnisse	-0.07848094
-4.801848	Befugnissen	-0.07848094
-4.801848	Befürchtung	-0.07848094
-4.243448	Befürchtungen	-0.07848094
-4.352853	Befürworter	-0.07848094
-4.801848	Befürwortern	-0.07848094
-4.801848	Begabung	-0.07848094
-4.499451	Begeisterung	-0.07848094
-4.801848	Beggar	-0.07848094
-4.627525	Begin	-0.2221849
-4.083466	Beginn	-0.2198635
-4.801848	Begleiter	-0.07848094
-4.801848	Begleitzettel	-0.07848094
-4.801848	Begleitzetteln	-0.07848094
-4.627525	Begrenzung	-0.07848094
-4.156132	Begriff	-0.1876875
-4.801848	Begriffen	-0.07848094
-4.801848	Begriffs	-0.07848094
-4.627525	Begründung	-0.07848095
-4.801848	Begünstigten	-0.07848094
-4.083466	Behandlung	-0.1414779
-4.801848	Behandlungsmethoden	-0.07848094
-4.801848	Beharren	-0.07848094
-4.352853	Behauptung	-0.07848094
-4.801848	Behauptungen	-0.07848094
-4.801848	Behebung	-0.07848094
-4.801848	Behind	-0.07848094
-4.801848	Behinderte	-0.07848094
-4.801848	Behinderung	-0.07848094
-4.243448	Behörde	-0.07848094
-3.678513	Behörden	-0.1269844
-4.801848	Beibehaltung	-0.07848094
-4.627525	Beilegung	-0.07848094
-4.801848	Beiprodukt	-0.07848094
-4.801848	Beirut	-0.07848094
-3.584195	Beispiel	-0.1138699
-4.243448	Beispiele	-0.1304038
-4.627525	Beispielen	-0.07848094
-4.801848	Beispielhaft	-0.07848094
-4.801848	Beispielsfälle	-0.07848095
-3.835407	Beitrag	-0.1990398
-3.835407	Beitritt	-0.2022371
-4.627525	Beitritts	-0.07848094
-4.801848	Beitrittserklärung	-0.07848094
-4.801848	Beitrittsgespräche	-0.07848094
-4.627525	Beitrittskandidaten	-0.07848094
-4.801848	Beitrittsländer	-0.07848094
-4.499451	Beitrittsländern	-0.07848094
-4.627525	Beiträge	-0.1688237
-4.801848	Bekannte	-0.07848094
-4.801848	Bekanntgabe	-0.07848094
-4.801848	Bekanntheit	-0.07848094
-4.627525	Bekenntnis	-0.07848094
-4.627525	Bekämpfung	-0.1985088
-4.801848	Belagerungsmentalität	-0.07848094
-4.801848	Belange	-0.07848094
-4.801848	Belastung	-0.07848094
-4.627525	Belastungen	-0.07848094
-4.801848	Belastungsgrenze	-0.07848095
-4.801848	Beleg	-0.07848094
-4.801848	Belegen	-0.07848094
-4.801848	Beleghintergrund	-0.07848094
-4.627525	Belgien	-0.1688237
-4.801848	Belgiens	-0.07848094
-4.801848	Belieben	-0.07848094
-4.627525	Beliebtheit	-0.07848094
-4.801848	Belt	-0.07848094
-4.801848	Bemerkung	-0.07848094
-4.801848	Bemerkungen	-0.07848094
-4.801848	Bemühen	-0.07848095
-4.801848	Bemühens	-0.07848094
-4.627525	Bemühung	-0.2221849
-3.426065	Bemühungen	-0.2500857
-4.499451	Ben	-0.07848094
-4.801848	Benchmark	-0.07848094
-4.801848	Benedict	-0.07848094
-4.801848	Benehmen	-0.07848094
-4.801848	Benehmens	-0.07848094
-4.801848	Benjamin	-0.07848094
-4.627525	Benutzer	-0.07848094
-4.801848	Benzin	-0.07848094
-4.499451	Beobachter	-0.07848094
-4.627525	Beobachtern	-0.07848094
-4.801848	Beobachtungsteams	-0.07848094
-4.801848	Bequemlichkeiten	-0.07848094
-4.801848	Berater	-0.07848094
-4.627525	Beratung	-0.07848094
-4.801848	Beratungsausschuss	-0.07848094
-4.499451	Beratungsgremien	-0.07848094
-4.801848	Berechenbarkeit	-0.07848094
-3.835407	Bereich	-0.09772376
-3.918457	Bereiche	-0.1588954
-3.799166	Bereichen	-0.08974838
-4.352853	Bereitschaft	-0.1149246
-4.627525	Bereitstellung	-0.07848094
-4.801848	Beresowsky	-0.07848094
-4.627525	Bergbau	-0.07848094
-4.499451	Bergbauunternehmen	-0.1444161
-4.801848	Bergbauunternehmern	-0.07848094
-4.801848	Bergen	-0.07848094
-4.801848	Bergsteiger	-0.07848094
-4.801848	Bergstraße	-0.07848094
-4.021234	Bericht	-0.1481546
-4.243448	Berichte	-0.1304038
-4.627525	Berichten	-0.1688237
-4.352853	Berichterstattung	-0.07848094
-4.243448	Berlin	-0.1149246
-4.499451	Berliner	-0.1688237
-4.801848	Berlus	-0.07848094
-4.083466	Berlusconi	-0.2057976
-4.499451	Berlusconis	-0.07848094
-4.801848	Berman	-0.07848094
-4.801848	Bernake	-0.07848094
-4.801848	Bernard	-0.07848094
-4.499451	Bernie	-0.1688237
-4.801848	Bertrand	-0.07848094
-4.801848	Berufe	-0.07848094
-4.801848	Berufen	-0.07848095
-4.801848	Berufsförderungsprogrammen	-0.07848094
-4.801848	Berufsvereinigungen	-0.07848094
-4.801848	Berufswünsche	-0.07848094
-4.801848	Berufszweig	-0.07848095
-4.801848	Berufung	-0.07848094
-4.801848	Beruhigung	-0.07848094
-4.801848	Beruhigungsmittel	-0.07848094
-4.801848	Berühmtheit	-0.07848095
-4.499451	Besatzer	-0.07848094
-4.801848	Besatzern	-0.07848094
-4.499451	Besatzung	-0.07848094
-4.801848	Besatzungsmacht	-0.07848094
-4.801848	Besatzungsmächte	-0.07848094
-4.627525	Beschaffenheit	-0.07848094
-4.627525	Beschleunigung	-0.07848094
-4.801848	Beschlüsse	-0.07848094
-4.801848	Beschneidung	-0.07848094
-4.627525	Beschreibung	-0.07848094
-4.352853	Beschränkung	-0.1304038
-3.966812	Beschränkungen	-0.1036669
-4.801848	Beschuss	-0.07848094
-4.801848	Beschwerden	-0.07848094
-4.627525	Beschädigung	-0.07848095
-4.156132	Beschäftigung	-0.07848094
-4.801848	Beschäftigungsentwicklung	-0.07848095
-4.801848	Beschäftigungslage	-0.07848094
-4.801848	Beschäftigungsquote	-0.07848095
-4.801848	Beschäftigungsrückgang	-0.07848094
-4.801848	Beschäftigungssicherheit	-0.07848094
-4.801848	Beschäftigungsstrategie	-0.07848094
-4.801848	Beschäftigungsverhältnisse	-0.07848095
-4.801848	Beschäftigungszahlen	-0.07848094
-4.499451	Beseitigung	-0.07848094
-4.627525	Besessenheit	-0.07848095
-4.499451	Besetzung	-0.07848095
-4.801848	Besinnung	-0.07848094
-4.352853	Besitz	-0.1304038
-4.801848	Besitzgier	-0.07848094
-4.083466	Besorgnis	-0.07848094
-4.801848	Besseres	-0.07848094
-4.156132	Bestand	-0.154709
-4.801848	Bestandes	-0.07848095
-4.083466	Bestandteil	-0.1876875
-4.156132	Bestandteile	-0.07848094
-4.801848	Beste	-0.07848094
-4.801848	Besten	-0.07848094
-4.627525	Bestimmung	-0.07848094
-4.352853	Bestimmungen	-0.07848094
-4.499451	Bestrafung	-0.07848095
-4.801848	Bestrahlungstherapie	-0.07848094
-4.801848	Bestreben	-0.07848095
-4.801848	Bestrebens	-0.07848094
-4.499451	Bestrebungen	-0.07848094
-4.627525	Bestände	-0.07848094
-4.801848	Bestätigung	-0.07848094
-4.801848	Bestürzung	-0.07848094
-3.705681	Besuch	-0.1598812
-4.352853	Besuche	-0.07848094
-4.499451	Besuchen	-0.07848095
-4.801848	Besucher	-0.07848094
-4.801848	Besuchs	-0.07848094
-4.627525	Beteiligten	-0.07848094
-4.352853	Beteiligung	-0.144416
-4.801848	Betens	-0.07848094
-4.243448	Betonung	-0.07848094
-4.801848	Betracht	-0.07848094
-4.627525	Betrag	-0.07848094
-4.801848	Betrags	-0.07848094
-4.801848	Betreiber	-0.07848094
-4.627525	Betriebe	-0.07848094
-4.801848	Betrieben	-0.07848094
-4.801848	Betriebszahlen	-0.07848094
-4.801848	Betrug	-0.07848094
-4.801848	Betrugs	-0.07848095
-4.801848	Betrüger	-0.07848094
-4.627525	Bett	-0.07848094
-4.801848	Betuchten	-0.07848094
-4.352853	Beurteilung	-0.07848094
-4.801848	Beurteilungskriterien	-0.07848094
-4.627525	Beutetiere	-0.07848094
-4.801848	Beutetieren	-0.07848094
-3.918457	Bevölkerung	-0.09405018
-4.801848	Bevölkerungen	-0.07848094
-4.801848	Bevölkerungsanteil	-0.07848094
-4.499451	Bevölkerungsmehrheit	-0.144416
-4.801848	Bevölkerungsschicht	-0.07848094
-4.801848	Bevölkerungswachstum	-0.07848094
-4.627525	Bevölkerungszahl	-0.07848094
-4.801848	Bewaffnung	-0.07848094
-4.801848	Bewahrer	-0.07848094
-4.801848	Bewahrung	-0.07848094
-4.156132	Bewegung	-0.1149246
-4.352853	Bewegungen	-0.07848094
-4.801848	Bewegungsfreiheit	-0.07848094
-4.801848	Bewegungsspielraum	-0.07848094
-4.083466	Beweis	-0.2057976
-4.156132	Beweise	-0.1213074
-4.627525	Beweisen	-0.07848094
-4.801848	Beweisführungsrichtlinien	-0.07848094
-4.352853	Bewertung	-0.07848094
-4.801848	Bewertungsabschläge	-0.07848094
-4.499451	Bewunderung	-0.1688237
-4.352853	Bewusstsein	-0.07848094
-4.499451	Bewältigung	-0.1304038
-4.801848	Bewässerung	-0.07848094
-4.801848	Bewässerungsanlagen	-0.07848094
-4.801848	Bewässerungsmethoden	-0.07848094
-4.352853	Bewässerungssysteme	-0.07848095
-4.801848	Bewässerungssystemen	-0.07848095
-4.801848	Bezeichnung	-0.07848094
-3.799166	Beziehung	-0.2305165
-3.441047	Beziehungen	-0.2969731
-4.801848	Beziehungsdynamik	-0.07848094
-4.801848	Beziehungsgeflecht	-0.07848094
-4.801848	Bezos	-0.07848094
-4.627525	Bezug	-0.2221849
-4.801848	Bezüge	-0.07848094
-4.627525	Biden	-0.07848094
-4.352853	Bilanzen	-0.07848094
-4.801848	Bilanzfälschungen	-0.07848094
-4.801848	Bilanzrezession	-0.07848094
-4.801848	Bilanzrichtlinien	-0.07848095
-4.352853	Bild	-0.07848094
-4.801848	Bilderberg	-0.07848094
-4.801848	Bildern	-0.07848094
-4.801848	Bildt	-0.07848094
-3.705681	Bildung	-0.2612562
-4.801848	Bildungsanstalten	-0.07848094
-4.801848	Bildungsmöglichkeiten	-0.07848094
-4.801848	Bildungspolitik	-0.07848094
-4.801848	Bildungsschicht	-0.07848094
-4.801848	Bildungssystem	-0.07848094
-4.627525	Bill	-0.2221849
-4.352853	Billion	-0.4289597
-4.243448	Billionen	-0.1994119
-4.801848	Billions	-0.07848095
-4.801848	Bindekräfte	-0.07848094
-4.801848	Bindung	-0.07848094
-4.801848	Bindungen	-0.07848094
-4.801848	Binnenkonsum	-0.07848094
-4.243448	Binnenmarkt	-0.07848094
-4.801848	Binnenmarktes	-0.07848094
-4.801848	Binnennachfrage	-0.07848094
-4.801848	Bio	-0.07848094
-4.627525	Biochemie	-0.07848095
-4.627525	Biodiversität	-0.07848094
-4.627525	Biokraftstoffe	-0.07848094
-4.627525	Bipolarität	-0.07848094
-4.083466	Birma	-0.07848094
-4.801848	Birmas	-0.07848094
-4.801848	Birol	-0.07848094
-4.801848	Bis	-0.07848094
-4.801848	Bisignani	-0.07848094
-4.801848	Bisschen	-0.07848094
-4.801848	Bitte	-0.07848094
-4.801848	Blackbox	-0.07848094
-4.801848	Blagden	-0.07848094
-4.627525	Blair	-0.1101984
-4.627525	Blairs	-0.07848094
-4.499451	Blase	-0.07848094
-4.801848	Blatt	-0.07848094
-4.801848	Bleichschäden	-0.07848094
-4.083466	Blick	-0.1065577
-4.801848	Blickpunkt	-0.07848094
-4.801848	Blinddarm	-0.07848094
-4.627525	Bling	-0.2221849
-4.801848	Block	-0.07848095
-4.243448	Blockade	-0.07848094
-4.801848	Blocks	-0.07848094
-4.801848	Blog	-0.07848094
-4.801848	Blue	-0.07848094
-4.801848	Blumenzüchter	-0.07848094
-4.801848	Blut	-0.07848094
-4.801848	Blutvergießen	-0.07848093
-4.801848	Blöcken	-0.07848094
-4.801848	Bob	-0.07848094
-4.801848	Bockshorn	-0.07848094
-4.083466	Boden	-0.1036669
-4.352853	Bodennutzung	-0.07848095
-4.801848	Bodennutzungspolitik	-0.07848094
-4.801848	Bodennährstoffe	-0.07848094
-4.801848	Bodenschatzvorkommen	-0.07848094
-4.801848	Bodenschichten	-0.07848094
-4.499451	Bodenschätze	-0.07848094
-4.801848	Bodenschätzen	-0.07848094
-4.801848	Bodentruppen	-0.07848095
-4.801848	Bogens	-0.07848094
-4.801848	Bogotá	-0.07848094
-4.801848	Bohraktivitäten	-0.07848094
-4.243448	Bollywood	-0.199412
-4.352853	Bombardierung	-0.07848094
-4.499451	Bombe	-0.07848094
-4.801848	Bomben	-0.07848094
-4.801848	Bombenanschlag	-0.07848094
-4.801848	Bombenanschläge	-0.07848094
-4.801848	Bombenholocaust	-0.07848094
-4.801848	Boni	-0.07848094
-4.801848	Bonusrunde	-0.07848094
-4.352853	Boom	-0.1304038
-4.801848	Boot	-0.07848094
-4.801848	Boote	-0.07848094
-4.801848	Booth	-0.07848094
-4.801848	Bor	-0.07848094
-4.801848	Bord	-0.07848094
-4.801848	Borderline	-0.07848094
-4.499451	Boris	-0.1688237
-4.499451	Bosnien	-0.199412
-4.021234	Botschaft	-0.1304038
-4.801848	Botschaften	-0.07848094
-4.801848	Boulevardzeitungen	-0.07848094
-4.243448	Boykott	-0.07848094
-4.627525	Boykotts	-0.07848094
-4.801848	Branche	-0.07848094
-4.801848	Branchenverband	-0.07848094
-4.801848	Brandt	-0.07848094
-3.678513	Brasilien	-0.2208986
-4.627525	Brasiliens	-0.07848094
-4.801848	Braut	-0.07848094
-4.801848	Breakthrough	-0.07848094
-4.801848	Breitenwirkung	-0.07848094
-4.801848	Breitseite	-0.07848094
-4.801848	Bremse	-0.07848094
-4.801848	Bremsen	-0.07848094
-4.801848	Bremspedal	-0.07848094
-4.627525	Brennstoff	-0.07848094
-4.156132	Brennstoffe	-0.1065577
-4.627525	Brennstoffen	-0.07848094
-4.627525	Brennstoffkreislaufs	-0.2221849
-4.801848	Breschnew	-0.07848094
-4.801848	Brief	-0.07848094
-4.801848	Brillanz	-0.07848094
-4.801848	Brille	-0.07848094
-4.801848	Brin	-0.07848094
-4.499451	Briten	-0.07848094
-4.801848	British	-0.07848094
-4.801848	Bromide	-0.07848094
-4.627525	Brothers	-0.07848094
-4.627525	Brown	-0.07848094
-4.021234	Bruch	-0.2469461
-4.801848	Bruchteil	-0.07848094
-4.627525	Bruder	-0.07848095
-4.801848	Bruderschaft	-0.07848094
-4.627525	Bruni	-0.07848094
-4.801848	Brunis	-0.07848094
-4.627525	Brunnen	-0.2221849
-4.627525	Brustamputation	-0.07848094
-4.627525	Brutalität	-0.07848094
-4.352853	Brücke	-0.2357523
-4.627525	Brüder	-0.07848094
-4.801848	Brüderlichkeit	-0.07848094
-4.801848	Brünette	-0.07848094
-4.627525	Brüssel	-0.07848094
-4.801848	Brüssels	-0.07848094
-4.156132	Buch	-0.07848094
-4.627525	Buches	-0.07848094
-4.801848	Buchführung	-0.07848094
-4.801848	Buchführungsnormen	-0.07848094
-4.627525	Buchhaltung	-0.07848094
-4.801848	Buchhaltungsnormenausschusses	-0.07848094
-4.627525	Budapest	-0.07848094
-4.627525	Budget	-0.07848094
-4.801848	Budgetdefizite	-0.07848094
-4.801848	Budgetforderungen	-0.07848094
-4.499451	Budgets	-0.07848095
-4.801848	Budgetschätzungen	-0.07848094
-4.352853	Bulgarien	-0.07848094
-4.801848	Bunde	-0.07848094
-4.801848	Bundes	-0.07848094
-4.627525	Bundesausgaben	-0.07848094
-4.801848	Bundesbank	-0.07848094
-4.801848	Bundesbehörden	-0.07848094
-4.801848	Bundeshaushalt	-0.07848095
-4.801848	Bundeshaushalts	-0.07848095
-4.627525	Bundeskanzler	-0.07848094
-4.801848	Bundeskanzlerin	-0.07848094
-4.627525	Bundesregierung	-0.07848094
-4.627525	Bundesstaaten	-0.07848094
-4.801848	Bundesstaats	-0.07848094
-4.801848	Bundestag	-0.07848094
-4.627525	Bundestagswahlen	-0.07848094
-4.801848	Bundesversammlung	-0.07848094
-4.627525	Burgess	-0.07848094
-4.627525	Burundi	-0.2221849
-3.87495	Bush	-0.1168296
-4.801848	Bushehr	-0.07848095
-4.243448	Bushs	-0.07848094
-4.801848	Business	-0.07848094
-4.801848	Bussen	-0.07848094
-4.627525	Bäume	-0.07848094
-4.627525	Böden	-0.07848094
-4.627525	Börse	-0.07848094
-4.499451	Börsen	-0.07848094
-4.801848	Böse	-0.07848094
-4.801848	Bösen	-0.07848094
-4.627525	Böses	-0.07848094
-4.499451	Büchern	-0.07848094
-4.352853	Bühne	-0.07848094
-4.627525	Bündnis	-0.07848095
-4.801848	Bündnispartner	-0.07848094
-4.627525	Bündnisse	-0.07848094
-4.801848	Bündnissen	-0.07848094
-3.524855	Bürger	-0.1400566
-4.801848	Bürgerbewegungen	-0.07848094
-4.801848	Bürgergesellschaft	-0.07848094
-4.801848	Bürgerkrieg	-0.07848094
-4.499451	Bürgerkriegs	-0.07848094
-4.156132	Bürgern	-0.1013159
-4.801848	Bürgerproteste	-0.07848094
-4.352853	Bürgerrechte	-0.07848094
-4.801848	Bürgerrechtsinitiativen	-0.07848094
-4.627525	Bürgschaften	-0.07848094
-4.801848	Büro	-0.07848094
-4.156132	Bürokraten	-0.07848094
-4.243448	Bürokratie	-0.144416
-4.801848	Bürokratien	-0.07848094
-4.801848	Büros	-0.07848094
-4.801848	C	-0.07848095
-4.627525	CBO	-0.07848094
-4.801848	CCC	-0.07848094
-4.499451	CDS	-0.07848094
-4.499451	CDU	-0.144416
-4.801848	CEC5	-0.07848094
-4.801848	CEPR	-0.07848094
-4.801848	CFA	-0.07848094
-4.801848	CFE	-0.07848094
-4.243448	CFLs	-0.07848094
-4.801848	CNN	-0.07848094
-3.605924	CO2	-0.6086739
-4.801848	COMECON	-0.07848094
-4.801848	COP	-0.07848094
-4.627525	CPA	-0.07848094
-4.627525	CSU	-0.07848094
-4.499451	CTBT	-0.07848094
-4.801848	CUT	-0.07848094
-4.801848	Cali	-0.07848094
-4.801848	California	-0.07848094
-4.499451	Cambridge	-0.1213074
-4.627525	Can	-0.07848094
-4.801848	Cancun	-0.07848094
-4.801848	Cannes	-0.07848095
-4.801848	Canterbury	-0.07848094
-4.801848	Capitol	-0.07848094
-4.243448	Carl	-0.1304038
-4.801848	Carla	-0.07848094
-4.801848	Carlos	-0.07848094
-4.352853	Carmen	-0.144416
-4.801848	Carter	-0.07848094
-4.801848	Ceausescu	-0.07848094
-4.801848	Ceausescus	-0.07848094
-4.801848	Celsius	-0.07848094
-3.966812	Cent	-0.310842
-4.801848	Center	-0.07848094
-4.801848	Centers	-0.07848094
-4.801848	Centre	-0.07848094
-4.801848	Cents	-0.07848094
-4.801848	Chaim	-0.07848094
-4.801848	Chamberlains	-0.07848094
-3.87495	Chance	-0.2409675
-4.352853	Chancen	-0.1065577
-4.627525	Chancengleichheit	-0.2221849
-4.801848	Change	-0.07848094
-4.021234	Chaos	-0.1876875
-4.801848	Chaostheorie	-0.07848094
-4.499451	Charakter	-0.07848095
-4.801848	Charakters	-0.07848094
-4.801848	Charisma	-0.07848094
-4.499451	Charles	-0.144416
-4.801848	CharlesinSpace.org.	-0.07848094
-4.499451	Charta	-0.07848094
-4.801848	Chauvinismus	-0.07848094
-4.627525	Chef	-0.07848094
-4.801848	Chefin	-0.07848094
-4.801848	Chefingenieur	-0.07848094
-4.627525	Chefredakteur	-0.07848094
-4.627525	Chefökonom	-0.2221849
-4.801848	Chemie	-0.07848094
-4.801848	Chemiker	-0.07848094
-4.801848	Cheonan	-0.07848094
-4.627525	Chicago	-0.07848093
-4.499451	Chile	-0.1688237
-4.801848	Chimki	-0.07848094
-3.247481	China	-0.27068
-3.50675	Chinas	-0.1391109
-4.801848	Chinese	-0.07848094
-3.966812	Chinesen	-0.1254185
-4.801848	Chinesisch	-0.07848094
-4.801848	Chinesische	-0.07848094
-4.083466	Chirac	-0.1671118
-4.352853	Chiracs	-0.07848094
-4.801848	Chodorkowsky	-0.07848094
-4.801848	Choices	-0.07848094
-4.801848	Chr.	-0.07848094
-4.801848	Christdemokraten	-0.07848094
-4.801848	Christen	-0.07848095
-4.801848	Christine	-0.07848094
-4.801848	Christlich	-0.07848094
-4.801848	Christus	-0.07848094
-4.801848	Chu	-0.07848094
-4.801848	Chuck	-0.07848094
-4.627525	Churchill	-0.07848094
-4.021234	Chávez	-0.1065577
-4.801848	Citalopram	-0.07848094
-4.801848	Citibank	-0.07848094
-4.627525	City	-0.07848094
-4.801848	Civilizations	-0.07848094
-4.801848	Clans	-0.07848094
-4.801848	Clash	-0.07848094
-4.801848	Claude	-0.07848094
-4.627525	Clausewitz	-0.07848094
-4.801848	Clemenceau	-0.07848094
-4.801848	Climate	-0.07848094
-4.627525	Clinton	-0.07848094
-4.801848	Clique	-0.07848094
-4.801848	Clockwork	-0.07848094
-4.801848	Clooney	-0.07848094
-4.801848	Co.	-0.07848095
-4.801848	College	-0.07848094
-4.801848	Collider	-0.07848094
-4.801848	Come	-0.07848094
-4.627525	Comeback	-0.2221849
-4.801848	Commission	-0.07848094
-4.801848	Common	-0.07848094
-4.627525	Computer	-0.07848094
-4.801848	Computerchips	-0.07848094
-4.801848	Computerprogrammen	-0.07848094
-4.801848	Computers	-0.07848094
-4.801848	Confederation	-0.07848094
-4.801848	Congressional	-0.07848094
-4.801848	Connally	-0.07848094
-4.801848	Conscience	-0.07848094
-4.627525	Consensus	-0.07848094
-4.801848	Constantin	-0.07848094
-4.627525	Containment	-0.07848094
-4.801848	Containmentargument	-0.07848094
-4.801848	Containments	-0.07848094
-4.627525	Contergan	-0.07848094
-4.801848	Contra	-0.07848094
-4.801848	Cooper	-0.07848094
-4.801848	Coordination	-0.07848094
-4.627525	Copenhagen	-0.2221849
-4.801848	Cordoba	-0.07848094
-4.801848	Corporation	-0.07848094
-4.801848	Corpus	-0.07848094
-4.499451	Correa	-0.07848094
-4.627525	Couleur	-0.07848094
-4.801848	Council	-0.07848094
-4.801848	Countries	-0.07848094
-4.801848	Coup	-0.07848095
-4.801848	Court	-0.07848094
-4.801848	Cowen	-0.07848094
-4.801848	Crash	-0.07848094
-4.801848	Crashs	-0.07848094
-4.627525	Credit	-0.07848094
-4.627525	Crew	-0.07848094
-4.627525	Crisis	-0.07848094
-4.801848	Cropping	-0.07848094
-4.243448	Crowley	-0.07848094
-4.499451	Cuprate	-0.07848094
-4.499451	Cupraten	-0.07848094
-4.801848	Côte	-0.07848094
-4.499451	D	-0.304021
-4.801848	D.	-0.07848094
-4.801848	D.C.	-0.07848094
-4.801848	DC	-0.07848094
-4.156132	DPJ	-0.1088382
-4.801848	DSK	-0.07848094
-4.801848	DSKs	-0.07848094
-4.801848	DSM	-0.07848094
-4.801848	DVDs	-0.07848094
-4.801848	Dach	-0.07848094
-4.801848	Dahinscheiden	-0.07848094
-4.801848	Daiichi	-0.07848094
-4.243448	Daily	-0.1213074
-4.801848	Damaskus	-0.07848094
-4.801848	Damm	-0.07848094
-4.801848	Dammes	-0.07848094
-4.801848	Damoklesschwert	-0.07848094
-4.801848	Damon	-0.07848094
-4.801848	Dampfmaschine	-0.07848094
-4.801848	Danilow	-0.07848094
-4.801848	Dank	-0.07848094
-4.021234	Darfur	-0.1013159
-4.801848	Darstellung	-0.07848094
-4.801848	Darüber	-0.07848095
-4.627525	Das	-0.07848094
-4.801848	Dass	-0.07848094
-4.243448	Daten	-0.1036669
-4.801848	Datenerfassung	-0.07848094
-4.499451	Datum	-0.07848094
-4.499451	Dauer	-0.07848094
-4.801848	Dauerfeuer	-0.07848094
-4.499451	David	-0.07848094
-4.499451	Davutoğlu	-0.07848094
-4.801848	Day	-0.07848094
-4.627525	Deal	-0.07848094
-4.801848	Deals	-0.07848094
-4.801848	Deauville	-0.07848094
-4.801848	Debakels	-0.07848094
-3.835407	Debatte	-0.1759082
-4.627525	Debatten	-0.07848095
-4.801848	Debt	-0.07848094
-4.801848	Decade	-0.07848094
-4.801848	Deckeln	-0.07848094
-4.801848	Deckelung	-0.07848094
-4.801848	Deckmantel	-0.07848095
-4.801848	Deckung	-0.07848094
-4.801848	Default	-0.07848094
-4.801848	Defensive	-0.07848094
-4.801848	Definition	-0.07848094
-4.499451	Defizit	-0.07848094
-4.499451	Defizitabbau	-0.07848094
-4.021234	Defizite	-0.07848094
-4.627525	Defiziten	-0.07848094
-4.801848	Defizitfinanzierung	-0.07848094
-4.801848	Defizitländer	-0.07848094
-4.627525	Defizitreduzierung	-0.07848094
-4.801848	Defizitwachstums	-0.07848095
-4.627525	Deflation	-0.2221849
-4.801848	Degeneration	-0.07848094
-4.801848	Deiche	-0.07848094
-4.801848	Deine	-0.07848094
-4.801848	Dekade	-0.07848094
-4.801848	Dekret	-0.07848094
-4.801848	Delaware	-0.07848094
-4.627525	Delegation	-0.07848094
-4.499451	Delegierten	-0.07848094
-4.801848	Delhi	-0.07848094
-4.801848	Delors	-0.07848094
-4.801848	Demagogen	-0.07848094
-4.801848	Demagogie	-0.07848094
-4.801848	Demografie	-0.07848094
-4.801848	Demographen	-0.07848094
-4.801848	Demographie	-0.07848094
-4.083466	Demokraten	-0.1101984
-3.441047	Demokratie	-0.2467025
-3.605924	Demokratien	-0.1556319
-4.801848	Demokratietests	-0.07848094
-4.627525	Demokratischen	-0.07848094
-4.243448	Demokratisierung	-0.07848094
-4.801848	Demonstranten	-0.07848094
-4.627525	Demonstration	-0.2221849
-4.801848	Demonstrationen	-0.07848095
-4.801848	Demonstrationsprojekte	-0.07848095
-4.801848	Demontage	-0.07848094
-4.801848	Demoralisierung	-0.07848094
-4.801848	Demütigung	-0.07848094
-4.801848	Deng	-0.07848094
-4.021234	Denken	-0.07848094
-4.627525	Denkens	-0.07848094
-4.499451	Denkfabriken	-0.07848094
-4.627525	Denkweise	-0.07848094
-4.627525	Denkweisen	-0.07848094
-4.801848	Dennoch	-0.07848094
-4.499451	Denuklearisierung	-0.07848094
-4.156132	Depression	-0.181562
-4.499451	Depressionen	-0.07848094
-4.801848	Der	-0.07848094
-4.801848	DerBing	-0.07848094
-4.627525	Deregulierung	-0.07848094
-4.801848	Derivate	-0.07848094
-4.801848	Derivaten	-0.07848094
-4.499451	Desaster	-0.07848095
-4.801848	Desasters	-0.07848094
-4.801848	Descartes	-0.07848094
-4.801848	Designer	-0.07848094
-4.801848	Desintegrationsprozess	-0.07848094
-4.801848	Despotismus	-0.07848094
-4.801848	Destabilisierung	-0.07848094
-4.801848	Detail	-0.07848094
-4.627525	Details	-0.07848095
-4.801848	Deus	-0.07848094
-4.801848	Deutsch	-0.07848094
-4.627525	Deutsche	-0.07848094
-4.352853	Deutschen	-0.07848094
-4.801848	Deutsches	-0.07848094
-3.441047	Deutschland	-0.1600587
-3.918457	Deutschlands	-0.1036669
-4.801848	Developing	-0.07848094
-4.627525	Development	-0.07848094
-4.801848	Deviseneinnahmen	-0.07848094
-4.801848	Devisenmärkten	-0.07848094
-4.801848	Devisenreserven	-0.07848094
-4.352853	Dezember	-0.07848094
-4.801848	Dezentralisierung	-0.07848094
-4.801848	Dezimierung	-0.07848094
-4.083466	Diagnose	-0.1365757
-4.801848	Diagnoseansatzes	-0.07848095
-4.801848	Diagnosefähigkeiten	-0.07848094
-4.801848	Diagnosen	-0.07848094
-4.156132	Dialog	-0.1101984
-4.801848	Diamanten	-0.07848094
-4.801848	Diamantring	-0.07848094
-4.352853	Dian	-0.144416
-4.243448	Die	-0.07848094
-4.801848	Diebe	-0.07848094
-4.801848	Diego	-0.07848094
-4.627525	Dienst	-0.07848094
-4.499451	Dienste	-0.07848094
-4.801848	Dienstes	-0.07848094
-4.352853	Dienstleistungen	-0.1013159
-4.801848	Dienstleistungssektor	-0.07848094
-4.801848	Dienstleistungssektoren	-0.07848094
-4.801848	Dienstnummer	-0.07848094
-4.801848	Dies	-0.07848095
-4.801848	Diesen	-0.07848094
-4.801848	Dieses	-0.07848095
-4.801848	Diesmal	-0.07848095
-4.801848	Diet	-0.07848094
-4.801848	Different	-0.07848094
-4.801848	Differenz	-0.07848094
-4.801848	Differenzbetrages	-0.07848094
-4.352853	Differenzen	-0.07848094
-4.801848	Differenzialgleichungen	-0.07848094
-4.801848	Diktatoren	-0.07848095
-4.801848	Diktators	-0.07848094
-4.243448	Diktatur	-0.07848094
-4.499451	Dilemma	-0.07848094
-4.801848	Dimanche	-0.07848094
-4.352853	Dimension	-0.144416
-4.627525	Dimensionen	-0.2221849
-3.835407	Dinge	-0.2022371
-4.801848	Dingen	-0.07848094
-4.801848	Dior	-0.07848094
-4.801848	Dip	-0.07848094
-4.801848	Diplomat	-0.07848094
-4.627525	Diplomaten	-0.07848094
-4.083466	Diplomatie	-0.1612932
-4.801848	Direkthilfe	-0.07848094
-4.627525	Direktinvestitionen	-0.07848094
-4.801848	Direktor	-0.07848094
-4.801848	Direktwerbung	-0.07848094
-4.801848	Discount	-0.07848094
-4.801848	Discussion	-0.07848094
-4.801848	Diskontinuitäts	-0.07848094
-4.627525	Diskriminierung	-0.07848094
-4.499451	Diskurs	-0.07848094
-4.801848	Diskurse	-0.07848094
-4.801848	Diskursen	-0.07848094
-4.627525	Diskurses	-0.07848094
-4.243448	Diskussion	-0.07848094
-4.243448	Diskussionen	-0.1304038
-4.801848	Diskussionsfäden	-0.07848094
-4.801848	Diskussionskultur	-0.07848094
-4.801848	Disneyland	-0.07848094
-4.801848	Disposition	-0.07848094
-4.627525	Disput	-0.07848094
-4.801848	Dissidenten	-0.07848094
-4.801848	Distanz	-0.07848094
-4.243448	Disziplin	-0.1304038
-4.352853	Disziplinen	-0.07848093
-4.801848	Disziplinierung	-0.07848094
-4.801848	Disziplinierungsmechanismen	-0.07848094
-4.801848	Divergenz	-0.07848094
-4.801848	Diversifikation	-0.07848094
-4.627525	Diversifizierung	-0.144416
-4.801848	Dmitri	-0.07848094
-4.801848	Dochwenn	-0.07848094
-4.801848	Dodd	-0.07848094
-4.801848	Does	-0.07848094
-4.801848	Dogma	-0.07848094
-4.801848	Dogmatismus	-0.07848094
-4.627525	Doha	-0.07848094
-4.627525	Doktrin	-0.07848094
-4.801848	Doktrinen	-0.07848094
-4.801848	Dokument	-0.07848094
-4.801848	Dokumentation	-0.07848094
-4.801848	Dokumentatoren	-0.07848094
-4.801848	Dokumente	-0.07848094
-4.801848	Dokumenten	-0.07848094
-4.801848	Dokumentierung	-0.07848094
-3.543748	Dollar	-0.1445119
-4.352853	Dollars	-0.07848094
-4.801848	Dollarsturz	-0.07848094
-4.627525	Dominanz	-0.07848094
-4.499451	Dominique	-0.1688237
-4.801848	Domino	-0.07848094
-4.801848	Dominoeffekt	-0.07848094
-4.243448	Donald	-0.1893883
-4.801848	Doppeldeutigkeit	-0.07848095
-4.801848	Doppelten	-0.07848094
-4.499451	Dorf	-0.07848094
-4.801848	Dose	-0.07848094
-4.801848	Double	-0.07848094
-4.801848	Dow	-0.07848094
-4.499451	Dozenten	-0.07848094
-4.801848	Drang	-0.07848094
-4.801848	Dreh-	-0.07848094
-4.499451	Drei	-0.1688237
-4.627525	Dreieck	-0.07848094
-4.801848	Dreiersystem	-0.07848094
-4.801848	Dreifache	-0.07848094
-4.627525	Dresden	-0.07848094
-4.801848	Dresdens	-0.07848094
-4.801848	Dringlichkeit	-0.07848094
-4.801848	Dritte	-0.07848095
-4.627525	Drittel	-0.144416
-4.801848	Dritten	-0.07848094
-4.243448	Drogen	-0.07848094
-4.801848	Drogenbehörde	-0.07848094
-4.801848	Drogeneinnahme	-0.07848094
-4.801848	Drogenkatastrophen	-0.07848094
-4.801848	Drogenrisiken	-0.07848094
-4.627525	Drohung	-0.07848094
-4.156132	Drohungen	-0.07848094
-3.652945	Druck	-0.177096
-4.801848	Drucken	-0.07848094
-4.801848	Druckpresse	-0.07848094
-4.801848	Drucks	-0.07848094
-4.801848	Drähten	-0.07848095
-4.499451	Drängen	-0.07848094
-4.627525	Dubai	-0.07848094
-4.801848	Duma	-0.07848094
-4.627525	Dunkelheit	-0.07848094
-4.801848	Duplizität	-0.07848094
-4.156132	Durchbruch	-0.07848094
-4.499451	Durchbrüche	-0.07848094
-4.801848	Durchdringung	-0.07848094
-4.627525	Durchführung	-0.07848095
-4.801848	Durchschlagskraft	-0.07848094
-4.499451	Durchschnitt	-0.07848094
-4.627525	Durchschnitts	-0.07848094
-4.801848	Durchschnittsmensch	-0.07848094
-4.801848	Durchschnittstemperatur	-0.07848094
-4.801848	Durchschnittswertes	-0.07848095
-4.801848	Durchschnittswerts	-0.07848094
-4.499451	Durchsetzung	-0.07848096
-4.801848	Durchsickerns	-0.07848094
-4.801848	Dusan	-0.07848094
-4.627525	Dutzend	-0.07848094
-4.627525	Dutzende	-0.07848094
-4.801848	Dutzenden	-0.07848094
-4.801848	Dutzends	-0.07848095
-4.801848	Dwight	-0.07848094
-4.243448	Dynamik	-0.07848094
-4.801848	Dächer	-0.07848094
-4.801848	Dämme	-0.07848094
-4.801848	Dämonisierungs-	-0.07848094
-4.801848	Dämpfungsmechanismus	-0.07848094
-4.352853	Dänemark	-0.07848094
-4.801848	Déjà	-0.07848094
-4.801848	Dénouement	-0.07848094
-4.627525	Dörfer	-0.07848094
-4.801848	Dörfern	-0.07848094
-4.243448	Düngemittel	-0.1213074
-4.801848	Düngemitteln	-0.07848094
-4.156132	Dünger	-0.2057976
-4.801848	Dürren	-0.07848094
-4.627525	Dürreperioden	-0.07848094
-4.801848	E	-0.07848094
-4.801848	EBA	-0.07848094
-4.801848	EBWE	-0.07848094
-4.352853	EFSF	-0.07848094
-4.627525	EIA	-0.07848093
-4.801848	EIB	-0.07848094
-4.801848	ERASMUS	-0.07848094
-4.499451	ERM	-0.1688237
-3.060118	EU	-0.3026815
-4.627525	EU-	-0.2221849
-4.243448	EWU	-0.09936648
-4.156132	EZB	-0.1163733
-4.801848	Earned	-0.07848094
-4.801848	Ebenbürtige	-0.07848094
-3.489369	Ebene	-0.1076964
-4.352853	Ebenen	-0.07848094
-4.801848	Echo	-0.07848094
-4.801848	Echtheit	-0.07848095
-4.627525	Ecke	-0.07848094
-4.801848	Ecken	-0.07848094
-4.627525	Eckpfeiler	-0.07848094
-4.801848	Eco	-0.07848094
-4.627525	Economic	-0.07848094
-4.801848	Economics	-0.07848094
-4.801848	Economy	-0.07848094
-4.243448	Ecuador	-0.07848095
-4.801848	Edelstein	-0.07848094
-4.801848	Edmonton	-0.07848094
-4.801848	Edmund	-0.07848094
-4.801848	Edward	-0.07848094
-4.801848	Effects	-0.07848094
-4.243448	Effekt	-0.07848094
-4.499451	Effekte	-0.07848094
-4.801848	Effekten	-0.07848094
-4.499451	Effektivität	-0.07848094
-4.801848	Effekts	-0.07848094
-4.499451	Effizienz	-0.07848094
-4.801848	Egoismus	-0.07848094
-4.801848	Egon	-0.07848094
-4.801848	Ehe	-0.07848094
-4.627525	Ehefrau	-0.07848095
-4.801848	Ehemann	-0.07848094
-4.801848	Ehren	-0.07848094
-4.801848	Ehrengast	-0.07848094
-4.801848	Ehrenmorden	-0.07848094
-4.627525	Ehrerbietung	-0.07848094
-4.801848	Ehrfurcht	-0.07848094
-4.801848	Ehrgeiz	-0.07848095
-4.627525	Ehud	-0.07848094
-4.801848	Eiades	-0.07848094
-4.801848	Eiertanz	-0.07848095
-4.801848	Eigen	-0.07848094
-4.801848	Eigenhandel	-0.07848094
-4.801848	Eigenheimen	-0.07848094
-4.801848	Eigenheimpreise	-0.07848094
-4.801848	Eigenheiten	-0.07848094
-4.801848	Eigeninitiative	-0.07848094
-4.801848	Eigeninteresse	-0.07848094
-4.801848	Eigeninteressen	-0.07848095
-4.627525	Eigenkapital	-0.07848094
-4.801848	Eigenkapitalquote	-0.07848094
-4.627525	Eigenschaft	-0.07848094
-4.156132	Eigenschaften	-0.1213074
-4.801848	Eigenstaatlichkeit	-0.07848094
-4.499451	Eigentum	-0.07848094
-4.801848	Eigentümer	-0.07848094
-4.801848	Eiland	-0.07848094
-4.801848	Eilauftrag	-0.07848094
-4.801848	Eile	-0.07848094
-4.499451	Ein	-0.07848094
-4.627525	Einbeziehung	-0.07848094
-4.627525	Einbindung	-0.07848095
-4.801848	Einbringung	-0.07848094
-4.627525	Einbruch	-0.2221849
-4.801848	Einbruchs	-0.07848094
-4.801848	Eindringling	-0.07848094
-4.627525	Eindruck	-0.07848094
-4.627525	Eindrücke	-0.07848094
-4.499451	Eindämmung	-0.1688237
-4.801848	Eindämmungspolitik	-0.07848094
-4.352853	Eine	-0.07848094
-3.543748	Einfluss	-0.1692857
-4.801848	Einflusses	-0.07848094
-4.801848	Einflussfaktor	-0.07848094
-4.801848	Einflussfaktoren	-0.07848094
-4.801848	Einflussnahme	-0.07848094
-4.801848	Einflussquelle	-0.07848094
-4.801848	Einflusszone	-0.07848094
-4.801848	Einforderung	-0.07848094
-4.801848	Einfällen	-0.07848094
-4.156132	Einführung	-0.1347508
-4.801848	Eingangstür	-0.07848094
-4.627525	Eingreifen	-0.07848094
-4.801848	Eingreiftruppe	-0.07848094
-4.801848	Eingriff	-0.07848094
-4.627525	Einhalt	-0.07848094
-4.352853	Einhaltung	-0.07848094
-3.678513	Einheit	-0.1325718
-4.627525	Einheiten	-0.07848094
-4.801848	Einheitenzurückgegeben	-0.07848094
-4.627525	Einheitswährung	-0.07848094
-4.801848	Einige	-0.07848094
-4.627525	Einigkeit	-0.07848094
-4.801848	Einigung	-0.07848094
-4.627525	Einklang	-0.144416
-3.605924	Einkommen	-0.1829167
-4.801848	Einkommen-	-0.07848094
-4.627525	Einkommens	-0.2221849
-4.627525	Einkommens-	-0.2221849
-4.801848	Einkommensgarantien	-0.07848094
-4.801848	Einkommensniveau	-0.07848094
-4.801848	Einkommensstatus	-0.07848094
-4.801848	Einkommenssteuersystem	-0.07848094
-4.801848	Einkommensteuersenkung	-0.07848095
-4.801848	Einkommensunterschieds	-0.07848094
-4.801848	Einkommensverteilung	-0.07848095
-4.801848	Einkäufen	-0.07848094
-4.627525	Einladung	-0.2221849
-4.801848	Einlagen	-0.07848094
-4.801848	Einlagensicherung	-0.07848094
-4.352853	Einmischung	-0.3326623
-4.627525	Einnahme	-0.07848094
-4.801848	Einnahmemöglichkeiten	-0.07848094
-3.87495	Einnahmen	-0.1374904
-4.801848	Einnahmeprognosen	-0.07848094
-4.801848	Einparteiensystems	-0.07848094
-4.801848	Einreisevisa	-0.07848094
-4.801848	Einreisevisum	-0.07848094
-4.352853	Einrichtung	-0.1213074
-4.801848	Einrichtungen	-0.07848094
-3.705681	Einsatz	-0.2268535
-4.801848	Einsatzes	-0.07848094
-4.627525	Einsatzgüter	-0.07848094
-4.801848	Einsatzkräfte	-0.07848094
-4.801848	Einschaltquoten	-0.07848094
-4.801848	Einschluss	-0.07848094
-4.156132	Einschnitte	-0.1500361
-4.801848	Einschnitten	-0.07848094
-4.627525	Einschränkung	-0.07848094
-4.627525	Einschränkungen	-0.07848094
-4.352853	Einschätzung	-0.07848094
-4.801848	Einsicht	-0.07848094
-4.801848	Einsparungen	-0.07848094
-4.801848	Einsparungs-	-0.07848094
-4.627525	Einspeisevergütung	-0.07848094
-4.627525	Einspeisevergütungen	-0.07848094
-4.801848	Einsprüche	-0.07848095
-4.627525	Einstein	-0.07848094
-4.801848	Einsteins	-0.07848094
-4.352853	Einstellung	-0.07848094
-4.801848	Einstellungen	-0.07848094
-4.801848	Einstellungsproblem	-0.07848094
-4.801848	Einstieg	-0.07848094
-4.352853	Eintritt	-0.07848094
-4.801848	Einundvierzig	-0.07848094
-4.801848	Einwanderer	-0.07848094
-4.627525	Einwanderung	-0.07848094
-4.801848	Einwanderungsbestimmungen	-0.07848094
-4.627525	Einwanderungspolitik	-0.07848094
-4.801848	Einwanderungsproblematik	-0.07848094
-4.801848	Einwohner	-0.07848094
-4.627525	Einwohnern	-0.07848094
-4.801848	Einwände	-0.07848095
-4.801848	Einwänden	-0.07848095
-4.801848	Einzelfall	-0.07848094
-4.801848	Einzelhandelsvertrieb	-0.07848094
-4.352853	Einzelheiten	-0.07848094
-4.801848	Einzelne	-0.07848094
-4.243448	Einzelnen	-0.07848094
-4.801848	Einzelner	-0.07848094
-4.352853	Einzelpersonen	-0.07848094
-4.627525	Einzelstaaten	-0.07848094
-4.627525	Einzelstaats	-0.07848093
-4.352853	Eis	-0.07848094
-4.801848	Eisbergs	-0.07848095
-4.627525	Eisen	-0.07848094
-4.801848	Eisenhower	-0.07848095
-4.627525	Eiserne	-0.07848094
-4.801848	Eises	-0.07848094
-4.801848	Eismeer	-0.07848094
-4.499451	El	-0.07848094
-4.801848	Elastizität	-0.07848094
-4.801848	Elefanten	-0.07848094
-4.627525	Elektrizität	-0.07848095
-4.083466	Elektronen	-0.1101984
-4.801848	Element	-0.07848094
-4.627525	Elemente	-0.07848094
-4.627525	Elementen	-0.07848095
-4.801848	Elements	-0.07848094
-4.801848	Elena	-0.07848094
-4.499451	Elend	-0.07848094
-4.801848	Elends	-0.07848094
-4.801848	Elfenbeinküste	-0.07848094
-4.801848	Eliminierung	-0.07848094
-4.156132	Elite	-0.07848094
-4.801848	Elitegruppen	-0.07848094
-4.156132	Eliten	-0.07848094
-4.801848	Elitesektoren	-0.07848094
-4.801848	Ellison	-0.07848094
-4.801848	Elon	-0.07848094
-4.499451	Eltern	-0.1304038
-4.801848	Elterngeneration	-0.07848094
-4.801848	Elternteilen	-0.07848095
-4.801848	Elyseepalast	-0.07848094
-4.801848	Elysée	-0.07848094
-4.801848	Embargos	-0.07848094
-4.801848	Emerson	-0.07848094
-4.627525	Emigration	-0.07848094
-4.801848	Emily	-0.07848094
-3.87495	Emissionen	-0.105523
-4.801848	Emissionsgrenzwerte	-0.07848094
-4.801848	Emissionshandel	-0.07848095
-4.801848	Emissionshandelssystem	-0.07848094
-4.801848	Emissionsmengen	-0.07848094
-4.801848	Emissionsnormen	-0.07848094
-4.083466	Emissionsrechte	-0.1101984
-4.801848	Emissionsrechten	-0.07848094
-4.801848	Emissionsreduzierungen	-0.07848094
-4.627525	Emissionssenkung	-0.07848094
-4.801848	Emissionssenkungen	-0.07848094
-4.801848	Emissionsverringerung	-0.07848094
-4.801848	Emissionsziele	-0.07848094
-4.801848	Emittent	-0.07848094
-4.801848	Emotionen	-0.07848094
-4.627525	Empathie	-0.07848094
-4.801848	Empfang	-0.07848094
-4.627525	Empfehlung	-0.07848094
-4.499451	Empfehlungen	-0.07848095
-4.801848	Empfindens	-0.07848094
-4.627525	Empfindlichkeiten	-0.07848094
-4.627525	Empfindungen	-0.07848095
-4.627525	Empfänger	-0.07848094
-4.801848	Empfängerländer	-0.07848094
-4.801848	Employment	-0.07848094
-4.627525	Empörung	-0.07848094
-3.456565	Ende	-0.2577329
-4.627525	Enden	-0.07848093
-4.801848	Endergebnis	-0.07848094
-4.627525	Endes	-0.07848094
-4.801848	Endesa	-0.07848094
-4.801848	Endlichkeit	-0.07848094
-4.801848	Endlose	-0.07848094
-4.801848	Endspiels	-0.07848094
-4.801848	Enel	-0.07848094
-3.734663	Energie	-0.09405019
-4.801848	Energie-	-0.07848094
-4.801848	Energiebedarf	-0.07848094
-4.801848	Energiebedürfnisse	-0.07848094
-4.801848	Energiebehörde	-0.07848094
-4.801848	Energiedebatten	-0.07848094
-4.499451	Energieeffizienz	-0.07848094
-4.801848	Energieeinheit	-0.07848094
-4.801848	Energieerzeugung	-0.07848094
-4.801848	Energieexperte	-0.07848094
-4.801848	Energiegewinnung	-0.07848094
-4.801848	Energieinformationsbehörde	-0.07848094
-4.801848	Energiekosten	-0.07848094
-4.801848	Energiekrisen	-0.07848094
-4.801848	Energieminister	-0.07848094
-4.499451	Energien	-0.07848095
-4.627525	Energiepreise	-0.07848094
-4.801848	Energieprogramms	-0.07848094
-4.627525	Energiequelle	-0.07848094
-4.352853	Energiequellen	-0.07848094
-4.801848	Energieressourcen	-0.07848094
-4.801848	Energiesektor	-0.07848094
-4.499451	Energiesicherheit	-0.07848094
-4.801848	Energiesparleuchten	-0.07848094
-4.801848	Energiesupermacht	-0.07848094
-4.801848	Energiesystem	-0.07848094
-4.801848	Energiesysteme	-0.07848094
-4.801848	Energieträger	-0.07848094
-4.801848	Energieträgern	-0.07848094
-4.801848	Energieunion	-0.07848094
-4.801848	Energieverbraucher	-0.07848094
-4.499451	Energieversorgung	-0.07848094
-4.021234	Engagement	-0.07848093
-4.627525	Engagements	-0.07848094
-4.801848	Enge	-0.07848094
-4.627525	England	-0.07848094
-4.801848	Englisch	-0.07848094
-4.801848	Engländern	-0.07848094
-4.801848	Enkel	-0.07848094
-4.801848	Enkelin	-0.07848094
-4.801848	Enkelkinder	-0.07848095
-4.801848	Enkelkindern	-0.07848094
-4.801848	Enklave	-0.07848094
-4.499451	Enron	-0.07848094
-4.499451	Entdeckung	-0.07848094
-4.801848	Entdeckungen	-0.07848094
-4.801848	Entführung	-0.07848094
-4.499451	Entführungen	-0.07848094
-4.801848	Entgegenkommen	-0.07848094
-4.801848	Entgleisen	-0.07848094
-4.801848	Enthauptung	-0.07848094
-4.801848	Enthüllung	-0.07848094
-4.801848	Enthüllungen	-0.07848094
-4.801848	Enthüllungsjournalistin	-0.07848094
-4.801848	Entitäten	-0.07848094
-4.801848	Entlastung	-0.07848094
-4.801848	Entsalzungstechnologien	-0.07848094
-4.801848	Entscheidendes	-0.07848095
-3.835407	Entscheidung	-0.1728343
-3.628798	Entscheidungen	-0.1401201
-4.627525	Entscheidungsfindung	-0.07848094
-4.801848	Entscheidungsfindungs	-0.07848094
-4.801848	Entscheidungsfindungsprozess	-0.07848094
-4.801848	Entscheidungsgewalt	-0.07848094
-4.499451	Entscheidungsgremium	-0.07848094
-4.801848	Entscheidungsmechanismen	-0.07848094
-4.352853	Entscheidungsträger	-0.07848094
-4.627525	Entscheidungsträgern	-0.07848094
-4.801848	Entscheidungsverantwortung	-0.07848094
-4.801848	Entscheidungsverfahren	-0.07848094
-4.499451	Entschlossenheit	-0.07848094
-4.801848	Entschluss	-0.07848094
-4.801848	Entschuldigung	-0.07848094
-4.499451	Entschuldigungen	-0.07848095
-4.243448	Entschuldung	-0.07848095
-4.627525	Entschädigung	-0.07848094
-4.627525	Entsorgung	-0.07848094
-4.801848	Entsprechungen	-0.07848094
-4.627525	Entstehen	-0.07848094
-4.627525	Entstehung	-0.07848094
-4.801848	Entwickler	-0.07848094
-3.489369	Entwicklung	-0.1847439
-4.083466	Entwicklungen	-0.07848094
-4.801848	Entwicklungs-	-0.07848094
-4.801848	Entwicklungsfachleute	-0.07848094
-4.801848	Entwicklungsfinanzierung	-0.07848094
-4.801848	Entwicklungsfonds	-0.07848094
-4.801848	Entwicklungsforscher	-0.07848094
-4.801848	Entwicklungsfragen	-0.07848094
-4.801848	Entwicklungsförderung	-0.07848094
-4.499451	Entwicklungshilfe	-0.07848094
-4.156132	Entwicklungsländer	-0.09632064
-4.352853	Entwicklungsländern	-0.07848094
-4.801848	Entwicklungsprogramm	-0.07848094
-4.801848	Entwicklungsprojekten	-0.07848094
-4.801848	Entwicklungsstadium	-0.07848094
-4.627525	Entwicklungsstand	-0.07848094
-4.801848	Entwicklungsziele	-0.07848094
-4.801848	Entwicklungszielen	-0.07848094
-4.801848	Entwurfs	-0.07848094
-4.801848	Entwurfsstadium	-0.07848093
-4.627525	Entwürfe	-0.07848094
-4.801848	Entzugsbeschwerden	-0.07848094
-4.801848	Entzugserscheinungen	-0.07848094
-4.801848	Entzündung	-0.07848094
-4.801848	Enwer	-0.07848094
-4.801848	Epidemie	-0.07848094
-4.801848	Epidemien	-0.07848094
-4.627525	Episode	-0.07848094
-4.627525	Episoden	-0.07848094
-4.801848	Epizentrum	-0.07848094
-4.801848	Epoche	-0.07848094
-4.627525	Erarbeitung	-0.2221849
-4.243448	Erbe	-0.07848094
-4.801848	Erben	-0.07848095
-4.801848	Erbes	-0.07848094
-4.801848	Erblühen	-0.07848094
-4.801848	Erbteils	-0.07848094
-4.801848	Erd	-0.07848094
-4.801848	Erdatmosphäre	-0.07848094
-4.801848	Erdball	-0.07848094
-4.627525	Erdbeben	-0.07848094
-4.627525	Erde	-0.07848095
-4.801848	Erdenbürger	-0.07848094
-4.499451	Erderwärmung	-0.1065577
-4.499451	Erdgas	-0.07848094
-4.801848	Erdgasfeldes	-0.07848094
-4.627525	Erdrutschsieg	-0.07848094
-4.627525	Erdöl	-0.07848093
-4.801848	Erdöl-	-0.07848094
-4.627525	Erdöleinnahmen	-0.07848095
-4.801848	Erdölpreise	-0.07848094
-4.801848	Erdölreichtum	-0.07848094
-4.156132	Ereignis	-0.07848094
-4.801848	Ereigniskette	-0.07848094
-3.87495	Ereignisse	-0.07848094
-4.352853	Ereignissen	-0.07848096
-3.835407	Erfahrung	-0.1912564
-4.083466	Erfahrungen	-0.1149247
-4.801848	Erfindungen	-0.07848094
-3.678513	Erfolg	-0.1036669
-4.352853	Erfolge	-0.07848094
-4.801848	Erfolges	-0.07848094
-4.801848	Erfolgs	-0.07848095
-4.801848	Erfolgschancen	-0.07848094
-4.801848	Erfolgsgeschichten	-0.07848094
-4.801848	Erfordernissen	-0.07848094
-4.627525	Erforschung	-0.07848094
-4.627525	Erfüllung	-0.07848094
-3.87495	Ergebnis	-0.1371322
-3.966812	Ergebnisse	-0.07848094
-4.627525	Ergebnissen	-0.07848094
-4.499451	Ergänzungsantrag	-0.07848094
-4.499451	Erhalt	-0.07848095
-4.801848	Erhaltung	-0.07848094
-4.801848	Erhebung	-0.07848094
-3.835407	Erholung	-0.1264772
-4.627525	Erholungen	-0.07848094
-4.801848	Erholungsphasen	-0.07848095
-4.243448	Erhöhung	-0.34554
-4.352853	Erinnerung	-0.1304038
-4.801848	Erinnerungen	-0.07848094
-4.499451	Erkenntnis	-0.07848094
-4.352853	Erkenntnisse	-0.07848095
-4.627525	Erkenntnissen	-0.07848093
-4.801848	Erkenntniszustand	-0.07848094
-3.918457	Erklärung	-0.1579886
-4.156132	Erklärungen	-0.07848094
-4.801848	Erklärungsmuster	-0.07848094
-4.801848	Erlass	-0.07848094
-4.801848	Erlassen	-0.07848094
-4.801848	Erleichterung	-0.07848094
-4.801848	Ermangelung	-0.07848094
-4.801848	Ermittlungen	-0.07848094
-4.801848	Ermittlungsbeamten	-0.07848094
-4.801848	Ermordung	-0.07848094
-4.627525	Ermutigung	-0.07848094
-4.801848	Ermutigungen	-0.07848094
-4.801848	Ermächtigung	-0.07848094
-4.801848	Ernennung	-0.07848094
-4.801848	Erneuerer	-0.07848094
-4.627525	Erneuerung	-0.07848094
-4.801848	Erneuerungsarbeit	-0.07848094
-4.627525	Erneuerungsprozess	-0.07848095
-4.801848	Ernsthaftigkeit	-0.07848094
-4.499451	Ernte	-0.07848094
-4.801848	Ernteertrag	-0.07848094
-4.627525	Ernteerträge	-0.07848094
-4.801848	Ernteerträgen	-0.07848095
-4.801848	Ernten	-0.07848094
-4.627525	Ernährung	-0.07848094
-4.801848	Eroberung	-0.07848094
-4.627525	Eroberungen	-0.2221849
-4.801848	Erreichen	-0.07848094
-4.801848	Erreichung	-0.07848094
-4.801848	Errichtung	-0.07848094
-4.627525	Errungenschaften	-0.07848095
-4.243448	Ersatz	-0.1304038
-4.801848	Ersatzkosmonautin	-0.07848095
-4.801848	Ersatzraumfahrer	-0.07848094
-4.801848	Erschaffung	-0.07848094
-4.801848	Erscheinen	-0.07848095
-4.801848	Erscheinungsformen	-0.07848094
-4.801848	Erschließung	-0.07848094
-4.801848	Erschwinglichkeit	-0.07848094
-4.801848	Erschöpfung	-0.07848094
-4.021234	Erschütterungen	-0.07848094
-4.801848	Ersetzen	-0.07848094
-4.801848	Ersetzung	-0.07848094
-4.352853	Ersparnisse	-0.1304038
-4.627525	Ersparnissen	-0.07848094
-4.801848	Ersparten	-0.07848094
-4.801848	Erstaunliches	-0.07848094
-4.499451	Erste	-0.07848094
-4.499451	Ersten	-0.07848095
-4.627525	Erstens	-0.1013159
-4.801848	Erster	-0.07848094
-4.499451	Erstere	-0.07848094
-4.801848	Ersterer	-0.07848094
-4.801848	Ertrag	-0.07848094
-4.627525	Ertragslage	-0.2221849
-4.801848	Ertragsmaximierung	-0.07848094
-4.243448	Erträge	-0.07848094
-4.801848	Erträgen	-0.07848094
-4.801848	Erträglichen	-0.07848094
-4.801848	Erwachen	-0.07848094
-4.801848	Erwartung	-0.07848095
-4.352853	Erwartungen	-0.07848094
-4.021234	Erweiterung	-0.1613257
-4.627525	Erweiterungen	-0.07848094
-4.627525	Erwerbsbevölkerung	-0.07848094
-4.801848	Erwerbsleben	-0.07848094
-4.801848	Erwerbstätigen	-0.07848094
-4.801848	Erwägung	-0.07848094
-4.499451	Erwägungen	-0.07848094
-4.801848	Erwähnung	-0.07848094
-4.021234	Erwärmung	-0.1050338
-4.801848	Erzbischof	-0.07848094
-4.801848	Erzeugung	-0.07848094
-4.801848	Erziehung	-0.07848094
-4.801848	Erzwingung	-0.07848094
-4.801848	Eröffnungszeremonie	-0.07848094
-4.801848	Es	-0.07848094
-4.801848	Escudo	-0.07848094
-4.499451	Essay	-0.1688237
-4.801848	Essen	-0.07848094
-4.801848	Establishment	-0.07848094
-4.499451	Establishments	-0.07848095
-4.499451	Estland	-0.304021
-4.801848	Etablierten	-0.07848094
-4.801848	Etablierung	-0.07848094
-4.352853	Ethanol	-0.144416
-4.627525	Ethik	-0.07848094
-3.652945	Euro	-0.1144616
-4.801848	Euroausstieg	-0.07848094
-4.627525	Eurobarometer	-0.2221849
-4.801848	Eurobonds	-0.07848094
-4.627525	Eurokrise	-0.07848094
-4.801848	Eurokurs	-0.07848094
-4.801848	Eurokäufen	-0.07848094
-4.243448	Euroländer	-0.07848094
-4.627525	Euroländern	-0.07848094
-4.801848	Eurolösung	-0.07848094
-3.143773	Europa	-0.1936587
-4.801848	Europapolitik	-0.07848094
-4.801848	Europarates	-0.07848094
-3.228384	Europas	-0.1209616
-4.627525	Europaskepsis	-0.07848095
-4.801848	Europe	-0.07848094
-4.627525	European	-0.07848094
-4.801848	Europhile	-0.07848094
-3.87495	Europäer	-0.1024338
-4.243448	Europäische	-0.07848094
-3.87495	Europäischen	-0.147148
-4.801848	Euroraum	-0.07848094
-4.801848	Euroregeln	-0.07848095
-4.627525	Euros	-0.07848094
-4.801848	Euroschulden	-0.07848094
-4.801848	Euroskeptiker	-0.07848094
-4.627525	Euroskeptizismus	-0.07848095
-4.801848	Eurostaaten	-0.07848094
-4.801848	Eurostärke	-0.07848094
-4.801848	Eurosystems	-0.07848094
-4.352853	Eurozone	-0.09058441
-4.801848	Eurozonen	-0.07848094
-4.801848	Eurozonenniveaus	-0.07848094
-4.801848	Evakuierungen	-0.07848094
-4.801848	Evolution	-0.07848094
-4.801848	Evolutionsbiologen	-0.07848095
-4.499451	Ex	-0.304021
-4.801848	Exchange	-0.07848094
-4.627525	Exekutive	-0.2221849
-4.627525	Exempel	-0.07848094
-4.801848	Exil	-0.07848094
-4.499451	Existenz	-0.07848094
-4.801848	Existenzgrundlage	-0.07848094
-4.627525	Expansion	-0.07848094
-4.801848	Experiment	-0.07848094
-4.801848	Experimente	-0.07848095
-4.801848	Experte	-0.07848094
-4.021234	Experten	-0.07848094
-4.801848	Expertenberatungen	-0.07848094
-4.801848	Expertengremium	-0.07848094
-4.801848	Expertengruppe	-0.07848094
-4.801848	Expertenkommissionen	-0.07848094
-4.801848	Expertin	-0.07848094
-4.801848	Expertise	-0.07848094
-4.801848	Explosion	-0.07848094
-4.627525	Export	-0.07848094
-4.801848	Exportbemühungen	-0.07848094
-3.765718	Exporte	-0.1071864
-4.801848	Exporten	-0.07848094
-4.801848	Exporteur	-0.07848094
-4.801848	Exportkontrollen	-0.07848094
-4.801848	Exportmacht	-0.07848094
-4.801848	Exports	-0.07848095
-4.801848	Exportsektors	-0.07848094
-4.801848	Exportvolumen	-0.07848094
-4.801848	Express	-0.07848094
-4.627525	Extrapolation	-0.07848094
-4.801848	Extrapolationen	-0.07848094
-4.352853	Extremismus	-0.07848094
-4.352853	Extremisten	-0.07848094
-4.801848	Exxon	-0.07848094
-4.801848	Exzellenz	-0.07848094
-4.801848	Eyjafjallajökull	-0.07848094
-4.801848	F	-0.07848094
-4.627525	F.	-0.07848094
-4.627525	FCM	-0.07848094
-4.352853	FED	-0.07848094
-4.801848	FEMIP	-0.07848094
-4.627525	FIS	-0.2221849
-4.801848	FMCT	-0.07848094
-4.801848	FNV	-0.07848095
-4.801848	FRANCISCO	-0.07848094
-4.627525	FSB	-0.07848094
-4.627525	Fabrik	-0.07848094
-4.801848	Fabrikarbeitern	-0.07848094
-4.801848	Facebook	-0.07848094
-4.627525	Fachbereich	-0.07848094
-4.801848	Fachbereichen	-0.07848094
-4.801848	Fachkenntnisse	-0.07848094
-4.499451	Fachleute	-0.07848094
-4.801848	Fachmanns	-0.07848094
-4.801848	Fachsprache	-0.07848094
-4.801848	Fachzeitschriften	-0.07848094
-4.801848	Faden	-0.07848094
-4.801848	Fahne	-0.07848094
-4.801848	Fahren	-0.07848094
-4.801848	Fahrers	-0.07848094
-4.801848	Fahrradwegen	-0.07848094
-4.801848	Fahrt	-0.07848094
-4.801848	Fahrzeugkonvoi	-0.07848094
-4.801848	Fairness	-0.07848094
-4.801848	Fakt	-0.07848095
-4.352853	Fakten	-0.07848094
-4.156132	Faktor	-0.154709
-3.966812	Faktoren	-0.07848094
-4.801848	Faktum	-0.07848095
-4.801848	Fakultät	-0.07848094
-4.627525	Fakultäten	-0.07848094
-4.801848	Falke	-0.07848094
-4.021234	Falken	-0.1149247
-3.734663	Fall	-0.1304038
-4.801848	Falle	-0.07848094
-4.801848	Fallschirm	-0.07848094
-4.021234	Familie	-0.07848094
-4.627525	Familien	-0.07848095
-4.801848	Familienmitgliedes	-0.07848094
-4.801848	Fanatismus	-0.07848094
-4.801848	Fangergebnisse	-0.07848095
-4.801848	Fangverbote	-0.07848094
-4.352853	Fangverbotszonen	-0.07848094
-4.627525	Fantasie	-0.2221849
-4.801848	Fantasien	-0.07848095
-4.801848	Fantasiereise	-0.07848094
-4.627525	Farbe	-0.07848094
-4.801848	Farce	-0.07848094
-4.801848	Farrow	-0.07848094
-4.627525	Faschismus	-0.07848094
-4.801848	Fasher	-0.07848094
-4.627525	Fassade	-0.07848094
-4.801848	Fassung	-0.07848094
-4.627525	Fatah	-0.07848094
-4.801848	Fatih	-0.07848094
-4.801848	Favoriten	-0.07848094
-4.801848	Favoritin	-0.07848094
-4.801848	Fazilität	-0.07848094
-4.156132	Februar	-0.07848095
-4.499451	Federal	-0.304021
-4.801848	Feedback	-0.07848094
-4.801848	Fehden	-0.07848094
-4.801848	Fehlbetrag	-0.07848095
-4.801848	Fehlbewertung	-0.07848094
-4.352853	Fehlen	-0.2221849
-4.801848	Fehlentwicklungen	-0.07848094
-3.765718	Fehler	-0.1151728
-4.801848	Fehlern	-0.07848094
-4.801848	Fehlschlag	-0.07848094
-4.801848	Fehltritte	-0.07848094
-4.801848	Fehlverhalten	-0.07848094
-4.627525	Feierlichkeiten	-0.07848095
-4.801848	Feiern	-0.07848094
-4.627525	Feiertag	-0.07848094
-4.156132	Feind	-0.07848094
-4.156132	Feinde	-0.07848094
-4.627525	Feinden	-0.07848094
-4.801848	Feindschaft	-0.07848094
-4.499451	Feindseligkeit	-0.144416
-4.801848	Feld	-0.07848094
-4.801848	Feldfrüchte	-0.07848094
-4.801848	Feldstein	-0.07848094
-4.801848	Felipe	-0.07848094
-4.801848	Fell	-0.07848094
-4.801848	Fernseh-	-0.07848094
-4.801848	Fernsehauftritten	-0.07848094
-4.801848	Fernsehdokumentation	-0.07848094
-4.801848	Fernsehempfänger	-0.07848094
-4.243448	Fernsehen	-0.1365757
-4.499451	Fernseher	-0.07848094
-4.499451	Fernsehkonsum	-0.07848094
-4.801848	Fernsehkonsumenten	-0.07848094
-4.801848	Fernsehkonsums	-0.07848094
-4.627525	Fernsehsender	-0.07848094
-4.627525	Fernsehwerbung	-0.07848094
-4.801848	Fernsehzeitalter	-0.07848094
-4.499451	Fertigkeiten	-0.07848095
-4.801848	Fertigung	-0.07848094
-4.801848	Fertigungsindustrie	-0.07848094
-4.801848	Festkosten	-0.07848094
-4.801848	Festland	-0.07848095
-4.801848	Festlandes	-0.07848094
-4.627525	Festlegung	-0.07848095
-4.801848	Festnahme	-0.07848094
-4.801848	Feststellung	-0.07848094
-4.801848	Festung	-0.07848094
-4.801848	Fettleibigen	-0.07848094
-4.801848	Feuer	-0.07848094
-4.627525	Feuerkraft	-0.07848094
-4.801848	Feuerprobe	-0.07848094
-4.801848	Feynman	-0.07848094
-4.627525	Fiat	-0.2221849
-4.801848	Fiction	-0.07848094
-4.499451	Fiktion	-0.07848094
-4.801848	Filme	-0.07848094
-4.801848	Filmkameras	-0.07848095
-4.499451	Financial	-0.07848094
-4.627525	Financiers	-0.07848094
-4.627525	Finanz	-0.07848094
-4.499451	Finanz-	-0.304021
-4.801848	Finanzaktivitäten	-0.07848094
-4.801848	Finanzaufsicht	-0.07848094
-4.801848	Finanzaufsichtsbehörde	-0.07848094
-4.801848	Finanzbehörde	-0.07848095
-4.499451	Finanzbehörden	-0.07848094
-4.801848	Finanzbereich	-0.07848094
-4.801848	Finanzberichte	-0.07848094
-4.627525	Finanzbetrug	-0.07848094
-4.801848	Finanzblasen	-0.07848094
-4.801848	Finanzdienstleistungen	-0.07848095
-4.801848	Finanzdienstleistungssektor	-0.07848094
-4.627525	Finanzen	-0.07848094
-4.801848	Finanzentwicklung	-0.07848094
-4.801848	Finanzflüsse	-0.07848094
-4.801848	Finanzfragen	-0.07848094
-4.801848	Finanzgebarung	-0.07848094
-4.801848	Finanzgeschichte	-0.07848094
-4.801848	Finanzhilfe	-0.07848094
-4.801848	Finanzhilfen	-0.07848094
-3.87495	Finanzierung	-0.1178589
-4.801848	Finanzierungsarten	-0.07848095
-4.801848	Finanzierungshilfe	-0.07848094
-4.627525	Finanzierungshilfen	-0.07848094
-4.801848	Finanzierungslücke	-0.07848094
-4.801848	Finanzierungslücken	-0.07848094
-4.627525	Finanzierungsquellen	-0.07848093
-4.801848	Finanzindikatoren	-0.07848094
-4.801848	Finanzinformationen	-0.07848094
-4.801848	Finanzinnovationen	-0.07848094
-4.627525	Finanzinstitute	-0.07848094
-4.801848	Finanzinstitutionen	-0.07848094
-4.801848	Finanzinstrumente	-0.07848094
-4.801848	Finanzintegration	-0.07848094
-4.801848	Finanzkapitalismus	-0.07848094
-4.801848	Finanzkatastrophe	-0.07848094
-4.801848	Finanzkonsolidierung	-0.07848094
-4.801848	Finanzkontrakte	-0.07848094
-4.801848	Finanzkontrollen	-0.07848094
-3.966812	Finanzkrise	-0.1101984
-4.352853	Finanzkrisen	-0.07848093
-4.801848	Finanzleute	-0.07848094
-4.627525	Finanzmarkt	-0.07848094
-4.801848	Finanzmarktes	-0.07848095
-4.499451	Finanzminister	-0.1688237
-4.801848	Finanzministerin	-0.07848094
-4.499451	Finanzmittel	-0.1688237
-4.352853	Finanzmärkte	-0.07848094
-4.627525	Finanzmärkten	-0.07848094
-4.801848	Finanznot	-0.07848094
-4.801848	Finanzorganisation	-0.07848094
-4.801848	Finanzpanik	-0.07848094
-4.627525	Finanzplätze	-0.07848094
-4.352853	Finanzpolitik	-0.1213074
-4.801848	Finanzprobleme	-0.07848094
-4.801848	Finanzreformen	-0.07848094
-4.801848	Finanzregulierung	-0.07848094
-4.801848	Finanzressourcen	-0.07848094
-4.801848	Finanzschulden	-0.07848094
-4.243448	Finanzsektor	-0.1101984
-4.627525	Finanzsektors	-0.07848094
-4.801848	Finanzsituation	-0.07848094
-4.801848	Finanzstabilisierung	-0.07848094
-4.627525	Finanzstabilisierungsfazilität	-0.07848094
-4.801848	Finanzstabilität	-0.07848094
-4.499451	Finanzsystem	-0.07848094
-4.801848	Finanzsystems	-0.07848094
-4.627525	Finanzunternehmen	-0.07848094
-4.627525	Finanzwelt	-0.07848094
-4.801848	Finanzwesen	-0.07848095
-4.801848	Finanzwirtschaft	-0.07848095
-4.499451	Finanzzentren	-0.07848094
-4.801848	Finanzzentrum	-0.07848094
-4.627525	Finger	-0.07848094
-4.801848	Finnen	-0.07848094
-4.801848	Finnland	-0.07848094
-4.243448	Firma	-0.1304038
-3.835407	Firmen	-0.07848094
-4.801848	Firmenaufsicht	-0.07848094
-4.801848	Firmenlobbyisten	-0.07848094
-4.801848	Firmenpleiten	-0.07848094
-4.801848	Firmenrechner	-0.07848094
-4.801848	Fischarten	-0.07848094
-4.243448	Fischbestände	-0.07848094
-4.627525	Fische	-0.07848093
-4.801848	Fischer	-0.07848094
-4.801848	Fischerei	-0.07848094
-4.801848	Fischereibestimmungen	-0.07848094
-4.801848	Fischereigebiete	-0.07848094
-4.801848	Fischereiindustrie	-0.07848095
-4.801848	Fiskal-	-0.07848094
-4.801848	Fiskalische	-0.07848094
-4.801848	Fiskalpakt	-0.07848094
-4.352853	Fiskalpolitik	-0.07848094
-4.352853	Fiskaltransfers	-0.07848094
-4.627525	Fiskalunion	-0.07848094
-4.801848	Fitch	-0.07848094
-4.801848	Flamen	-0.07848094
-4.801848	Flamme	-0.07848094
-4.801848	Flexibilisierung	-0.07848094
-4.083466	Flexibilität	-0.144416
-4.801848	Flight	-0.07848094
-4.801848	Florenz	-0.07848094
-4.627525	Flucht	-0.07848094
-4.801848	Fluchtgeschwindigkeit	-0.07848094
-4.801848	Flug	-0.07848094
-4.801848	Fluggesellschaften	-0.07848095
-4.801848	Flughafen	-0.07848094
-4.627525	Flughäfen	-0.07848094
-4.801848	Flughöhe	-0.07848094
-4.801848	Flugkörper	-0.07848094
-4.627525	Flugsicherheit	-0.07848094
-4.801848	Flugverbot	-0.07848094
-4.801848	Flugverbote	-0.07848094
-4.801848	Flugverbotszone	-0.07848094
-4.352853	Flugzeug	-0.07848094
-4.801848	Flugzeugabsturz	-0.07848094
-4.627525	Flugzeuge	-0.07848094
-4.801848	Flugzeugen	-0.07848094
-4.801848	Flugzeugmotorenhersteller	-0.07848094
-4.499451	Flugzeugträger	-0.07848094
-4.801848	Fluss	-0.07848094
-4.801848	Flusses	-0.07848094
-4.801848	Fläche	-0.07848094
-4.627525	Flüchtlinge	-0.07848094
-4.627525	Flüchtlingen	-0.07848094
-4.627525	Flüchtlingslager	-0.07848094
-4.801848	Flüchtlingslagern	-0.07848094
-4.801848	Flüchtlingsproblematik	-0.07848094
-4.801848	Flüchtlingsströme	-0.07848094
-4.801848	Flüge	-0.07848094
-4.801848	Flügel	-0.07848094
-4.627525	Flüsse	-0.07848094
-4.801848	Foerderung	-0.07848094
-3.966812	Folge	-0.1269703
-3.765718	Folgen	-0.1947828
-4.801848	Folgendes	-0.07848094
-4.627525	Folter	-0.07848094
-4.801848	Foltereinrichtung	-0.07848094
-4.352853	Fonds	-0.07848095
-4.627525	Food	-0.07848094
-4.801848	Force	-0.07848095
-4.801848	Ford	-0.07848094
-4.627525	Forderung	-0.07848094
-4.243448	Forderungen	-0.07848094
-4.801848	Foreign	-0.07848094
-3.765718	Form	-0.1071864
-4.801848	Formalität	-0.07848094
-4.627525	Formel	-0.07848094
-4.352853	Formen	-0.1304038
-4.499451	Formulierung	-0.07848094
-4.243448	Forscher	-0.07848095
-3.652945	Forschung	-0.2389819
-4.627525	Forschungen	-0.07848094
-4.801848	Forschungsarbeit	-0.07848094
-4.801848	Forschungsarten	-0.07848095
-4.801848	Forschungsbehörde	-0.07848094
-4.627525	Forschungsergebnissen	-0.07848094
-4.801848	Forschungsmaßnahmen	-0.07848094
-4.801848	Forschungsmitarbeiter	-0.07848094
-4.801848	Forschungsmodell	-0.07848094
-4.801848	Forschungsprogramme	-0.07848094
-4.801848	Forschungsreisende	-0.07848094
-4.801848	Forschungsuniversitäten	-0.07848094
-4.499451	Forschungszentren	-0.07848094
-4.801848	Fortbestehens	-0.07848094
-4.801848	Fortentwicklung	-0.07848094
-3.799166	Fortschritt	-0.1522105
-3.765718	Fortschritte	-0.154709
-4.627525	Fortschritten	-0.07848094
-4.499451	Fortschritts	-0.07848094
-4.627525	Fortschrittsbericht	-0.2221849
-4.801848	Fortschrittseuphorie	-0.07848094
-4.352853	Forum	-0.144416
-4.801848	Forums	-0.07848095
-4.801848	Forward	-0.07848094
-4.801848	Fotos	-0.07848095
-4.801848	Foundations	-0.07848094
-4.801848	Fox	-0.07848094
-4.801848	Fracht	-0.07848094
-4.083466	Fracking	-0.07848094
-3.370826	Frage	-0.2759554
-4.627525	Fragebogen	-0.07848094
-4.801848	Fragebogens	-0.07848094
-4.801848	Fragebögen	-0.07848094
-3.456565	Fragen	-0.1267162
-4.499451	Fragilität	-0.1688237
-4.801848	Fraglicher	-0.07848095
-4.801848	Fragmentierung	-0.07848094
-4.801848	Frakturierung	-0.07848094
-4.801848	Franc	-0.07848094
-4.801848	Frank	-0.07848094
-4.801848	Franklin	-0.07848094
-3.472657	Frankreich	-0.1796286
-4.243448	Frankreichs	-0.07848094
-4.243448	Franzosen	-0.07848094
-4.801848	Französisch	-0.07848094
-4.801848	Französischen	-0.07848094
-4.627525	François	-0.07848094
-3.966812	Frau	-0.09936649
-3.456565	Frauen	-0.1902059
-4.801848	Frauenfortschrittsbericht	-0.07848094
-4.801848	Frauenförderung	-0.07848094
-4.801848	Frauenorganisation	-0.07848094
-4.801848	Freak	-0.07848094
-4.801848	Fred	-0.07848094
-4.801848	Fredrik	-0.07848094
-4.801848	Freien	-0.07848094
-4.801848	Freihandels	-0.07848094
-4.352853	Freihandelszone	-0.07848094
-4.801848	Freihandelszonen	-0.07848094
-3.605924	Freiheit	-0.246746
-4.156132	Freiheiten	-0.1213074
-4.801848	Freiheitsbeschränkungen	-0.07848094
-4.801848	Freiheitskämpfer	-0.07848094
-4.801848	Freiheitsordnung	-0.07848095
-4.801848	Freimaurer	-0.07848094
-4.801848	Freiraum	-0.07848094
-4.801848	Freizeit-	-0.07848094
-4.801848	Fremdenfeindlichkeit	-0.07848094
-4.801848	Fremdherrschaft	-0.07848094
-4.801848	Fremdkapital	-0.07848095
-4.499451	Freude	-0.07848094
-4.499451	Freund	-0.07848095
-4.352853	Freunde	-0.07848094
-4.627525	Freundes	-0.07848094
-4.352853	Freundin	-0.07848094
-4.627525	Freundschaft	-0.07848095
-4.801848	Freundschaftsvertrag	-0.07848095
-4.627525	Friede	-0.07848094
-3.456565	Frieden	-0.2095391
-4.499451	Friedens	-0.07848094
-4.627525	Friedens-	-0.2221849
-4.627525	Friedensabkommen	-0.07848094
-4.801848	Friedensangebot	-0.07848094
-4.801848	Friedensbemühungen	-0.07848094
-4.627525	Friedensgespräche	-0.07848095
-4.801848	Friedensgrundlage	-0.07848094
-4.627525	Friedensinitiative	-0.07848094
