! ||| ! ||| 0.714286 0.028571 0.257143 0.942857 0.028571 0.028571 
! ||| . ||| 0.200000 0.200000 0.600000 0.600000 0.200000 0.200000 
! ||| @-@ Politik ! ||| 0.600000 0.200000 0.200000 0.600000 0.200000 0.200000 
! ||| Politik ! ||| 0.200000 0.200000 0.600000 0.600000 0.200000 0.200000 
% ( ||| % ( dies , ||| 0.600000 0.200000 0.200000 0.200000 0.200000 0.600000 
% ( ||| % ( dies ||| 0.600000 0.200000 0.200000 0.200000 0.200000 0.600000 
% ( ||| % ( ||| 0.600000 0.200000 0.200000 0.200000 0.200000 0.600000 
% ) ||| % ) ||| 0.600000 0.200000 0.200000 0.600000 0.200000 0.200000 
% , ||| % , ||| 0.777778 0.111111 0.111111 0.555556 0.111111 0.333333 
% , ||| % ; ||| 0.600000 0.200000 0.200000 0.200000 0.200000 0.600000 
% , ||| % liegt , ||| 0.600000 0.200000 0.200000 0.200000 0.200000 0.600000 
% , ||| % ||| 0.846154 0.076923 0.076923 0.384615 0.230769 0.384615 
% , ||| Prozent und liegt daher ||| 0.600000 0.200000 0.200000 0.600000 0.200000 0.200000 
% . ||| % . ||| 0.714286 0.142857 0.142857 0.714286 0.142857 0.142857 
% . ||| % dieser Ansicht . ||| 0.600000 0.200000 0.200000 0.600000 0.200000 0.200000 
% . ||| % erreicht . ||| 0.600000 0.200000 0.200000 0.600000 0.200000 0.200000 
% ; ||| % liegen , ||| 0.600000 0.200000 0.200000 0.600000 0.200000 0.200000 
% of the ||| % der ||| 0.777778 0.111111 0.111111 0.777778 0.111111 0.111111 
% of the ||| % des ||| 0.866667 0.066667 0.066667 0.866667 0.066667 0.066667 
% of ||| % der ||| 0.846154 0.076923 0.076923 0.692308 0.076923 0.230769 
% of ||| % des ||| 0.904762 0.047619 0.047619 0.809524 0.047619 0.142857 
% of ||| % vom ||| 0.818182 0.090909 0.090909 0.818182 0.090909 0.090909 
% of ||| % ||| 0.714286 0.142857 0.142857 0.428571 0.142857 0.428571 
% of ||| Prozent der ||| 0.600000 0.200000 0.200000 0.600000 0.200000 0.200000 
% ||| % ; ||| 0.600000 0.200000 0.200000 0.200000 0.200000 0.600000 
% ||| % der Bürger der Ansicht ||| 0.200000 0.200000 0.600000 0.200000 0.200000 0.600000 
% ||| % der Bürger der ||| 0.200000 0.200000 0.600000 0.200000 0.200000 0.600000 
% ||| % der Bürger ||| 0.200000 0.200000 0.600000 0.200000 0.200000 0.600000 
% ||| % der ||| 0.200000 0.200000 0.600000 0.200000 0.200000 0.600000 
% ||| % dieser Ansicht ||| 0.600000 0.200000 0.200000 0.600000 0.200000 0.200000 
% ||| % dieser ||| 0.600000 0.200000 0.200000 0.200000 0.200000 0.600000 
% ||| % erreicht ||| 0.600000 0.200000 0.200000 0.600000 0.200000 0.200000 
% ||| % ihre ||| 0.600000 0.200000 0.200000 0.200000 0.200000 0.600000 
% ||| % liegt ||| 0.714286 0.142857 0.142857 0.428571 0.142857 0.428571 
% ||| % zurück ||| 0.600000 0.200000 0.200000 0.200000 0.200000 0.600000 
% ||| % ||| 0.984556 0.003861 0.011583 0.544402 0.111969 0.343629 
% ||| Prozent , ||| 0.600000 0.200000 0.200000 0.200000 0.200000 0.600000 
% ||| Prozent gesenkt ||| 0.600000 0.200000 0.200000 0.200000 0.200000 0.600000 
% ||| Prozent gesunken ||| 0.600000 0.200000 0.200000 0.200000 0.200000 0.600000 
% ||| Prozent ||| 0.959184 0.020408 0.020408 0.591837 0.020408 0.387755 
&apos; ||| Gewerkschaftsführern wiederum Gelegenheit ||| 0.200000 0.200000 0.600000 0.200000 0.200000 0.600000 
&apos; ||| Gewerkschaftsführern wiederum ||| 0.200000 0.200000 0.600000 0.200000 0.200000 0.600000 
&apos; ||| Gewerkschaftsführern ||| 0.200000 0.200000 0.600000 0.200000 0.200000 0.600000 
&apos; ||| auf einem ||| 0.600000 0.200000 0.200000 0.200000 0.200000 0.600000 
&apos; ||| die ||| 0.333333 0.111111 0.555556 0.555556 0.111111 0.333333 
&apos; ||| wiederum ||| 0.200000 0.200000 0.600000 0.600000 0.200000 0.200000 
&apos;s European ||| die Europäische ||| 0.200000 0.200000 0.600000 0.600000 0.200000 0.200000 
&apos;s nuclear ||| Atomprogramm des ||| 0.200000 0.600000 0.200000 0.200000 0.600000 0.200000 
&apos;s ||| &amp; nbsp ; Bereich ||| 0.200000 0.200000 0.600000 0.200000 0.200000 0.600000 
&apos;s ||| &amp; nbsp ; ||| 0.200000 0.200000 0.600000 0.200000 0.200000 0.600000 
&apos;s ||| &amp; nbsp ||| 0.200000 0.200000 0.600000 0.200000 0.200000 0.600000 
&apos;s ||| &apos; s ||| 0.600000 0.200000 0.200000 0.600000 0.200000 0.200000 
&apos;s ||| , den ||| 0.200000 0.200000 0.600000 0.200000 0.200000 0.600000 
&apos;s ||| , die die ||| 0.200000 0.200000 0.600000 0.600000 0.200000 0.200000 
&apos;s ||| , die sich den ||| 0.200000 0.200000 0.600000 0.600000 0.200000 0.200000 
&apos;s ||| , die vermutlich ||| 0.600000 0.200000 0.200000 0.200000 0.200000 0.600000 
&apos;s ||| , die ||| 0.200000 0.066667 0.733333 0.600000 0.200000 0.200000 
&apos;s ||| , ob eine Erweiterung der ||| 0.200000 0.200000 0.600000 0.200000 0.200000 0.600000 
&apos;s ||| , sollten sich die ||| 0.200000 0.200000 0.600000 0.600000 0.200000 0.200000 
&apos;s ||| , steckt der ||| 0.200000 0.200000 0.600000 0.200000 0.200000 0.600000 
&apos;s ||| , welchen ||| 0.200000 0.200000 0.600000 0.600000 0.200000 0.200000 
&apos;s ||| 1978 nach der ||| 0.200000 0.200000 0.600000 0.600000 0.200000 0.200000 
&apos;s ||| 216 ||| 0.200000 0.200000 0.600000 0.600000 0.200000 0.200000 
&apos;s ||| : die ||| 0.200000 0.200000 0.600000 0.200000 0.200000 0.600000 
&apos;s ||| : sehen wir uns ||| 0.200000 0.200000 0.600000 0.200000 0.200000 0.600000 
&apos;s ||| : sehen wir ||| 0.200000 0.200000 0.600000 0.200000 0.200000 0.600000 
&apos;s ||| : sehen ||| 0.200000 0.200000 0.600000 0.200000 0.200000 0.600000 
&apos;s ||| @-@ Partnerschaft ||| 0.200000 0.200000 0.600000 0.200000 0.200000 0.600000 
&apos;s ||| @-@ ||| 0.600000 0.200000 0.200000 0.200000 0.200000 0.600000 
&apos;s ||| Bedürfnisse der gesamten ||| 0.200000 0.600000 0.200000 0.200000 0.600000 0.200000 
&apos;s ||| Bedürfnisse der ||| 0.200000 0.600000 0.200000 0.200000 0.200000 0.600000 
&apos;s ||| Beiträge ||| 0.200000 0.200000 0.600000 0.200000 0.200000 0.600000 
&apos;s ||| Die ||| 0.200000 0.200000 0.600000 0.600000 0.200000 0.200000 
&apos;s ||| Eindrücke der ||| 0.200000 0.200000 0.600000 0.600000 0.200000 0.200000 
&apos;s ||| Einsatz ||| 0.200000 0.200000 0.600000 0.200000 0.200000 0.600000 
&apos;s ||| Erweiterung der Eurozone ||| 0.200000 0.200000 0.600000 0.200000 0.200000 0.600000 
&apos;s ||| Erweiterung der ||| 0.200000 0.200000 0.600000 0.200000 0.200000 0.600000 
&apos;s ||| Finanzierung der ||| 0.200000 0.200000 0.600000 0.600000 0.200000 0.200000 
&apos;s ||| Förderung der Wettbewerbsfähigkeit zu verfolgen ||| 0.200000 0.200000 0.600000 0.200000 0.200000 0.600000 
&apos;s ||| Förderung der Wettbewerbsfähigkeit zu ||| 0.200000 0.200000 0.600000 0.200000 0.200000 0.600000 
&apos;s ||| Förderung der Wettbewerbsfähigkeit ||| 0.200000 0.200000 0.600000 0.200000 0.200000 0.600000 
&apos;s ||| Förderung der ||| 0.142857 0.142857 0.714286 0.142857 0.142857 0.714286 
&apos;s ||| Grund sollten die ||| 0.200000 0.200000 0.600000 0.200000 0.600000 0.200000 
&apos;s ||| In der ||| 0.200000 0.200000 0.600000 0.600000 0.200000 0.200000 
&apos;s ||| Irans ||| 0.200000 0.200000 0.600000 0.200000 0.200000 0.600000 
&apos;s ||| Isoliertheit ||| 0.200000 0.200000 0.600000 0.200000 0.200000 0.600000 
&apos;s ||| Klimaforscher unserer Tage ||| 0.600000 0.200000 0.200000 0.200000 0.200000 0.600000 
&apos;s ||| Klimaforscher unserer ||| 0.600000 0.200000 0.200000 0.200000 0.200000 0.600000 
&apos;s ||| Klimaforscher ||| 0.600000 0.200000 0.200000 0.200000 0.200000 0.600000 
&apos;s ||| Machthaber wieder einmal die Initiative ||| 0.200000 0.200000 0.600000 0.600000 0.200000 0.200000 
&apos;s ||| Machthaber wieder einmal die ||| 0.200000 0.200000 0.600000 0.200000 0.200000 0.600000 
&apos;s ||| Machthaber wieder einmal ||| 0.200000 0.200000 0.600000 0.200000 0.200000 0.600000 
&apos;s ||| Machthaber wieder ||| 0.200000 0.200000 0.600000 0.200000 0.200000 0.600000 
&apos;s ||| Machthaber ||| 0.200000 0.200000 0.600000 0.200000 0.200000 0.600000 
&apos;s ||| NATO @-@ Partnerschaft ||| 0.200000 0.200000 0.600000 0.200000 0.200000 0.600000 
&apos;s ||| Partnerschaft ||| 0.200000 0.200000 0.600000 0.200000 0.200000 0.600000 
&apos;s ||| Reformprozess sehr ||| 0.600000 0.200000 0.200000 0.200000 0.200000 0.600000 
&apos;s ||| Reformprozess sehr ähnlich ||| 0.600000 0.200000 0.200000 0.200000 0.200000 0.600000 
&apos;s ||| Reformprozess ||| 0.600000 0.200000 0.200000 0.200000 0.200000 0.600000 
&apos;s ||| Region ||| 0.200000 0.200000 0.600000 0.200000 0.200000 0.600000 
&apos;s ||| Rettungsfonds in Form ||| 0.600000 0.200000 0.200000 0.200000 0.200000 0.600000 
&apos;s ||| Rettungsfonds in ||| 0.600000 0.200000 0.200000 0.200000 0.200000 0.600000 
&apos;s ||| Rettungsfonds ||| 0.600000 0.200000 0.200000 0.200000 0.200000 0.600000 
&apos;s ||| Schaffung der ||| 0.200000 0.200000 0.600000 0.200000 0.200000 0.600000 
&apos;s ||| Schweigen gebracht ||| 0.200000 0.200000 0.600000 0.200000 0.200000 0.600000 
&apos;s ||| Schweigen ||| 0.200000 0.200000 0.600000 0.200000 0.200000 0.600000 
&apos;s ||| Sicherheitsdienst ||| 0.600000 0.200000 0.200000 0.600000 0.200000 0.200000 
&apos;s ||| Sicht ist unser ||| 0.600000 0.200000 0.200000 0.200000 0.200000 0.600000 
&apos;s ||| Sicht ist ||| 0.600000 0.200000 0.200000 0.200000 0.200000 0.600000 
&apos;s ||| Sicht ||| 0.600000 0.200000 0.200000 0.200000 0.200000 0.600000 
&apos;s ||| Staates ||| 0.142857 0.142857 0.714286 0.142857 0.428571 0.428571 
&apos;s ||| Tag der ||| 0.200000 0.200000 0.600000 0.600000 0.200000 0.200000 
&apos;s ||| Taiwans ||| 0.200000 0.200000 0.600000 0.200000 0.200000 0.600000 
&apos;s ||| Träumen des ||| 0.600000 0.200000 0.200000 0.600000 0.200000 0.200000 
&apos;s ||| Umbruch der ||| 0.200000 0.200000 0.600000 0.200000 0.200000 0.600000 
&apos;s ||| Verfassung der ||| 0.200000 0.200000 0.600000 0.200000 0.600000 0.200000 
&apos;s ||| Vetorecht ||| 0.200000 0.200000 0.600000 0.200000 0.200000 0.600000 
&apos;s ||| Völker der ||| 0.200000 0.200000 0.600000 0.200000 0.600000 0.200000 
&apos;s ||| Welt weisen ||| 0.200000 0.200000 0.600000 0.200000 0.200000 0.600000 
&apos;s ||| Welt ||| 0.200000 0.200000 0.600000 0.200000 0.200000 0.600000 
&apos;s ||| Ziele zur Förderung der Wettbewerbsfähigkeit ||| 0.200000 0.200000 0.600000 0.200000 0.200000 0.600000 
&apos;s ||| Ziele zur Förderung der ||| 0.200000 0.200000 0.600000 0.200000 0.200000 0.600000 
&apos;s ||| aber die ||| 0.200000 0.200000 0.600000 0.200000 0.200000 0.600000 
&apos;s ||| als die ||| 0.200000 0.200000 0.600000 0.600000 0.200000 0.200000 
&apos;s ||| am ||| 0.538462 0.076923 0.384615 0.538462 0.076923 0.384615 
&apos;s ||| an der ||| 0.200000 0.200000 0.600000 0.600000 0.200000 0.200000 
&apos;s ||| anders ||| 0.600000 0.200000 0.200000 0.200000 0.200000 0.600000 
&apos;s ||| angebliche ||| 0.200000 0.200000 0.600000 0.600000 0.200000 0.200000 
&apos;s ||| angefangen bei der ||| 0.200000 0.200000 0.600000 0.200000 0.200000 0.600000 
&apos;s ||| auch seit Schaffung der ||| 0.200000 0.200000 0.600000 0.200000 0.200000 0.600000 
&apos;s ||| auf den Punkt gebracht ||| 0.600000 0.200000 0.200000 0.200000 0.200000 0.600000 
&apos;s ||| auf den Punkt ||| 0.600000 0.200000 0.200000 0.200000 0.200000 0.600000 
&apos;s ||| auf den ||| 0.600000 0.200000 0.200000 0.200000 0.200000 0.600000 
&apos;s ||| auf die ||| 0.600000 0.200000 0.200000 0.600000 0.200000 0.200000 
&apos;s ||| auffordert , ||| 0.200000 0.200000 0.600000 0.200000 0.200000 0.600000 
&apos;s ||| auffordert ||| 0.200000 0.200000 0.600000 0.200000 0.200000 0.600000 
&apos;s ||| aufgrund der ||| 0.200000 0.200000 0.600000 0.600000 0.200000 0.200000 
&apos;s ||| ausgedrückt : sehen wir uns ||| 0.200000 0.200000 0.600000 0.200000 0.200000 0.600000 
&apos;s ||| ausgedrückt : sehen wir ||| 0.200000 0.200000 0.600000 0.200000 0.200000 0.600000 
&apos;s ||| ausgedrückt : sehen ||| 0.200000 0.200000 0.600000 0.200000 0.200000 0.600000 
&apos;s ||| bei der Finanzierung der ||| 0.200000 0.200000 0.600000 0.600000 0.200000 0.200000 
&apos;s ||| bei der ||| 0.200000 0.200000 0.600000 0.200000 0.200000 0.600000 
&apos;s ||| bringt , die ||| 0.200000 0.200000 0.600000 0.600000 0.200000 0.200000 
&apos;s ||| dar , die ||| 0.200000 0.600000 0.200000 0.200000 0.600000 0.200000 
&apos;s ||| das ||| 0.200000 0.200000 0.600000 0.600000 0.200000 0.200000 
&apos;s ||| den 8. oder 9. ||| 0.200000 0.200000 0.600000 0.200000 0.200000 0.600000 
&apos;s ||| den 8. oder ||| 0.200000 0.200000 0.600000 0.200000 0.200000 0.600000 
&apos;s ||| den 8. ||| 0.200000 0.200000 0.600000 0.200000 0.200000 0.600000 
&apos;s ||| den Punkt gebracht ||| 0.200000 0.200000 0.600000 0.200000 0.200000 0.600000 
&apos;s ||| den Punkt ||| 0.200000 0.200000 0.600000 0.200000 0.200000 0.600000 
&apos;s ||| den ||| 0.102041 0.061224 0.836735 0.673469 0.020408 0.306122 
&apos;s ||| der Deregulierung der ||| 0.200000 0.200000 0.600000 0.200000 0.200000 0.600000 
&apos;s ||| der Deregulierung ||| 0.200000 0.200000 0.600000 0.200000 0.200000 0.600000 
&apos;s ||| der Erde zu ||| 0.200000 0.200000 0.600000 0.600000 0.200000 0.200000 
&apos;s ||| der Erde ||| 0.142857 0.142857 0.714286 0.142857 0.142857 0.714286 
&apos;s ||| der Euro @-@ Peripherieländer ein ||| 0.200000 0.600000 0.200000 0.200000 0.200000 0.600000 
&apos;s ||| der Euro @-@ Peripherieländer ||| 0.200000 0.600000 0.200000 0.200000 0.200000 0.600000 
&apos;s ||| der Euro @-@ ||| 0.200000 0.600000 0.200000 0.200000 0.200000 0.600000 
&apos;s ||| der Euro ||| 0.200000 0.600000 0.200000 0.200000 0.200000 0.600000 
&apos;s ||| der Eurozone ||| 0.142857 0.142857 0.714286 0.142857 0.142857 0.714286 
&apos;s ||| der Fall ||| 0.200000 0.200000 0.600000 0.200000 0.200000 0.600000 
&apos;s ||| der Finanzierung der ||| 0.200000 0.200000 0.600000 0.600000 0.200000 0.200000 
&apos;s ||| der Grund , ||| 0.200000 0.200000 0.600000 0.200000 0.200000 0.600000 
&apos;s ||| der Grund ||| 0.200000 0.200000 0.600000 0.200000 0.200000 0.600000 
&apos;s ||| der Isolierung ||| 0.200000 0.200000 0.600000 0.200000 0.600000 0.200000 
&apos;s ||| der Nato ||| 0.600000 0.200000 0.200000 0.600000 0.200000 0.200000 
&apos;s ||| der Wettbewerbsfähigkeit zu verfolgen . ||| 0.200000 0.200000 0.600000 0.200000 0.200000 0.600000 
&apos;s ||| der Wettbewerbsfähigkeit zu verfolgen ||| 0.200000 0.200000 0.600000 0.200000 0.200000 0.600000 
&apos;s ||| der Wettbewerbsfähigkeit zu ||| 0.200000 0.200000 0.600000 0.200000 0.200000 0.600000 
&apos;s ||| der Wettbewerbsfähigkeit ||| 0.200000 0.200000 0.600000 0.200000 0.200000 0.600000 
&apos;s ||| der Wähler ||| 0.200000 0.200000 0.600000 0.200000 0.200000 0.600000 
&apos;s ||| der amerikanischen Gesellschaft ||| 0.200000 0.200000 0.600000 0.200000 0.200000 0.600000 
&apos;s ||| der amerikanischen ||| 0.333333 0.111111 0.555556 0.555556 0.111111 0.333333 
&apos;s ||| der gesamten ||| 0.200000 0.200000 0.600000 0.200000 0.600000 0.200000 
&apos;s ||| der ||| 0.039301 0.126638 0.834061 0.449782 0.248908 0.301310 
&apos;s ||| des Staates ||| 0.200000 0.200000 0.600000 0.200000 0.200000 0.600000 
&apos;s ||| des ||| 0.230769 0.435897 0.333333 0.282051 0.487179 0.230769 
&apos;s ||| deuteten , ||| 0.600000 0.200000 0.200000 0.200000 0.200000 0.600000 
&apos;s ||| deuteten ||| 0.600000 0.200000 0.200000 0.200000 0.200000 0.600000 
&apos;s ||| die Beiträge ||| 0.200000 0.200000 0.600000 0.200000 0.200000 0.600000 
&apos;s ||| die Entscheidungen ||| 0.200000 0.200000 0.600000 0.200000 0.600000 0.200000 
&apos;s ||| die Fähigkeiten ||| 0.200000 0.200000 0.600000 0.200000 0.200000 0.600000 
&apos;s ||| die Förderung der ||| 0.200000 0.200000 0.600000 0.200000 0.200000 0.600000 
&apos;s ||| die Isoliertheit ||| 0.200000 0.200000 0.600000 0.200000 0.200000 0.600000 
&apos;s ||| die Nähe des von ||| 0.200000 0.200000 0.600000 0.200000 0.600000 0.200000 
&apos;s ||| die Nähe des ||| 0.200000 0.200000 0.600000 0.200000 0.200000 0.600000 
&apos;s ||| die Nähe ||| 0.200000 0.200000 0.600000 0.200000 0.200000 0.600000 
&apos;s ||| die Sorge ||| 0.200000 0.200000 0.600000 0.600000 0.200000 0.200000 
&apos;s ||| die Verfassung der ||| 0.200000 0.200000 0.600000 0.200000 0.600000 0.200000 
&apos;s ||| die Zahl der fest ||| 0.600000 0.200000 0.200000 0.600000 0.200000 0.200000 
&apos;s ||| die Zahl der ||| 0.600000 0.200000 0.200000 0.200000 0.200000 0.600000 
&apos;s ||| die Zahl ||| 0.600000 0.200000 0.200000 0.200000 0.200000 0.600000 
&apos;s ||| die amerikanische ||| 0.200000 0.200000 0.600000 0.600000 0.200000 0.200000 
&apos;s ||| die die ||| 0.200000 0.200000 0.600000 0.600000 0.200000 0.200000 
&apos;s ||| die sich den ||| 0.200000 0.200000 0.600000 0.600000 0.200000 0.200000 
&apos;s ||| die vermutlich ||| 0.200000 0.200000 0.600000 0.200000 0.200000 0.600000 
&apos;s ||| die wichtigsten ||| 0.200000 0.200000 0.600000 0.200000 0.200000 0.600000 
&apos;s ||| die ||| 0.072848 0.033113 0.894040 0.629139 0.178808 0.192053 
&apos;s ||| eine Erweiterung der Eurozone ||| 0.200000 0.200000 0.600000 0.200000 0.200000 0.600000 
&apos;s ||| eine Erweiterung der ||| 0.200000 0.200000 0.600000 0.200000 0.200000 0.600000 
&apos;s ||| ergeben sich die ||| 0.200000 0.200000 0.600000 0.600000 0.200000 0.200000 
&apos;s ||| erkannte im ||| 0.200000 0.200000 0.600000 0.600000 0.200000 0.200000 
&apos;s ||| führenden ||| 0.200000 0.200000 0.600000 0.600000 0.200000 0.200000 
&apos;s ||| führender ||| 0.600000 0.200000 0.200000 0.600000 0.200000 0.200000 
&apos;s ||| gegen die ||| 0.200000 0.200000 0.600000 0.200000 0.600000 0.200000 
&apos;s ||| gelitten ||| 0.600000 0.200000 0.200000 0.200000 0.200000 0.600000 
&apos;s ||| gemachten ||| 0.600000 0.200000 0.200000 0.600000 0.200000 0.200000 
&apos;s ||| gesetzliches ||| 0.600000 0.200000 0.200000 0.600000 0.200000 0.200000 
&apos;s ||| greifende ||| 0.200000 0.200000 0.600000 0.200000 0.200000 0.600000 
&apos;s ||| größten ||| 0.200000 0.200000 0.600000 0.200000 0.200000 0.600000 
&apos;s ||| hinsichtlich der ||| 0.200000 0.200000 0.600000 0.200000 0.200000 0.600000 
&apos;s ||| hinsichtlich ||| 0.428571 0.142857 0.428571 0.142857 0.142857 0.714286 
&apos;s ||| ihrem Vetorecht ||| 0.200000 0.200000 0.600000 0.200000 0.200000 0.600000 
&apos;s ||| im &amp; nbsp ; Bereich ||| 0.600000 0.200000 0.200000 0.200000 0.200000 0.600000 
&apos;s ||| im &amp; nbsp ; ||| 0.600000 0.200000 0.200000 0.200000 0.200000 0.600000 
&apos;s ||| im &amp; nbsp ||| 0.600000 0.200000 0.200000 0.200000 0.200000 0.600000 
&apos;s ||| im ||| 0.200000 0.200000 0.600000 0.600000 0.200000 0.200000 
&apos;s ||| in der Eurozone ||| 0.200000 0.200000 0.600000 0.200000 0.200000 0.600000 
&apos;s ||| in der amerikanischen Gesellschaft ||| 0.600000 0.200000 0.200000 0.200000 0.200000 0.600000 
&apos;s ||| in der amerikanischen ||| 0.600000 0.200000 0.200000 0.200000 0.200000 0.600000 
&apos;s ||| in der ||| 0.230769 0.076923 0.692308 0.230769 0.230769 0.538462 
&apos;s ||| in die Nähe des von ||| 0.200000 0.200000 0.600000 0.200000 0.600000 0.200000 
&apos;s ||| in die Nähe des ||| 0.200000 0.200000 0.600000 0.200000 0.200000 0.600000 
&apos;s ||| in die Nähe ||| 0.200000 0.200000 0.600000 0.200000 0.200000 0.600000 
&apos;s ||| in die ||| 0.200000 0.200000 0.600000 0.200000 0.200000 0.600000 
&apos;s ||| in ||| 0.263158 0.052632 0.684211 0.368421 0.263158 0.368421 
&apos;s ||| irgendwo in die Nähe des ||| 0.200000 0.200000 0.600000 0.200000 0.200000 0.600000 
&apos;s ||| irgendwo in die Nähe ||| 0.200000 0.200000 0.600000 0.200000 0.200000 0.600000 
&apos;s ||| irgendwo in die ||| 0.200000 0.200000 0.600000 0.200000 0.200000 0.600000 
&apos;s ||| ist ||| 0.692308 0.230769 0.076923 0.538462 0.076923 0.384615 
&apos;s ||| kürzlich seinen Befürchtungen angesichts ||| 0.200000 0.200000 0.600000 0.200000 0.200000 0.600000 
&apos;s ||| kürzlich seinen Befürchtungen ||| 0.200000 0.200000 0.600000 0.200000 0.200000 0.600000 
&apos;s ||| kürzlich seinen ||| 0.200000 0.200000 0.600000 0.200000 0.200000 0.600000 
&apos;s ||| kürzlich ||| 0.200000 0.200000 0.600000 0.200000 0.200000 0.600000 
&apos;s ||| lebenden ||| 0.600000 0.200000 0.200000 0.600000 0.200000 0.200000 
&apos;s ||| mit ihrem Vetorecht ||| 0.600000 0.200000 0.200000 0.200000 0.200000 0.600000 
&apos;s ||| nach der ||| 0.200000 0.200000 0.600000 0.600000 0.200000 0.200000 
&apos;s ||| nahm die Isoliertheit ||| 0.200000 0.200000 0.600000 0.200000 0.200000 0.600000 
&apos;s ||| nbsp ; Bereich ||| 0.200000 0.200000 0.600000 0.200000 0.200000 0.600000 
&apos;s ||| nbsp ; ||| 0.200000 0.200000 0.600000 0.200000 0.200000 0.600000 
&apos;s ||| nbsp ||| 0.200000 0.200000 0.600000 0.200000 0.200000 0.600000 
&apos;s ||| ob eine Erweiterung der Eurozone ||| 0.200000 0.200000 0.600000 0.200000 0.200000 0.600000 
&apos;s ||| ob eine Erweiterung der ||| 0.200000 0.200000 0.600000 0.200000 0.200000 0.600000 
&apos;s ||| planten ||| 0.600000 0.200000 0.200000 0.200000 0.200000 0.600000 
&apos;s ||| positive Eindrücke der ||| 0.200000 0.200000 0.600000 0.600000 0.200000 0.200000 
&apos;s ||| reagiert ||| 0.600000 0.200000 0.200000 0.200000 0.200000 0.600000 
&apos;s ||| s aussieht ||| 0.200000 0.200000 0.600000 0.600000 0.200000 0.200000 
&apos;s ||| s ||| 0.142857 0.142857 0.714286 0.428571 0.142857 0.428571 
&apos;s ||| schon der ||| 0.200000 0.200000 0.600000 0.200000 0.600000 0.200000 
&apos;s ||| sehen wir uns ||| 0.200000 0.200000 0.600000 0.200000 0.200000 0.600000 
&apos;s ||| sehen wir ||| 0.200000 0.200000 0.600000 0.200000 0.200000 0.600000 
&apos;s ||| sehen ||| 0.200000 0.200000 0.600000 0.200000 0.200000 0.600000 
&apos;s ||| sei ||| 0.714286 0.142857 0.142857 0.714286 0.142857 0.142857 
&apos;s ||| seinem ||| 0.200000 0.200000 0.600000 0.200000 0.200000 0.600000 
&apos;s ||| seit Schaffung der ||| 0.200000 0.200000 0.600000 0.200000 0.200000 0.600000 
&apos;s ||| sich auch seit Schaffung der ||| 0.200000 0.200000 0.600000 0.200000 0.200000 0.600000 
&apos;s ||| sich den ||| 0.200000 0.200000 0.600000 0.600000 0.200000 0.200000 
&apos;s ||| sich die ||| 0.111111 0.111111 0.777778 0.555556 0.111111 0.333333 
&apos;s ||| sich greifende ||| 0.200000 0.200000 0.600000 0.200000 0.200000 0.600000 
&apos;s ||| soll ||| 0.714286 0.142857 0.142857 0.714286 0.142857 0.142857 
&apos;s ||| sollten die ||| 0.200000 0.200000 0.600000 0.200000 0.600000 0.200000 
&apos;s ||| sollten sich die ||| 0.200000 0.200000 0.600000 0.600000 0.200000 0.200000 
&apos;s ||| steckt der ||| 0.200000 0.200000 0.600000 0.200000 0.200000 0.600000 
&apos;s ||| türkischen Machthaber wieder einmal die ||| 0.600000 0.200000 0.200000 0.200000 0.200000 0.600000 
&apos;s ||| türkischen Machthaber wieder einmal ||| 0.600000 0.200000 0.200000 0.200000 0.200000 0.600000 
&apos;s ||| türkischen Machthaber wieder ||| 0.600000 0.200000 0.200000 0.200000 0.200000 0.600000 
&apos;s ||| türkischen Machthaber ||| 0.600000 0.200000 0.200000 0.200000 0.200000 0.600000 
&apos;s ||| und der ||| 0.600000 0.200000 0.200000 0.600000 0.200000 0.200000 
&apos;s ||| uns ||| 0.333333 0.111111 0.555556 0.111111 0.111111 0.777778 
&apos;s ||| unter der ||| 0.200000 0.200000 0.600000 0.600000 0.200000 0.200000 
&apos;s ||| von den ||| 0.200000 0.200000 0.600000 0.200000 0.200000 0.600000 
&apos;s ||| von der ||| 0.200000 0.200000 0.600000 0.200000 0.200000 0.600000 
&apos;s ||| vorigen Jahrhunderts in ||| 0.200000 0.200000 0.600000 0.200000 0.200000 0.600000 
&apos;s ||| vorigen Jahrhunderts ||| 0.200000 0.200000 0.600000 0.200000 0.200000 0.600000 
&apos;s ||| vorigen ||| 0.200000 0.200000 0.600000 0.200000 0.200000 0.600000 
&apos;s ||| welchen ||| 0.200000 0.200000 0.600000 0.600000 0.200000 0.200000 
&apos;s ||| weltweit ||| 0.600000 0.200000 0.200000 0.200000 0.200000 0.600000 
&apos;s ||| wichtigsten ||| 0.200000 0.200000 0.600000 0.200000 0.200000 0.600000 
&apos;s ||| wir uns ||| 0.428571 0.142857 0.428571 0.142857 0.142857 0.714286 
&apos;s ||| wollen wir uns ||| 0.200000 0.200000 0.600000 0.200000 0.200000 0.600000 
&apos;s ||| wurde der ||| 0.200000 0.200000 0.600000 0.200000 0.600000 0.200000 
&apos;s ||| zum Tag der ||| 0.600000 0.200000 0.200000 0.600000 0.200000 0.200000 
&apos;s ||| zur Förderung der Wettbewerbsfähigkeit zu ||| 0.200000 0.200000 0.600000 0.200000 0.200000 0.600000 
&apos;s ||| zur Förderung der Wettbewerbsfähigkeit ||| 0.200000 0.200000 0.600000 0.200000 0.200000 0.600000 
&apos;s ||| zur Förderung der ||| 0.200000 0.200000 0.600000 0.200000 0.200000 0.600000 
&apos;s ||| ähnlich ||| 0.200000 0.200000 0.600000 0.200000 0.200000 0.600000 
&quot; crusaders ||| &quot; Kreuzfahrer ||| 0.600000 0.200000 0.200000 0.600000 0.200000 0.200000 
&quot; for ||| &quot; für ||| 0.714286 0.142857 0.142857 0.714286 0.142857 0.142857 
&quot; for ||| &quot; ||| 0.200000 0.200000 0.600000 0.200000 0.600000 0.200000 
&quot; for ||| kann &quot; ||| 0.200000 0.200000 0.600000 0.200000 0.600000 0.200000 
&quot; for ||| werden kann &quot; ||| 0.200000 0.200000 0.600000 0.200000 0.600000 0.200000 
&quot; one ||| &quot; des einen ||| 0.600000 0.200000 0.200000 0.200000 0.200000 0.600000 
&quot; one ||| &quot; des ||| 0.600000 0.200000 0.200000 0.200000 0.200000 0.600000 
&quot; one ||| &quot; ||| 0.600000 0.200000 0.200000 0.200000 0.200000 0.600000 
&quot; ||| &quot; ( Ein Jahrzehnt der ||| 0.200000 0.200000 0.600000 0.200000 0.200000 0.600000 
&quot; ||| &quot; ( Ein Jahrzehnt ||| 0.200000 0.200000 0.600000 0.200000 0.200000 0.600000 
&quot; ||| &quot; ( Ein ||| 0.200000 0.200000 0.600000 0.200000 0.200000 0.600000 
&quot; ||| &quot; ( Schock und ||| 0.200000 0.600000 0.200000 0.200000 0.200000 0.600000 
&quot; ||| &quot; ( Schock ||| 0.200000 0.600000 0.200000 0.200000 0.200000 0.600000 
&quot; ||| &quot; ( ||| 0.111111 0.333333 0.555556 0.111111 0.333333 0.555556 
&quot; ||| &quot; , an dem ||| 0.200000 0.200000 0.600000 0.200000 0.200000 0.600000 
&quot; ||| &quot; , an ||| 0.200000 0.200000 0.600000 0.200000 0.200000 0.600000 
&quot; ||| &quot; , dann ||| 0.600000 0.200000 0.200000 0.200000 0.200000 0.600000 
&quot; ||| &quot; , die ||| 0.428571 0.142857 0.428571 0.142857 0.142857 0.714286 
&quot; ||| &quot; , versäumt hätten ||| 0.200000 0.200000 0.600000 0.200000 0.600000 0.200000 
&quot; ||| &quot; , versäumt ||| 0.200000 0.200000 0.600000 0.200000 0.200000 0.600000 
&quot; ||| &quot; , ||| 0.600000 0.085714 0.314286 0.371429 0.028571 0.600000 
&quot; ||| &quot; - ||| 0.428571 0.142857 0.428571 0.428571 0.142857 0.428571 
&quot; ||| &quot; Erweiterung der ||| 0.200000 0.200000 0.600000 0.200000 0.200000 0.600000 
&quot; ||| &quot; Erweiterung ||| 0.200000 0.200000 0.600000 0.200000 0.200000 0.600000 
&quot; ||| &quot; Glasnuckel ||| 0.200000 0.200000 0.600000 0.200000 0.200000 0.600000 
&quot; ||| &quot; Gruppe der ||| 0.600000 0.200000 0.200000 0.200000 0.200000 0.600000 
&quot; ||| &quot; Gruppe ||| 0.600000 0.200000 0.200000 0.200000 0.200000 0.600000 
&quot; ||| &quot; Land ||| 0.200000 0.200000 0.600000 0.600000 0.200000 0.200000 
&quot; ||| &quot; als ||| 0.200000 0.600000 0.200000 0.200000 0.200000 0.600000 
&quot; ||| &quot; auf ||| 0.600000 0.200000 0.200000 0.600000 0.200000 0.200000 
&quot; ||| &quot; aufzubauen ||| 0.200000 0.200000 0.600000 0.200000 0.600000 0.200000 
&quot; ||| &quot; betrachtet ||| 0.200000 0.200000 0.600000 0.200000 0.600000 0.200000 
&quot; ||| &quot; bezeichnet ||| 0.142857 0.142857 0.714286 0.142857 0.428571 0.428571 
&quot; ||| &quot; bisher ||| 0.200000 0.200000 0.600000 0.200000 0.200000 0.600000 
&quot; ||| &quot; brauchen ||| 0.200000 0.200000 0.600000 0.200000 0.600000 0.200000 
&quot; ||| &quot; dafür ||| 0.600000 0.200000 0.200000 0.600000 0.200000 0.200000 
&quot; ||| &quot; dank ||| 0.600000 0.200000 0.200000 0.600000 0.200000 0.200000 
&quot; ||| &quot; der ||| 0.600000 0.200000 0.200000 0.600000 0.200000 0.200000 
&quot; ||| &quot; des einen ||| 0.600000 0.200000 0.200000 0.200000 0.200000 0.600000 
&quot; ||| &quot; des ||| 0.600000 0.200000 0.200000 0.200000 0.200000 0.600000 
&quot; ||| &quot; distanzierten ||| 0.200000 0.200000 0.600000 0.200000 0.600000 0.200000 
&quot; ||| &quot; eines ||| 0.200000 0.600000 0.200000 0.200000 0.200000 0.600000 
&quot; ||| &quot; einstufen ||| 0.200000 0.200000 0.600000 0.200000 0.600000 0.200000 
&quot; ||| &quot; erhält ||| 0.200000 0.200000 0.600000 0.600000 0.200000 0.200000 
&quot; ||| &quot; finanziert hat , um ||| 0.600000 0.200000 0.200000 0.200000 0.200000 0.600000 
&quot; ||| &quot; finanziert hat , ||| 0.600000 0.200000 0.200000 0.200000 0.200000 0.600000 
&quot; ||| &quot; finanziert hat ||| 0.600000 0.200000 0.200000 0.200000 0.200000 0.600000 
&quot; ||| &quot; finanziert ||| 0.600000 0.200000 0.200000 0.200000 0.200000 0.600000 
&quot; ||| &quot; führen , ||| 0.600000 0.200000 0.200000 0.600000 0.200000 0.200000 
&quot; ||| &quot; führen ||| 0.600000 0.200000 0.200000 0.200000 0.200000 0.600000 
&quot; ||| &quot; genannt ||| 0.200000 0.200000 0.600000 0.200000 0.600000 0.200000 
&quot; ||| &quot; gewesen zu bekunden , ||| 0.600000 0.200000 0.200000 0.200000 0.200000 0.600000 
&quot; ||| &quot; gewesen zu bekunden ||| 0.600000 0.200000 0.200000 0.200000 0.200000 0.600000 
&quot; ||| &quot; gewesen zu ||| 0.600000 0.200000 0.200000 0.200000 0.200000 0.600000 
&quot; ||| &quot; gewesen ||| 0.600000 0.200000 0.200000 0.200000 0.200000 0.600000 
&quot; ||| &quot; gründen müsse ||| 0.200000 0.200000 0.600000 0.200000 0.600000 0.200000 
&quot; ||| &quot; gründen ||| 0.200000 0.200000 0.600000 0.200000 0.200000 0.600000 
&quot; ||| &quot; hätte ||| 0.200000 0.200000 0.600000 0.200000 0.200000 0.600000 
&quot; ||| &quot; ist , ||| 0.200000 0.200000 0.600000 0.200000 0.200000 0.600000 
&quot; ||| &quot; ist ||| 0.200000 0.200000 0.600000 0.200000 0.200000 0.600000 
&quot; ||| &quot; ja ||| 0.600000 0.200000 0.200000 0.200000 0.200000 0.600000 
&quot; ||| &quot; jetzt sehr genau ||| 0.200000 0.200000 0.600000 0.200000 0.200000 0.600000 
&quot; ||| &quot; jetzt sehr ||| 0.200000 0.200000 0.600000 0.200000 0.200000 0.600000 
&quot; ||| &quot; jetzt ||| 0.200000 0.200000 0.600000 0.200000 0.200000 0.600000 
&quot; ||| &quot; konzentriert ||| 0.200000 0.200000 0.600000 0.200000 0.600000 0.200000 
&quot; ||| &quot; mit ||| 0.600000 0.200000 0.200000 0.600000 0.200000 0.200000 
&quot; ||| &quot; nicht ||| 0.200000 0.200000 0.600000 0.200000 0.600000 0.200000 
&quot; ||| &quot; nur ||| 0.600000 0.200000 0.200000 0.200000 0.200000 0.600000 
&quot; ||| &quot; planen , ||| 0.600000 0.200000 0.200000 0.600000 0.200000 0.200000 
&quot; ||| &quot; planen ||| 0.600000 0.200000 0.200000 0.200000 0.200000 0.600000 
&quot; ||| &quot; stattfinden ||| 0.600000 0.200000 0.200000 0.200000 0.200000 0.600000 
&quot; ||| &quot; tut ||| 0.200000 0.200000 0.600000 0.200000 0.200000 0.600000 
&quot; ||| &quot; umgesetzt ||| 0.200000 0.200000 0.600000 0.200000 0.600000 0.200000 
&quot; ||| &quot; unterstützen ||| 0.600000 0.200000 0.200000 0.600000 0.200000 0.200000 
&quot; ||| &quot; wie ||| 0.200000 0.600000 0.200000 0.200000 0.200000 0.600000 
&quot; ||| &quot; wieder aufnehmen ||| 0.600000 0.200000 0.200000 0.200000 0.200000 0.600000 
&quot; ||| &quot; wieder ||| 0.600000 0.200000 0.200000 0.200000 0.200000 0.600000 
&quot; ||| &quot; wird ||| 0.200000 0.200000 0.600000 0.200000 0.600000 0.200000 
&quot; ||| &quot; zu enthüllen ||| 0.200000 0.200000 0.600000 0.600000 0.200000 0.200000 
&quot; ||| &quot; zu entwickeln ||| 0.200000 0.200000 0.600000 0.200000 0.200000 0.600000 
&quot; ||| &quot; zu träumen ||| 0.200000 0.200000 0.600000 0.200000 0.600000 0.200000 
&quot; ||| &quot; zu ||| 0.230769 0.230769 0.538462 0.076923 0.076923 0.846154 
&quot; ||| &quot; zugeschrieben ; ||| 0.200000 0.200000 0.600000 0.600000 0.200000 0.200000 
&quot; ||| &quot; zugeschrieben ||| 0.200000 0.200000 0.600000 0.200000 0.200000 0.600000 
&quot; ||| &quot; ||| 0.614277 0.036269 0.349453 0.656880 0.116868 0.226252 
&quot; ||| &quot; über 90 % sagten ||| 0.600000 0.200000 0.200000 0.200000 0.200000 0.600000 
&quot; ||| &quot; über 90 % ||| 0.600000 0.200000 0.200000 0.200000 0.200000 0.600000 
&quot; ||| &quot; über 90 ||| 0.600000 0.200000 0.200000 0.200000 0.200000 0.600000 
&quot; ||| &quot; über ||| 0.600000 0.200000 0.200000 0.200000 0.200000 0.600000 
&quot; ||| , &quot; ||| 0.454545 0.090909 0.454545 0.818182 0.090909 0.090909 
&quot; ||| , ,großen ||| 0.200000 0.200000 0.600000 0.600000 0.200000 0.200000 
&quot; ||| , als den &quot; ||| 0.600000 0.200000 0.200000 0.600000 0.200000 0.200000 
&quot; ||| , den &quot; ||| 0.200000 0.200000 0.600000 0.200000 0.200000 0.600000 
&quot; ||| , in denen der &quot; ||| 0.200000 0.200000 0.600000 0.200000 0.200000 0.600000 
&quot; ||| , zu erklären : &quot; ||| 0.600000 0.200000 0.200000 0.600000 0.200000 0.200000 
&quot; ||| ,großen ||| 0.200000 0.200000 0.600000 0.600000 0.200000 0.200000 
&quot; ||| . daher musste die ||| 0.200000 0.200000 0.600000 0.200000 0.200000 0.600000 
&quot; ||| . daher musste ||| 0.200000 0.200000 0.600000 0.200000 0.200000 0.600000 
&quot; ||| . daher ||| 0.200000 0.200000 0.600000 0.200000 0.200000 0.600000 
&quot; ||| . ||| 0.111111 0.111111 0.777778 0.111111 0.111111 0.777778 
&quot; ||| : &quot; ||| 0.230769 0.076923 0.692308 0.692308 0.076923 0.230769 
&quot; ||| Bedenken zu haben , ||| 0.200000 0.200000 0.600000 0.200000 0.200000 0.600000 
&quot; ||| Bedenken zu haben ||| 0.200000 0.200000 0.600000 0.200000 0.200000 0.600000 
&quot; ||| Bedenken zu ||| 0.200000 0.200000 0.600000 0.200000 0.200000 0.600000 
&quot; ||| Bedenken ||| 0.200000 0.200000 0.600000 0.200000 0.200000 0.600000 
&quot; ||| Demokratien nach &quot; ||| 0.200000 0.200000 0.600000 0.600000 0.200000 0.200000 
&quot; ||| Einführung der Solarkraftwerke ||| 0.200000 0.200000 0.600000 0.200000 0.200000 0.600000 
&quot; ||| Einsatz ||| 0.200000 0.200000 0.600000 0.200000 0.200000 0.600000 
&quot; ||| Frauen &quot; ||| 0.200000 0.200000 0.600000 0.600000 0.200000 0.200000 
&quot; ||| Gerüchten zufolge ||| 0.600000 0.200000 0.200000 0.200000 0.200000 0.600000 
&quot; ||| Gerüchten ||| 0.600000 0.200000 0.200000 0.200000 0.200000 0.600000 
&quot; ||| Glasnuckel &quot; ( ||| 0.200000 0.200000 0.600000 0.200000 0.600000 0.200000 
&quot; ||| Glasnuckel &quot; ||| 0.200000 0.200000 0.600000 0.200000 0.200000 0.600000 
&quot; ||| Ideologen der , ,großen ||| 0.200000 0.200000 0.600000 0.600000 0.200000 0.200000 
&quot; ||| Jahre hinein setzte ||| 0.600000 0.200000 0.200000 0.200000 0.200000 0.600000 
&quot; ||| Jahre hinein ||| 0.600000 0.200000 0.200000 0.200000 0.200000 0.600000 
&quot; ||| Jahre ||| 0.600000 0.200000 0.200000 0.200000 0.200000 0.600000 
&quot; ||| Jahren seine ||| 0.600000 0.200000 0.200000 0.600000 0.200000 0.200000 
&quot; ||| Jahren ||| 0.600000 0.200000 0.200000 0.200000 0.200000 0.600000 
&quot; ||| Job &quot; ||| 0.200000 0.200000 0.600000 0.200000 0.200000 0.600000 
&quot; ||| Krieg &quot; ||| 0.200000 0.200000 0.600000 0.200000 0.200000 0.600000 
&quot; ||| Ministerien bereits vorangetrieben ||| 0.200000 0.200000 0.600000 0.200000 0.200000 0.600000 
&quot; ||| Ministerien bereits ||| 0.200000 0.200000 0.600000 0.200000 0.200000 0.600000 
&quot; ||| Ministerien zu ||| 0.200000 0.200000 0.600000 0.200000 0.200000 0.600000 
&quot; ||| Ministerien ||| 0.142857 0.142857 0.714286 0.142857 0.142857 0.714286 
&quot; ||| Mitleidenschaft ziehen ||| 0.200000 0.200000 0.600000 0.200000 0.200000 0.600000 
&quot; ||| Mitleidenschaft ||| 0.200000 0.200000 0.600000 0.200000 0.200000 0.600000 
&quot; ||| Populisten ||| 0.200000 0.200000 0.600000 0.200000 0.200000 0.600000 
&quot; ||| Sinn hätten &quot; ||| 0.200000 0.200000 0.600000 0.200000 0.600000 0.200000 
&quot; ||| Solarkraftwerke ||| 0.200000 0.200000 0.600000 0.200000 0.200000 0.600000 
&quot; ||| Status als ein &quot; Land ||| 0.200000 0.200000 0.600000 0.600000 0.200000 0.200000 
&quot; ||| Status als ein &quot; ||| 0.200000 0.200000 0.600000 0.200000 0.200000 0.600000 
&quot; ||| Stelle steht &quot; ||| 0.200000 0.200000 0.600000 0.200000 0.200000 0.600000 
&quot; ||| Theorie optimaler Währungsräume &quot; ||| 0.200000 0.200000 0.600000 0.600000 0.200000 0.200000 
&quot; ||| Titel &quot; ||| 0.200000 0.200000 0.600000 0.600000 0.200000 0.200000 
&quot; ||| Verteidigungsbereichs enthalten , der ||| 0.600000 0.200000 0.200000 0.200000 0.200000 0.600000 
&quot; ||| Verteidigungsbereichs enthalten , ||| 0.600000 0.200000 0.200000 0.200000 0.200000 0.600000 
&quot; ||| Verteidigungsbereichs enthalten ||| 0.600000 0.200000 0.200000 0.200000 0.200000 0.600000 
&quot; ||| Verteidigungsbereichs ||| 0.600000 0.200000 0.200000 0.200000 0.200000 0.600000 
&quot; ||| Wahrheit über den Krieg &quot; ||| 0.200000 0.200000 0.600000 0.200000 0.200000 0.600000 
&quot; ||| Wirtschaft &quot; ||| 0.200000 0.200000 0.600000 0.200000 0.200000 0.600000 
&quot; ||| Währungsräume &quot; ||| 0.200000 0.200000 0.600000 0.600000 0.200000 0.200000 
&quot; ||| als &quot; ||| 0.142857 0.142857 0.714286 0.142857 0.428571 0.428571 
&quot; ||| als den &quot; ||| 0.200000 0.200000 0.600000 0.600000 0.200000 0.200000 
&quot; ||| als ein &quot; Land ||| 0.200000 0.200000 0.600000 0.600000 0.200000 0.200000 
&quot; ||| als ein &quot; ||| 0.200000 0.200000 0.600000 0.200000 0.200000 0.600000 
&quot; ||| an erster Stelle steht &quot; ||| 0.200000 0.200000 0.600000 0.200000 0.200000 0.600000 
&quot; ||| beenden , selbst ||| 0.200000 0.200000 0.600000 0.200000 0.200000 0.600000 
&quot; ||| beenden , ||| 0.200000 0.200000 0.600000 0.200000 0.200000 0.600000 
&quot; ||| beenden ||| 0.200000 0.200000 0.600000 0.200000 0.200000 0.600000 
&quot; ||| begrenzen . ||| 0.200000 0.200000 0.600000 0.200000 0.200000 0.600000 
&quot; ||| bereuen werden ||| 0.200000 0.200000 0.600000 0.200000 0.200000 0.600000 
&quot; ||| bereuen ||| 0.200000 0.200000 0.600000 0.200000 0.200000 0.600000 
&quot; ||| bisher als &quot; ||| 0.200000 0.200000 0.600000 0.200000 0.200000 0.600000 
&quot; ||| dabei um Demokratien nach &quot; ||| 0.200000 0.200000 0.600000 0.600000 0.200000 0.200000 
&quot; ||| das &quot; ||| 0.200000 0.200000 0.600000 0.600000 0.200000 0.200000 
&quot; ||| dass &quot; ||| 0.200000 0.200000 0.600000 0.600000 0.200000 0.200000 
&quot; ||| decken . daher musste die ||| 0.200000 0.200000 0.600000 0.200000 0.200000 0.600000 
&quot; ||| decken . daher musste ||| 0.200000 0.200000 0.600000 0.200000 0.200000 0.600000 
&quot; ||| decken . daher ||| 0.200000 0.200000 0.600000 0.200000 0.200000 0.600000 
&quot; ||| decken . ||| 0.200000 0.200000 0.600000 0.200000 0.200000 0.600000 
&quot; ||| dem &quot; ||| 0.600000 0.200000 0.200000 0.600000 0.200000 0.200000 
&quot; ||| den &quot; ||| 0.230769 0.076923 0.692308 0.692308 0.076923 0.230769 
&quot; ||| den Einsatz ||| 0.200000 0.200000 0.600000 0.200000 0.200000 0.600000 
&quot; ||| den Ideologen der , ,großen ||| 0.600000 0.200000 0.200000 0.600000 0.200000 0.200000 
&quot; ||| den Krieg &quot; ||| 0.200000 0.200000 0.600000 0.200000 0.200000 0.600000 
&quot; ||| denen der &quot; ||| 0.200000 0.200000 0.600000 0.200000 0.200000 0.600000 
&quot; ||| der &quot; ||| 0.391304 0.043478 0.565217 0.826087 0.043478 0.130435 
&quot; ||| der , ,großen ||| 0.200000 0.200000 0.600000 0.600000 0.200000 0.200000 
&quot; ||| der Ministerien bereits vorangetrieben ||| 0.600000 0.200000 0.200000 0.200000 0.200000 0.600000 
&quot; ||| der Ministerien bereits ||| 0.600000 0.200000 0.200000 0.200000 0.200000 0.600000 
&quot; ||| der Ministerien zu ||| 0.600000 0.200000 0.200000 0.200000 0.200000 0.600000 
&quot; ||| der Ministerien ||| 0.714286 0.142857 0.142857 0.142857 0.142857 0.714286 
&quot; ||| der Solarkraftwerke ||| 0.200000 0.200000 0.600000 0.200000 0.200000 0.600000 
&quot; ||| des &quot; ||| 0.600000 0.200000 0.200000 0.600000 0.200000 0.200000 
&quot; ||| deutlich : &quot; ||| 0.200000 0.200000 0.600000 0.600000 0.200000 0.200000 
&quot; ||| die &quot; ||| 0.555556 0.111111 0.333333 0.777778 0.111111 0.111111 
&quot; ||| die der &quot; ||| 0.600000 0.200000 0.200000 0.600000 0.200000 0.200000 
&quot; ||| dieser &quot; ||| 0.200000 0.200000 0.600000 0.600000 0.200000 0.200000 
&quot; ||| durchgeführt wurde &quot; ||| 0.200000 0.200000 0.600000 0.200000 0.600000 0.200000 
&quot; ||| ein &quot; Land ||| 0.200000 0.200000 0.600000 0.600000 0.200000 0.200000 
&quot; ||| ein &quot; ||| 0.200000 0.200000 0.600000 0.200000 0.200000 0.600000 
&quot; ||| einen &quot; ||| 0.200000 0.200000 0.600000 0.600000 0.200000 0.200000 
&quot; ||| erhöhen &quot; ||| 0.200000 0.200000 0.600000 0.200000 0.600000 0.200000 
&quot; ||| erklären : &quot; ||| 0.200000 0.200000 0.600000 0.600000 0.200000 0.200000 
&quot; ||| erster Stelle steht &quot; ||| 0.200000 0.200000 0.600000 0.200000 0.200000 0.600000 
&quot; ||| es nicht geschafft ||| 0.200000 0.200000 0.600000 0.200000 0.200000 0.600000 
&quot; ||| für einen &quot; ||| 0.600000 0.200000 0.200000 0.600000 0.200000 0.200000 
&quot; ||| geschafft ||| 0.200000 0.200000 0.600000 0.200000 0.200000 0.600000 
&quot; ||| geschehen &quot; ||| 0.200000 0.200000 0.600000 0.200000 0.600000 0.200000 
&quot; ||| hängt letztlich davon ab , ||| 0.200000 0.200000 0.600000 0.200000 0.200000 0.600000 
&quot; ||| hängt letztlich davon ab ||| 0.200000 0.200000 0.600000 0.200000 0.200000 0.600000 
&quot; ||| hängt letztlich davon ||| 0.200000 0.200000 0.600000 0.200000 0.200000 0.600000 
&quot; ||| hängt letztlich ||| 0.200000 0.200000 0.600000 0.200000 0.200000 0.600000 
&quot; ||| hängt ||| 0.200000 0.200000 0.600000 0.200000 0.200000 0.600000 
&quot; ||| hätten &quot; ||| 0.200000 0.200000 0.600000 0.200000 0.600000 0.200000 
&quot; ||| in &quot; ||| 0.600000 0.200000 0.200000 0.600000 0.200000 0.200000 
&quot; ||| in Mitleidenschaft ziehen ||| 0.200000 0.200000 0.600000 0.200000 0.200000 0.600000 
&quot; ||| in Mitleidenschaft ||| 0.200000 0.200000 0.600000 0.200000 0.200000 0.600000 
&quot; ||| in denen der &quot; ||| 0.200000 0.200000 0.600000 0.200000 0.200000 0.600000 
&quot; ||| kann &quot; ||| 0.200000 0.200000 0.600000 0.200000 0.600000 0.200000 
&quot; ||| keinerlei Bedenken zu haben , ||| 0.200000 0.200000 0.600000 0.200000 0.200000 0.600000 
&quot; ||| keinerlei Bedenken zu haben ||| 0.200000 0.200000 0.600000 0.200000 0.200000 0.600000 
&quot; ||| keinerlei Bedenken zu ||| 0.200000 0.200000 0.600000 0.200000 0.200000 0.600000 
&quot; ||| keinerlei Bedenken ||| 0.200000 0.200000 0.600000 0.200000 0.200000 0.600000 
&quot; ||| mit &quot; ||| 0.200000 0.200000 0.600000 0.600000 0.200000 0.200000 
&quot; ||| mit den &quot; ||| 0.600000 0.200000 0.200000 0.600000 0.200000 0.200000 
&quot; ||| mit zunehmender Einführung der Solarkraftwerke ||| 0.200000 0.200000 0.600000 0.200000 0.200000 0.600000 
&quot; ||| mächtigen ||| 0.200000 0.200000 0.600000 0.600000 0.200000 0.200000 
&quot; ||| nach &quot; ||| 0.200000 0.200000 0.600000 0.600000 0.200000 0.200000 
&quot; ||| nicht geschafft ||| 0.200000 0.200000 0.600000 0.200000 0.200000 0.600000 
&quot; ||| nichts geschehen &quot; ||| 0.200000 0.200000 0.600000 0.200000 0.600000 0.200000 
&quot; ||| nimmt ||| 0.600000 0.200000 0.200000 0.200000 0.200000 0.600000 
&quot; ||| nötig &quot; ||| 0.200000 0.200000 0.600000 0.200000 0.200000 0.600000 
&quot; ||| optimaler Währungsräume &quot; ||| 0.200000 0.200000 0.600000 0.600000 0.200000 0.200000 
&quot; ||| propagiert wird ||| 0.600000 0.200000 0.200000 0.200000 0.200000 0.600000 
&quot; ||| propagiert ||| 0.600000 0.200000 0.200000 0.200000 0.200000 0.600000 
&quot; ||| rücken ||| 0.200000 0.200000 0.600000 0.200000 0.200000 0.600000 
&quot; ||| sei nichts geschehen &quot; ||| 0.200000 0.200000 0.600000 0.200000 0.600000 0.200000 
&quot; ||| seinen &quot; ||| 0.200000 0.200000 0.600000 0.600000 0.200000 0.200000 
&quot; ||| seinen Status als ein &quot; ||| 0.200000 0.200000 0.600000 0.200000 0.200000 0.600000 
&quot; ||| steht &quot; ||| 0.200000 0.200000 0.600000 0.200000 0.200000 0.600000 
&quot; ||| tun &quot; ||| 0.200000 0.200000 0.600000 0.200000 0.600000 0.200000 
&quot; ||| um &quot; ||| 0.600000 0.200000 0.200000 0.600000 0.200000 0.200000 
&quot; ||| um Demokratien nach &quot; ||| 0.200000 0.200000 0.600000 0.600000 0.200000 0.200000 
&quot; ||| verkraften ||| 0.200000 0.200000 0.600000 0.200000 0.200000 0.600000 
&quot; ||| vermeiden &quot; ||| 0.200000 0.200000 0.600000 0.200000 0.600000 0.200000 
&quot; ||| werden kann &quot; ||| 0.200000 0.200000 0.600000 0.200000 0.600000 0.200000 
&quot; ||| wurde &quot; ||| 0.200000 0.200000 0.600000 0.200000 0.600000 0.200000 
&quot; ||| zu beenden , selbst ||| 0.600000 0.200000 0.200000 0.200000 0.200000 0.600000 
&quot; ||| zu beenden , ||| 0.600000 0.200000 0.200000 0.200000 0.200000 0.600000 
&quot; ||| zu beenden ||| 0.600000 0.200000 0.200000 0.200000 0.200000 0.600000 
&quot; ||| zu begrenzen . ||| 0.600000 0.200000 0.200000 0.200000 0.200000 0.600000 
&quot; ||| zu erhöhen &quot; ||| 0.200000 0.200000 0.600000 0.200000 0.600000 0.200000 
&quot; ||| zu erklären : &quot; ||| 0.200000 0.200000 0.600000 0.600000 0.200000 0.200000 
&quot; ||| zu rücken ||| 0.200000 0.200000 0.600000 0.200000 0.200000 0.600000 
&quot; ||| zu verkraften ||| 0.200000 0.200000 0.600000 0.200000 0.200000 0.600000 
&quot; ||| zugrunde ||| 0.200000 0.200000 0.600000 0.600000 0.200000 0.200000 
&quot; ||| zunehmender Einführung der Solarkraftwerke ||| 0.200000 0.200000 0.600000 0.200000 0.200000 0.600000 
&quot; ||| Überlebensrezept ||| 0.200000 0.200000 0.600000 0.200000 0.200000 0.600000 
&quot; ||| über das &quot; ||| 0.200000 0.200000 0.600000 0.600000 0.200000 0.200000 
&quot; ||| über den Krieg &quot; ||| 0.200000 0.200000 0.600000 0.200000 0.200000 0.600000 
( IAEA ) ||| ( IAEO ) ||| 0.600000 0.200000 0.200000 0.600000 0.200000 0.200000 
( IAEA ||| ( IAEO ||| 0.600000 0.200000 0.200000 0.600000 0.200000 0.200000 
( a ||| ( ein ||| 0.200000 0.200000 0.600000 0.600000 0.200000 0.200000 
( a ||| ( eine ||| 0.600000 0.200000 0.200000 0.600000 0.200000 0.200000 
( a ||| bilden könnten ( ein ||| 0.200000 0.200000 0.600000 0.600000 0.200000 0.200000 
( a ||| heraus bilden könnten ( ein ||| 0.600000 0.200000 0.200000 0.600000 0.200000 0.200000 
( a ||| könnten ( ein ||| 0.200000 0.200000 0.600000 0.600000 0.200000 0.200000 
( the ||| ( dem ||| 0.714286 0.142857 0.142857 0.714286 0.142857 0.142857 
( the ||| ( der ||| 0.600000 0.200000 0.200000 0.600000 0.200000 0.200000 
( the ||| ( die ||| 0.714286 0.142857 0.142857 0.714286 0.142857 0.142857 
( the ||| die ||| 0.200000 0.200000 0.600000 0.600000 0.200000 0.200000 
( the ||| war die ||| 0.200000 0.200000 0.600000 0.600000 0.200000 0.200000 
( ||| ( alles darüber hinaus ||| 0.200000 0.200000 0.600000 0.200000 0.200000 0.600000 
( ||| ( alles darüber ||| 0.200000 0.200000 0.600000 0.200000 0.200000 0.600000 
( ||| ( alles ||| 0.200000 0.200000 0.600000 0.200000 0.200000 0.600000 
( ||| ( bezogen ||| 0.600000 0.200000 0.200000 0.600000 0.200000 0.200000 
( ||| ( da die ||| 0.600000 0.200000 0.200000 0.600000 0.200000 0.200000 
( ||| ( da ||| 0.600000 0.200000 0.200000 0.200000 0.200000 0.600000 
( ||| ( dem Aufbau ||| 0.600000 0.200000 0.200000 0.200000 0.200000 0.600000 
( ||| ( dem ||| 0.600000 0.200000 0.200000 0.200000 0.200000 0.600000 
( ||| ( die ||| 0.428571 0.142857 0.428571 0.428571 0.142857 0.428571 
( ||| ( dies , ||| 0.600000 0.200000 0.200000 0.200000 0.200000 0.600000 
( ||| ( dies ||| 0.600000 0.200000 0.200000 0.200000 0.200000 0.600000 
( ||| ( mittlerweile ||| 0.600000 0.200000 0.200000 0.200000 0.200000 0.600000 
( ||| ( nur ||| 0.200000 0.200000 0.600000 0.200000 0.200000 0.600000 
( ||| ( ohne ||| 0.200000 0.200000 0.600000 0.200000 0.200000 0.600000 
( ||| ( und ||| 0.200000 0.200000 0.600000 0.200000 0.200000 0.600000 
( ||| ( ||| 0.758701 0.011601 0.229698 0.856148 0.030162 0.113689 
( ||| Kernwaffen ( ||| 0.200000 0.200000 0.600000 0.600000 0.200000 0.200000 
( ||| Kontrolle war ( ||| 0.200000 0.200000 0.600000 0.600000 0.200000 0.200000 
( ||| Nordamerika ( ||| 0.600000 0.200000 0.200000 0.600000 0.200000 0.200000 
( ||| Riffe ( ||| 0.200000 0.200000 0.600000 0.600000 0.200000 0.200000 
( ||| Tabelle ||| 0.200000 0.200000 0.600000 0.200000 0.200000 0.600000 
( ||| bewerben ( ||| 0.200000 0.200000 0.600000 0.600000 0.200000 0.200000 
( ||| bilden ( ||| 0.600000 0.200000 0.200000 0.200000 0.600000 0.200000 
( ||| bilden könnten ( ||| 0.200000 0.200000 0.600000 0.600000 0.200000 0.200000 
( ||| die Tabelle ||| 0.200000 0.200000 0.600000 0.200000 0.200000 0.600000 
( ||| diese Riffe ( ||| 0.200000 0.200000 0.600000 0.600000 0.200000 0.200000 
( ||| gestellt ( ||| 0.200000 0.200000 0.600000 0.600000 0.200000 0.200000 
( ||| heraus bilden könnten ( ||| 0.600000 0.200000 0.200000 0.600000 0.200000 0.200000 
( ||| könnten ( ||| 0.200000 0.200000 0.600000 0.600000 0.200000 0.200000 
( ||| seiner Kontrolle war ( ||| 0.200000 0.200000 0.600000 0.600000 0.200000 0.200000 
( ||| sich ( ||| 0.200000 0.200000 0.600000 0.600000 0.200000 0.200000 
( ||| sie ( ||| 0.200000 0.200000 0.600000 0.600000 0.200000 0.200000 
( ||| um diese Riffe ( ||| 0.200000 0.200000 0.600000 0.600000 0.200000 0.200000 
( ||| von Kernwaffen ( ||| 0.200000 0.200000 0.600000 0.600000 0.200000 0.200000 
( ||| war ( ||| 0.200000 0.200000 0.600000 0.600000 0.200000 0.200000 
( ||| wie die Tabelle ||| 0.200000 0.200000 0.600000 0.200000 0.200000 0.600000 
( ||| zu ( ||| 0.600000 0.200000 0.200000 0.600000 0.200000 0.200000 
( ||| zu bewerben ( ||| 0.600000 0.200000 0.200000 0.600000 0.200000 0.200000 
) . ||| ) . &amp; # 160 ||| 0.600000 0.200000 0.200000 0.200000 0.200000 0.600000 
) . ||| ) . &amp; # ||| 0.600000 0.200000 0.200000 0.200000 0.200000 0.600000 
) . ||| ) . &amp; ||| 0.600000 0.200000 0.200000 0.200000 0.200000 0.600000 
) . ||| ) . ||| 0.723077 0.015385 0.261538 0.938462 0.015385 0.046154 
) . ||| ) bezeichnen . ||| 0.600000 0.200000 0.200000 0.600000 0.200000 0.200000 
) . ||| . ) ||| 0.200000 0.200000 0.600000 0.600000 0.200000 0.200000 
) . ||| . ||| 0.428571 0.142857 0.428571 0.714286 0.142857 0.142857 
) . ||| auch ) . ||| 0.600000 0.200000 0.200000 0.600000 0.200000 0.200000 
) . ||| bedarf ) . ||| 0.600000 0.200000 0.200000 0.600000 0.200000 0.200000 
) . ||| sei . ||| 0.200000 0.200000 0.600000 0.600000 0.200000 0.200000 
) . ||| verbesserte ) . ||| 0.600000 0.200000 0.200000 0.600000 0.200000 0.200000 
) ||| ) &amp; nbsp ; ||| 0.600000 0.200000 0.200000 0.600000 0.200000 0.200000 
) ||| ) &amp; nbsp ||| 0.600000 0.200000 0.200000 0.200000 0.200000 0.600000 
) ||| ) &amp; ||| 0.600000 0.200000 0.200000 0.200000 0.200000 0.600000 
) ||| ) ) ||| 0.600000 0.200000 0.200000 0.200000 0.200000 0.600000 
) ||| ) , erfasst ||| 0.600000 0.200000 0.200000 0.200000 0.200000 0.600000 
) ||| ) , ||| 0.733333 0.066667 0.200000 0.333333 0.066667 0.600000 
) ||| ) als ||| 0.600000 0.200000 0.200000 0.200000 0.200000 0.600000 
) ||| ) an Kredite kommen , ||| 0.200000 0.200000 0.600000 0.200000 0.200000 0.600000 
) ||| ) an Kredite kommen ||| 0.200000 0.200000 0.600000 0.200000 0.200000 0.600000 
) ||| ) an Kredite ||| 0.200000 0.200000 0.600000 0.200000 0.200000 0.600000 
) ||| ) an ||| 0.200000 0.200000 0.600000 0.200000 0.200000 0.600000 
) ||| ) austauschen würden ||| 0.600000 0.200000 0.200000 0.600000 0.200000 0.200000 
) ||| ) austauschen ||| 0.600000 0.200000 0.200000 0.200000 0.200000 0.600000 
) ||| ) bemüht ||| 0.600000 0.200000 0.200000 0.600000 0.200000 0.200000 
) ||| ) bezeichnen ||| 0.600000 0.200000 0.200000 0.600000 0.200000 0.200000 
) ||| ) erhöht ||| 0.200000 0.200000 0.600000 0.600000 0.200000 0.200000 
) ||| ) erzwingen ||| 0.600000 0.200000 0.200000 0.600000 0.200000 0.200000 
) ||| ) gegenüber dem ||| 0.600000 0.200000 0.200000 0.200000 0.200000 0.600000 
) ||| ) gegenüber ||| 0.600000 0.200000 0.200000 0.200000 0.200000 0.600000 
) ||| ) hielt ||| 0.600000 0.200000 0.200000 0.600000 0.200000 0.200000 
) ||| ) ihres ||| 0.200000 0.600000 0.200000 0.200000 0.200000 0.600000 
) ||| ) ins ||| 0.600000 0.200000 0.200000 0.600000 0.200000 0.200000 
) ||| ) notwendig sein ||| 0.600000 0.200000 0.200000 0.600000 0.200000 0.200000 
) ||| ) notwendig ||| 0.600000 0.200000 0.200000 0.200000 0.200000 0.600000 
) ||| ) sind ||| 0.600000 0.200000 0.200000 0.600000 0.200000 0.200000 
) ||| ) vorgelegt ||| 0.600000 0.200000 0.200000 0.200000 0.200000 0.600000 
) ||| ) wie die ||| 0.200000 0.200000 0.600000 0.200000 0.200000 0.600000 
) ||| ) wie ||| 0.200000 0.200000 0.600000 0.200000 0.200000 0.600000 
) ||| ) zu wahren ||| 0.600000 0.200000 0.200000 0.200000 0.200000 0.600000 
) ||| ) zu ||| 0.714286 0.142857 0.142857 0.142857 0.142857 0.714286 
) ||| ) ||| 0.806005 0.011547 0.182448 0.575058 0.071594 0.353349 
) ||| , schnell einsetzbaren ||| 0.200000 0.200000 0.600000 0.200000 0.200000 0.600000 
) ||| . ||| 0.142857 0.142857 0.714286 0.142857 0.142857 0.714286 
) ||| Ausmaß ) wie die ||| 0.200000 0.200000 0.600000 0.200000 0.200000 0.600000 
) ||| Ausmaß ) wie ||| 0.200000 0.200000 0.600000 0.200000 0.200000 0.600000 
) ||| Ausmaß ) ||| 0.200000 0.200000 0.600000 0.200000 0.200000 0.600000 
) ||| ab . ||| 0.200000 0.200000 0.600000 0.200000 0.200000 0.600000 
) ||| auch ) ||| 0.600000 0.200000 0.200000 0.600000 0.200000 0.200000 
) ||| bedarf ) ||| 0.600000 0.200000 0.200000 0.600000 0.200000 0.200000 
) ||| bekommen ) ||| 0.200000 0.200000 0.600000 0.200000 0.200000 0.600000 
) ||| einsetzbaren ||| 0.200000 0.200000 0.600000 0.200000 0.200000 0.600000 
) ||| gefürchteten , schnell einsetzbaren ||| 0.200000 0.200000 0.600000 0.200000 0.200000 0.600000 
) ||| größeren Ausmaß ) wie die ||| 0.200000 0.200000 0.600000 0.200000 0.200000 0.600000 
) ||| größeren Ausmaß ) wie ||| 0.200000 0.200000 0.600000 0.200000 0.200000 0.600000 
) ||| größeren Ausmaß ) ||| 0.200000 0.200000 0.600000 0.200000 0.200000 0.600000 
) ||| hinnehmen müssen ) , ||| 0.600000 0.200000 0.200000 0.200000 0.200000 0.600000 
) ||| hinnehmen müssen ) ||| 0.600000 0.200000 0.200000 0.200000 0.200000 0.600000 
) ||| keine bekommen ) ||| 0.200000 0.200000 0.600000 0.200000 0.200000 0.600000 
) ||| müssen ) , ||| 0.200000 0.200000 0.600000 0.200000 0.200000 0.600000 
) ||| müssen ) ||| 0.200000 0.200000 0.600000 0.200000 0.200000 0.600000 
) ||| nicht ) an Kredite kommen ||| 0.600000 0.200000 0.200000 0.200000 0.200000 0.600000 
) ||| nicht ) an Kredite ||| 0.600000 0.200000 0.200000 0.200000 0.200000 0.600000 
) ||| nicht ) an ||| 0.600000 0.200000 0.200000 0.200000 0.200000 0.600000 
) ||| nicht ) ||| 0.600000 0.200000 0.200000 0.200000 0.200000 0.600000 
) ||| schnell einsetzbaren ||| 0.200000 0.200000 0.600000 0.200000 0.200000 0.600000 
) ||| untereinander ) ||| 0.600000 0.200000 0.200000 0.600000 0.200000 0.200000 
) ||| verbesserte ) ||| 0.600000 0.200000 0.200000 0.600000 0.200000 0.200000 
) ||| wohnen ) ||| 0.200000 0.200000 0.600000 0.600000 0.200000 0.200000 
, &quot; one ||| : &quot; des einen ||| 0.200000 0.200000 0.600000 0.200000 0.200000 0.600000 
, &quot; one ||| : &quot; des ||| 0.200000 0.200000 0.600000 0.200000 0.200000 0.600000 
, &quot; one ||| : &quot; ||| 0.200000 0.200000 0.600000 0.200000 0.200000 0.600000 
, &quot; one ||| Grund : &quot; des einen ||| 0.200000 0.200000 0.600000 0.200000 0.200000 0.600000 
, &quot; one ||| Grund : &quot; des ||| 0.200000 0.200000 0.600000 0.200000 0.200000 0.600000 
, &quot; one ||| Grund : &quot; ||| 0.200000 0.200000 0.600000 0.200000 0.200000 0.600000 
, &quot; one ||| aus folgendem Grund : &quot; ||| 0.200000 0.200000 0.600000 0.200000 0.200000 0.600000 
, &quot; one ||| folgendem Grund : &quot; des ||| 0.200000 0.200000 0.600000 0.200000 0.200000 0.600000 
, &quot; one ||| folgendem Grund : &quot; ||| 0.200000 0.200000 0.600000 0.200000 0.200000 0.600000 
, &quot; ||| &quot; ( Ein Jahrzehnt der ||| 0.600000 0.200000 0.200000 0.200000 0.200000 0.600000 
, &quot; ||| &quot; ( Ein Jahrzehnt ||| 0.600000 0.200000 0.200000 0.200000 0.200000 0.600000 
, &quot; ||| &quot; ( Ein ||| 0.600000 0.200000 0.200000 0.200000 0.200000 0.600000 
, &quot; ||| &quot; ( ||| 0.600000 0.200000 0.200000 0.200000 0.200000 0.600000 
, &quot; ||| &quot; , den ||| 0.600000 0.200000 0.200000 0.600000 0.200000 0.200000 
, &quot; ||| &quot; , die nicht für ||| 0.200000 0.200000 0.600000 0.200000 0.200000 0.600000 
, &quot; ||| &quot; , die nicht ||| 0.200000 0.200000 0.600000 0.200000 0.200000 0.600000 
, &quot; ||| &quot; , die vor ||| 0.600000 0.200000 0.200000 0.200000 0.200000 0.600000 
, &quot; ||| &quot; , die ||| 0.555556 0.111111 0.333333 0.111111 0.111111 0.777778 
, &quot; ||| &quot; , mit dem man ||| 0.600000 0.200000 0.200000 0.200000 0.200000 0.600000 
, &quot; ||| &quot; , mit dem ||| 0.600000 0.200000 0.200000 0.200000 0.200000 0.600000 
, &quot; ||| &quot; , mit ||| 0.600000 0.200000 0.200000 0.200000 0.200000 0.600000 
, &quot; ||| &quot; , ||| 0.811321 0.018868 0.169811 0.396226 0.056604 0.547170 
, &quot; ||| &quot; - ||| 0.600000 0.200000 0.200000 0.600000 0.200000 0.200000 
, &quot; ||| &quot; als ||| 0.200000 0.200000 0.600000 0.200000 0.200000 0.600000 
, &quot; ||| &quot; erhält ||| 0.600000 0.200000 0.200000 0.600000 0.200000 0.200000 
, &quot; ||| &quot; genannt , ||| 0.600000 0.200000 0.200000 0.600000 0.200000 0.200000 
, &quot; ||| &quot; könnten ||| 0.600000 0.200000 0.200000 0.200000 0.200000 0.600000 
, &quot; ||| &quot; nicht , dass er ||| 0.600000 0.200000 0.200000 0.200000 0.200000 0.600000 
, &quot; ||| &quot; nicht , dass ||| 0.600000 0.200000 0.200000 0.200000 0.200000 0.600000 
, &quot; ||| &quot; nicht , ||| 0.600000 0.200000 0.200000 0.200000 0.200000 0.600000 
, &quot; ||| &quot; umgesetzt , ||| 0.600000 0.200000 0.200000 0.600000 0.200000 0.200000 
, &quot; ||| &quot; und ||| 0.200000 0.200000 0.600000 0.200000 0.200000 0.600000 
, &quot; ||| &quot; zu träumen , ||| 0.600000 0.200000 0.200000 0.600000 0.200000 0.200000 
, &quot; ||| &quot; zu ||| 0.200000 0.200000 0.600000 0.200000 0.200000 0.600000 
, &quot; ||| &quot; zugeschrieben ; ||| 0.600000 0.200000 0.200000 0.600000 0.200000 0.200000 
, &quot; ||| &quot; zugeschrieben ||| 0.600000 0.200000 0.200000 0.200000 0.200000 0.600000 
, &quot; ||| &quot; ||| 0.573333 0.040000 0.386667 0.626667 0.013333 0.360000 
, &quot; ||| , &quot; dafür ||| 0.200000 0.200000 0.600000 0.600000 0.200000 0.200000 
, &quot; ||| , &quot; ||| 0.428571 0.142857 0.428571 0.428571 0.142857 0.428571 
, &quot; ||| , denn ||| 0.200000 0.600000 0.200000 0.200000 0.200000 0.600000 
, &quot; ||| , ||| 0.142857 0.428571 0.428571 0.428571 0.142857 0.428571 
, &quot; ||| : &quot; des einen ||| 0.200000 0.200000 0.600000 0.200000 0.200000 0.600000 
, &quot; ||| : &quot; des ||| 0.200000 0.200000 0.600000 0.200000 0.200000 0.600000 
, &quot; ||| : &quot; ||| 0.076923 0.076923 0.846154 0.692308 0.076923 0.230769 
, &quot; ||| Cuprate der &quot; ||| 0.200000 0.200000 0.600000 0.600000 0.200000 0.200000 
, &quot; ||| Grund : &quot; des einen ||| 0.200000 0.200000 0.600000 0.200000 0.200000 0.600000 
, &quot; ||| Grund : &quot; des ||| 0.200000 0.200000 0.600000 0.200000 0.200000 0.600000 
, &quot; ||| Grund : &quot; ||| 0.200000 0.200000 0.600000 0.200000 0.200000 0.600000 
, &quot; ||| Krieg &quot; ||| 0.200000 0.200000 0.600000 0.200000 0.200000 0.600000 
, &quot; ||| Theorie optimaler Währungsräume &quot; ||| 0.200000 0.200000 0.600000 0.600000 0.200000 0.200000 
, &quot; ||| Titel &quot; ||| 0.200000 0.200000 0.600000 0.600000 0.200000 0.200000 
, &quot; ||| Wahrheit über den Krieg &quot; ||| 0.200000 0.200000 0.600000 0.200000 0.200000 0.600000 
, &quot; ||| Währungsräume &quot; ||| 0.200000 0.200000 0.600000 0.600000 0.200000 0.200000 
, &quot; ||| aus folgendem Grund : &quot; ||| 0.200000 0.200000 0.600000 0.200000 0.200000 0.600000 
, &quot; ||| den Krieg &quot; ||| 0.200000 0.200000 0.600000 0.200000 0.200000 0.600000 
, &quot; ||| der &quot; ||| 0.200000 0.200000 0.600000 0.600000 0.200000 0.200000 
, &quot; ||| deutlich : &quot; ||| 0.600000 0.200000 0.200000 0.600000 0.200000 0.200000 
, &quot; ||| dieser &quot; ||| 0.200000 0.200000 0.600000 0.600000 0.200000 0.200000 
, &quot; ||| folgendem Grund : &quot; des ||| 0.200000 0.200000 0.600000 0.200000 0.200000 0.600000 
, &quot; ||| folgendem Grund : &quot; ||| 0.200000 0.200000 0.600000 0.200000 0.200000 0.600000 
, &quot; ||| formuliert : &quot; ||| 0.200000 0.200000 0.600000 0.600000 0.200000 0.200000 
, &quot; ||| heute werden Cuprate der &quot; ||| 0.600000 0.200000 0.200000 0.600000 0.200000 0.200000 
, &quot; ||| ist &quot; ||| 0.600000 0.200000 0.200000 0.600000 0.200000 0.200000 
, &quot; ||| optimaler Währungsräume &quot; ||| 0.200000 0.200000 0.600000 0.600000 0.200000 0.200000 
, &quot; ||| so formuliert : &quot; ||| 0.600000 0.200000 0.200000 0.600000 0.200000 0.200000 
, &quot; ||| war zuletzt : &quot; ||| 0.200000 0.200000 0.600000 0.600000 0.200000 0.200000 
, &quot; ||| werden Cuprate der &quot; ||| 0.200000 0.200000 0.600000 0.600000 0.200000 0.200000 
, &quot; ||| zuletzt : &quot; ||| 0.200000 0.200000 0.600000 0.600000 0.200000 0.200000 
, &quot; ||| über den Krieg &quot; ||| 0.200000 0.200000 0.600000 0.200000 0.200000 0.600000 
, Austria , ||| , nämlich Österreich , ||| 0.600000 0.200000 0.200000 0.600000 0.200000 0.200000 
, Austria ||| , nämlich Österreich ||| 0.600000 0.200000 0.200000 0.600000 0.200000 0.200000 
, France , and ||| , Frankreich und ||| 0.600000 0.200000 0.200000 0.600000 0.200000 0.200000 
, France , ||| , Frankreich , ||| 0.714286 0.142857 0.142857 0.714286 0.142857 0.142857 
, France , ||| , Frankreich ||| 0.600000 0.200000 0.200000 0.600000 0.200000 0.200000 
, France ||| , Frankreich ||| 0.777778 0.111111 0.111111 0.555556 0.111111 0.333333 
, France ||| - Frankreich ||| 0.600000 0.200000 0.200000 0.200000 0.200000 0.600000 
, Iran , ||| , Iran , ||| 0.600000 0.200000 0.200000 0.600000 0.200000 0.200000 
, Iran , ||| , der Iran ||| 0.600000 0.200000 0.200000 0.600000 0.200000 0.200000 
, Iran ||| , Iran ||| 0.600000 0.200000 0.200000 0.600000 0.200000 0.200000 
, Iran ||| , der Iran ||| 0.600000 0.200000 0.200000 0.200000 0.200000 0.600000 
, Iran ||| Iran den Ausbau seiner ||| 0.200000 0.200000 0.600000 0.200000 0.200000 0.600000 
, Iran ||| Iran den Ausbau ||| 0.200000 0.200000 0.600000 0.200000 0.200000 0.600000 
, Iran ||| Iran den ||| 0.200000 0.200000 0.600000 0.200000 0.200000 0.600000 
, Iran ||| Iran ||| 0.142857 0.142857 0.714286 0.142857 0.142857 0.714286 
, Iran ||| der Iran den Ausbau seiner ||| 0.200000 0.200000 0.600000 0.200000 0.200000 0.600000 
, Iran ||| der Iran den Ausbau ||| 0.200000 0.200000 0.600000 0.200000 0.200000 0.600000 
, Iran ||| der Iran den ||| 0.200000 0.200000 0.600000 0.200000 0.200000 0.600000 
, Iran ||| der Iran ||| 0.428571 0.142857 0.428571 0.428571 0.142857 0.428571 
, Iran ||| er ||| 0.200000 0.600000 0.200000 0.200000 0.200000 0.600000 
, Iran ||| hat Iran ||| 0.600000 0.200000 0.200000 0.200000 0.200000 0.600000 
, NATO ||| NATO ||| 0.428571 0.428571 0.142857 0.428571 0.142857 0.428571 
, a ||| , als ||| 0.200000 0.200000 0.600000 0.600000 0.200000 0.200000 
, a ||| , bedarf es einer ||| 0.200000 0.200000 0.600000 0.200000 0.200000 0.600000 
, a ||| , dass die ||| 0.200000 0.200000 0.600000 0.200000 0.200000 0.600000 
, a ||| , dass ||| 0.142857 0.142857 0.714286 0.142857 0.142857 0.714286 
, a ||| , ehemaliger ||| 0.714286 0.142857 0.142857 0.714286 0.142857 0.142857 
, a ||| , ein ||| 0.818182 0.090909 0.090909 0.818182 0.090909 0.090909 
, a ||| , eine ||| 0.846154 0.076923 0.076923 0.846154 0.076923 0.076923 
, a ||| , einem ||| 0.636364 0.090909 0.272727 0.818182 0.090909 0.090909 
, a ||| , einen ||| 0.428571 0.142857 0.428571 0.714286 0.142857 0.142857 
, a ||| , einer ||| 0.636364 0.090909 0.272727 0.818182 0.090909 0.090909 
, a ||| , führte ein ||| 0.600000 0.200000 0.200000 0.200000 0.200000 0.600000 
, a ||| , ist ein ||| 0.600000 0.200000 0.200000 0.600000 0.200000 0.200000 
, a ||| , kann eine ||| 0.200000 0.200000 0.600000 0.600000 0.200000 0.200000 
, a ||| , noch ||| 0.600000 0.200000 0.200000 0.600000 0.200000 0.200000 
, a ||| , so zeichnet sich ein ||| 0.600000 0.200000 0.200000 0.600000 0.200000 0.200000 
, a ||| , und eine ||| 0.200000 0.200000 0.600000 0.600000 0.200000 0.200000 
, a ||| , zeigt eine ||| 0.200000 0.200000 0.600000 0.600000 0.200000 0.200000 
, a ||| , ||| 0.272727 0.090909 0.636364 0.454545 0.090909 0.454545 
, a ||| - ein ||| 0.428571 0.142857 0.428571 0.714286 0.142857 0.142857 
, a ||| . ||| 0.200000 0.200000 0.600000 0.200000 0.200000 0.600000 
, a ||| Cuprate wurden einige ||| 0.200000 0.200000 0.600000 0.200000 0.200000 0.600000 
, a ||| Zeit versuchten sich viele ||| 0.200000 0.200000 0.600000 0.200000 0.200000 0.600000 
, a ||| Zeit versuchten sich ||| 0.200000 0.200000 0.600000 0.200000 0.200000 0.600000 
, a ||| arbeiten , als ||| 0.600000 0.200000 0.200000 0.600000 0.200000 0.200000 
, a ||| ein ||| 0.272727 0.090909 0.636364 0.818182 0.090909 0.090909 
, a ||| eine auf ||| 0.200000 0.200000 0.600000 0.200000 0.200000 0.600000 
, a ||| eine ||| 0.280000 0.120000 0.600000 0.760000 0.040000 0.200000 
, a ||| einem ||| 0.142857 0.142857 0.714286 0.428571 0.142857 0.428571 
, a ||| ermöglichte ein ||| 0.600000 0.200000 0.200000 0.600000 0.200000 0.200000 
, a ||| greift eine ||| 0.600000 0.200000 0.200000 0.600000 0.200000 0.200000 
, a ||| hätte ein ||| 0.600000 0.200000 0.200000 0.600000 0.200000 0.200000 
, a ||| ist eine ||| 0.600000 0.200000 0.200000 0.600000 0.200000 0.200000 
, a ||| könnte eine ||| 0.200000 0.200000 0.600000 0.200000 0.200000 0.600000 
, a ||| sich bemühen ||| 0.200000 0.200000 0.600000 0.200000 0.200000 0.600000 
, a ||| sich viele ||| 0.200000 0.200000 0.600000 0.200000 0.200000 0.600000 
, a ||| sich ||| 0.200000 0.200000 0.600000 0.200000 0.200000 0.600000 
, a ||| tief liegende Länder ||| 0.200000 0.200000 0.600000 0.200000 0.200000 0.600000 
, a ||| tief liegende ||| 0.200000 0.200000 0.600000 0.200000 0.200000 0.600000 
, a ||| tief ||| 0.200000 0.200000 0.600000 0.200000 0.200000 0.600000 
, a ||| traf ein ||| 0.600000 0.200000 0.200000 0.600000 0.200000 0.200000 
, a ||| und ein ||| 0.200000 0.200000 0.600000 0.600000 0.200000 0.200000 
, a ||| und eine ||| 0.600000 0.200000 0.200000 0.600000 0.200000 0.200000 
, a ||| versuchten sich viele ||| 0.200000 0.200000 0.600000 0.200000 0.200000 0.600000 
, a ||| versuchten sich ||| 0.200000 0.200000 0.600000 0.200000 0.200000 0.600000 
, a ||| werden , kann eine ||| 0.200000 0.200000 0.600000 0.600000 0.200000 0.200000 
, a ||| wurde der ||| 0.600000 0.200000 0.200000 0.600000 0.200000 0.200000 
, a ||| wurde ||| 0.200000 0.200000 0.600000 0.200000 0.200000 0.600000 
, a ||| wurden einige ||| 0.200000 0.200000 0.600000 0.200000 0.200000 0.600000 
, a ||| würde eine auf ||| 0.600000 0.200000 0.200000 0.200000 0.200000 0.600000 
, a ||| würde eine ||| 0.600000 0.200000 0.200000 0.200000 0.200000 0.600000 
, a ||| zu einem ||| 0.200000 0.200000 0.600000 0.600000 0.200000 0.200000 
, aimed ||| , die das Ziel haben ||| 0.600000 0.200000 0.200000 0.200000 0.200000 0.600000 
, aimed ||| , die das Ziel ||| 0.600000 0.200000 0.200000 0.200000 0.200000 0.600000 
, aimed ||| , die das ||| 0.600000 0.200000 0.200000 0.200000 0.200000 0.600000 
, aimed ||| , die ||| 0.600000 0.200000 0.200000 0.200000 0.200000 0.600000 
, aimed ||| , ||| 0.600000 0.200000 0.200000 0.200000 0.200000 0.600000 
, and Belgium , ||| und Belgien , gibt es ||| 0.600000 0.200000 0.200000 0.600000 0.200000 0.200000 
, and Belgium , ||| und Belgien , gibt ||| 0.600000 0.200000 0.200000 0.200000 0.200000 0.600000 
, and Belgium , ||| und Belgien , ||| 0.600000 0.200000 0.200000 0.200000 0.200000 0.600000 
, and Belgium ||| und Belgien ||| 0.600000 0.200000 0.200000 0.600000 0.200000 0.200000 
, and a ||| , und einem ||| 0.200000 0.200000 0.600000 0.600000 0.200000 0.200000 
, and a ||| gebunden sind , und einem ||| 0.200000 0.200000 0.600000 0.600000 0.200000 0.200000 
, and a ||| sind , und einem ||| 0.200000 0.200000 0.600000 0.600000 0.200000 0.200000 
, and a ||| und ein ||| 0.428571 0.142857 0.428571 0.714286 0.142857 0.142857 
, and a ||| und eine ||| 0.777778 0.111111 0.111111 0.777778 0.111111 0.111111 
, and a ||| und einem ||| 0.600000 0.200000 0.200000 0.600000 0.200000 0.200000 
, and a ||| und einer ||| 0.714286 0.142857 0.142857 0.714286 0.142857 0.142857 
, and a ||| und eines ||| 0.600000 0.200000 0.200000 0.600000 0.200000 0.200000 
, and a ||| und viele ||| 0.600000 0.200000 0.200000 0.200000 0.200000 0.600000 
, and a ||| und zudem ||| 0.200000 0.200000 0.600000 0.600000 0.200000 0.200000 
, and others . ||| und andere . ||| 0.600000 0.200000 0.200000 0.600000 0.200000 0.200000 
, and others . ||| und anderer gibt . ||| 0.600000 0.200000 0.200000 0.600000 0.200000 0.200000 
, and others ||| , andere ||| 0.200000 0.200000 0.600000 0.600000 0.200000 0.200000 
, and others ||| , und andere ||| 0.600000 0.200000 0.200000 0.600000 0.200000 0.200000 
, and others ||| und andere ||| 0.600000 0.200000 0.200000 0.600000 0.200000 0.200000 
, and others ||| und anderen ||| 0.600000 0.200000 0.200000 0.600000 0.200000 0.200000 
, and others ||| und anderer gibt ||| 0.600000 0.200000 0.200000 0.600000 0.200000 0.200000 
, and others ||| und anderer ||| 0.600000 0.200000 0.200000 0.200000 0.200000 0.600000 
, and our ||| , und unsere ||| 0.600000 0.200000 0.200000 0.600000 0.200000 0.200000 
, and our ||| und unsere ||| 0.600000 0.200000 0.200000 0.600000 0.200000 0.200000 
, and some ||| sowie Befugnisse , ||| 0.600000 0.200000 0.200000 0.200000 0.200000 0.600000 
, and some ||| und einige ||| 0.200000 0.200000 0.600000 0.600000 0.200000 0.200000 
, and ||| ) , oder ||| 0.200000 0.200000 0.600000 0.600000 0.200000 0.200000 
, and ||| ) und ||| 0.200000 0.200000 0.600000 0.600000 0.200000 0.200000 
, and ||| , - und ||| 0.200000 0.200000 0.600000 0.600000 0.200000 0.200000 
, and ||| , Gas- und ||| 0.600000 0.200000 0.200000 0.600000 0.200000 0.200000 
, and ||| , Vermögens- und ||| 0.200000 0.200000 0.600000 0.600000 0.200000 0.200000 
, and ||| , da sie ||| 0.200000 0.200000 0.600000 0.200000 0.200000 0.600000 
, and ||| , da ||| 0.200000 0.200000 0.600000 0.200000 0.200000 0.600000 
, and ||| , das die Reduzierung und ||| 0.200000 0.200000 0.600000 0.200000 0.200000 0.600000 
, and ||| , ebenso ||| 0.600000 0.200000 0.200000 0.600000 0.200000 0.200000 
, and ||| , oder ||| 0.428571 0.142857 0.428571 0.714286 0.142857 0.142857 
, and ||| , offen legen müssen , ||| 0.600000 0.200000 0.200000 0.600000 0.200000 0.200000 
, and ||| , offen legen müssen ||| 0.600000 0.200000 0.200000 0.200000 0.200000 0.600000 
, and ||| , offen legen ||| 0.600000 0.200000 0.200000 0.200000 0.200000 0.600000 
, and ||| , seine Finanzierung und ||| 0.200000 0.200000 0.600000 0.200000 0.200000 0.600000 
, and ||| , sowie ||| 0.714286 0.142857 0.142857 0.428571 0.142857 0.428571 
, and ||| , um ||| 0.200000 0.200000 0.600000 0.200000 0.200000 0.600000 
, and ||| , und auch ||| 0.600000 0.200000 0.200000 0.200000 0.200000 0.600000 
, and ||| , und darüber , ||| 0.600000 0.200000 0.200000 0.600000 0.200000 0.200000 
, and ||| , und darüber ||| 0.600000 0.200000 0.200000 0.200000 0.200000 0.600000 
, and ||| , und der ||| 0.428571 0.142857 0.428571 0.714286 0.142857 0.142857 
, and ||| , und die ||| 0.529412 0.058824 0.411765 0.529412 0.058824 0.411765 
, and ||| , und ein ||| 0.600000 0.200000 0.200000 0.600000 0.200000 0.200000 
, and ||| , und es besteht die ||| 0.200000 0.200000 0.600000 0.200000 0.200000 0.600000 
, and ||| , und es besteht ||| 0.200000 0.200000 0.600000 0.200000 0.200000 0.600000 
, and ||| , und es ||| 0.142857 0.142857 0.714286 0.428571 0.142857 0.428571 
, and ||| , und genau ||| 0.600000 0.200000 0.200000 0.200000 0.200000 0.600000 
, and ||| , und hat Stärke gegenüber ||| 0.200000 0.200000 0.600000 0.200000 0.200000 0.600000 
, and ||| , und hat Stärke ||| 0.200000 0.200000 0.600000 0.200000 0.200000 0.600000 
, and ||| , und hat ||| 0.200000 0.200000 0.600000 0.200000 0.200000 0.600000 
, and ||| , und nutzen ||| 0.600000 0.200000 0.200000 0.200000 0.200000 0.600000 
, and ||| , und sich ||| 0.200000 0.200000 0.600000 0.600000 0.200000 0.200000 
, and ||| , und sie verkörpern ||| 0.600000 0.200000 0.200000 0.600000 0.200000 0.200000 
, and ||| , und sie ||| 0.600000 0.200000 0.200000 0.200000 0.200000 0.600000 
, and ||| , und ||| 0.614458 0.004016 0.381526 0.718876 0.004016 0.277108 
, and ||| , was dem Land bald ||| 0.600000 0.200000 0.200000 0.200000 0.200000 0.600000 
, and ||| , was dem Land ||| 0.600000 0.200000 0.200000 0.200000 0.200000 0.600000 
, and ||| , was dem ||| 0.600000 0.200000 0.200000 0.200000 0.200000 0.600000 
, and ||| , was ||| 0.428571 0.142857 0.428571 0.142857 0.142857 0.714286 
, and ||| , wodurch ||| 0.714286 0.142857 0.142857 0.428571 0.142857 0.428571 
, and ||| , zudem sind ||| 0.200000 0.200000 0.600000 0.600000 0.200000 0.200000 
, and ||| , zudem ||| 0.200000 0.200000 0.600000 0.200000 0.200000 0.600000 
, and ||| , ||| 0.379310 0.034483 0.586207 0.379310 0.034483 0.586207 
, and ||| - und außerdem ||| 0.600000 0.200000 0.200000 0.200000 0.200000 0.600000 
, and ||| - und ||| 0.384615 0.076923 0.538462 0.692308 0.076923 0.230769 
, and ||| . aus diesem Grund ||| 0.600000 0.200000 0.200000 0.200000 0.200000 0.600000 
, and ||| . aus diesem ||| 0.600000 0.200000 0.200000 0.200000 0.200000 0.600000 
, and ||| . aus ||| 0.600000 0.200000 0.200000 0.200000 0.200000 0.600000 
, and ||| . und ||| 0.428571 0.142857 0.428571 0.428571 0.142857 0.428571 
, and ||| . ||| 0.333333 0.111111 0.555556 0.555556 0.111111 0.333333 
, and ||| ; und ||| 0.600000 0.200000 0.200000 0.600000 0.200000 0.200000 
, and ||| ; ||| 0.200000 0.200000 0.600000 0.600000 0.200000 0.200000 
, and ||| Anfang und ||| 0.200000 0.200000 0.600000 0.600000 0.200000 0.200000 
, and ||| Banken ; ||| 0.200000 0.200000 0.600000 0.600000 0.200000 0.200000 
, and ||| Bilanzen sowie ||| 0.200000 0.200000 0.600000 0.600000 0.200000 0.200000 
, and ||| Einzelstaaten und ||| 0.200000 0.200000 0.600000 0.200000 0.200000 0.600000 
, and ||| Europas und der ||| 0.200000 0.200000 0.600000 0.600000 0.200000 0.200000 
, and ||| Europas und ||| 0.200000 0.200000 0.600000 0.200000 0.200000 0.600000 
, and ||| Finanzaufsicht ) und ||| 0.200000 0.200000 0.600000 0.600000 0.200000 0.200000 
, and ||| Fortschritte und ||| 0.200000 0.200000 0.600000 0.200000 0.200000 0.600000 
, and ||| Gott von Anfang und ||| 0.200000 0.200000 0.600000 0.600000 0.200000 0.200000 
, and ||| Höhe und ||| 0.200000 0.200000 0.600000 0.600000 0.200000 0.200000 
, and ||| Kriterien sowie ||| 0.200000 0.200000 0.600000 0.600000 0.200000 0.200000 
, and ||| Länder über , und die ||| 0.200000 0.200000 0.600000 0.600000 0.200000 0.200000 
, and ||| Länder über , und ||| 0.200000 0.200000 0.600000 0.200000 0.200000 0.600000 
, and ||| Ländern und ||| 0.200000 0.200000 0.600000 0.600000 0.200000 0.200000 
, and ||| Mais und ||| 0.200000 0.200000 0.600000 0.600000 0.200000 0.200000 
, and ||| Menschen mobilisiert und einen ||| 0.200000 0.200000 0.600000 0.200000 0.200000 0.600000 
, and ||| Menschen mobilisiert und ||| 0.200000 0.200000 0.600000 0.200000 0.200000 0.600000 
, and ||| Ordnung bringen , und ||| 0.600000 0.200000 0.200000 0.600000 0.200000 0.200000 
, and ||| Stillstand kommt - und ||| 0.200000 0.200000 0.600000 0.600000 0.200000 0.200000 
, and ||| Verbindung zu bringen , und ||| 0.200000 0.200000 0.600000 0.200000 0.200000 0.600000 
, and ||| Verkauf gezwungen waren und ||| 0.200000 0.200000 0.600000 0.200000 0.200000 0.600000 
, and ||| Wahl mehrmals umgekehrt ||| 0.200000 0.200000 0.600000 0.200000 0.200000 0.600000 
, and ||| Wirtschaft und ||| 0.200000 0.200000 0.600000 0.600000 0.200000 0.200000 
, and ||| abgesehen hatte und ||| 0.200000 0.200000 0.600000 0.600000 0.200000 0.200000 
, and ||| allerdings und ||| 0.600000 0.200000 0.200000 0.600000 0.200000 0.200000 
, and ||| andere Länder über , und ||| 0.200000 0.200000 0.600000 0.200000 0.200000 0.600000 
, and ||| angeschlagen , und der ||| 0.600000 0.200000 0.200000 0.600000 0.200000 0.200000 
, and ||| angeschlagen , und ||| 0.600000 0.200000 0.200000 0.200000 0.200000 0.600000 
, and ||| auch ||| 0.600000 0.200000 0.200000 0.200000 0.200000 0.600000 
, and ||| aufbauen können - und ||| 0.600000 0.200000 0.200000 0.600000 0.200000 0.200000 
, and ||| aufzubauen , und ||| 0.600000 0.200000 0.200000 0.600000 0.200000 0.200000 
, and ||| begonnen und ||| 0.200000 0.200000 0.600000 0.600000 0.200000 0.200000 
, and ||| beraten und ||| 0.200000 0.200000 0.600000 0.200000 0.200000 0.600000 
, and ||| betrachtet und ||| 0.600000 0.200000 0.200000 0.200000 0.200000 0.600000 
, and ||| betreffen , und ||| 0.600000 0.200000 0.200000 0.200000 0.200000 0.600000 
, and ||| bringen , und ||| 0.142857 0.142857 0.714286 0.428571 0.142857 0.428571 
, and ||| britische Finanzaufsicht ) und ||| 0.200000 0.200000 0.600000 0.600000 0.200000 0.200000 
, and ||| der Gott von Anfang und ||| 0.200000 0.200000 0.600000 0.600000 0.200000 0.200000 
, and ||| der Menschen mobilisiert und einen ||| 0.600000 0.200000 0.200000 0.200000 0.200000 0.600000 
, and ||| der Menschen mobilisiert und ||| 0.600000 0.200000 0.200000 0.200000 0.200000 0.600000 
, and ||| der Wirtschaft und ||| 0.600000 0.200000 0.200000 0.600000 0.200000 0.200000 
, and ||| die britische Finanzaufsicht ) und ||| 0.200000 0.200000 0.600000 0.600000 0.200000 0.200000 
, and ||| drücken und sich ||| 0.200000 0.200000 0.600000 0.200000 0.200000 0.600000 
, and ||| drücken und ||| 0.200000 0.200000 0.600000 0.200000 0.200000 0.600000 
, and ||| endgültig festgelegt und ||| 0.600000 0.200000 0.200000 0.200000 0.200000 0.600000 
, and ||| erhalten bleibt , ||| 0.600000 0.200000 0.200000 0.200000 0.200000 0.600000 
, and ||| erlauben und ||| 0.200000 0.200000 0.600000 0.200000 0.200000 0.600000 
, and ||| erwerben , und ||| 0.200000 0.200000 0.600000 0.200000 0.200000 0.600000 
, and ||| etablieren und ||| 0.200000 0.200000 0.600000 0.600000 0.200000 0.200000 
, and ||| festgelegt und ||| 0.200000 0.200000 0.600000 0.200000 0.200000 0.600000 
, and ||| finanzierten und ||| 0.600000 0.200000 0.200000 0.200000 0.200000 0.600000 
, and ||| führen und ||| 0.600000 0.200000 0.200000 0.600000 0.200000 0.200000 
, and ||| führten , und ||| 0.200000 0.200000 0.600000 0.200000 0.200000 0.600000 
, and ||| gebunden sind , und ||| 0.200000 0.200000 0.600000 0.600000 0.200000 0.200000 
, and ||| gehalten hätten , - und ||| 0.200000 0.200000 0.600000 0.600000 0.200000 0.200000 
, and ||| gerückt werden , da sie ||| 0.600000 0.200000 0.200000 0.200000 0.200000 0.600000 
, and ||| gerückt werden , da ||| 0.600000 0.200000 0.200000 0.200000 0.200000 0.600000 
, and ||| gerückt werden , ||| 0.600000 0.200000 0.200000 0.200000 0.200000 0.600000 
, and ||| geschah , und es ||| 0.600000 0.200000 0.200000 0.600000 0.200000 0.200000 
, and ||| geschah , und ||| 0.600000 0.200000 0.200000 0.200000 0.200000 0.600000 
, and ||| gesenkt und auch die ||| 0.200000 0.200000 0.600000 0.600000 0.200000 0.200000 
, and ||| gesenkt und auch ||| 0.200000 0.200000 0.600000 0.200000 0.200000 0.600000 
, and ||| gesenkt und ||| 0.200000 0.200000 0.600000 0.200000 0.200000 0.600000 
, and ||| gesunken und ||| 0.200000 0.200000 0.600000 0.600000 0.200000 0.200000 
, and ||| gewähren und ||| 0.200000 0.200000 0.600000 0.600000 0.200000 0.200000 
, and ||| gezwungen waren und ||| 0.200000 0.200000 0.600000 0.200000 0.200000 0.600000 
, and ||| gibt - und ||| 0.200000 0.200000 0.600000 0.600000 0.200000 0.200000 
, and ||| hatte und ||| 0.200000 0.200000 0.600000 0.600000 0.200000 0.200000 
, and ||| her und ||| 0.600000 0.200000 0.200000 0.600000 0.200000 0.200000 
, and ||| hätten , - und ||| 0.200000 0.200000 0.600000 0.600000 0.200000 0.200000 
, and ||| ist , und ||| 0.200000 0.200000 0.600000 0.600000 0.200000 0.200000 
, and ||| kommt - und ||| 0.200000 0.200000 0.600000 0.600000 0.200000 0.200000 
, and ||| kommt und ||| 0.600000 0.200000 0.200000 0.600000 0.200000 0.200000 
, and ||| können - und ||| 0.200000 0.200000 0.600000 0.600000 0.200000 0.200000 
, and ||| machen und ||| 0.200000 0.200000 0.600000 0.600000 0.200000 0.200000 
, and ||| mehrmals umgekehrt ||| 0.200000 0.200000 0.600000 0.200000 0.200000 0.600000 
, and ||| mitgestalten und ||| 0.600000 0.200000 0.200000 0.600000 0.200000 0.200000 
, and ||| mobilisiert und einen ||| 0.200000 0.200000 0.600000 0.200000 0.200000 0.600000 
, and ||| mobilisiert und ||| 0.200000 0.200000 0.600000 0.200000 0.200000 0.600000 
, and ||| nehmen und Antworten finden , ||| 0.200000 0.200000 0.600000 0.200000 0.200000 0.600000 
, and ||| oder ||| 0.600000 0.200000 0.200000 0.600000 0.200000 0.200000 
, and ||| schaffen und ||| 0.200000 0.200000 0.600000 0.600000 0.200000 0.200000 
, and ||| schnelle Fortschritte und ||| 0.200000 0.200000 0.600000 0.200000 0.200000 0.600000 
, and ||| schwierig werden und ||| 0.200000 0.200000 0.600000 0.200000 0.200000 0.600000 
, and ||| sein und ||| 0.600000 0.200000 0.200000 0.200000 0.200000 0.600000 
, and ||| sind , und ||| 0.200000 0.200000 0.600000 0.600000 0.200000 0.200000 
, and ||| sind und ||| 0.600000 0.200000 0.200000 0.600000 0.200000 0.200000 
, and ||| sowie als ||| 0.600000 0.200000 0.200000 0.600000 0.200000 0.200000 
, and ||| sowie die ||| 0.600000 0.200000 0.200000 0.600000 0.200000 0.200000 
, and ||| sowie ||| 0.538462 0.076923 0.384615 0.384615 0.076923 0.538462 
, and ||| standen und ||| 0.600000 0.200000 0.200000 0.200000 0.200000 0.600000 
, and ||| umgekehrt ||| 0.200000 0.200000 0.600000 0.200000 0.200000 0.600000 
, and ||| und Antworten finden , ||| 0.200000 0.200000 0.600000 0.200000 0.200000 0.600000 
, and ||| und alle glücklich und ||| 0.200000 0.200000 0.600000 0.600000 0.200000 0.200000 
, and ||| und auch die ||| 0.200000 0.200000 0.600000 0.600000 0.200000 0.200000 
, and ||| und auch ||| 0.200000 0.200000 0.600000 0.200000 0.200000 0.600000 
, and ||| und auf ||| 0.200000 0.600000 0.200000 0.200000 0.200000 0.600000 
, and ||| und begonnen ||| 0.200000 0.200000 0.600000 0.200000 0.200000 0.600000 
, and ||| und bereits sehr ||| 0.200000 0.200000 0.600000 0.200000 0.200000 0.600000 
, and ||| und bereits ||| 0.200000 0.200000 0.600000 0.200000 0.200000 0.600000 
, and ||| und damit auch ||| 0.600000 0.200000 0.200000 0.600000 0.200000 0.200000 
, and ||| und dass ||| 0.142857 0.142857 0.714286 0.714286 0.142857 0.142857 
, and ||| und dem ||| 0.200000 0.200000 0.600000 0.600000 0.200000 0.200000 
, and ||| und den ||| 0.714286 0.142857 0.142857 0.714286 0.142857 0.142857 
, and ||| und der ||| 0.647059 0.058824 0.294118 0.882353 0.058824 0.058824 
, and ||| und des ||| 0.600000 0.200000 0.200000 0.600000 0.200000 0.200000 
, and ||| und die Schulden ||| 0.200000 0.200000 0.600000 0.600000 0.200000 0.200000 
, and ||| und die noch ||| 0.600000 0.200000 0.200000 0.600000 0.200000 0.200000 
, and ||| und die ||| 0.771429 0.085714 0.142857 0.600000 0.028571 0.371429 
, and ||| und ein ||| 0.428571 0.142857 0.428571 0.714286 0.142857 0.142857 
, and ||| und für ||| 0.600000 0.200000 0.200000 0.600000 0.200000 0.200000 
, and ||| und ganz allgemein ||| 0.600000 0.200000 0.200000 0.200000 0.200000 0.600000 
, and ||| und ganz ||| 0.600000 0.200000 0.200000 0.200000 0.200000 0.600000 
, and ||| und geben damit ||| 0.600000 0.200000 0.200000 0.600000 0.200000 0.200000 
, and ||| und geben ||| 0.600000 0.200000 0.200000 0.200000 0.200000 0.600000 
, and ||| und ihre ||| 0.200000 0.200000 0.600000 0.200000 0.200000 0.600000 
, and ||| und in ||| 0.777778 0.111111 0.111111 0.777778 0.111111 0.111111 
, and ||| und man sich den ||| 0.200000 0.200000 0.600000 0.600000 0.200000 0.200000 
, and ||| und man sich ||| 0.200000 0.200000 0.600000 0.200000 0.200000 0.600000 
, and ||| und man ||| 0.200000 0.200000 0.600000 0.200000 0.200000 0.600000 
, and ||| und muss ||| 0.200000 0.600000 0.200000 0.200000 0.200000 0.600000 
, and ||| und nicht genug ||| 0.200000 0.200000 0.600000 0.200000 0.200000 0.600000 
, and ||| und nicht ||| 0.200000 0.200000 0.600000 0.200000 0.200000 0.600000 
, and ||| und sich ||| 0.200000 0.200000 0.600000 0.200000 0.200000 0.600000 
, and ||| und steigt jährlich ||| 0.600000 0.200000 0.200000 0.200000 0.200000 0.600000 
, and ||| und steigt ||| 0.600000 0.200000 0.200000 0.200000 0.200000 0.600000 
, and ||| und zudem ||| 0.200000 0.600000 0.200000 0.200000 0.200000 0.600000 
, and ||| und zwar ||| 0.600000 0.200000 0.200000 0.600000 0.200000 0.200000 
, and ||| und ||| 0.765191 0.025747 0.209063 0.738414 0.007209 0.254377 
, and ||| unterstützen und ||| 0.200000 0.200000 0.600000 0.600000 0.200000 0.200000 
, and ||| unterstützt , um ||| 0.600000 0.200000 0.200000 0.200000 0.200000 0.600000 
, and ||| unterstützt , ||| 0.600000 0.200000 0.200000 0.200000 0.200000 0.600000 
, and ||| verboten und jährlich kommt ||| 0.200000 0.200000 0.600000 0.600000 0.200000 0.200000 
, and ||| verboten und jährlich ||| 0.200000 0.200000 0.600000 0.200000 0.200000 0.600000 
, and ||| verboten und ||| 0.200000 0.200000 0.600000 0.200000 0.200000 0.600000 
, and ||| verbreitet und ||| 0.200000 0.200000 0.600000 0.200000 0.600000 0.200000 
, and ||| verwandelt und die ||| 0.600000 0.200000 0.200000 0.200000 0.200000 0.600000 
, and ||| verwandelt und ||| 0.600000 0.200000 0.200000 0.200000 0.200000 0.600000 
, and ||| von Anfang und ||| 0.200000 0.200000 0.600000 0.600000 0.200000 0.200000 
, and ||| voranzutreiben , zudem sind ||| 0.600000 0.200000 0.200000 0.600000 0.200000 0.200000 
, and ||| voranzutreiben , zudem ||| 0.600000 0.200000 0.200000 0.200000 0.200000 0.600000 
, and ||| wahren und ||| 0.600000 0.200000 0.200000 0.200000 0.200000 0.600000 
, and ||| waren , und ||| 0.200000 0.200000 0.600000 0.600000 0.200000 0.200000 
, and ||| waren und ||| 0.200000 0.200000 0.600000 0.200000 0.200000 0.600000 
, and ||| weit verbreitet und ||| 0.200000 0.200000 0.600000 0.200000 0.600000 0.200000 
, and ||| werden , da sie ||| 0.200000 0.200000 0.600000 0.200000 0.200000 0.600000 
, and ||| werden , da ||| 0.200000 0.200000 0.600000 0.200000 0.200000 0.600000 
, and ||| werden , ||| 0.200000 0.200000 0.600000 0.200000 0.200000 0.600000 
, and ||| werden und dass ||| 0.600000 0.200000 0.200000 0.600000 0.200000 0.200000 
, and ||| werden und ||| 0.333333 0.111111 0.555556 0.111111 0.111111 0.777778 
, and ||| wurde , und sich ||| 0.200000 0.200000 0.600000 0.600000 0.200000 0.200000 
, and ||| wurde , und ||| 0.200000 0.200000 0.600000 0.200000 0.200000 0.600000 
, and ||| zu beraten und ||| 0.600000 0.200000 0.200000 0.200000 0.200000 0.600000 
, and ||| zu bringen , und ||| 0.200000 0.200000 0.600000 0.200000 0.200000 0.600000 
, and ||| zu erlauben und ||| 0.600000 0.200000 0.200000 0.200000 0.200000 0.600000 
, and ||| zu gewähren und ||| 0.600000 0.200000 0.200000 0.600000 0.200000 0.200000 
, and ||| zu unterstützen und ||| 0.600000 0.200000 0.200000 0.600000 0.200000 0.200000 
, and ||| zum Stillstand kommt - und ||| 0.200000 0.200000 0.600000 0.600000 0.200000 0.200000 
, and ||| über , und die ||| 0.200000 0.200000 0.600000 0.600000 0.200000 0.200000 
, and ||| über , und ||| 0.200000 0.200000 0.600000 0.200000 0.200000 0.600000 
, as the ||| , als das ||| 0.600000 0.200000 0.200000 0.600000 0.200000 0.200000 
, as the ||| , da die ||| 0.200000 0.200000 0.600000 0.600000 0.200000 0.200000 
, as the ||| , da uns die ||| 0.200000 0.200000 0.600000 0.600000 0.200000 0.200000 
, as the ||| , wie das der ||| 0.200000 0.200000 0.600000 0.600000 0.200000 0.200000 
, as the ||| , wie die ||| 0.428571 0.142857 0.428571 0.714286 0.142857 0.142857 
, as the ||| , wie einst der ||| 0.200000 0.200000 0.600000 0.600000 0.200000 0.200000 
, as the ||| . der ||| 0.200000 0.200000 0.600000 0.600000 0.200000 0.200000 
, as the ||| aus , da uns die ||| 0.600000 0.200000 0.200000 0.600000 0.200000 0.200000 
, as the ||| sollten , wie einst der ||| 0.600000 0.200000 0.200000 0.600000 0.200000 0.200000 
, as the ||| wie die ||| 0.200000 0.200000 0.600000 0.600000 0.200000 0.200000 
, as the ||| zu . der ||| 0.200000 0.200000 0.600000 0.600000 0.200000 0.200000 
, as ||| &quot; , da ||| 0.200000 0.200000 0.600000 0.600000 0.200000 0.200000 
, as ||| , als ||| 0.555556 0.111111 0.333333 0.777778 0.111111 0.111111 
, as ||| , da uns ||| 0.200000 0.200000 0.600000 0.600000 0.200000 0.200000 
, as ||| , da ||| 0.368421 0.052632 0.578947 0.684211 0.052632 0.263158 
, as ||| , denn als ||| 0.600000 0.200000 0.200000 0.200000 0.200000 0.600000 
, as ||| , die ||| 0.200000 0.200000 0.600000 0.200000 0.200000 0.600000 
, as ||| , genau wie ||| 0.200000 0.200000 0.600000 0.200000 0.200000 0.600000 
, as ||| , gibt keinen Anlass ||| 0.600000 0.200000 0.200000 0.200000 0.200000 0.600000 
, as ||| , gibt keinen ||| 0.600000 0.200000 0.200000 0.200000 0.200000 0.600000 
, as ||| , gibt ||| 0.600000 0.200000 0.200000 0.200000 0.200000 0.600000 
, as ||| , so wie ||| 0.200000 0.200000 0.600000 0.200000 0.200000 0.600000 
, as ||| , sondern als die zwei ||| 0.600000 0.200000 0.200000 0.200000 0.200000 0.600000 
, as ||| , sondern als die ||| 0.600000 0.200000 0.200000 0.200000 0.200000 0.600000 
, as ||| , sondern als ||| 0.600000 0.200000 0.200000 0.200000 0.200000 0.600000 
, as ||| , und ||| 0.142857 0.142857 0.714286 0.428571 0.142857 0.428571 
, as ||| , wie dies ||| 0.600000 0.200000 0.200000 0.200000 0.200000 0.600000 
, as ||| , wie einst ||| 0.200000 0.200000 0.600000 0.600000 0.200000 0.200000 
, as ||| , wie es ||| 0.200000 0.200000 0.600000 0.200000 0.200000 0.600000 
, as ||| , wie momentan ||| 0.600000 0.200000 0.200000 0.600000 0.200000 0.200000 
, as ||| , wie ||| 0.511111 0.022222 0.466667 0.600000 0.022222 0.377778 
, as ||| , wodurch einerseits zwar die ||| 0.200000 0.200000 0.600000 0.200000 0.200000 0.600000 
, as ||| , wodurch einerseits zwar ||| 0.200000 0.200000 0.600000 0.200000 0.200000 0.600000 
, as ||| , wodurch einerseits ||| 0.200000 0.200000 0.600000 0.200000 0.200000 0.600000 
, as ||| , wodurch ||| 0.200000 0.200000 0.600000 0.200000 0.200000 0.600000 
, as ||| , während ||| 0.200000 0.200000 0.600000 0.200000 0.200000 0.600000 
, as ||| , zudem ist man in ||| 0.200000 0.200000 0.600000 0.200000 0.200000 0.600000 
, as ||| , zudem ist man ||| 0.200000 0.200000 0.600000 0.200000 0.200000 0.600000 
, as ||| , zudem ist ||| 0.200000 0.200000 0.600000 0.200000 0.200000 0.600000 
, as ||| , zudem ||| 0.200000 0.200000 0.600000 0.200000 0.200000 0.600000 
, as ||| , ||| 0.259259 0.185185 0.555556 0.037037 0.037037 0.925926 
, as ||| - statt ||| 0.600000 0.200000 0.200000 0.200000 0.200000 0.600000 
, as ||| - ||| 0.600000 0.200000 0.200000 0.200000 0.200000 0.600000 
, as ||| . denn der stärkste ||| 0.200000 0.200000 0.600000 0.200000 0.200000 0.600000 
, as ||| . denn der ||| 0.200000 0.200000 0.600000 0.200000 0.200000 0.600000 
, as ||| . denn ||| 0.200000 0.200000 0.600000 0.200000 0.200000 0.600000 
, as ||| . ||| 0.142857 0.142857 0.714286 0.428571 0.142857 0.428571 
, as ||| Luft ||| 0.200000 0.200000 0.600000 0.600000 0.200000 0.200000 
, as ||| Menschen vermitteln ||| 0.200000 0.200000 0.600000 0.200000 0.200000 0.600000 
, as ||| Nationalstaaten vielen Menschen vermitteln ||| 0.200000 0.200000 0.600000 0.200000 0.200000 0.600000 
, as ||| Personen , die ||| 0.200000 0.200000 0.600000 0.200000 0.200000 0.600000 
, as ||| Verdoppelung der ||| 0.200000 0.200000 0.600000 0.600000 0.200000 0.200000 
, as ||| Verdoppelung ||| 0.200000 0.200000 0.600000 0.200000 0.200000 0.600000 
, as ||| Verfügung , so wie ||| 0.200000 0.200000 0.600000 0.200000 0.200000 0.600000 
, as ||| Wasser geraten &quot; , da ||| 0.200000 0.200000 0.600000 0.600000 0.200000 0.200000 
, as ||| Wehr , da ||| 0.200000 0.200000 0.600000 0.600000 0.200000 0.200000 
, as ||| als ||| 0.555556 0.111111 0.333333 0.555556 0.111111 0.333333 
, as ||| angesichts der Verdoppelung der ||| 0.600000 0.200000 0.200000 0.600000 0.200000 0.200000 
, as ||| angesichts der Verdoppelung ||| 0.600000 0.200000 0.200000 0.200000 0.200000 0.600000 
, as ||| aus , da uns ||| 0.600000 0.200000 0.200000 0.600000 0.200000 0.200000 
, as ||| aus , da ||| 0.600000 0.200000 0.200000 0.200000 0.200000 0.600000 
, as ||| befreien , ||| 0.200000 0.200000 0.600000 0.200000 0.200000 0.600000 
, as ||| bringen , wie ||| 0.200000 0.200000 0.600000 0.600000 0.200000 0.200000 
, as ||| daher ||| 0.600000 0.200000 0.200000 0.200000 0.200000 0.600000 
, as ||| der Verdoppelung der ||| 0.200000 0.200000 0.600000 0.600000 0.200000 0.200000 
, as ||| der Verdoppelung ||| 0.200000 0.200000 0.600000 0.200000 0.200000 0.600000 
, as ||| ebenso ||| 0.600000 0.200000 0.200000 0.600000 0.200000 0.200000 
, as ||| geraten &quot; , da ||| 0.200000 0.200000 0.600000 0.600000 0.200000 0.200000 
, as ||| gestellt wurde , als ||| 0.200000 0.200000 0.600000 0.600000 0.200000 0.200000 
, as ||| ist so sicher wie ||| 0.200000 0.200000 0.600000 0.600000 0.200000 0.200000 
, as ||| sich nicht wie ||| 0.200000 0.200000 0.600000 0.600000 0.200000 0.200000 
, as ||| sicher wie ||| 0.200000 0.200000 0.600000 0.600000 0.200000 0.200000 
, as ||| so sicher wie ||| 0.200000 0.200000 0.600000 0.600000 0.200000 0.200000 
, as ||| sollten , wie einst ||| 0.600000 0.200000 0.200000 0.600000 0.200000 0.200000 
, as ||| sollten , wie ||| 0.600000 0.200000 0.200000 0.200000 0.200000 0.600000 
, as ||| sowie ||| 0.714286 0.142857 0.142857 0.428571 0.142857 0.428571 
, as ||| und Teilen ||| 0.600000 0.200000 0.200000 0.200000 0.200000 0.600000 
, as ||| und ||| 0.200000 0.200000 0.600000 0.200000 0.200000 0.600000 
, as ||| vermitteln ||| 0.200000 0.200000 0.600000 0.200000 0.200000 0.600000 
, as ||| vielen Menschen vermitteln ||| 0.200000 0.200000 0.600000 0.200000 0.200000 0.600000 
, as ||| wie ||| 0.238095 0.047619 0.714286 0.809524 0.047619 0.142857 
, as ||| wird wie ||| 0.600000 0.200000 0.200000 0.600000 0.200000 0.200000 
, as ||| wurde , als ||| 0.200000 0.200000 0.600000 0.600000 0.200000 0.200000 
, as ||| zeigte sich ||| 0.600000 0.200000 0.200000 0.200000 0.200000 0.600000 
, as ||| zu . ||| 0.200000 0.200000 0.600000 0.600000 0.200000 0.200000 
, as ||| zur Verfügung , so wie ||| 0.200000 0.200000 0.600000 0.200000 0.200000 0.600000 
, as ||| zur Wehr , da ||| 0.600000 0.200000 0.200000 0.600000 0.200000 0.200000 
, based on ||| , basierend auf ||| 0.200000 0.200000 0.600000 0.600000 0.200000 0.200000 
, based on ||| , der auf ||| 0.600000 0.200000 0.200000 0.600000 0.200000 0.200000 
, based on ||| , ||| 0.200000 0.200000 0.600000 0.200000 0.200000 0.600000 
, based on ||| Finanzsektor beruht auf ||| 0.200000 0.200000 0.600000 0.600000 0.200000 0.200000 
, based on ||| auf , basierend auf ||| 0.600000 0.200000 0.200000 0.600000 0.200000 0.200000 
, based on ||| beruht auf ||| 0.200000 0.200000 0.600000 0.600000 0.200000 0.200000 
, based on ||| den Finanzsektor beruht auf ||| 0.200000 0.200000 0.600000 0.600000 0.200000 0.200000 
, based ||| , basierend ||| 0.200000 0.200000 0.600000 0.600000 0.200000 0.200000 
, based ||| , der ||| 0.600000 0.200000 0.200000 0.600000 0.200000 0.200000 
, based ||| , die einerseits ||| 0.200000 0.200000 0.600000 0.200000 0.200000 0.600000 
, based ||| , die ||| 0.200000 0.200000 0.600000 0.200000 0.200000 0.600000 
, based ||| , ||| 0.333333 0.111111 0.555556 0.111111 0.111111 0.777778 
, based ||| Finanzsektor beruht ||| 0.200000 0.200000 0.600000 0.600000 0.200000 0.200000 
, based ||| auf , basierend ||| 0.600000 0.200000 0.200000 0.600000 0.200000 0.200000 
, based ||| beruht ||| 0.200000 0.200000 0.600000 0.600000 0.200000 0.200000 
, based ||| den Finanzsektor beruht ||| 0.200000 0.200000 0.600000 0.600000 0.200000 0.200000 
, based ||| verfügen , die einerseits ||| 0.600000 0.200000 0.200000 0.200000 0.200000 0.600000 
, based ||| verfügen , die ||| 0.600000 0.200000 0.200000 0.200000 0.200000 0.600000 
, based ||| verfügen , ||| 0.600000 0.200000 0.200000 0.200000 0.200000 0.600000 
, be ||| sein ||| 0.200000 0.200000 0.600000 0.200000 0.200000 0.600000 
, be ||| werden ||| 0.200000 0.600000 0.200000 0.200000 0.200000 0.600000 
, but ||| , aber die ||| 0.600000 0.200000 0.200000 0.600000 0.200000 0.200000 
, but ||| , aber dies ||| 0.600000 0.200000 0.200000 0.600000 0.200000 0.200000 
, but ||| , aber doch eine ||| 0.600000 0.200000 0.200000 0.200000 0.200000 0.600000 
, but ||| , aber doch ||| 0.600000 0.200000 0.200000 0.200000 0.200000 0.600000 
, but ||| , aber durch ||| 0.600000 0.200000 0.200000 0.600000 0.200000 0.200000 
, but ||| , aber im ||| 0.200000 0.200000 0.600000 0.600000 0.200000 0.200000 
, but ||| , aber ||| 0.538462 0.005917 0.455621 0.715976 0.005917 0.278107 
, but ||| , auch hat ||| 0.200000 0.200000 0.600000 0.600000 0.200000 0.200000 
, but ||| , auch ||| 0.200000 0.200000 0.600000 0.200000 0.200000 0.600000 
, but ||| , bestehen aber ||| 0.600000 0.200000 0.200000 0.600000 0.200000 0.200000 
, but ||| , dagegen blicken ||| 0.200000 0.200000 0.600000 0.600000 0.200000 0.200000 
, but ||| , dagegen ||| 0.200000 0.200000 0.600000 0.200000 0.200000 0.600000 
, but ||| , das aber ||| 0.200000 0.200000 0.600000 0.200000 0.200000 0.600000 
, but ||| , dass sie aber ||| 0.200000 0.200000 0.600000 0.600000 0.200000 0.200000 
, but ||| , die jedoch ||| 0.200000 0.200000 0.600000 0.200000 0.200000 0.600000 
, but ||| , die ||| 0.200000 0.200000 0.600000 0.200000 0.200000 0.600000 
, but ||| , doch die ||| 0.714286 0.142857 0.142857 0.428571 0.142857 0.428571 
, but ||| , doch gibt es weiterhin ||| 0.200000 0.200000 0.600000 0.600000 0.200000 0.200000 
, but ||| , doch gibt es ||| 0.428571 0.142857 0.428571 0.428571 0.142857 0.428571 
, but ||| , doch gibt ||| 0.428571 0.142857 0.428571 0.142857 0.142857 0.714286 
, but ||| , doch in ||| 0.200000 0.200000 0.600000 0.200000 0.200000 0.600000 
, but ||| , doch kam ||| 0.200000 0.200000 0.600000 0.600000 0.200000 0.200000 
, but ||| , doch werden ||| 0.200000 0.200000 0.600000 0.600000 0.200000 0.200000 
, but ||| , doch ||| 0.525424 0.050847 0.423729 0.254237 0.016949 0.728814 
, but ||| , ist langfristig jedoch ||| 0.200000 0.200000 0.600000 0.200000 0.200000 0.600000 
, but ||| , liegt aber ||| 0.600000 0.200000 0.200000 0.600000 0.200000 0.200000 
, but ||| , sind aber ||| 0.600000 0.200000 0.200000 0.600000 0.200000 0.200000 
, but ||| , sondern auch Wirtschaft ||| 0.600000 0.200000 0.200000 0.200000 0.200000 0.600000 
, but ||| , sondern auch dem Mandat ||| 0.200000 0.600000 0.200000 0.200000 0.200000 0.600000 
, but ||| , sondern auch dem ||| 0.200000 0.600000 0.200000 0.200000 0.200000 0.600000 
, but ||| , sondern auch ||| 0.333333 0.333333 0.333333 0.111111 0.111111 0.777778 
, but ||| , sondern dass wir ||| 0.200000 0.200000 0.600000 0.200000 0.200000 0.600000 
, but ||| , sondern dass ||| 0.200000 0.200000 0.600000 0.200000 0.200000 0.600000 
, but ||| , sondern die ||| 0.200000 0.200000 0.600000 0.600000 0.200000 0.200000 
, but ||| , sondern im ||| 0.200000 0.200000 0.600000 0.200000 0.200000 0.600000 
, but ||| , sondern lediglich , ||| 0.600000 0.200000 0.200000 0.200000 0.200000 0.600000 
, but ||| , sondern lediglich ||| 0.600000 0.200000 0.200000 0.200000 0.200000 0.600000 
, but ||| , sondern um ||| 0.200000 0.200000 0.600000 0.200000 0.200000 0.600000 
, but ||| , sondern vielmehr ||| 0.200000 0.200000 0.600000 0.200000 0.200000 0.600000 
, but ||| , sondern ||| 0.510791 0.035971 0.453237 0.697842 0.007194 0.294964 
, but ||| , wenn er ||| 0.200000 0.200000 0.600000 0.200000 0.200000 0.600000 
, but ||| , wenn ||| 0.200000 0.200000 0.600000 0.200000 0.200000 0.600000 
, but ||| , ||| 0.200000 0.040000 0.760000 0.200000 0.040000 0.760000 
, but ||| - aber ||| 0.200000 0.200000 0.600000 0.600000 0.200000 0.200000 
, but ||| . aber diese ||| 0.200000 0.200000 0.600000 0.600000 0.200000 0.200000 
, but ||| . aber ||| 0.200000 0.200000 0.600000 0.200000 0.200000 0.600000 
, but ||| . allerdings verläuft dieser Prozess ||| 0.200000 0.200000 0.600000 0.600000 0.200000 0.200000 
, but ||| . allerdings verläuft dieser ||| 0.200000 0.200000 0.600000 0.200000 0.200000 0.600000 
