<s> [X] ||| <s> [Q] ||| 1 ||| 
[X][Q] </s> [X] ||| [X][Q] </s> [Q] ||| 1 ||| 0-0 
<s> [X][ADJA] </s> [X] ||| <s> [X][ADJA] </s> [Q] ||| 1 ||| 1-1 
<s> [X][AP] </s> [X] ||| <s> [X][AP] </s> [Q] ||| 1 ||| 1-1 
<s> [X][AVP] </s> [X] ||| <s> [X][AVP] </s> [Q] ||| 1 ||| 1-1 
<s> [X][CARD] </s> [X] ||| <s> [X][CARD] </s> [Q] ||| 1 ||| 1-1 
<s> [X][CH] </s> [X] ||| <s> [X][CH] </s> [Q] ||| 1 ||| 1-1 
<s> [X][CNP] </s> [X] ||| <s> [X][CNP] </s> [Q] ||| 1 ||| 1-1 
<s> [X][CO] </s> [X] ||| <s> [X][CO] </s> [Q] ||| 1 ||| 1-1 
<s> [X][CPP] </s> [X] ||| <s> [X][CPP] </s> [Q] ||| 1 ||| 1-1 
<s> [X][CS] </s> [X] ||| <s> [X][CS] </s> [Q] ||| 1 ||| 1-1 
<s> [X][CVP] </s> [X] ||| <s> [X][CVP] </s> [Q] ||| 1 ||| 1-1 
<s> [X][DL] </s> [X] ||| <s> [X][DL] </s> [Q] ||| 1 ||| 1-1 
<s> [X][NE] </s> [X] ||| <s> [X][NE] </s> [Q] ||| 1 ||| 1-1 
<s> [X][NM] </s> [X] ||| <s> [X][NM] </s> [Q] ||| 1 ||| 1-1 
<s> [X][NN] </s> [X] ||| <s> [X][NN] </s> [Q] ||| 1 ||| 1-1 
<s> [X][NP] </s> [X] ||| <s> [X][NP] </s> [Q] ||| 1 ||| 1-1 
<s> [X][PN] </s> [X] ||| <s> [X][PN] </s> [Q] ||| 1 ||| 1-1 
<s> [X][PP] </s> [X] ||| <s> [X][PP] </s> [Q] ||| 1 ||| 1-1 
<s> [X][PUNC.] </s> [X] ||| <s> [X][PUNC.] </s> [Q] ||| 1 ||| 1-1 
<s> [X][S] </s> [X] ||| <s> [X][S] </s> [Q] ||| 1 ||| 1-1 
<s> [X][TOP] </s> [X] ||| <s> [X][TOP] </s> [Q] ||| 1 ||| 1-1 
<s> [X][VP] </s> [X] ||| <s> [X][VP] </s> [Q] ||| 1 ||| 1-1 
<s> [X][XY] </s> [X] ||| <s> [X][XY] </s> [Q] ||| 1 ||| 1-1 
[X][Q] [X][AA] [X] ||| [X][Q] [X][AA] [Q] ||| 2.718 ||| 0-0 1-1 
[X][Q] [X][ADJA] [X] ||| [X][Q] [X][ADJA] [Q] ||| 2.718 ||| 0-0 1-1 
[X][Q] [X][ADJD] [X] ||| [X][Q] [X][ADJD] [Q] ||| 2.718 ||| 0-0 1-1 
[X][Q] [X][ADV] [X] ||| [X][Q] [X][ADV] [Q] ||| 2.718 ||| 0-0 1-1 
[X][Q] [X][AP] [X] ||| [X][Q] [X][AP] [Q] ||| 2.718 ||| 0-0 1-1 
[X][Q] [X][APPO] [X] ||| [X][Q] [X][APPO] [Q] ||| 2.718 ||| 0-0 1-1 
[X][Q] [X][APPR] [X] ||| [X][Q] [X][APPR] [Q] ||| 2.718 ||| 0-0 1-1 
[X][Q] [X][APPRART] [X] ||| [X][Q] [X][APPRART] [Q] ||| 2.718 ||| 0-0 1-1 
[X][Q] [X][APZR] [X] ||| [X][Q] [X][APZR] [Q] ||| 2.718 ||| 0-0 1-1 
[X][Q] [X][ART] [X] ||| [X][Q] [X][ART] [Q] ||| 2.718 ||| 0-0 1-1 
[X][Q] [X][AVP] [X] ||| [X][Q] [X][AVP] [Q] ||| 2.718 ||| 0-0 1-1 
[X][Q] [X][CAC] [X] ||| [X][Q] [X][CAC] [Q] ||| 2.718 ||| 0-0 1-1 
[X][Q] [X][CAP] [X] ||| [X][Q] [X][CAP] [Q] ||| 2.718 ||| 0-0 1-1 
[X][Q] [X][CARD] [X] ||| [X][Q] [X][CARD] [Q] ||| 2.718 ||| 0-0 1-1 
[X][Q] [X][CAVP] [X] ||| [X][Q] [X][CAVP] [Q] ||| 2.718 ||| 0-0 1-1 
[X][Q] [X][CH] [X] ||| [X][Q] [X][CH] [Q] ||| 2.718 ||| 0-0 1-1 
[X][Q] [X][CNP] [X] ||| [X][Q] [X][CNP] [Q] ||| 2.718 ||| 0-0 1-1 
[X][Q] [X][CO] [X] ||| [X][Q] [X][CO] [Q] ||| 2.718 ||| 0-0 1-1 
[X][Q] [X][CPP] [X] ||| [X][Q] [X][CPP] [Q] ||| 2.718 ||| 0-0 1-1 
[X][Q] [X][CS] [X] ||| [X][Q] [X][CS] [Q] ||| 2.718 ||| 0-0 1-1 
[X][Q] [X][CVP] [X] ||| [X][Q] [X][CVP] [Q] ||| 2.718 ||| 0-0 1-1 
[X][Q] [X][CVZ] [X] ||| [X][Q] [X][CVZ] [Q] ||| 2.718 ||| 0-0 1-1 
[X][Q] [X][DL] [X] ||| [X][Q] [X][DL] [Q] ||| 2.718 ||| 0-0 1-1 
[X][Q] [X][FM] [X] ||| [X][Q] [X][FM] [Q] ||| 2.718 ||| 0-0 1-1 
[X][Q] [X][ISU] [X] ||| [X][Q] [X][ISU] [Q] ||| 2.718 ||| 0-0 1-1 
[X][Q] [X][ITJ] [X] ||| [X][Q] [X][ITJ] [Q] ||| 2.718 ||| 0-0 1-1 
[X][Q] [X][KOKOM] [X] ||| [X][Q] [X][KOKOM] [Q] ||| 2.718 ||| 0-0 1-1 
[X][Q] [X][KON] [X] ||| [X][Q] [X][KON] [Q] ||| 2.718 ||| 0-0 1-1 
[X][Q] [X][KOUI] [X] ||| [X][Q] [X][KOUI] [Q] ||| 2.718 ||| 0-0 1-1 
[X][Q] [X][KOUS] [X] ||| [X][Q] [X][KOUS] [Q] ||| 2.718 ||| 0-0 1-1 
[X][Q] [X][MTA] [X] ||| [X][Q] [X][MTA] [Q] ||| 2.718 ||| 0-0 1-1 
[X][Q] [X][NE] [X] ||| [X][Q] [X][NE] [Q] ||| 2.718 ||| 0-0 1-1 
[X][Q] [X][NM] [X] ||| [X][Q] [X][NM] [Q] ||| 2.718 ||| 0-0 1-1 
[X][Q] [X][NN] [X] ||| [X][Q] [X][NN] [Q] ||| 2.718 ||| 0-0 1-1 
[X][Q] [X][NNE] [X] ||| [X][Q] [X][NNE] [Q] ||| 2.718 ||| 0-0 1-1 
[X][Q] [X][NP] [X] ||| [X][Q] [X][NP] [Q] ||| 2.718 ||| 0-0 1-1 
[X][Q] [X][PDAT] [X] ||| [X][Q] [X][PDAT] [Q] ||| 2.718 ||| 0-0 1-1 
[X][Q] [X][PDS] [X] ||| [X][Q] [X][PDS] [Q] ||| 2.718 ||| 0-0 1-1 
[X][Q] [X][PIAT] [X] ||| [X][Q] [X][PIAT] [Q] ||| 2.718 ||| 0-0 1-1 
[X][Q] [X][PIS] [X] ||| [X][Q] [X][PIS] [Q] ||| 2.718 ||| 0-0 1-1 
[X][Q] [X][PN] [X] ||| [X][Q] [X][PN] [Q] ||| 2.718 ||| 0-0 1-1 
[X][Q] [X][PP] [X] ||| [X][Q] [X][PP] [Q] ||| 2.718 ||| 0-0 1-1 
[X][Q] [X][PPER] [X] ||| [X][Q] [X][PPER] [Q] ||| 2.718 ||| 0-0 1-1 
[X][Q] [X][PPOSAT] [X] ||| [X][Q] [X][PPOSAT] [Q] ||| 2.718 ||| 0-0 1-1 
[X][Q] [X][PPOSS] [X] ||| [X][Q] [X][PPOSS] [Q] ||| 2.718 ||| 0-0 1-1 
[X][Q] [X][PRELAT] [X] ||| [X][Q] [X][PRELAT] [Q] ||| 2.718 ||| 0-0 1-1 
[X][Q] [X][PRELS] [X] ||| [X][Q] [X][PRELS] [Q] ||| 2.718 ||| 0-0 1-1 
[X][Q] [X][PRF] [X] ||| [X][Q] [X][PRF] [Q] ||| 2.718 ||| 0-0 1-1 
[X][Q] [X][PROAV] [X] ||| [X][Q] [X][PROAV] [Q] ||| 2.718 ||| 0-0 1-1 
[X][Q] [X][PTKA] [X] ||| [X][Q] [X][PTKA] [Q] ||| 2.718 ||| 0-0 1-1 
[X][Q] [X][PTKANT] [X] ||| [X][Q] [X][PTKANT] [Q] ||| 2.718 ||| 0-0 1-1 
[X][Q] [X][PTKNEG] [X] ||| [X][Q] [X][PTKNEG] [Q] ||| 2.718 ||| 0-0 1-1 
[X][Q] [X][PTKVZ] [X] ||| [X][Q] [X][PTKVZ] [Q] ||| 2.718 ||| 0-0 1-1 
[X][Q] [X][PTKZU] [X] ||| [X][Q] [X][PTKZU] [Q] ||| 2.718 ||| 0-0 1-1 
[X][Q] [X][PUNC,] [X] ||| [X][Q] [X][PUNC,] [Q] ||| 2.718 ||| 0-0 1-1 
[X][Q] [X][PUNC.] [X] ||| [X][Q] [X][PUNC.] [Q] ||| 2.718 ||| 0-0 1-1 
[X][Q] [X][PUNCPar] [X] ||| [X][Q] [X][PUNCPar] [Q] ||| 2.718 ||| 0-0 1-1 
[X][Q] [X][PWAT] [X] ||| [X][Q] [X][PWAT] [Q] ||| 2.718 ||| 0-0 1-1 
[X][Q] [X][PWAV] [X] ||| [X][Q] [X][PWAV] [Q] ||| 2.718 ||| 0-0 1-1 
[X][Q] [X][PWS] [X] ||| [X][Q] [X][PWS] [Q] ||| 2.718 ||| 0-0 1-1 
[X][Q] [X][S] [X] ||| [X][Q] [X][S] [Q] ||| 2.718 ||| 0-0 1-1 
[X][Q] [X][TOP] [X] ||| [X][Q] [X][TOP] [Q] ||| 2.718 ||| 0-0 1-1 
[X][Q] [X][TRUNC] [X] ||| [X][Q] [X][TRUNC] [Q] ||| 2.718 ||| 0-0 1-1 
[X][Q] [X][VAFIN] [X] ||| [X][Q] [X][VAFIN] [Q] ||| 2.718 ||| 0-0 1-1 
[X][Q] [X][VAINF] [X] ||| [X][Q] [X][VAINF] [Q] ||| 2.718 ||| 0-0 1-1 
[X][Q] [X][VAPP] [X] ||| [X][Q] [X][VAPP] [Q] ||| 2.718 ||| 0-0 1-1 
[X][Q] [X][VMFIN] [X] ||| [X][Q] [X][VMFIN] [Q] ||| 2.718 ||| 0-0 1-1 
[X][Q] [X][VMINF] [X] ||| [X][Q] [X][VMINF] [Q] ||| 2.718 ||| 0-0 1-1 
[X][Q] [X][VMPP] [X] ||| [X][Q] [X][VMPP] [Q] ||| 2.718 ||| 0-0 1-1 
[X][Q] [X][VP] [X] ||| [X][Q] [X][VP] [Q] ||| 2.718 ||| 0-0 1-1 
[X][Q] [X][VVFIN] [X] ||| [X][Q] [X][VVFIN] [Q] ||| 2.718 ||| 0-0 1-1 
[X][Q] [X][VVIMP] [X] ||| [X][Q] [X][VVIMP] [Q] ||| 2.718 ||| 0-0 1-1 
[X][Q] [X][VVINF] [X] ||| [X][Q] [X][VVINF] [Q] ||| 2.718 ||| 0-0 1-1 
[X][Q] [X][VVIZU] [X] ||| [X][Q] [X][VVIZU] [Q] ||| 2.718 ||| 0-0 1-1 
[X][Q] [X][VVPP] [X] ||| [X][Q] [X][VVPP] [Q] ||| 2.718 ||| 0-0 1-1 
[X][Q] [X][VZ] [X] ||| [X][Q] [X][VZ] [Q] ||| 2.718 ||| 0-0 1-1 
[X][Q] [X][XY] [X] ||| [X][Q] [X][XY] [Q] ||| 2.718 ||| 0-0 1-1 
[X][Q] [X][X] [X] ||| [X][Q] [X][X] [Q] ||| 2.718 ||| 0-0 1-1 
