! ! ||| ! |||  ||| 0.854135 ||| 2836 1
! &#93; ||| ! &#93; |||  ||| 0.65207 ||| 1 1
! &apos; . ||| ! &apos; . |||  ||| 0.00709544 ||| 9 1
! &apos; ||| ! &apos; |||  ||| 0.0071931 ||| 113 1
! &quot; ) . ||| ! ) . |||  ||| 0.00176278 ||| 2 1
! &quot; ) ||| ! &apos; ) |||  ||| 0.532741 ||| 11 8
! &quot; ) ||| ! ) . |||  ||| 1.34528e-05 ||| 2 1
! &quot; ) ||| ! ) |||  ||| 0.00178704 ||| 27 3
! &quot; ) ||| that ! &apos; ) |||  ||| 0.532741 ||| 1 1
! &quot; , a pak ti , ||| ! &apos; , and we have those |||  ||| 2.87637e-06 ||| 2 1
! &quot; , a pak ti ||| ! &apos; , and we have those |||  ||| 5.61908e-06 ||| 2 1
! &quot; , a pak ||| ! &apos; , and we have |||  ||| 7.69525e-05 ||| 1 1
! &quot; , a to ||| ! &apos; , and this |||  ||| 0.049006 ||| 1 1
! &quot; , a ||| ! &apos; , and |||  ||| 0.347102 ||| 2 2
! &quot; , což je ||| ! &apos; , which is |||  ||| 0.0142754 ||| 1 1
! &quot; , což ||| ! &apos; , which |||  ||| 0.0292359 ||| 1 1
! &quot; , pak to vše ||| ! &apos; , then it will all |||  ||| 0.000281322 ||| 1 1
! &quot; , pak to ||| ! &apos; , then it will |||  ||| 0.0110948 ||| 1 1
! &quot; , pak to ||| ! &apos; , then it |||  ||| 0.0110948 ||| 1 1
! &quot; , pak ||| ! &apos; , then |||  ||| 0.118727 ||| 1 1
! &quot; , pokud jde o tyto ||| ! &apos; when it comes to these |||  ||| 6.53341e-05 ||| 1 1
! &quot; , pokud jde o ||| ! &apos; when it comes to |||  ||| 0.000219128 ||| 1 1
! &quot; , pokud ||| ! &apos; when |||  ||| 0.0231969 ||| 1 1
! &quot; , už pan daul ||| ! &apos; , before mr daul |||  ||| 9.97184e-05 ||| 1 1
! &quot; , už pan daul řekl ||| ! &apos; , before mr daul said |||  ||| 2.60259e-05 ||| 1 1
! &quot; , už pan ||| ! &apos; , before mr |||  ||| 0.000231568 ||| 1 1
! &quot; , už ||| ! &apos; , before |||  ||| 0.00177639 ||| 1 1
! &quot; , ||| ! &apos; , |||  ||| 0.384967 ||| 5 5
! &quot; , ||| ! &apos; |||  ||| 0.299755 ||| 113 2
! &quot; . ||| ! &apos; . |||  ||| 0.577629 ||| 9 1
! &quot; . ||| ! &apos; |||  ||| 0.00194746 ||| 113 1
! &quot; . ||| &apos; . |||  ||| 8.82512e-05 ||| 3889 1
! &quot; ; je na čase se ||| ! &apos; ; it is time for |||  ||| 7.04597e-06 ||| 2 1
! &quot; ; je na čase ||| ! &apos; ; it is time for |||  ||| 0.000163688 ||| 2 1
! &quot; ; je ||| ! &apos; ; it is |||  ||| 0.114382 ||| 1 1
! &quot; ; spinelli , který organizoval ||| ! &apos; ; spinelli , who organised |||  ||| 3.25958e-05 ||| 1 1
! &quot; ; spinelli , který ||| ! &apos; ; spinelli , who |||  ||| 0.00855308 ||| 1 1
! &quot; ; spinelli , ||| ! &apos; ; spinelli , |||  ||| 0.0911258 ||| 1 1
! &quot; ; spinelli ||| ! &apos; ; spinelli |||  ||| 0.138613 ||| 1 1
! &quot; ; ||| ! &apos; ; |||  ||| 0.311879 ||| 2 2
! &quot; ? ||| ! &apos; ? |||  ||| 0.573102 ||| 1 1
! &quot; a smlouvy z nice ii ||| ! &apos; and nice ii |||  ||| 0.000181119 ||| 1 1
! &quot; a smlouvy z nice ||| ! &apos; and nice |||  ||| 0.000213135 ||| 1 1
! &quot; a ||| ! &apos; and |||  ||| 0.527982 ||| 1 1
! &quot; byl důležitou ukázkou solidarity ||| &apos; were an important display of solidarity |||  ||| 1.91655e-10 ||| 1 1
! &quot; byl důležitou ukázkou ||| &apos; were an important display of |||  ||| 4.08893e-10 ||| 1 1
! &quot; byl důležitou ||| &apos; were an important |||  ||| 2.83387e-08 ||| 1 1
! &quot; byl ||| &apos; were |||  ||| 7.55391e-07 ||| 11 1
! &quot; byla klíčem ||| ! &apos; played a key role in |||  ||| 9.18758e-05 ||| 1 1
! &quot; byla klíčem ||| ! &apos; played a key role |||  ||| 9.18758e-05 ||| 1 1
! &quot; byla klíčem ||| ! &apos; played a key |||  ||| 9.18758e-05 ||| 1 1
! &quot; byla ||| ! &apos; played a |||  ||| 0.00167569 ||| 1 1
! &quot; je jednoduše skandální . ||| ! &apos; is simply scandalous . |||  ||| 0.047163 ||| 1 1
! &quot; je jednoduše skandální ||| ! &apos; is simply scandalous |||  ||| 0.0478121 ||| 1 1
! &quot; je jednoduše ||| ! &apos; is simply |||  ||| 0.080979 ||| 1 1
! &quot; je ||| ! &apos; is |||  ||| 0.285929 ||| 1 1
! &quot; křičí komise . ||| ! &apos; cries the commission . |||  ||| 0.00586469 ||| 1 1
! &quot; křičí komise ||| ! &apos; cries the commission |||  ||| 0.00594541 ||| 1 1
! &quot; křičí ||| ! &apos; cries |||  ||| 0.0150148 ||| 1 1
! &quot; pana yańeze @-@ ||| ! &apos; voiced by mr yañez @-@ |||  ||| 0.000622393 ||| 1 1
! &quot; pana yańeze ||| ! &apos; voiced by mr yañez |||  ||| 0.00562666 ||| 1 1
! &quot; z ||| ! &apos; from |||  ||| 0.197507 ||| 2 1
! &quot; z řad ||| ! &apos; from |||  ||| 4.3649e-06 ||| 2 1
! &quot; z řad členů skupiny ind ||| ! &apos; from members of the ind |||  ||| 1.84866e-09 ||| 1 1
! &quot; z řad členů skupiny ||| ! &apos; from members of the |||  ||| 2.06049e-09 ||| 1 1
! &quot; z řad členů ||| ! &apos; from members |||  ||| 3.04237e-07 ||| 1 1
! &quot; ||| ! &apos; - |||  ||| 0.585579 ||| 2 1
! &quot; ||| ! &apos; . |||  ||| 0.585579 ||| 9 5
! &quot; ||| ! &apos; played |||  ||| 0.585579 ||| 1 1
! &quot; ||| ! &apos; to the |||  ||| 0.585579 ||| 1 1
! &quot; ||| ! &apos; to |||  ||| 0.585579 ||| 1 1
! &quot; ||| ! &apos; |||  ||| 0.585579 ||| 113 97
! &quot; ||| ! &quot; |||  ||| 0.641278 ||| 4 4
! &quot; ||| ! . &quot; |||  ||| 0.320688 ||| 1 1
! &quot; ||| ! |||  ||| 0.00196428 ||| 2836 6
! &quot; ||| &apos; ! |||  ||| 0.585579 ||| 16 2
! &quot; ||| &apos; . |||  ||| 8.94658e-05 ||| 3889 2
! &quot; ||| &apos; |||  ||| 4.18183e-06 ||| 29580 2
! &quot; ||| any way &apos; ! |||  ||| 0.585579 ||| 1 1
! &quot; ||| in any way &apos; ! |||  ||| 0.585579 ||| 1 1
! &quot; ||| that ! &apos; |||  ||| 0.585579 ||| 1 1
! &quot; ||| way &apos; ! |||  ||| 0.585579 ||| 1 1
! &quot; členů skupiny efd ) ||| ! &apos; from the efd ) |||  ||| 3.14461e-07 ||| 1 1
! &quot; členů skupiny efd ||| ! &apos; from the efd |||  ||| 3.4565e-07 ||| 1 1
! &quot; členů skupiny ||| ! &apos; from the |||  ||| 3.81843e-07 ||| 1 1
! &quot; řekl pan bendtsen , a ||| ! &apos; mr bendtsen said , and |||  ||| 0.00134198 ||| 1 1
! &quot; řekl pan bendtsen , ||| ! &apos; mr bendtsen said , |||  ||| 0.00148838 ||| 1 1
! &quot; řekl pan bendtsen ||| ! &apos; mr bendtsen said |||  ||| 0.00226399 ||| 1 1
! ) , aby sladili svoji práci ||| ! ) to combine work |||  ||| 1.06773e-07 ||| 1 1
! ) , aby sladili svoji ||| ! ) to combine |||  ||| 3.46012e-07 ||| 1 1
! ) , aby ||| ! ) to |||  ||| 0.025788 ||| 1 1
! ) , která předložila ||| ! - who tabled the |||  ||| 1.138e-05 ||| 1 1
! ) , která předložila ||| ! - who tabled |||  ||| 1.138e-05 ||| 1 1
! ) , která ||| ! - who |||  ||| 7.50288e-05 ||| 1 1
! ) , pokud jde o ||| ! ) in the |||  ||| 2.69157e-08 ||| 1 1
! ) , pokud ||| ! ) in |||  ||| 0.00250059 ||| 2 1
! ) , zatímco ||| ! ) , while |||  ||| 0.116724 ||| 1 1
! ) , zcela v rozporu s ||| ! ) is entirely at odds with |||  ||| 3.99389e-05 ||| 1 1
! ) , zcela v rozporu ||| ! ) is entirely at odds |||  ||| 9.06768e-05 ||| 1 1
! ) , zcela v rozporu ||| fuels ! ) is entirely at odds |||  ||| 9.06768e-05 ||| 1 1
