! ! ||| ! ||| 0.950802 |||  ||| 1 1
! &#93; ||| ! &#93; ||| 0.901133 |||  ||| 1 1
! &apos; . ||| ! &apos; . ||| 0.428908 |||  ||| 1 1
! &apos; ||| ! &apos; ||| 0.438516 |||  ||| 1 1
! &quot; ) . ||| ! ) . ||| 0.421351 |||  ||| 1 1
! &quot; ) ||| ! &apos; ) ||| 0.759986 |||  ||| 13 8
! &quot; ) ||| ! ) . ||| 0.000290808 |||  ||| 13 1
! &quot; ) ||| ! ) ||| 0.43079 |||  ||| 13 3
! &quot; ) ||| that ! &apos; ) ||| 0.0049447 |||  ||| 13 1
! &quot; , a pak ti , ||| ! &apos; , and we have those ||| 2.94167e-06 |||  ||| 1 1
! &quot; , a pak ti ||| ! &apos; , and we have those ||| 2.94167e-06 |||  ||| 1 1
! &quot; , a pak ||| ! &apos; , and we have ||| 4.46225e-06 |||  ||| 1 1
! &quot; , a to ||| ! &apos; , and this ||| 0.0896498 |||  ||| 1 1
! &quot; , a ||| ! &apos; , and ||| 0.360693 |||  ||| 2 2
! &quot; , což je ||| ! &apos; , which is ||| 0.106844 |||  ||| 1 1
! &quot; , což ||| ! &apos; , which ||| 0.210003 |||  ||| 1 1
! &quot; , pak to vše ||| ! &apos; , then it will all ||| 4.50069e-05 |||  ||| 1 1
! &quot; , pak to ||| ! &apos; , then it will ||| 0.000126686 |||  ||| 2 1
! &quot; , pak to ||| ! &apos; , then it ||| 0.0330549 |||  ||| 2 1
! &quot; , pak ||| ! &apos; , then ||| 0.225509 |||  ||| 1 1
! &quot; , pokud jde o tyto ||| ! &apos; when it comes to these ||| 4.93706e-06 |||  ||| 1 1
! &quot; , pokud jde o ||| ! &apos; when it comes to ||| 8.14791e-06 |||  ||| 1 1
! &quot; , pokud ||| ! &apos; when ||| 0.0442716 |||  ||| 1 1
! &quot; , už pan daul ||| ! &apos; , before mr daul ||| 0.00109801 |||  ||| 1 1
! &quot; , už pan daul řekl ||| ! &apos; , before mr daul said ||| 0.000563345 |||  ||| 1 1
! &quot; , už pan ||| ! &apos; , before mr ||| 0.00134201 |||  ||| 1 1
! &quot; , už ||| ! &apos; , before ||| 0.00200566 |||  ||| 1 1
! &quot; , ||| ! &apos; , ||| 0.422147 |||  ||| 7 5
! &quot; , ||| ! &apos; ||| 0.838865 |||  ||| 7 2
! &quot; . ||| ! &apos; . ||| 0.820485 |||  ||| 3 1
! &quot; . ||| ! &apos; ||| 0.838865 |||  ||| 3 1
! &quot; . ||| &apos; . ||| 0.445617 |||  ||| 3 1
! &quot; ; je na čase se ||| ! &apos; ; it is time for ||| 0.00283582 |||  ||| 1 1
! &quot; ; je na čase ||| ! &apos; ; it is time for ||| 0.00283582 |||  ||| 1 1
! &quot; ; je ||| ! &apos; ; it is ||| 0.0546379 |||  ||| 1 1
! &quot; ; spinelli , který organizoval ||| ! &apos; ; spinelli , who organised ||| 0.0129998 |||  ||| 1 1
! &quot; ; spinelli , který ||| ! &apos; ; spinelli , who ||| 0.0259996 |||  ||| 1 1
! &quot; ; spinelli , ||| ! &apos; ; spinelli , ||| 0.323204 |||  ||| 1 1
! &quot; ; spinelli ||| ! &apos; ; spinelli ||| 0.642252 |||  ||| 1 1
! &quot; ; ||| ! &apos; ; ||| 0.722533 |||  ||| 2 2
! &quot; ? ||| ! &apos; ? ||| 0.820809 |||  ||| 1 1
! &quot; a smlouvy z nice ii ||| ! &apos; and nice ii ||| 0.222758 |||  ||| 1 1
! &quot; a smlouvy z nice ||| ! &apos; and nice ||| 0.233727 |||  ||| 1 1
! &quot; a ||| ! &apos; and ||| 0.716748 |||  ||| 1 1
! &quot; byl důležitou ukázkou solidarity ||| &apos; were an important display of solidarity ||| 7.42899e-06 |||  ||| 1 1
! &quot; byl důležitou ukázkou ||| &apos; were an important display of ||| 7.65421e-06 |||  ||| 1 1
! &quot; byl důležitou ||| &apos; were an important ||| 0.000833459 |||  ||| 1 1
! &quot; byl ||| &apos; were ||| 0.00616946 |||  ||| 1 1
! &quot; byla klíčem ||| ! &apos; played a key role in ||| 1.73626e-12 |||  ||| 3 1
! &quot; byla klíčem ||| ! &apos; played a key role ||| 1.11647e-10 |||  ||| 3 1
! &quot; byla klíčem ||| ! &apos; played a key ||| 7.09771e-07 |||  ||| 3 1
! &quot; byla ||| ! &apos; played a ||| 1.27058e-06 |||  ||| 1 1
! &quot; je jednoduše skandální . ||| ! &apos; is simply scandalous . ||| 0.166723 |||  ||| 1 1
! &quot; je jednoduše skandální ||| ! &apos; is simply scandalous ||| 0.170458 |||  ||| 1 1
! &quot; je jednoduše ||| ! &apos; is simply ||| 0.313274 |||  ||| 1 1
! &quot; je ||| ! &apos; is ||| 0.426792 |||  ||| 1 1
! &quot; křičí komise . ||| ! &apos; cries the commission . ||| 0.00605298 |||  ||| 1 1
! &quot; křičí komise ||| ! &apos; cries the commission ||| 0.00618857 |||  ||| 1 1
! &quot; křičí ||| ! &apos; cries ||| 0.0299595 |||  ||| 1 1
! &quot; pana yańeze @-@ ||| ! &apos; voiced by mr yañez @-@ ||| 0.00401611 |||  ||| 1 1
! &quot; pana yańeze ||| ! &apos; voiced by mr yañez ||| 0.00838793 |||  ||| 1 1
! &quot; z ||| ! &apos; from ||| 0.200632 |||  ||| 1 1
! &quot; z řad ||| ! &apos; from ||| 0.200632 |||  ||| 1 1
! &quot; z řad členů skupiny ind ||| ! &apos; from members of the ind ||| 0.00736447 |||  ||| 1 1
! &quot; z řad členů skupiny ||| ! &apos; from members of the ||| 0.00823388 |||  ||| 1 1
! &quot; z řad členů ||| ! &apos; from members ||| 0.0844242 |||  ||| 1 1
! &quot; ||| ! &apos; - ||| 0.00110806 |||  ||| 127 1
! &quot; ||| ! &apos; . ||| 0.00119287 |||  ||| 127 5
! &quot; ||| ! &apos; played ||| 3.75812e-05 |||  ||| 127 1
! &quot; ||| ! &apos; to the ||| 0.00994899 |||  ||| 127 1
! &quot; ||| ! &apos; to ||| 0.029836 |||  ||| 127 1
! &quot; ||| ! &apos; ||| 0.838865 |||  ||| 127 97
! &quot; ||| ! &quot; ||| 0.0130972 |||  ||| 127 4
! &quot; ||| ! . &quot; ||| 0.000420027 |||  ||| 127 1
! &quot; ||| ! ||| 0.475502 |||  ||| 127 6
! &quot; ||| &apos; ! ||| 0.838865 |||  ||| 127 2
! &quot; ||| &apos; . ||| 0.0282944 |||  ||| 127 2
! &quot; ||| &apos; ||| 0.441682 |||  ||| 127 2
! &quot; ||| any way &apos; ! ||| 7.12045e-07 |||  ||| 127 1
! &quot; ||| in any way &apos; ! ||| 1.10732e-08 |||  ||| 127 1
! &quot; ||| that ! &apos; ||| 0.00545791 |||  ||| 127 1
! &quot; ||| way &apos; ! ||| 0.000945988 |||  ||| 127 1
! &quot; členů skupiny efd ) ||| ! &apos; from the efd ) ||| 0.000581099 |||  ||| 1 1
! &quot; členů skupiny efd ||| ! &apos; from the efd ||| 0.000641411 |||  ||| 1 1
! &quot; členů skupiny ||| ! &apos; from the ||| 0.0013164 |||  ||| 1 1
! &quot; řekl pan bendtsen , a ||| ! &apos; mr bendtsen said , and ||| 0.103187 |||  ||| 1 1
! &quot; řekl pan bendtsen , ||| ! &apos; mr bendtsen said , ||| 0.120767 |||  ||| 1 1
! &quot; řekl pan bendtsen ||| ! &apos; mr bendtsen said ||| 0.239981 |||  ||| 1 1
! ) , aby sladili svoji práci ||| ! ) to combine work ||| 0.00919502 |||  ||| 1 1
! ) , aby sladili svoji ||| ! ) to combine ||| 0.0127394 |||  ||| 1 1
! ) , aby ||| ! ) to ||| 0.377649 |||  ||| 1 1
! ) , která předložila ||| ! - who tabled the ||| 4.96246e-06 |||  ||| 2 1
! ) , která předložila ||| ! - who tabled ||| 1.48819e-05 |||  ||| 2 1
! ) , která ||| ! - who ||| 0.000143373 |||  ||| 1 1
! ) , pokud jde o ||| ! ) in the ||| 0.00575512 |||  ||| 1 1
! ) , pokud ||| ! ) in ||| 0.0625697 |||  ||| 1 1
! ) , zatímco ||| ! ) , while ||| 0.271998 |||  ||| 1 1
! ) , zcela v rozporu s ||| ! ) is entirely at odds with ||| 2.80039e-08 |||  ||| 1 1
! ) , zcela v rozporu ||| ! ) is entirely at odds ||| 6.2711e-08 |||  ||| 2 1
! ) , zcela v rozporu ||| fuels ! ) is entirely at odds ||| 3.82537e-13 |||  ||| 2 1
