erklären Gauchet 0.3333333
Gauchet Gauchet 0.6666667
übertreffen measles 0.0714286
stirbt measles 0.0714286
Masern measles 0.7142857
erkrankt measles 0.0714286
etc. measles 0.0714286
Prinzip decentralizing 0.1000000
eine decentralizing 0.1000000
Unternehmenswachstum decentralizing 0.1000000
NULL decentralizing 0.1000000
Energiesysteme decentralizing 0.1000000
Dezentralisierung decentralizing 0.4000000
Friedenssicherung decentralizing 0.1000000
AT AT 1.0000000
viel inconsequential 0.0500000
gelten inconsequential 0.0500000
Konsequenzen inconsequential 0.0500000
Krämerladen inconsequential 0.0500000
Aktionsprogrammen inconsequential 0.0500000
inkonsequenten inconsequential 0.1500000
ohne inconsequential 0.0500000
inkonsequentes inconsequential 0.0500000
begnügen inconsequential 0.0500000
unbedeutende inconsequential 0.0500000
will inconsequential 0.0500000
dient inconsequential 0.0500000
Folge inconsequential 0.0500000
gewichtig inconsequential 0.0500000
inkonsequent inconsequential 0.0500000
belanglosen inconsequential 0.0500000
Beteuerungen inconsequential 0.0500000
weniger inconsequential 0.0500000
einmal B6 0.0714286
Entschließungsantrag B6 0.0714286
Haushaltslinie B6 0.0714286
beeinträchtigend B6 0.0714286
B6 B6 0.7142857
0314 0314 1.0000000
Ziffer Biopatnents 0.2000000
heißt Biopatnents 0.2000000
unter Biopatnents 0.2000000
es Biopatnents 0.2000000
Biopatentrichtlinie Biopatnents 0.2000000
Village Village 0.6666667
Dorf Village 0.3333333
aufhalten contras 0.3333333
Kontras contras 0.3333333
KontraKontras contras 0.3333333
bereichern richer 0.0213523
reich richer 0.0142349
wohlhabender richer 0.0106762
irischen richer 0.0035587
bereicherten richer 0.0035587
ob richer 0.0035587
reichen richer 0.0284698
Reicheren richer 0.0035587
oder richer 0.0071174
braucht richer 0.0035587
reichere richer 0.0640569
während richer 0.0035587
vervierfacht richer 0.0035587
arm richer 0.0035587
immer richer 0.0213523
wohlhabendere richer 0.0071174
Aktionären richer 0.0035587
Reichtum richer 0.0106762
wohlhabenderes richer 0.0035587
weniger richer 0.0035587
reichhaltiger richer 0.0035587
innerem richer 0.0035587
einzubringen richer 0.0035587
Superreichen richer 0.0035587
intensiveren richer 0.0035587
umfangreicherer richer 0.0035587
deren richer 0.0035587
bereichert richer 0.0177936
leichten richer 0.0035587
zugleich richer 0.0035587
erzielt richer 0.0071174
NULL richer 0.0249110
neue richer 0.0035587
wohlhabenderen richer 0.0391459
Erweiterung richer 0.0035587
erfahren richer 0.0035587
reicherer richer 0.0035587
ärmeren richer 0.0035587
gewonnen richer 0.0035587
reicheren richer 0.2064057
Gebiete richer 0.0035587
vermehrt richer 0.0035587
unser richer 0.0035587
noch richer 0.0427046
mehr richer 0.0177936
Bereicherung richer 0.0106762
substantielleren richer 0.0035587
Reichsten richer 0.0035587
Reichen richer 0.0106762
reicher richer 0.2455516
reicheres richer 0.0142349
28-Fache richer 0.0035587
reichsten richer 0.0320285
werdende richer 0.0035587
Schrotthändler richer 0.0035587
reiches richer 0.0035587
chancenreichere richer 0.0035587
vielfältigere richer 0.0035587
inhaltsreicher richer 0.0035587
Mafiaorganisationen richer 0.0035587
streben richer 0.0035587
vielseitiger richer 0.0035587
mehr Kristoffersen 0.1111111
Leute Kristoffersen 0.1111111
Kristoffersen Kristoffersen 0.6666667
als Kristoffersen 0.1111111
bin dwelling 0.0357143
NULL dwelling 0.1785714
auszudehnen dwelling 0.0357143
beschweren dwelling 0.0357143
eingehendere dwelling 0.0357143
Vergangenes dwelling 0.0357143
lohnte dwelling 0.0357143
aufzuhalten dwelling 0.0357143
verweilen dwelling 0.0357143
führen dwelling 0.0357143
darauf dwelling 0.0357143
absehen dwelling 0.0357143
Betrachtung dwelling 0.0357143
auszubreiten dwelling 0.0357143
aufhalten dwelling 0.0357143
näher dwelling 0.0357143
Ausführlichkeit dwelling 0.0357143
Verbesserung dwelling 0.0357143
drehen dwelling 0.0357143
sprechen dwelling 0.0357143
ausführlich dwelling 0.0714286
irgendeinen dwelling 0.0357143
später dwelling 0.0357143
Untersuchungshaft pre-emptive 0.0068027
Präventivkrieg pre-emptive 0.1428571
potentielle pre-emptive 0.0068027
Sinne. pre-emptive 0.0068027
vorausschauende pre-emptive 0.0068027
beherrscht pre-emptive 0.0068027
Präventivmaßnahmen pre-emptive 0.0068027
frühzeitige pre-emptive 0.0068027
vorherige pre-emptive 0.0068027
Eroberungskriege pre-emptive 0.0068027
einen pre-emptive 0.0068027
pre-emptive pre-emptive 0.0068027
präventives pre-emptive 0.0204082
präemptive pre-emptive 0.0068027
Präventivschlag pre-emptive 0.0952381
präemptiver pre-emptive 0.0068027
Feuerschneise pre-emptive 0.0068027
militärischer pre-emptive 0.0068027
vorbeugende pre-emptive 0.0408163
Präventivschlägen pre-emptive 0.0068027
erwogen pre-emptive 0.0068027
Präventivschläge pre-emptive 0.0544218
haltbare pre-emptive 0.0068027
verhütende pre-emptive 0.0068027
vorbeugenden pre-emptive 0.0340136
geplanten pre-emptive 0.0068027
Präventionskrieges pre-emptive 0.0068027
präventive pre-emptive 0.0068027
Präventivkrieges pre-emptive 0.0476190
Präventivkriegs pre-emptive 0.0408163
Präventivschlachtung pre-emptive 0.0068027
präemptiv pre-emptive 0.0068027
Präventivschlags pre-emptive 0.0272109
NULL pre-emptive 0.0272109
Gerichtsurteils pre-emptive 0.0068027
präventiven pre-emptive 0.0408163
vermittelbar pre-emptive 0.0068027
Vorfeld pre-emptive 0.0136054
findet pre-emptive 0.0068027
Abtreibungsverbot pre-emptive 0.0068027
Miniatomwaffen pre-emptive 0.0068027
kaum pre-emptive 0.0068027
Schläge pre-emptive 0.0068027
losschlagen pre-emptive 0.0068027
Vorverurteilung pre-emptive 0.0068027
Präventivkriegen pre-emptive 0.0068027
Präventivkriege pre-emptive 0.0476190
denn pre-emptive 0.0068027
durchführen pre-emptive 0.0068027
beeinträchtigende pre-emptive 0.0068027
präventiver pre-emptive 0.0340136
preemptive pre-emptive 0.0068027
Präventivkriegskonzept pre-emptive 0.0340136
einem pre-emptive 0.0068027
vorbeugendes pre-emptive 0.0068027
' pre-emptive 0.0272109
Amalia Amalia 1.0000000
Wader-Kunststoffspielzeug Wader 1.0000000
Euro-Nouveau Marché 0.1666667
NULL Marché 0.1666667
Bon-Marché- Marché 0.1666667
geleitet Marché 0.1666667
Marché Marché 0.3333333
zivil-militärische civil-military 0.1000000
nennende civil-military 0.0333333
und civil-military 0.1666667
zivilen civil-military 0.0666667
zwischen civil-military 0.1333333
Zivilregierung civil-military 0.0333333
Zivilgesellschaft civil-military 0.0333333
Zivil-militärisch civil-military 0.0333333
dem civil-military 0.0333333
den civil-military 0.0333333
militärische civil-military 0.0333333
militärischen civil-military 0.0666667
Stellen civil-military 0.0666667
Militär civil-military 0.0666667
zivil-militärischen civil-military 0.0666667
zivile civil-military 0.0333333
bestimmte scrapped 0.0056180
vernichtet scrapped 0.0056180
ursprünglich scrapped 0.0056180
ausrangierter scrapped 0.0056180
abgeschafft scrapped 0.0674157
Abbau scrapped 0.0056180
verringert scrapped 0.0056180
ausgemustert scrapped 0.0056180
gezogen scrapped 0.0056180
streichen scrapped 0.0056180
führt scrapped 0.0056180
geworfen scrapped 0.0112360
Akten scrapped 0.0056180
verworfen scrapped 0.0112360
Forschen scrapped 0.0056180
fallenlassen scrapped 0.0056180
Tonnage scrapped 0.0056180
worden scrapped 0.0056180
Befreiung scrapped 0.0056180
eingestampft scrapped 0.0056180
Käfighaltung scrapped 0.0056180
Streichung scrapped 0.0112360
entsorgt scrapped 0.0056180
einschränkt scrapped 0.0056180
fallen scrapped 0.0056180
gelassen scrapped 0.0056180
trennen scrapped 0.0056180
verschrottet scrapped 0.1067416
Lotsendienst scrapped 0.0056180
verschrotteten scrapped 0.0112360
gestrichen scrapped 0.1123596
bewahrt scrapped 0.0056180
Verschrottung scrapped 0.0112360
Angebot scrapped 0.0056180
Planwirtschaftssystem scrapped 0.0056180
und scrapped 0.0168539
völlig scrapped 0.0112360
Abschaffung scrapped 0.0056180
gar scrapped 0.0056180
Ganzen scrapped 0.0056180
Verkehr scrapped 0.0056180
gut scrapped 0.0056180
mein scrapped 0.0056180
ohnegleichen scrapped 0.0056180
wieder scrapped 0.0056180
machen scrapped 0.0056180
damit scrapped 0.0056180
bestehen scrapped 0.0056180
gelegt scrapped 0.0056180
zurückziehen scrapped 0.0056180
geblieben scrapped 0.0056180
rauswerfen scrapped 0.0056180
verschrotten scrapped 0.0112360
teilzunehmen scrapped 0.0056180
Totalschaden scrapped 0.0056180
wird scrapped 0.0112360
hinfällig scrapped 0.0056180
ab scrapped 0.0056180
aufgegeben scrapped 0.0168539
Passage scrapped 0.0056180
Abwracken scrapped 0.0112360
abzubrechen scrapped 0.0056180
NULL scrapped 0.0449438
Aufhebung scrapped 0.0056180
verzichtet scrapped 0.0056180
freiheitsvernichtenden scrapped 0.0056180
Nachforschungen scrapped 0.0056180
größten scrapped 0.0056180
vorläufig scrapped 0.0056180
offensichtlich scrapped 0.0056180
abgebaut scrapped 0.0112360
abwracken scrapped 0.0112360
dass scrapped 0.0056180
ganz scrapped 0.0056180
wurde scrapped 0.0168539
SWP scrapped 0.0056180
werden scrapped 0.0561798
Strecke scrapped 0.0056180
Schluss scrapped 0.0056180
zurückgeschraubt scrapped 0.0056180
abgewrackt scrapped 0.0505618
ausgemusterter scrapped 0.0056180
abgewrackte scrapped 0.0056180
Abwrackmaßnahmen scrapped 0.0056180
ausrangiert scrapped 0.0280899
Seniorenresidenzen hotel-style 0.2000000
können hotel-style 0.2000000
anbieten hotel-style 0.2000000
zu hotel-style 0.2000000
6-Sterne-Hotel-ähnliche hotel-style 0.2000000
Privé Privé 0.5000000
public Privé 0.5000000
Lehendakari Lehendakari 1.0000000
heiligen Komsomol 0.2000000
dort Komsomol 0.2000000
abholzten Komsomol 0.2000000
Haine Komsomol 0.2000000
Komsomolzen Komsomol 0.2000000
Leistenbrüche lumbar 0.2000000
) lumbar 0.2000000
usw. lumbar 0.2000000
Lumbalschmerzen lumbar 0.4000000
Quecksilberbergbaus mercury-mining 0.3333333
Gebiete mercury-mining 0.3333333
des mercury-mining 0.3333333
deponieren dumpers 1.0000000
NULL Brandt 0.0555556
Brand Brandt 0.0555556
Brandts Brandt 0.0555556
Brandt Brandt 0.8333333
Jahre 1785 0.3333333
1785 1785 0.6666667
Ausflüchte evasiveness 0.1000000
herausreden evasiveness 0.1000000
beantwortet evasiveness 0.1000000
ständigen evasiveness 0.1000000
Sie evasiveness 0.1000000
will evasiveness 0.1000000
Ausweichen evasiveness 0.1000000
ausweichenden evasiveness 0.1000000
Verhaltens evasiveness 0.1000000
Nicht-Antworten evasiveness 0.1000000
entstehen Medvedjev 0.5000000
Medwedew Medvedjev 0.5000000
Behauptung counter-claim 0.4000000
gegen counter-claim 0.2000000
also counter-claim 0.2000000
steht counter-claim 0.2000000
Vereinten UN-authorised 0.2500000
ermächtigte UN-authorised 0.2500000
Nationen UN-authorised 0.2500000
von UN-authorised 0.2500000
niemals toto 0.0714286
übernommen toto 0.0714286
Gänze toto 0.0714286
angenommen toto 0.0714286
beigehalten toto 0.0714286
toto toto 0.2857143
mittels toto 0.0714286
insgesamt toto 0.0714286
Prognosetests toto 0.0714286
anzunehmen toto 0.0714286
Sicherheitsgarantien toto 0.0714286
geschützt over-protected 0.0714286
viel over-protected 0.0714286
Schutz over-protected 0.0714286
stark over-protected 0.1428571
geschützten over-protected 0.0714286
genießen over-protected 0.0714286
hohe over-protected 0.0714286
bevormundet over-protected 0.0714286
Arbeitnehmerschutzrechte over-protected 0.0714286
hier over-protected 0.0714286
zu over-protected 0.1428571
; over-protected 0.0714286
Student Koltsidopoulos 0.2500000
verlangen Koltsidopoulos 0.2500000
Koltsidopoulos Koltsidopoulos 0.5000000
eine Bolkesteinise 0.3333333
abzielt Bolkesteinise 0.3333333
Bolkesteinsche Bolkesteinise 0.3333333
Freie ALEGroup 0.2500000
derjenige ALEGroup 0.2500000
Europäische ALEGroup 0.2500000
Allianz ALEGroup 0.2500000
bereitgestellt 55.5 0.2000000
rund 55.5 0.2000000
55,5 55.5 0.2000000
Landbevölkerung 55.5 0.2000000
55 55.5 0.2000000
Ausgabenkapitel reanalysed 1.0000000
Stauhöhe 152m 0.5000000
bis 152m 0.5000000
offen pubicly 1.0000000
AKP-Abkommen ACS 0.2500000
AKP-Länder ACS 0.2500000
AKP-Staaten ACS 0.2500000
AKP-Ländern ACS 0.2500000
Nik Nik 1.0000000
einigte dually 0.2500000
man dually 0.2500000
sowohl dually 0.2500000
doch dually 0.2500000
Gesundheitsversorgung socio-health 1.0000000
/ 1638 0.0500000
zurück 1638 0.0500000
98 1638 0.0500000
Nr. 1638 0.1500000
seither 1638 0.0500000
) 1638 0.1000000
1638 1638 0.3000000
bezieht 1638 0.0500000
( 1638 0.1000000
EG 1638 0.1000000
" over-implemented 0.6666667
six-pack over-implemented 0.3333333
Anschuldigungen ICTR 0.1250000
Internationalen ICTR 0.3750000
Strafgerichtshof ICTR 0.3750000
lastenden ICTR 0.1250000
drochuair drochuair 0.3333333
bhí drochuair 0.3333333
an drochuair 0.3333333
annehmen gloves 0.0344828
Handschuhen gloves 0.0689655
unsere gloves 0.0344828
essen gloves 0.0344828
Glacéhandschuhe gloves 0.0344828
anderen gloves 0.0344828
wir gloves 0.0344828
Handschuhe gloves 0.0344828
anfassen gloves 0.0344828
Auftreten gloves 0.0344828
angefasst gloves 0.0344828
unseriös gloves 0.0344828
Tisch gloves 0.0344828
Samthandschuhen gloves 0.2068966
Angeboten gloves 0.0344828
Boxhandschuhe gloves 0.0344828
dienen gloves 0.0344828
ab gloves 0.0344828
umgehen gloves 0.0344828
lassen gloves 0.0344828
auszuziehen gloves 0.0344828
Herausforderung gloves 0.0344828
anfasst gloves 0.0344828
hellblaue light-blue 1.0000000
Zana- Zana- 1.0000000
2203 2203 1.0000000
Herrn Alexandros 0.0322581
Alexandros Alexandros 0.9677419
Leinen-Bericht Leinen 0.0035714
NULL Leinen 0.0035714
nichts Leinen 0.0035714
dürften Leinen 0.0035714
Lynne Leinen 0.0035714
sperrigen Leinen 0.0035714
Leinens Leinen 0.0357143
stammen Leinen 0.0035714
dahingehend Leinen 0.0035714
Herrn Leinen 0.0178571
Leine Leinen 0.0107143
Kollege Leinen 0.0071429
Berichterstatter Leinen 0.0035714
er Leinen 0.0035714
ausspricht Leinen 0.0035714
modifiziert Leinen 0.0035714
Kollegen Leinen 0.0035714
näher Leinen 0.0035714
Leinen Leinen 0.8428571
Bericht Leinen 0.0035714
entwirft Leinen 0.0035714
In Leinen 0.0035714
empfehlen Leinen 0.0035714
richten Leinen 0.0035714
Jo Leinen 0.0178571
Verwirklichung exercise 0.0003140
Überschneidungen exercise 0.0003140
wachsam exercise 0.0003140
herumschlampt exercise 0.0003140
Ausüben exercise 0.0003140
gewährt exercise 0.0003140
Flaggenstaatkontrolle exercise 0.0003140
unterwerfen exercise 0.0006279
Bestandsaufnahme exercise 0.0047096
-sei exercise 0.0003140
Ziel exercise 0.0003140
ganze exercise 0.0012559
bezeichnet exercise 0.0003140
Rechtsausübung exercise 0.0006279
Akt exercise 0.0018838
diplomatischen exercise 0.0003140
Sports exercise 0.0006279
Koordinierung exercise 0.0006279
körperliche exercise 0.0018838
Maßnahme exercise 0.0034537
gewisse exercise 0.0006279
nehmen exercise 0.0012559
Gesetzgebungsorganen exercise 0.0003140
Gewaltausübung exercise 0.0003140
Aufsichtsfunktion exercise 0.0003140
geltend exercise 0.0062794
ohne exercise 0.0003140
wäre exercise 0.0006279
bei exercise 0.0037677
Planungsbeispiel exercise 0.0003140
Schritte exercise 0.0003140
beteiligen exercise 0.0006279
Amt exercise 0.0003140
Einsichtnahme exercise 0.0003140
unpraktisch exercise 0.0003140
ableitende exercise 0.0003140
Führungsstruktur exercise 0.0003140
Anhörung exercise 0.0006279
Verbindung exercise 0.0003140
organisatorische exercise 0.0003140
das exercise 0.0015699
Überprüfung exercise 0.0021978
exercise exercise 0.0003140
fordern exercise 0.0003140
tatsächliche exercise 0.0003140
Ganzen exercise 0.0012559
Dopingdebatte exercise 0.0003140
Charakter exercise 0.0009419
Prozess exercise 0.0047096
Präsidialrolle exercise 0.0003140
Selbstdisziplin exercise 0.0003140
anzuschließen exercise 0.0003140
Programmplanungsprozedur exercise 0.0003140
einzubinden exercise 0.0003140
zurückzuhalten exercise 0.0003140
Vorsicht exercise 0.0021978
Verantwortung exercise 0.0006279
können exercise 0.0081633
Reaktion exercise 0.0003140
Kontrolle exercise 0.0053375
verkaufen exercise 0.0003140
Machtausübung exercise 0.0034537
Operation exercise 0.0006279
intellektuelle exercise 0.0003140
Erfahrungsaustausch exercise 0.0003140
hoheitlicher exercise 0.0003140
dieses exercise 0.0003140
feierlicher exercise 0.0003140
freie exercise 0.0006279
scheinheilig exercise 0.0003140
Sache exercise 0.0018838
solide exercise 0.0003140
eigener exercise 0.0006279
Marktüberwachungsprozesses exercise 0.0003140
Tätigkeit exercise 0.0015699
Demagogie exercise 0.0006279
Maße exercise 0.0003140
Sevilla exercise 0.0003140
Tiefflugübung exercise 0.0003140
Grund- exercise 0.0003140
bringen exercise 0.0009419
Einfluß exercise 0.0009419
Unterfangens exercise 0.0009419
erhalten exercise 0.0006279
Hinsicht exercise 0.0003140
Vereinfachung exercise 0.0003140
Berufsausübung exercise 0.0009419
Sitzungspräsident exercise 0.0003140
eingeleitete exercise 0.0003140
Verantwortungsbereichen exercise 0.0003140
Deregulierungsaktion exercise 0.0003140
Autonomierechte exercise 0.0003140
Abstimmerei exercise 0.0003140
gebracht exercise 0.0003140
Altersgrenzen exercise 0.0003140
PR-Aktion exercise 0.0003140
Unterfangen exercise 0.0056515
konterkarieren exercise 0.0003140
durchzuführen exercise 0.0012559
Vorrecht exercise 0.0003140
Eintagsfliege exercise 0.0003140
Unterdrückungspolitik exercise 0.0003140
Screening-Maßnahmen exercise 0.0003140
Börsenwert exercise 0.0003140
Gründen exercise 0.0003140
auszuleben exercise 0.0003140
Projekts exercise 0.0006279
Unternehmens exercise 0.0003140
Risikoprofil exercise 0.0003140
„ exercise 0.0003140
Inanspruchnahme exercise 0.0006279
nützliche exercise 0.0003140
volles exercise 0.0003140
aufweisen exercise 0.0003140
niederschlagen exercise 0.0003140
Marküberwachung exercise 0.0003140
Haushaltsdisziplin exercise 0.0009419
wählen exercise 0.0003140
Herschieben exercise 0.0003140
ereilen exercise 0.0003140
Abnicken exercise 0.0003140
zunehmend exercise 0.0003140
Scheinpolitik exercise 0.0003140
ausübt exercise 0.0043956
ziehen exercise 0.0003140
gedenkt exercise 0.0003140
Übungsprogramm exercise 0.0003140
Hilfe exercise 0.0003140
Propagandaaktion exercise 0.0003140
nunmehr exercise 0.0006279
berechtigt exercise 0.0003140
Unternehmung exercise 0.0006279
fernen exercise 0.0003140
Kaschieren exercise 0.0003140
übernimmt exercise 0.0003140
Teilhabe exercise 0.0003140
daher exercise 0.0003140
Konsultation exercise 0.0021978
Betätigung exercise 0.0050235
unheilvolles exercise 0.0003140
dürfte exercise 0.0003140
Deregulierungsvorhaben exercise 0.0006279
absolutes exercise 0.0003140
Untersuchung exercise 0.0009419
denn exercise 0.0009419
Diskussion exercise 0.0006279
gezwungen exercise 0.0003140
willkürliche exercise 0.0003140
Bemühungen exercise 0.0009419
Neugewichtung exercise 0.0003140
Rechenübung exercise 0.0003140
Überwachungsprozess exercise 0.0003140
Erbringung exercise 0.0003140
durch exercise 0.0018838
Zwangsumbesetzung exercise 0.0003140
Vorschlag exercise 0.0006279
Schulterklopfen exercise 0.0003140
Einübung exercise 0.0003140
Machtwort exercise 0.0003140
Screenings exercise 0.0003140
Feinabstimmung exercise 0.0003140
sondieren exercise 0.0003140
Fall exercise 0.0003140
Beispiels exercise 0.0003140
Ertüchtigung exercise 0.0003140
mühsamen exercise 0.0003140
Biotechnologiebranche exercise 0.0003140
IV-Übung exercise 0.0003140
zusammenfinden exercise 0.0003140
Tautologie exercise 0.0003140
stoßen exercise 0.0003140
geht exercise 0.0034537
Ausnahme exercise 0.0003140
zensieren exercise 0.0003140
glaube exercise 0.0003140
Frage exercise 0.0015699
Ausgabendisziplin exercise 0.0003140
Überarbeitungsübung exercise 0.0003140
Unterwassersonarübung exercise 0.0003140
tun exercise 0.0009419
Vertragsänderungen exercise 0.0003140
bekleiden exercise 0.0003140
Anwendungsmodalitäten exercise 0.0003140
Ausübung exercise 0.1051805
Bewertungsinitiative exercise 0.0006279
Wiederholungsübung exercise 0.0003140
Veto exercise 0.0003140
zurückhalten exercise 0.0003140
Umfrageaktion exercise 0.0003140
Harmonie exercise 0.0003140
gearbeitet exercise 0.0003140
üben exercise 0.0100471
worum exercise 0.0003140
Zeichen exercise 0.0006279
Austausch exercise 0.0006279
durchführen exercise 0.0012559
gigantische exercise 0.0003140
von exercise 0.0006279
vorsichtig exercise 0.0021978
Nutzen exercise 0.0003140
kostensenkenden exercise 0.0003140
betrachtet exercise 0.0003140
agilen exercise 0.0003140
eigenständiger exercise 0.0003140
Praxis exercise 0.0012559
gemeinsam exercise 0.0003140
Revision exercise 0.0003140
kann exercise 0.0021978
auszuüben exercise 0.0405024
einer exercise 0.0006279
Regulierungsagenturen exercise 0.0003140
gebührend exercise 0.0003140
Öko-Weizen exercise 0.0003140
saubereKörperkultur exercise 0.0003140
Mikroorganismen exercise 0.0003140
Wettbewerbs exercise 0.0003140
gewagtes exercise 0.0003140
bißchen exercise 0.0003140
Wahltourismus exercise 0.0003140
unnatürlich exercise 0.0003140
Opt-out-Regelungen exercise 0.0003140
unwirksam exercise 0.0003140
Personalscreening exercise 0.0006279
lohnen exercise 0.0003140
Geschäftjahr exercise 0.0003140
anbelangt exercise 0.0003140
Meinungsbildungsprozess exercise 0.0003140
Konsultationsverfahren exercise 0.0012559
Gesundheitsbilanz exercise 0.0003140
Grundlage exercise 0.0003140
Gewohnheiten exercise 0.0003140
wahrnimmt exercise 0.0006279
Überwachung exercise 0.0015699
Bewegungsmangel exercise 0.0018838
Treu exercise 0.0003140
übt exercise 0.0009419
wahrnehmen exercise 0.0226060
Ganze exercise 0.0015699
Sparhaushalt exercise 0.0003140
uneingeschränkte exercise 0.0003140
Zynismus exercise 0.0003140
Manöver exercise 0.0009419
Bewegungsmangels exercise 0.0003140
Eulen exercise 0.0003140
mitzutragen exercise 0.0003140
Klärungsprozess exercise 0.0003140
Reformpolitik exercise 0.0003140
um exercise 0.0037677
Bemühung exercise 0.0003140
Probleme exercise 0.0003140
Koordinierungsaktion exercise 0.0003140
abgehakt exercise 0.0003140
Nutzung exercise 0.0003140
Wiederaufnahme exercise 0.0003140
Kristallkugel exercise 0.0003140
Ausbildungsaufgabe exercise 0.0003140
Haushaltsjahr exercise 0.0015699
Haushaltsplanung exercise 0.0003140
Kompromißübung exercise 0.0003140
Unternehmen exercise 0.0003140
bewusst exercise 0.0003140
Verfahren exercise 0.0040816
Krisensimulation exercise 0.0003140
schützen exercise 0.0003140
mitzuwirken exercise 0.0003140
SLIM-Übung exercise 0.0003140
Vorgang exercise 0.0028257
Sorgerechts exercise 0.0003140
beeinflussen exercise 0.0006279
Arbeiten exercise 0.0003140
Buchhaltung exercise 0.0006279
Selbstbewertung exercise 0.0003140
gelangen exercise 0.0003140
verwirklichen exercise 0.0003140
Mitsprache- exercise 0.0003140
sorgfältig exercise 0.0006279
ihrer exercise 0.0006279
Arbeitsbuch exercise 0.0003140
UN-Gewaltmonopols exercise 0.0003140
hochgeistigem exercise 0.0003140
Urteilsvermögen exercise 0.0003140
ständige exercise 0.0003140
Neufassung exercise 0.0003140
unsinnig exercise 0.0003140
Asylrechtverfahren exercise 0.0003140
Amadeus exercise 0.0003140
Schizophrenie exercise 0.0003140
nutzen exercise 0.0056515
verbrecherische exercise 0.0003140
fruchtbare exercise 0.0003140
Haushaltsverfahrens exercise 0.0006279
Anlaß exercise 0.0003140
Mal exercise 0.0009419
ihr exercise 0.0009419
Einzeltiere exercise 0.0003140
allzu exercise 0.0003140
unvollendeten exercise 0.0003140
tragen exercise 0.0003140
unnütze exercise 0.0003140
Kontrollmängeln exercise 0.0003140
Stadium exercise 0.0003140
Höchstmengen exercise 0.0003140
Frontloading exercise 0.0003140
klassifiziert exercise 0.0003140
Vorhabens exercise 0.0006279
Kontext exercise 0.0003140
wertvoller exercise 0.0003140
diplomatisch exercise 0.0003140
präsent exercise 0.0003140
funktionierende exercise 0.0006279
PR-Übung exercise 0.0012559
benutzen exercise 0.0003140
vorliegenden exercise 0.0003140
Doppelpass exercise 0.0003140
Studie exercise 0.0006279
miterlebt exercise 0.0003140
vorzunehmen exercise 0.0015699
keucht exercise 0.0003140
Verfahrens exercise 0.0009419
Test exercise 0.0003140
Bereitschaftsübung exercise 0.0003140
NATO-Übung exercise 0.0006279
Bewährungsprobe exercise 0.0003140
unangebracht exercise 0.0006279
Direktoriumsmitglied exercise 0.0003140
walten exercise 0.0031397
Durchsetzung exercise 0.0009419
unnötig exercise 0.0003140
Prozesses exercise 0.0012559
Veranstaltung exercise 0.0015699
Regulativfunktion exercise 0.0003140
klärt exercise 0.0003140
solle exercise 0.0003140
Personalscreenings exercise 0.0003140
Paradebeispiel exercise 0.0006279
Ziel-2-Programmplanungszeitraum exercise 0.0003140
seine exercise 0.0003140
theologische exercise 0.0003140
Ritual exercise 0.0003140
Gesprächen exercise 0.0003140
Körperertüchtigung exercise 0.0003140
verantwortungsbewusst exercise 0.0003140
Initiative exercise 0.0015699
parlamentieren exercise 0.0003140
Hegemonien exercise 0.0003140
tut exercise 0.0003140
Mäßigung exercise 0.0009419
Hülse exercise 0.0003140
Gedenken exercise 0.0003140
bench-marking exercise 0.0003140
Altersbegrenzungen exercise 0.0003140
Gesetzgebungsprogramms exercise 0.0003140
gehen exercise 0.0003140
eine exercise 0.0144427
vollstrecken exercise 0.0003140
Einsatz exercise 0.0009419
Problem exercise 0.0003140
deren exercise 0.0009419
kontrollieren exercise 0.0103611
Kosmetik exercise 0.0003140
NULL exercise 0.1551020
Zuhörens exercise 0.0003140
Durchführung exercise 0.0021978
souverän exercise 0.0006279
Recht exercise 0.0006279
Musterbeispiel exercise 0.0003140
stehenden exercise 0.0003140
Baseler exercise 0.0003140
Erdenkliche exercise 0.0003140
Aufräumaktion exercise 0.0006279
Sicherheitsaspekte exercise 0.0003140
Programmplanung exercise 0.0012559
Zurückhaltung exercise 0.0037677
Aufräumungsarbeiten exercise 0.0003140
Streben exercise 0.0003140
Testfall exercise 0.0003140
geschmackloser exercise 0.0003140
Exekutivgewalt exercise 0.0003140
Versachlichung exercise 0.0003140
achtsam exercise 0.0003140
zuzutrauen exercise 0.0003140
gute exercise 0.0006279
bewusste exercise 0.0006279
Routine exercise 0.0006279
Schritt exercise 0.0009419
Gebrauch exercise 0.0122449
Selbstzweck exercise 0.0003140
Aktivitäten exercise 0.0006279
abgehalten exercise 0.0003140
Arbeit exercise 0.0037677
Dekonzentration exercise 0.0009419
Weg exercise 0.0003140
ihre exercise 0.0003140
Zusammenschluss exercise 0.0003140
faszinierende exercise 0.0003140
Eigenständigkeit exercise 0.0003140
Ausgabenkürzung exercise 0.0003140
Marktüberwachungsprozess exercise 0.0003140
alle exercise 0.0006279
vermissen exercise 0.0003140
Mitentscheidung exercise 0.0003140
Konsolidierung exercise 0.0003140
Umdenken exercise 0.0003140
eröffnen exercise 0.0006279
Zusammenhang exercise 0.0006279
sportliche exercise 0.0006279
Dreierspiel exercise 0.0003140
Vernunftsgründen exercise 0.0003140
sinnlos exercise 0.0009419
VW-Werk exercise 0.0003140
Gestaltung exercise 0.0009419
Kosten-Nutzen-Verhältnis exercise 0.0003140
Erklärung exercise 0.0003140
praktizierter exercise 0.0003140
Gegenstand exercise 0.0006279
unnütz exercise 0.0006279
Slim exercise 0.0003140
erhöhter exercise 0.0003140
mitarbeiten exercise 0.0003140
Ressourcen exercise 0.0003140
KEDO-Problem exercise 0.0003140
Public-Relations-Aktion exercise 0.0003140
tatsächlich exercise 0.0009419
diese exercise 0.0003140
wachsamer exercise 0.0003140
screening-Untersuchung exercise 0.0003140
bestimmt exercise 0.0003140
hierbei exercise 0.0003140
Projekt exercise 0.0012559
vergnüglich exercise 0.0003140
AKP-Programmplanung exercise 0.0003140
SEM exercise 0.0006279
Mißbrauch exercise 0.0003140
Klärung exercise 0.0006279
erwartende exercise 0.0003140
lohnt exercise 0.0003140
unangenehme exercise 0.0003140
Kontrollmöglichkeiten exercise 0.0012559
gemäßigter exercise 0.0003140
Disziplinierungsgrad exercise 0.0003140
Gesamtbewertung exercise 0.0003140
Grippe-Simulationsübung exercise 0.0003140
vorne exercise 0.0003140
… exercise 0.0003140
Gesicht exercise 0.0003140
Dekonzentrationswelle exercise 0.0003140
treffen exercise 0.0003140
Stifte exercise 0.0003140
Übung exercise 0.0414443
Umverteilung exercise 0.0006279
wunderbare exercise 0.0003140
Benchmarking exercise 0.0021978
Abwägung exercise 0.0003140
Strafgerichtsbarkeit exercise 0.0003140
heuchlerischen exercise 0.0006279
Aufsichtsdurchführung exercise 0.0003140
Rechenexempel exercise 0.0003140
Kontrolleurs exercise 0.0003140
Routinearbeit exercise 0.0003140
propagiert exercise 0.0003140
vornehmen exercise 0.0003140
Art exercise 0.0003140
Prüfverfahren exercise 0.0003140
Phantasie exercise 0.0003140
Rolle exercise 0.0006279
ermitteln exercise 0.0003140
Instruments exercise 0.0003140
pochen exercise 0.0003140
statt exercise 0.0003140
Fingerübung exercise 0.0003140
Haushaltsrechten exercise 0.0003140
einschreiten exercise 0.0003140
beseitigendes exercise 0.0003140
obliegen exercise 0.0003140
Hauptzweck exercise 0.0003140
wertvoll exercise 0.0006279
praktizieren exercise 0.0006279
genommen exercise 0.0006279
statuieren exercise 0.0003140
Prozeß exercise 0.0015699
Klimaänderung exercise 0.0003140
gezogen exercise 0.0006279
Vorschlags exercise 0.0003140
erfüllen exercise 0.0012559
Pflichtübung exercise 0.0009419
Dossiers exercise 0.0003140
Rechtsetzung exercise 0.0006279
PR-Kampagne exercise 0.0003140
gelohnt exercise 0.0003140
ergeben exercise 0.0009419
Leitungsgremium exercise 0.0003140
Gleichgültigkeit exercise 0.0003140
einzubeziehen exercise 0.0003140
Funktionsregeln exercise 0.0003140
Grundrecht exercise 0.0003140
einlegen exercise 0.0003140
nützlich exercise 0.0006279
1787 exercise 0.0003140
Rechenaufgabe exercise 0.0003140
wahrzunehmen exercise 0.0138148
Untersuchungsausschuss exercise 0.0003140
Haushaltsentwurf exercise 0.0006279
dienlich exercise 0.0003140
Funktionen exercise 0.0003140
Kontrollmöglichkeit exercise 0.0003140
Angelegenheit exercise 0.0037677
Simulationsveranstaltung exercise 0.0003140
übernehmen exercise 0.0015699
Bewegung exercise 0.0050235
erfüllenden exercise 0.0003140
achten exercise 0.0003140
Haushaltsübung exercise 0.0003140
Vorhaben exercise 0.0065934
Einfluss exercise 0.0015699
Prüfung exercise 0.0015699
ausüben exercise 0.0634223
Umgangs exercise 0.0003140
Bewegungsarmut exercise 0.0003140
-Übung exercise 0.0003140
Vorgehen exercise 0.0031397
bewegen exercise 0.0012559
Bürgerdiplomatie exercise 0.0003140
Vorgehensweise exercise 0.0015699
exerzierte exercise 0.0003140
Dialog exercise 0.0003140
stärkeres exercise 0.0003140
machen exercise 0.0160126
sorgfältiges exercise 0.0003140
Entscheidungsfreiheit exercise 0.0003140
dazu exercise 0.0003140
Wahlmöglichkeit exercise 0.0003140
Weise exercise 0.0012559
Vorvermittlung exercise 0.0003140
wichtige exercise 0.0003140
Zweck exercise 0.0006279
Makulatur exercise 0.0003140
gestalten exercise 0.0003140
Waagschale exercise 0.0003140
Teilung exercise 0.0003140
Erarbeitung exercise 0.0003140
nur exercise 0.0003140
Werk exercise 0.0003140
herauszufinden exercise 0.0003140
Erkenntnisse exercise 0.0003140
Bekundung exercise 0.0003140
ihrerseits exercise 0.0003140
Überlegungen exercise 0.0009419
Vorgehens exercise 0.0015699
Aufgabe exercise 0.0160126
Außerordentliches exercise 0.0003140
halber exercise 0.0003140
welches exercise 0.0006279
Maßnahmen exercise 0.0006279
Möglichkeit exercise 0.0003140
Funktionieren exercise 0.0006279
propagandistischen exercise 0.0003140
Zuständigkeiten exercise 0.0006279
wiederholungswürdig exercise 0.0003140
besorgt exercise 0.0003140
Maß exercise 0.0003140
gegeben exercise 0.0006279
Aufräumarbeit exercise 0.0003140
extraterritoriale exercise 0.0003140
Aufsicht exercise 0.0006279
Abrechnungsübung exercise 0.0003140
Macht exercise 0.0003140
PR-Problem exercise 0.0003140
Kampfübung exercise 0.0003140
auszuführen exercise 0.0003140
Erfüllung exercise 0.0009419
was exercise 0.0009419
Experiment exercise 0.0003140
Staatssouveränität exercise 0.0003140
statistische exercise 0.0009419
betätigen exercise 0.0003140
nutzlos exercise 0.0009419
Training exercise 0.0006279
gewesen exercise 0.0006279
Ehrensache exercise 0.0003140
Wahrnehmung exercise 0.0163265
solche exercise 0.0006279
nachzukommen exercise 0.0003140
Propagandaübung exercise 0.0006279
diene exercise 0.0003140
Bedingungen exercise 0.0003140
angebracht exercise 0.0003140
übervorsichtig exercise 0.0003140
Erfahrungen exercise 0.0003140
wirklich exercise 0.0009419
Tatsache exercise 0.0003140
Aktion exercise 0.0034537
Entscheidungen exercise 0.0003140
ausschließliche exercise 0.0003140
PR-Instrument exercise 0.0003140
irgendeiner exercise 0.0003140
DAS-Prüfungen exercise 0.0003140
Federführung exercise 0.0003140
Diskussionsübung exercise 0.0003140
vorzugreifen exercise 0.0003140
gesund exercise 0.0003140
überhaupt exercise 0.0003140
beanspruche exercise 0.0003140
steuern exercise 0.0006279
Peer-Reviewgerecht exercise 0.0003140
Entlastungsverfahrens exercise 0.0003140
Thema exercise 0.0003140
hochpolitisch exercise 0.0003140
dabei exercise 0.0025118
Verteidigungssystem exercise 0.0003140
versetzen exercise 0.0003140
Schaffung exercise 0.0006279
überzusiedeln exercise 0.0003140
Rahmen exercise 0.0021978
Hauptziel exercise 0.0006279
Stilübung exercise 0.0009419
beanspruchte exercise 0.0003140
einzusetzen exercise 0.0003140
trockene exercise 0.0003140
vertragsgemäß exercise 0.0003140
UN-Partner exercise 0.0003140
großangelegte exercise 0.0003140
trägt exercise 0.0006279
Verantwortlichen exercise 0.0006279
Manipulationskampagne exercise 0.0003140
Ergebnis exercise 0.0003140
Beifallsübung exercise 0.0003140
übertragene exercise 0.0003140
-Einteilung exercise 0.0003140
Ernennungsbeschlüssen exercise 0.0003140
hier exercise 0.0015699
Mitgliedschaftsoption exercise 0.0003140
buchhalterische exercise 0.0012559
Haushaltsjahrs exercise 0.0003140
PR-Ereignis exercise 0.0003140
Leitsprüche exercise 0.0003140
ergreifen exercise 0.0003140
zusammenschreiben exercise 0.0003140
Führungskraft exercise 0.0003140
Selbstregelung exercise 0.0003140
umzugehen exercise 0.0003140
Versuch exercise 0.0009419
verzerrt exercise 0.0003140
handeln exercise 0.0015699
Zeit exercise 0.0009419
zufallende exercise 0.0003140
Ort exercise 0.0006279
Idee exercise 0.0003140
Courage exercise 0.0003140
Gedankenspiel exercise 0.0003140
Geltung exercise 0.0009419
arbeitsintensiv exercise 0.0003140
Geltendmachen exercise 0.0003140
Einflussnahme exercise 0.0018838
kosmetischen exercise 0.0003140
Belastung exercise 0.0003140
dürften exercise 0.0006279
Simulationsübung exercise 0.0012559
Abwägen exercise 0.0003140
SLIM-Initiative exercise 0.0009419
Zivilschutzübung exercise 0.0003140
Beispiel exercise 0.0012559
Vereinfachungsinitiative exercise 0.0003140
Papier exercise 0.0009419
Verwirrspiel exercise 0.0003140
Umschichtungsmaßnahmen exercise 0.0003140
NRO-Konsultation exercise 0.0003140
Aufgaben exercise 0.0009419
erfolgreicher exercise 0.0003140
Inhabers exercise 0.0003140
Möglichkeiten exercise 0.0003140
Industrieunternehmen exercise 0.0003140
Korrekturmaßnahme exercise 0.0003140
Verfahrensweise exercise 0.0006279
umzusetzen exercise 0.0006279
beispiellose exercise 0.0003140
abläuft exercise 0.0003140
Bevormundung exercise 0.0003140
Rechts exercise 0.0009419
Sandkastenspiel exercise 0.0003140
Umsetzung exercise 0.0025118
Bereinigung exercise 0.0003140
Ordnung exercise 0.0003140
kennenzulernen exercise 0.0003140
unbeachtet exercise 0.0003140
Anhörungen exercise 0.0003140
Nachdruck exercise 0.0003140
Urheberrechte exercise 0.0003140
Entlastungsverfahren exercise 0.0006279
sein exercise 0.0062794
In-Szene-Setzen exercise 0.0003140
Kodifizierungsarbeit exercise 0.0003140
Gehirnwäsche exercise 0.0003140
Einflussmöglichkeiten exercise 0.0003140
gerecht exercise 0.0006279
Wahlbeobachtungsmission exercise 0.0003140
Einmischung exercise 0.0003140
rationellere exercise 0.0003140
getan exercise 0.0006279
Treffen exercise 0.0006279
begrenzt exercise 0.0003140
sollte exercise 0.0009419
Wettbewerbskommissarin exercise 0.0003140
Papierverschwendung exercise 0.0003140
Kodifizierungsvorhaben exercise 0.0003140
Anspruch exercise 0.0025118
übliche exercise 0.0003140
ausgeübt exercise 0.0009419
Neuverteilung exercise 0.0003140
Sport exercise 0.0015699
Mindestmaß exercise 0.0006279
Gesamtbilanz exercise 0.0003140
dar exercise 0.0003140
macht exercise 0.0006279
Ermessen exercise 0.0006279
funktionsfähigen exercise 0.0003140
Förderung exercise 0.0003140
entzogen exercise 0.0006279
Auswahl exercise 0.0003140
bekommen exercise 0.0003140
Übungen exercise 0.0006279
Vetorecht exercise 0.0003140
Anwendung exercise 0.0003140
Konfliktverhütung exercise 0.0003140
Manövers exercise 0.0003140
Übungstiefflüge exercise 0.0003140
sie exercise 0.0006279
erfolgreiches exercise 0.0003140
bestimmen exercise 0.0009419
Sorgfaltspflicht exercise 0.0003140
EEF exercise 0.0003140
kostensensibel exercise 0.0003140
Wahlrecht exercise 0.0003140
Screening exercise 0.0021978
notwendigen exercise 0.0003140
Interessenlage exercise 0.0003140
gemacht exercise 0.0003140
Gesamtergebnisses exercise 0.0003140
Wirksamkeit exercise 0.0006279
Programms Intelligent 0.0227273
Europe Intelligent 0.0227273
intelligenten Intelligent 0.0909091
Initiative Intelligent 0.0681818
- Intelligent 0.0568182
" Intelligent 0.0795455
intelligenter Intelligent 0.0113636
„ Intelligent 0.0454545
für Intelligent 0.0454545
Nutzung Intelligent 0.0227273
intelligente Intelligent 0.1136364
Intelligente Intelligent 0.2045455
Notrufsystemen Intelligent 0.0113636
Programm Intelligent 0.0454545
Verkehrssysteme Intelligent 0.0113636
Intelligentes Intelligent 0.0681818
Intelligent Intelligent 0.0227273
' Intelligent 0.0454545
Energie Intelligent 0.0113636
Negativsalden cheques 0.0140845
unterschreibt cheques 0.0140845
ungedeckte cheques 0.0140845
ausstellt cheques 0.0281690
Britenrabatt cheques 0.0140845
NULL cheques 0.0140845
ausstellen cheques 0.0845070
ihren cheques 0.0140845
Kartenzahlungen cheques 0.0140845
Finanztransfers cheques 0.0140845
trotz cheques 0.0140845
verteilen cheques 0.0140845
Blankovollmacht cheques 0.0140845
vom cheques 0.0140845
Scheckzahlungen cheques 0.0140845
ungedeckten cheques 0.0281690
gekürzt cheques 0.0140845
Instititutionen cheques 0.0140845
erinnern cheques 0.0140845
ausgegebenen cheques 0.0140845
finden cheques 0.0140845
ausschreiben cheques 0.0140845
ausgestellt cheques 0.0140845
geht cheques 0.0140845
vorzulegen cheques 0.0140845
Anordnungen cheques 0.0140845
Blankoschecks cheques 0.1408451
Schecks cheques 0.3943662
überhaupt batting 0.0769231
ungerührt batting 0.0769231
nur batting 0.1538462
auch batting 0.1538462
abgeschlossen batting 0.0769231
mit batting 0.4615385
ânerie ânerie 0.3333333
; ânerie 0.3333333
her ânerie 0.3333333
Notrufsystem callout 1.0000000
übertriebenen over-allocation 0.0625000
ganz over-allocation 0.0625000
ausgeschlossen over-allocation 0.0625000
übermäßigen over-allocation 0.0625000
nicht over-allocation 0.0625000
Überallokation over-allocation 0.2500000
Zuteilung over-allocation 0.0625000
führten over-allocation 0.0625000
Mengenzuteilung over-allocation 0.0625000
Zuteilungen over-allocation 0.1250000
gebannt over-allocation 0.0625000
übermäßige over-allocation 0.0625000
Peleponnes Pelopponese 0.3333333
welche Pelopponese 0.3333333
mit Pelopponese 0.3333333
Landes intranational 0.1428571
Regionen intranational 0.1428571
unerheblich intranational 0.1428571
eines intranational 0.1428571
zwischen intranational 0.1428571
diese intranational 0.1428571
verschiedenen intranational 0.1428571
quasi-sowjetischen quasi-Soviet 1.0000000
Missstände maladminstration 1.0000000
COMPAT COMPAT 0.2500000
Neige COMPAT 0.2500000
langsam COMPAT 0.2500000
Zusammenhang COMPAT 0.2500000
Dschamu-Kaschmir Jammu-Kashmir 0.5000000
genannt Jammu-Kashmir 0.5000000
besonderer SLIM-Intrastat 0.2000000
unter SLIM-Intrastat 0.2000000
Bereich SLIM-Intrastat 0.2000000
Berücksichtigung SLIM-Intrastat 0.2000000
SLIM-Intrastat-Initiative SLIM-Intrastat 0.2000000
2002-2009 2002-2009 1.0000000
NULL equalled 0.0400000
Auswanderungszahlen equalled 0.0400000
gleichkommt equalled 0.0400000
Befrager equalled 0.0400000
hätten equalled 0.0400000
Sprache equalled 0.0400000
Estèvez equalled 0.0400000
Gesamtwachstum equalled 0.0400000
entsprechend equalled 0.0400000
ebenso equalled 0.0400000
wie equalled 0.0800000
denselben equalled 0.0400000
allgemeinverständlicher equalled 0.0400000
übertroffen equalled 0.0400000
noch equalled 0.0800000
eingeführt equalled 0.0400000
wurden equalled 0.0400000
gleiche equalled 0.0400000
Größenordnung equalled 0.0400000
Produktionsbeschränkungen equalled 0.0400000
konnten equalled 0.0400000
betrugen equalled 0.0400000
nirgendwo equalled 0.0400000
durchsichtige pawn 0.0434783
allzu pawn 0.0434783
erteilen pawn 0.0434783
Verhandlungstaktiken pawn 0.0434783
Schachfigur pawn 0.1304348
fremder pawn 0.0434783
zum pawn 0.0869565
Stabilisierungsstrebens pawn 0.0434783
Interessen pawn 0.0434783
Spielball pawn 0.3478261
Bauer pawn 0.0869565
Faustpfand pawn 0.0434783
Wallis Diana 0.0285714
dürfte Diana 0.0285714
Diana Diana 0.6571429
Anmerkungen Diana 0.0285714
hoffen Diana 0.0285714
von Diana 0.0857143
Lady Diana 0.0285714
Frau Diana 0.0857143
einige Diana 0.0285714
Asylbetrüger cheaters 1.0000000
? nostra 0.2500000
wie nostra 0.2500000
patientia nostra 0.5000000
Offensichtlich Obviously 0.1428571
besteht Obviously 0.1428571
NULL Obviously 0.1428571
Für Obviously 0.1428571
Selbstverständlich Obviously 0.1428571
selbstverständlich Obviously 0.1428571
Obviously Obviously 0.1428571
: Substantially 0.3333333
Substantially Substantially 0.6666667
Alstoms Alstoms 1.0000000
Filmproduzenten film-makers 0.0434783
Filmemachern film-makers 0.1739130
Filmschaffenden film-makers 0.2173913
NULL film-makers 0.0434783
Filmliebhaber film-makers 0.0434783
Filmunternehmen film-makers 0.0434783
Filme film-makers 0.0434783
Lehrenden film-makers 0.0434783
eigenen film-makers 0.0434783
Filmemacher film-makers 0.1739130
Dokumentarfilmer film-makers 0.0434783
Filmproduktionsfirmen film-makers 0.0434783
US-Filmmarkt film-makers 0.0434783
Mehrjahresprogramms Interannual 1.0000000
k k 1.0000000
Rechtsanwälten Lawyers 0.1666667
Polizeistationen Lawyers 0.1666667
immer Lawyers 0.1666667
wieder Lawyers 0.1666667
Anwälte Lawyers 0.1666667
Anwaltskammer Lawyers 0.1666667
unterschiedlichsten wide-range 0.1111111
Vielzahl wide-range 0.1111111
Palette wide-range 0.2222222
Bereichen wide-range 0.1111111
diversifizierte wide-range 0.1111111
breiten wide-range 0.1111111
Produktion wide-range 0.1111111
breite wide-range 0.1111111
wollen satisfying 0.0053763
dafür satisfying 0.0053763
stellenden satisfying 0.0161290
bemühen satisfying 0.0053763
Bedürfnis satisfying 0.0107527
Handelsboykotte satisfying 0.0053763
Sicherung satisfying 0.0107527
stellend satisfying 0.0268817
mich satisfying 0.0215054
gründlicherem satisfying 0.0053763
sehr satisfying 0.0053763
Einhaltung satisfying 0.0053763
zufriedenstellend satisfying 0.0053763
erfüllen satisfying 0.0053763
Grunde satisfying 0.0053763
sowohl satisfying 0.0053763
erfreulich satisfying 0.0215054
befriedigendes satisfying 0.0107527
gleichsam satisfying 0.0053763
abverlangt satisfying 0.0053763
freut satisfying 0.0053763
wichtigen satisfying 0.0053763
Schöneres satisfying 0.0053763
Gespräch satisfying 0.0053763
Westeuropäers satisfying 0.0053763
Forderungen satisfying 0.0107527
Hauptinstrument satisfying 0.0053763
befriedigen satisfying 0.0483871
etwas satisfying 0.0107527
denen satisfying 0.0053763
stellendes satisfying 0.0053763
folglich satisfying 0.0053763
Nebenbedingung satisfying 0.0053763
Trend satisfying 0.0053763
keine satisfying 0.0053763
Befriedigenderes satisfying 0.0053763
vorgetragenen satisfying 0.0053763
Polizeiführung satisfying 0.0053763
gegen satisfying 0.0053763
geeinigt satisfying 0.0053763
unbefriedigende satisfying 0.0053763
gut satisfying 0.0053763
befriedigendere satisfying 0.0053763
zufrieden satisfying 0.0752688
entgegenzukommen satisfying 0.0053763
um satisfying 0.0376344
auszuführende satisfying 0.0053763
zufriedenstellende satisfying 0.0053763
befriedigenden satisfying 0.0107527
Sättigung satisfying 0.0053763
Schienennetzwerke satisfying 0.0053763
Genugtuung satisfying 0.0322581
Grundbedürfnisse satisfying 0.0107527
nur satisfying 0.0053763
platonischen satisfying 0.0053763
erfreuliches satisfying 0.0053763
Befriedigung satisfying 0.0860215
freue satisfying 0.0053763
darum satisfying 0.0053763
Bedürfnisbefriedigung satisfying 0.0053763
befriedigend satisfying 0.0376344
oberflächlichen satisfying 0.0053763
NULL satisfying 0.0806452
Lebensabend satisfying 0.0053763
Notwendigkeiten satisfying 0.0053763
zufriedenzustellen satisfying 0.0053763
alltäglichen satisfying 0.0053763
Freude satisfying 0.0107527
Suchen satisfying 0.0053763
Deckung satisfying 0.0053763
sie satisfying 0.0161290
Freitagnachmittag satisfying 0.0053763
erfüllt satisfying 0.0107527
befriedigende satisfying 0.0053763
genügen satisfying 0.0053763
welche satisfying 0.0053763
schwer satisfying 0.0053763
Erfüllung satisfying 0.0698925
zufriedengestellt satisfying 0.0053763
vielen satisfying 0.0053763
Kompromissen satisfying 0.0053763
Zufriedenheit satisfying 0.0161290
H-0121 H-0121 1.0000000
Zahlungen RAL 0.0333333
abzurechnende RAL 0.0166667
abzuwickelnden RAL 0.0166667
begleichenden RAL 0.0333333
Restmittel RAL 0.0166667
rein RAL 0.0166667
„ RAL 0.0166667
Verpflichtungen RAL 0.0333333
BNH RAL 0.0166667
RAL RAL 0.2833333
Rückstaus RAL 0.0333333
hängt RAL 0.0166667
bezeichnet RAL 0.0166667
RAL-Stau RAL 0.0166667
sogenannte RAL 0.0166667
Betrag RAL 0.0166667
Vergangenheit RAL 0.0166667
belaufen RAL 0.0166667
genannt RAL 0.0166667
Restsumme RAL 0.0166667
bestanden RAL 0.0166667
Rückstau RAL 0.0333333
anbelangt RAL 0.0166667
ausstehender RAL 0.0166667
logisch RAL 0.0166667
Restschuld RAL 0.0666667
“ RAL 0.0166667
abgebaut RAL 0.0166667
noch RAL 0.0333333
fordern RAL 0.0166667
RAL-Problems RAL 0.0166667
fiktiv RAL 0.0166667
' RAL 0.0333333
RAL-Frage RAL 0.0166667
Grossetête Grôssetete 0.2500000
NULL Grôssetete 0.2500000
bin Grôssetete 0.2500000
dafür Grôssetete 0.2500000
angehörenden Whaling 0.0833333
Walfischkommission Whaling 0.0833333
Walfangs Whaling 0.0833333
EU-Mitglieder Whaling 0.0833333
Walfangkommission Whaling 0.6666667
Haft commuted 0.0250000
einfacher commuted 0.0250000
Aufhebung commuted 0.0250000
umgewandelt commuted 0.3000000
umzuwandeln commuted 0.0250000
Dokvadze commuted 0.0250000
Strafen commuted 0.0250000
andere commuted 0.0250000
können commuted 0.0250000
in commuted 0.1000000
Freiheitsbeschränkung commuted 0.0250000
Haftzeiten commuted 0.0250000
inzwischen commuted 0.0250000
Freiheit commuted 0.0250000
wurde commuted 0.0250000
Polizeiaufsicht commuted 0.0250000
ausgependelt commuted 0.0250000
Farbige commuted 0.0250000
aufgehoben commuted 0.0500000
lebenslängliche commuted 0.0750000
umgewandelten commuted 0.0250000
worden commuted 0.0250000
unter commuted 0.0250000
Gas gas-related 0.2500000
Wirtschaftsabkommen gas-related 0.2500000
EU gas-related 0.2500000
zum gas-related 0.2500000
Mawudzuro Mawudzuro 1.0000000
dazu feline 0.2000000
bringen feline 0.2000000
Charaktere feline 0.2000000
muss feline 0.2000000
schlaue feline 0.2000000
nicht-anglophonen non-Anglophone 1.0000000
workers substituting 0.0163934
ersetzen substituting 0.1311475
Stelle substituting 0.0327869
EU-Gelder substituting 0.0163934
durch substituting 0.2295082
geändert substituting 0.0163934
läßt substituting 0.0163934
gezielte substituting 0.0163934
Privatsysteme substituting 0.0163934
ihn substituting 0.0163934
erlebten substituting 0.0163934
Steuerformen substituting 0.0163934
ersetzbare substituting 0.0163934
Aufgaben substituting 0.0163934
erregende substituting 0.0163934
anstelle substituting 0.0163934
vertrete substituting 0.0163934
Weinmost substituting 0.0163934
Substitution substituting 0.0491803
Bestandteile substituting 0.0163934
NULL substituting 0.0163934
Umdenken substituting 0.0163934
unionsweit substituting 0.0163934
Handelsrecht substituting 0.0163934
insbesondere substituting 0.0163934
Landwirtschaftsentwicklungspolitik substituting 0.0163934
Ersetzung substituting 0.0163934
ersetzt substituting 0.0163934
stellvertretend substituting 0.0163934
zwingen substituting 0.0163934
work substituting 0.0163934
örtliches substituting 0.0163934
Westafrika substituting 0.0163934
force substituting 0.0163934
gefährlichere substituting 0.0163934
etwa substituting 0.0163934
folgende substituting 0.0163934
diesen substituting 0.0163934
wirklichkeitsfremdes unrealistic 0.0018116
Garantie unrealistic 0.0018116
realitätsfernen unrealistic 0.0018116
halten unrealistic 0.0072464
unverantwortliche unrealistic 0.0018116
irrealistischen unrealistic 0.0072464
unvernünftig unrealistic 0.0018116
erwarten unrealistic 0.0036232
für unrealistic 0.0054348
irreale unrealistic 0.0018116
sehr unrealistic 0.0036232
mangele unrealistic 0.0018116
hohen unrealistic 0.0018116
Grenze unrealistic 0.0018116
Bequemlichkeit unrealistic 0.0018116
unrealistischen unrealistic 0.0724638
unerfüllbaren unrealistic 0.0018116
irrealistisches unrealistic 0.0018116
bezeichnet unrealistic 0.0018116
irrealistisch unrealistic 0.0108696
Utopie unrealistic 0.0018116
nicht unrealistic 0.0489130
realisierende unrealistic 0.0018116
Mehrheit unrealistic 0.0018116
realitätsfremd unrealistic 0.0018116
spiegelt unrealistic 0.0018116
realistischen unrealistic 0.0036232
übertriebenen unrealistic 0.0018116
wahrscheinlich unrealistic 0.0018116
durchhalten unrealistic 0.0018116
reichlich unrealistic 0.0018116
ohne unrealistic 0.0018116
Traumtänzerei unrealistic 0.0018116
wäre unrealistic 0.0036232
irrealen unrealistic 0.0108696
Wirklichkeitsferne unrealistic 0.0018116
erscheint unrealistic 0.0036232
Forderungen unrealistic 0.0018116
utopisch unrealistic 0.0036232
unrealistischer unrealistic 0.0199275
phantasievoller unrealistic 0.0018116
vorkommen unrealistic 0.0018116
Vorstellung unrealistic 0.0036232
unrealistischsten unrealistic 0.0018116
keine unrealistic 0.0018116
Abgasnormen unrealistic 0.0018116
realitätsfern unrealistic 0.0108696
unrealistisches unrealistic 0.0126812
überzogenen unrealistic 0.0018116
völlig unrealistic 0.0054348
weit unrealistic 0.0018116
unrealistische unrealistic 0.0996377
Weltbild unrealistic 0.0018116
Falle unrealistic 0.0018116
Realität unrealistic 0.0072464
unmögliche unrealistic 0.0018116
überzogene unrealistic 0.0018116
Wirklichkeit unrealistic 0.0036232
Stelle unrealistic 0.0018116
Vorschlag unrealistic 0.0018116
realistisch unrealistic 0.0471014
einzureden unrealistic 0.0018116
hergeholt unrealistic 0.0018116
wenig unrealistic 0.0018116
irrealistische unrealistic 0.0036232
ich unrealistic 0.0018116
Betrachtungsweise unrealistic 0.0018116
wirklichkeitsfremd unrealistic 0.0090580
irreal unrealistic 0.0036232
herausgestellt unrealistic 0.0018116
vor unrealistic 0.0036232
unrealistisch unrealistic 0.4221014
ausfallen unrealistic 0.0018116
schürt unrealistic 0.0018116
Irrealismus unrealistic 0.0018116
Bedeutung unrealistic 0.0018116
Forderung unrealistic 0.0018116
mir unrealistic 0.0018116
Realitätsferne unrealistic 0.0036232
weltfremde unrealistic 0.0036232
illusorisch unrealistic 0.0126812
NULL unrealistic 0.0144928
praxisfern unrealistic 0.0018116
nachzuweisen unrealistic 0.0018116
Ordern unrealistic 0.0018116
unhaltbar unrealistic 0.0018116
unzureichend unrealistic 0.0018116
erhalten unrealistic 0.0018116
anzunehmen unrealistic 0.0018116
unseriös unrealistic 0.0018116
unsachgemäß unrealistic 0.0018116
unrealen unrealistic 0.0018116
schwer unrealistic 0.0018116
wirklichkeitsfern unrealistic 0.0018116
Realismus unrealistic 0.0054348
Haushaltsforderungen unrealistic 0.0018116
vorbei unrealistic 0.0054348
erfüllbaren unrealistic 0.0018116
Industriezweig surges 0.0833333
einheimischer surges 0.0833333
sprunghafter surges 0.0833333
da surges 0.0833333
Anschwellen surges 0.0833333
ein surges 0.2500000
wenn surges 0.0833333
unvorhersehbar surges 0.0833333
falls surges 0.0833333
Anstieg surges 0.0833333
B6-0016 B6-0016 0.8000000
– B6-0016 0.2000000
Solvay Solvay 1.0000000
Katzrin Barkan 1.0000000
Ausstrahlung Diffusion 0.3333333
Werken Diffusion 0.3333333
zur Diffusion 0.3333333
Tautologien tautological 0.3333333
Tautologie tautological 0.3333333
wäre tautological 0.3333333
Antiprohibitionistischen Antiprohibitionist 1.0000000
dreizehn thirteen-point 0.2500000
vorgelegt thirteen-point 0.2500000
Punkten thirteen-point 0.2500000
in thirteen-point 0.2500000
Woluwe Woluwé 0.2000000
deutschsprachigen Woluwé 0.1000000
italienisch- Woluwé 0.1000000
von Woluwé 0.2000000
Woluwé Woluwé 0.1000000
erhalten Woluwé 0.1000000
Einzugsbereich Woluwé 0.1000000
Sektion Woluwé 0.1000000
pro 0.01 0.0487805
0,1 0.01 0.0243902
einen 0.01 0.0243902
Wirkstoff 0.01 0.0243902
0 0.01 0.1463415
Promille 0.01 0.0243902
0,01 0.01 0.2439024
Höchstgrenzwerts 0.01 0.0243902
01 0.01 0.1707317
nur 0.01 0.0243902
Anteil 0.01 0.0243902
% 0.01 0.0243902
Milligrammwert 0.01 0.0243902
nun 0.01 0.0243902
denn 0.01 0.0243902
gehen 0.01 0.0243902
einem 0.01 0.0243902
hundertstel 0.01 0.0243902
davon 0.01 0.0243902
dabei 0.01 0.0243902
dargelegten Benedict 0.0312500
NULL Benedict 0.0312500
Benedikt Benedict 0.7187500
stellen Benedict 0.0312500
erörterte Benedict 0.0312500
Benedict Benedict 0.0625000
abgestimmt Benedict 0.0312500
allein Benedict 0.0312500
Reihen Benedict 0.0312500
Malloch Malloch 1.0000000
geschmälert dent 0.0666667
erschüttert dent 0.0666667
ist dent 0.0666667
nur dent 0.0666667
allenthalben dent 0.0666667
keinen dent 0.0666667
Tropfen dent 0.0666667
ein dent 0.0666667
heißen dent 0.0666667
daß dent 0.0666667
Abbruch dent 0.0666667
Ereignisse dent 0.0666667
worden dent 0.0666667
nehmendes dent 0.0666667
erheblich dent 0.0666667
unverdrossen valiantly 0.0625000
wacker valiantly 0.1250000
schon valiantly 0.0625000
tapfer valiantly 0.1250000
gegen valiantly 0.0625000
unternommen valiantly 0.0625000
beherzten valiantly 0.0625000
- valiantly 0.0625000
Zweistaatlichkeit valiantly 0.0625000
mutig valiantly 0.1250000
Versuch valiantly 0.0625000
ehrgeizige valiantly 0.0625000
sagte valiantly 0.0625000
realisiert 400-hectare 1.0000000
Pläne one-stop-shop 0.0212766
Errichtung one-stop-shop 0.0212766
Schaffung one-stop-shop 0.0638298
aufgewendet one-stop-shop 0.0212766
einzigen one-stop-shop 0.1063830
einer one-stop-shop 0.1063830
zentralen one-stop-shop 0.0638298
Anlaufstelle one-stop-shop 0.2765957
gehört one-stop-shop 0.0212766
Chartakonferenz one-stop-shop 0.0212766
basierendes one-stop-shop 0.0212766
Informationssystem one-stop-shop 0.0212766
ausgerichtet one-stop-shop 0.0212766
-Grundsatz one-stop-shop 0.0212766
-System one-stop-shop 0.0212766
Legislativpaket one-stop-shop 0.0212766
One-stop-shop one-stop-shop 0.0212766
Art one-stop-shop 0.0212766
enthalten one-stop-shop 0.0212766
zentrale one-stop-shop 0.0851064
doch waste-incineration 0.5000000
Müllverbrennungsanlage waste-incineration 0.5000000
gebaut Oujda 0.3333333
Oujda Oujda 0.3333333
werden Oujda 0.3333333
Geiselnehmer hostage-takers 1.0000000
Französisch-Kabine booth 0.0666667
oben booth 0.0666667
Dolmetscherkabine booth 0.1333333
hinweisen booth 0.0666667
Dolmetschkabine booth 0.0666667
übersprungen booth 0.0666667
Englisch-Dolmetschkabine booth 0.0666667
Kabine booth 0.1333333
Wahlurnen booth 0.0666667
dort booth 0.0666667
etwas booth 0.0666667
Spanischkabine booth 0.0666667
übermitteln booth 0.0666667
entzieht cancels 0.0384615
NULL cancels 0.0384615
beantragte cancels 0.0384615
dann cancels 0.0384615
fallen cancels 0.0384615
derart cancels 0.0384615
gestrichen cancels 0.0384615
beseitigt cancels 0.0384615
erhoben cancels 0.0384615
aufzuwiegen cancels 0.0384615
zunichte cancels 0.0384615
anzupflanzen cancels 0.0384615
aufzehrt cancels 0.0384615
neu cancels 0.0384615
werden cancels 0.0384615
aufgehoben cancels 0.0384615
ins cancels 0.0384615
einzurichten cancels 0.0384615
Euro-5-Verordnung cancels 0.0384615
eventuelles cancels 0.0384615
Gewicht cancels 0.0384615
hebt cancels 0.0384615
Benchmarksystem cancels 0.0384615
mit cancels 0.0769231
Umfang cancels 0.0384615
debiting debiting 1.0000000
Papageien parrots 1.0000000
jetzt appreciable 0.0111111
the appreciable 0.0111111
beträchtlichen appreciable 0.0111111
bewirkt appreciable 0.0111111
erschöpft appreciable 0.0111111
erzielen appreciable 0.0111111
Umweltvorteile appreciable 0.0111111
state appreciable 0.0111111
nennenswerte appreciable 0.0555556
unzureichenden appreciable 0.0111111
bedeutenden appreciable 0.0111111
Einsparungen appreciable 0.0111111
EU-Mittelmeerpolitik appreciable 0.0111111
spürbaren appreciable 0.0444444
anerkennenswerten appreciable 0.0111111
Gegenzug appreciable 0.0111111
freigesetzt appreciable 0.0111111
beachtlichen appreciable 0.0111111
erhebliche appreciable 0.0555556
nennenswertem appreciable 0.0111111
merklich appreciable 0.0111111
Prozesstechniken appreciable 0.0111111
anerkennenswerte appreciable 0.0111111
bemerkenswerte appreciable 0.0222222
deutliche appreciable 0.0444444
NULL appreciable 0.0555556
of appreciable 0.0111111
Auftragskategorien appreciable 0.0111111
widerspricht appreciable 0.0111111
Reformprojekts appreciable 0.0111111
nennenswertes appreciable 0.0222222
beträchtliche appreciable 0.0222222
anerkennenswert appreciable 0.0111111
beachtliche appreciable 0.0111111
merkliche appreciable 0.0111111
vernachlässigende appreciable 0.0111111
anerkennenswertes appreciable 0.0111111
Dritter appreciable 0.0111111
einerseits appreciable 0.0111111
Anpassungsspielraum appreciable 0.0111111
spürbare appreciable 0.0444444
welcher appreciable 0.0111111
Maß appreciable 0.0111111
erheblichen appreciable 0.0222222
nennenswerten appreciable 0.0222222
Verwaltungsengpässe appreciable 0.0111111
brachte appreciable 0.0111111
anerkennens- appreciable 0.0111111
verkürzt appreciable 0.0111111
beträchtlichem appreciable 0.0111111
werden appreciable 0.0111111
spürbarer appreciable 0.0111111
bedeutenderen appreciable 0.0111111
Intensität appreciable 0.0111111
Vermittlung appreciable 0.0111111
einem appreciable 0.0222222
bewertet appreciable 0.0111111
maßgeblichen appreciable 0.0111111
beachtliches appreciable 0.0111111
wesentlichen appreciable 0.0222222
beachtenswert appreciable 0.0111111
minimalen appreciable 0.0111111
befassen 8 0.0003439
7 8 0.0006878
8.500 8 0.0006878
starke 8 0.0003439
Unternehmens 8 0.0003439
18 8 0.0003439
20.15 8 0.0003439
8.00 8 0.0017194
während 8 0.0003439
Schwerpunkt 8 0.0003439
20.00 8 0.0092847
ausstanden 8 0.0003439
20 8 0.0003439
mittragen 8 0.0003439
vorliegenden 8 0.0003439
heißt 8 0.0003439
Themenbereich 8 0.0003439
8000 8 0.0020633
Nr.8 8 0.0020633
48 8 0.0003439
8.August 8 0.0003439
bringt 8 0.0003439
8D 8 0.0003439
Senkung 8 0.0003439
Rechnungslegungsstandards 8 0.0003439
beschränke 8 0.0003439
8050 8 0.0003439
Live-8-Konzerten 8 0.0003439
achttausend 8 0.0003439
vorgesehen 8 0.0003439
7-8 8 0.0006878
Protokoll 8 0.0003439
Achterbande 8 0.0003439
Achte 8 0.0003439
8.12. 8 0.0003439
I-8 8 0.0003439
prinzipiell 8 0.0003439
-8 8 0.0003439
20.50 8 0.0003439
gefeiert 8 0.0003439
8.-12 8 0.0003439
um 8 0.0003439
vorschlägt 8 0.0003439
8500 8 0.0003439
bis 8 0.0003439
8. 8 0.2345254
d. 8 0.0003439
8-9 8 0.0003439
Vorschlages 8 0.0003439
Achttausender 8 0.0003439
800 8 0.0003439
8.000 8 0.0034388
regeln 8 0.0003439
Änderungsvorschlag 8 0.0003439
Vollstatus 8 0.0003439
NULL 8 0.0134113
8e 8 0.0003439
IFRS-8-Prozess 8 0.0003439
achtprozentigen 8 0.0003439
ansteigen 8 0.0003439
Artikel 8 0.0013755
9 8 0.0003439
8 8 0.6815681
acht 8 0.0288858
h. 8 0.0003439
enthalten 8 0.0003439
achtprozentige 8 0.0003439
COP-8-Konferenz 8 0.0003439
08.00 8 0.0006878
Parmalat-Affäre resonates 0.1000000
stößt resonates 0.1000000
Nerv resonates 0.1000000
unserem resonates 0.1000000
Auswirkungen resonates 0.1000000
schwingt resonates 0.1000000
überall resonates 0.1000000
Tun resonates 0.1000000
eigentliches resonates 0.1000000
also resonates 0.1000000
dahinterstehenden documentary 0.0105263
Dokumentarist documentary 0.0105263
Dokumentarsendung documentary 0.0105263
children documentary 0.0105263
Bulgaria documentary 0.0105263
einzigen documentary 0.0105263
" documentary 0.0210526
Verwaltungsverfahren documentary 0.0105263
immensen documentary 0.0105263
Formalitäten documentary 0.0105263
Beurkundungen documentary 0.0105263
entsprechender documentary 0.0105263
s documentary 0.0105263
Ausstrahlung documentary 0.0105263
dokumentarischen documentary 0.0105263
Urkundenbeweise documentary 0.0210526
berichtet documentary 0.0105263
Fernsehreportage documentary 0.0105263
Dokumentarfilm documentary 0.1789474
dokumentiert documentary 0.0105263
nachweisen documentary 0.0105263
Quittungen documentary 0.0105263
Verwaltungsformalitäten documentary 0.0105263
Dokumentationen documentary 0.0105263
Dokumente documentary 0.0315789
Belegkontrollen documentary 0.0105263
NULL documentary 0.0526316
Dokumentations- documentary 0.0105263
Dokumentarfilms documentary 0.0421053
Belege documentary 0.0210526
Fernsehsendung documentary 0.0210526
verankert documentary 0.0105263
Nachweisdokumentation documentary 0.0105263
abandoned documentary 0.0105263
hohem documentary 0.0105263
Jahresmaßnahmen documentary 0.0105263
umfangreiches documentary 0.0105263
Beweismaterial documentary 0.0105263
Flughafenverbindungsbeamten documentary 0.0105263
verwandtschaftliche documentary 0.0105263
Vorlage documentary 0.0105263
Dokumentarfilme documentary 0.0210526
Dokumenten documentary 0.0105263
punktweise documentary 0.0105263
Fernsehdokumentationen documentary 0.0210526
BBC-Dokumentation documentary 0.0105263
Celex-Datenbank documentary 0.0105263
Dokumentationsanforderungen documentary 0.0105263
nachgewiesen documentary 0.0210526
Dokumentenanalyse documentary 0.0105263
Dokumentation documentary 0.0421053
angeprangert documentary 0.0105263
Wert documentary 0.0105263
Untersuchungsergebnisse documentary 0.0105263
Nachweis documentary 0.0105263
genannten documentary 0.0105263
Dokumentarfilmer documentary 0.0105263
' documentary 0.0105263
Fernsehdokumentation documentary 0.0105263
dokumentarischem documentary 0.0105263
geschlossenen geschlossenen 1.0000000
den A6-0164 0.3333333
A6-0164 A6-0164 0.3333333
Bericht A6-0164 0.3333333
verfassen reimporting 0.2500000
diese reimporting 0.2500000
Reimport reimporting 0.2500000
Informationsschriften reimporting 0.2500000
Gebühren giros 0.5000000
Transaktionen giros 0.5000000
sea-Terminals terminals 0.0105263
Bahnumschlagplätze terminals 0.0105263
Ladeterminals terminals 0.0105263
Abfertigungsterminals terminals 0.0105263
Hafenterminals terminals 0.0210526
intermodal terminals 0.0105263
Busbahnhöfe terminals 0.0105263
Kombiterminals terminals 0.0105263
Breitband-Satellitenend- terminals 0.0105263
Buchungsterminals terminals 0.0105263
einlaufen terminals 0.0210526
herumgelaufen terminals 0.0105263
Datenstationen terminals 0.0105263
verbunden terminals 0.0105263
Terminals terminals 0.3789474
LNG-Terminals terminals 0.0526316
Vorhäfen terminals 0.0105263
Umschlaganlagen terminals 0.0210526
Vorhäfenregionen terminals 0.0105263
Umschlagplätze terminals 0.0210526
Umschlagsanlagen terminals 0.0210526
Mautsystemen terminals 0.0105263
Containerterminals terminals 0.0105263
Leistungskette terminals 0.0105263
sollen terminals 0.0105263
entlang terminals 0.0105263
Gasterminals terminals 0.0210526
NULL terminals 0.0315789
EU-Ölterminals terminals 0.0105263
Endgeräte terminals 0.0315789
Stahlterminals terminals 0.0105263
Ölhäfen terminals 0.0105263
wobei terminals 0.0105263
I-Terminals terminals 0.0105263
Flüssiggasterminals terminals 0.0105263
Seeterminals terminals 0.0210526
Modelle terminals 0.0105263
3G-Endgeräte terminals 0.0105263
LkwAbfertigungsstationen terminals 0.0105263
Himmel terminals 0.0105263
Endstationen terminals 0.0105263
wichtiger terminals 0.0105263
verdunkelt terminals 0.0105263
Flughafenterminals terminals 0.0210526
aber suckler-cow 0.2000000
Milchkuhprämien suckler-cow 0.2000000
PMTVA suckler-cow 0.2000000
uns suckler-cow 0.2000000
anstatt suckler-cow 0.2000000
Viriatu-Pass Viriatu 1.0000000
Fondstruktur non-budgetary 0.5000000
außerbudgetären non-budgetary 0.5000000
vorsieht Bonn 0.0032573
wollen Bonn 0.0032573
leeres Bonn 0.0032573
vertreten Bonn 0.0032573
Vereinbarung Bonn 0.0130293
Versprechen Bonn 0.0032573
geblieben Bonn 0.0032573
waren Bonn 0.0032573
erfüllen Bonn 0.0032573
SV Bonn 0.0032573
wirken Bonn 0.0032573
widmen Bonn 0.0032573
wirklich Bonn 0.0032573
erreicht Bonn 0.0032573
kein Bonn 0.0032573
Powers Bonn 0.0032573
Beschlüsse Bonn 0.0097720
äußerte Bonn 0.0032573
Bonn-Konferenz Bonn 0.0097720
beschreibt Bonn 0.0032573
Konferenz Bonn 0.0097720
möchte Bonn 0.0032573
NULL Bonn 0.0065147
erfolgreichen Bonn 0.0032573
Umsetzung Bonn 0.0032573
internationalen Bonn 0.0032573
Afghanistan-Konferenz Bonn 0.0065147
Verlauf Bonn 0.0032573
COP5-Konferenz Bonn 0.0032573
beschlossenen Bonn 0.0032573
Beschluss Bonn 0.0032573
unterstrichen Bonn 0.0032573
Stiefkind Bonn 0.0032573
einsetzt Bonn 0.0032573
gerichtet Bonn 0.0032573
EU-USA-Gipfel Bonn 0.0032573
betreffen Bonn 0.0032573
einem Bonn 0.0065147
Russen Bonn 0.0032573
Bonn Bonn 0.6091205
Bonner Bonn 0.2247557
Hager Hager 0.7058824
stören Hager 0.0588235
Abgeordneter Hager 0.1176471
Aussagen Hager 0.0588235
Hagers Hager 0.0588235
verwirrende enigmatic 0.5000000
sibyllinischen enigmatic 0.5000000
Arbeitsgruppe Interservice 1.0000000
Insolvenz Insolvency 0.2500000
Insolvenzverfahren Insolvency 0.5000000
Insolvenzrichtlinie Insolvency 0.2500000
beruht Kiruna 0.1111111
nach Kiruna 0.1111111
auch Kiruna 0.1111111
Kiruna Kiruna 0.5555556
darauf Kiruna 0.1111111
achte householder 0.1666667
stark householder 0.1666667
naturgemäß householder 0.1666667
Haushälter householder 0.1666667
darauf householder 0.1666667
sehr householder 0.1666667
offensichtlich fellow-President 0.1666667
weil fellow-President 0.1666667
eingeschritten fellow-President 0.1666667
und fellow-President 0.1666667
– fellow-President 0.1666667
Kollege fellow-President 0.1666667
Landsmannes compatriot 0.0588235
angeschlossen compatriot 0.0196078
Landsleuten compatriot 0.0196078
Kollegen compatriot 0.0196078
NULL compatriot 0.0392157
Landsleute compatriot 0.0392157
Landsmännin compatriot 0.0980392
Landsfrau compatriot 0.0196078
Landsmann compatriot 0.5294118
jemand compatriot 0.0196078
Beratungen compatriot 0.0196078
mir compatriot 0.0196078
– compatriot 0.0196078
Landsmanns compatriot 0.0784314
UPM-Kymmene UPM-Kymmene 0.5000000
sich UPM-Kymmene 0.2500000
einigten UPM-Kymmene 0.2500000
unternehmerische enterprise-driven 0.3333333
geführt enterprise-driven 0.3333333
Handeln enterprise-driven 0.3333333
verteilt non-papers 0.1250000
papers non-papers 0.1250000
Non-Papers non-papers 0.1250000
non-papers non-papers 0.2500000
non non-papers 0.1250000
Begriff non-papers 0.1250000
paper non-papers 0.1250000
C4-0203 C40203 0.5000000
Hinblick C40203 0.5000000
Window Window 1.0000000
Jafari Jafari 1.0000000
zugleich ultra-technical 0.5000000
hochtechnischen ultra-technical 0.5000000
P. Brendan 0.0714286
Herrn Brendan 0.0714286
Brendan Brendan 0.8571429
keine Sabenas 0.2000000
Sabenas Sabenas 0.2000000
allemal Sabenas 0.2000000
Sabena Sabenas 0.2000000
weiteren Sabenas 0.2000000
Elio Elio 1.0000000
Birgitta H-0805 0.1250000
wurde H-0805 0.1250000
H-0805 H-0805 0.3750000
übernommen H-0805 0.1250000
Ahlqvist H-0805 0.1250000
von H-0805 0.1250000
befassen treaties 0.0008313
EU-Verträge treaties 0.0116376
Unionsverträgen treaties 0.0008313
WTO-Abkommen treaties 0.0008313
Unterzeichnung treaties 0.0008313
Vertrags treaties 0.0049875
vertragliche treaties 0.0016625
Konventionen treaties 0.0024938
Friedensverträge treaties 0.0008313
darstellt treaties 0.0024938
Verfassungsentwürfe treaties 0.0008313
Investitionsverträge treaties 0.0008313
solche treaties 0.0008313
Privatsektor treaties 0.0008313
unterzeichnet treaties 0.0008313
Vertragsschließungen treaties 0.0008313
lauten treaties 0.0008313
Umweltverträge treaties 0.0008313
Vertragslage treaties 0.0008313
beziehen treaties 0.0008313
anbelangt treaties 0.0008313
vertraglich treaties 0.0041563
UN-Verträgen treaties 0.0008313
Folgeverträge treaties 0.0008313
stehen treaties 0.0016625
Beitrittsvertrag treaties 0.0016625
findet treaties 0.0016625
drinstehen treaties 0.0008313
Grundlage treaties 0.0008313
Basisverträge treaties 0.0008313
Assoziierungsverträge treaties 0.0008313
EURATOM-Vertrag treaties 0.0008313
abzuschließen treaties 0.0008313
WIPO-Verträge treaties 0.0024938
Friedensverträgen treaties 0.0016625
dürfen treaties 0.0008313
Gegenstand treaties 0.0008313
unterschrieben treaties 0.0008313
Bestimmungen treaties 0.0016625
einsetzt treaties 0.0008313
Einzelverträgen treaties 0.0008313
Vertragswerken treaties 0.0008313
Grenzverträge treaties 0.0016625
Redebeitrag treaties 0.0008313
Vertragsverhandlungen treaties 0.0008313
Verträgen treaties 0.1645885
Gründungsverträge treaties 0.0033250
geben treaties 0.0016625
Grundsatzverträge treaties 0.0008313
Gesetzes treaties 0.0008313
Unionsvertrag treaties 0.0008313
Vertragsbestimmungen treaties 0.0008313
Beitrittsvertrags treaties 0.0008313
Teststoppabkommen treaties 0.0008313
System treaties 0.0008313
vorgesehene treaties 0.0008313
Vertragswerk treaties 0.0008313
eingeräumt treaties 0.0008313
Vertragsentwürfe treaties 0.0008313
zurückverweisen treaties 0.0008313
Übereinkommen treaties 0.0133001
vorgesehenen treaties 0.0008313
WIPO-Verträgen treaties 0.0016625
EUVerträge treaties 0.0008313
sehen treaties 0.0016625
Ausrufung treaties 0.0008313
EU-Abkommen treaties 0.0008313
Vertragsabschlusskompetenz treaties 0.0008313
Menschenrechtsübereinkommen treaties 0.0008313
steht treaties 0.0008313
Vertragsänderung treaties 0.0008313
widerspricht treaties 0.0008313
herausnehmen treaties 0.0008313
Römischen treaties 0.0008313
UNO-Menschenrechtsabkommen treaties 0.0008313
ILO-Abkommen treaties 0.0008313
bauen treaties 0.0008313
UN-Verträge treaties 0.0008313
sky treaties 0.0008313
Kooperationsabkommen treaties 0.0008313
wurden treaties 0.0016625
Beitrittsabkommen treaties 0.0041563
Verträge treaties 0.4497091
Einzug treaties 0.0008313
enthalten treaties 0.0024938
EU-Vertrag treaties 0.0008313
Besteuerungsvereinbarungen treaties 0.0008313
halten treaties 0.0008313
Menschenrechtsverträge treaties 0.0024938
NTM-Projekt treaties 0.0008313
EURATOM-Verträge treaties 0.0008313
erfolgen treaties 0.0008313
Garant treaties 0.0008313
Nachbarschaftsverträge treaties 0.0008313
bleiben treaties 0.0008313
Stoppverträgen treaties 0.0008313
Übereinkünfte treaties 0.0008313
Auslieferungsverträge treaties 0.0008313
treaties treaties 0.0008313
Friedensschluß treaties 0.0008313
Vertragsparteien treaties 0.0008313
Unterzeichnen treaties 0.0008313
sowohl treaties 0.0008313
bestehenden treaties 0.0008313
geschah treaties 0.0008313
Steuerabkommen treaties 0.0008313
neue treaties 0.0008313
Vertragsaushandlung treaties 0.0008313
Neuformulierung treaties 0.0008313
Dach treaties 0.0008313
Abrüstungsverträgen treaties 0.0016625
verankert treaties 0.0008313
Menschenrechtsabkommen treaties 0.0033250
Freihandelsverträgen treaties 0.0008313
Revisionsmechanismen treaties 0.0008313
Vertragsrevision treaties 0.0033250
WTO-Verträgen treaties 0.0008313
beizutreten treaties 0.0008313
Abkommen treaties 0.0399002
Menschenrechtskonventionen treaties 0.0008313
Vertragsrechtskonvention treaties 0.0008313
-Abkommen treaties 0.0008313
IAO-Übereinkommen treaties 0.0008313
kommt treaties 0.0008313
betreffen treaties 0.0008313
Vertrages treaties 0.0008313
angewiesen treaties 0.0008313
ausarbeiten treaties 0.0008313
Grenzverträgen treaties 0.0024938
unterliegen treaties 0.0008313
Umweltvereinbarungen treaties 0.0008313
Gemeinschaftsverträgen treaties 0.0008313
anerkennst treaties 0.0008313
EU-Verträgen treaties 0.0016625
Auslandsverträge treaties 0.0008313
Erweiterungsverträge treaties 0.0024938
zählen treaties 0.0008313
Unionsverträge treaties 0.0016625
Beitrittsverträge treaties 0.0432253
hält treaties 0.0008313
Besteuerungsabkommen treaties 0.0008313
Gründungsverträgen treaties 0.0074813
Beitrittsverträgen treaties 0.0191189
abschließen treaties 0.0008313
geschlossen treaties 0.0033250
letztgenannten treaties 0.0008313
Vertragsrecht treaties 0.0016625
Gemeinschaftsverträge treaties 0.0016625
völkerrechtliche treaties 0.0008313
Vertragsänderungen treaties 0.0024938
Religionsfragen treaties 0.0008313
NULL treaties 0.0440565
Nichtweiterverbreitungsabkommen treaties 0.0008313
Vertrag treaties 0.0099751
vorzusehen treaties 0.0008313
Vertragsunterzeichnung treaties 0.0008313
Vertragsgrundlagen treaties 0.0008313
anstehen treaties 0.0008313
Auslieferungsabkommen treaties 0.0008313
EG-Vertrag treaties 0.0016625
-verträge treaties 0.0016625
Lusaka treaties 0.0008313
Vertragsunterzeichnungen treaties 0.0008313
Vereinbarungen treaties 0.0058188
Genüge treaties 0.0008313
Verfassungsverträge treaties 0.0016625
Auslieferungsvereinbarungen treaties 0.0008313
Erweiterungsverträgen treaties 0.0108063
Auslieferungsverträgen treaties 0.0008313
beiwohnen Observers 0.0833333
hatten Observers 0.0833333
Sitzung Observers 0.0833333
dürfen Observers 0.0833333
Beobachtern Observers 0.1666667
Beobachter Observers 0.4166667
Beobachterdelegation Observers 0.0833333
ionische Ionic 1.0000000
Bürger loftily 0.3333333
überhören loftily 0.3333333
gut loftily 0.3333333
den constitutionalises 0.3333333
konstitutionalisiert constitutionalises 0.6666667
/ 4094 0.3333333
40 4094 0.3333333
94 4094 0.3333333
Entdeckergeist intrepid 0.1428571
unerschrockenen intrepid 0.2857143
Verurteilungen intrepid 0.1428571
unerschrockene intrepid 0.1428571
zweifellos intrepid 0.1428571
plakativen intrepid 0.1428571
Rettungsanker lifebuoys 1.0000000
allen doomsayers 0.2000000
Schwarzmaler doomsayers 0.2000000
Unkenrufen doomsayers 0.2000000
Trotz doomsayers 0.2000000
zum doomsayers 0.2000000
ausweichende coreless 0.5000000
gehaltlose coreless 0.5000000
Gipfeltreffen EU-EuroMed 0.5000000
Europa-Mittelmeerraum EU-EuroMed 0.5000000
Straßenverkehrssektor road-transport 0.1000000
beschäftigten road-transport 0.2000000
Straßengüterverkehr road-transport 0.0333333
beschäftigtem road-transport 0.0333333
im road-transport 0.1000000
Fahrpersonals road-transport 0.2000000
Zahlungsart road-transport 0.0333333
Fahrpersonal road-transport 0.0333333
unterstreicht road-transport 0.0333333
Straßenverkehr road-transport 0.2333333
Billiganbieter price-fighters 1.0000000
Umfeld environs 0.1666667
Umgebung environs 0.3333333
kommen environs 0.0833333
Ausdruck environs 0.0833333
zum environs 0.0833333
Nähe environs 0.0833333
Afghanistanveteran environs 0.0833333
aufstellen environs 0.0833333
auch wellqualified 1.0000000
handelt hulled 0.3333333
Doppelhüllenschiffe hulled 0.3333333
zurückgehen hulled 0.3333333
Funkfrequenzen spectra 0.2857143
Spektren spectra 0.1428571
Frequenzen spectra 0.2857143
Bezug spectra 0.1428571
zugewiesen spectra 0.1428571
sklavisch slavishly 0.1578947
bekämpft slavishly 0.0526316
servil slavishly 0.0526316
vorhandenen slavishly 0.0526316
beim slavishly 0.0526316
künftighin slavishly 0.0526316
Weise slavishly 0.0526316
Mustern slavishly 0.0526316
ergebenen slavishly 0.0526316
Verkettungen slavishly 0.0526316
Aggressionskrieg slavishly 0.0526316
BSE-Thematik slavishly 0.0526316
EU-Ausschuß slavishly 0.0526316
ergeben slavishly 0.0526316
willfährig slavishly 0.0526316
wissen slavishly 0.0526316
sklavische slavishly 0.0526316
Betankungsfirmen refuellers 0.3333333
usw. refuellers 0.3333333
Versorgungseinrichtungen refuellers 0.3333333
Cola cola 1.0000000
zwischen EU-Mercosur 0.1034483
befürwortet EU-Mercosur 0.0172414
Unternehmerforums EU-Mercosur 0.0172414
Aushandlung EU-Mercosur 0.0172414
EU-Mercosur EU-Mercosur 0.0344828
EU-Mercosur-Abkommens EU-Mercosur 0.0172414
Union-Mercosur EU-Mercosur 0.0344828
Mercosur-EU EU-Mercosur 0.0172414
EU EU-Mercosur 0.1379310
befindliche EU-Mercosur 0.0172414
und EU-Mercosur 0.1551724
Mercosur EU-Mercosur 0.1896552
Abkommen EU-Mercosur 0.0172414
Europäische EU-Mercosur 0.0344828
Union EU-Mercosur 0.0172414
dem EU-Mercosur 0.1379310
EU-MERCOSUR-Abkommens EU-Mercosur 0.0172414
Europäischen EU-Mercosur 0.0172414
Praxis practicalities 0.0348837
sides practicalities 0.0116279
Ausführung practicalities 0.0116279
übergehen practicalities 0.0116279
ob practicalities 0.0116279
Aspekte practicalities 0.0232558
praktizierbar practicalities 0.0116279
two practicalities 0.0116279
realen practicalities 0.0116279
Koordinierungssitzung practicalities 0.0116279
technische practicalities 0.0232558
konkret practicalities 0.0232558
Arbeit practicalities 0.0116279
Einzelheiten practicalities 0.0232558
funktionieren practicalities 0.0116279
praktischer practicalities 0.0116279
Mindestanzahl practicalities 0.0116279
geht practicalities 0.0116279
wird practicalities 0.0116279
Betrachtungsweise practicalities 0.0116279
Feinheiten practicalities 0.0116279
Frage practicalities 0.0116279
rentabelste practicalities 0.0116279
Notwendigen practicalities 0.0116279
NULL practicalities 0.0465116
of practicalities 0.0116279
abgleiten practicalities 0.0116279
bringt practicalities 0.0116279
Seite practicalities 0.0465116
Modalitäten practicalities 0.0697674
tätigen practicalities 0.0116279
bezüglich practicalities 0.0116279
Durchführung practicalities 0.0116279
Liquiditätsversorgung practicalities 0.0116279
Anwendbarkeit practicalities 0.0116279
praktischen practicalities 0.1046512
führen practicalities 0.0116279
ließen practicalities 0.0116279
technischen practicalities 0.0116279
Zwänge practicalities 0.0116279
Umsetzungsmöglichkeiten practicalities 0.0116279
Internet-Fragen practicalities 0.0116279
Behördenverfahren practicalities 0.0116279
gerade practicalities 0.0116279
Seiten practicalities 0.0116279
industry practicalities 0.0116279
Pragmatik practicalities 0.0116279
praktische practicalities 0.1046512
Durchführbarkeit practicalities 0.0116279
gefühlsorientierten practicalities 0.0116279
auszusehen practicalities 0.0116279
Flugbetrieb practicalities 0.0116279
eigentliche practicalities 0.0116279
Hoop Hoop 1.0000000
Siwiec Siwiec 0.8750000
geleitet Siwiec 0.1250000
jene customised 0.0476190
angepasste customised 0.0476190
kundengebundenen customised 0.0476190
kundengebundene customised 0.1428571
genau customised 0.0476190
individuellen customised 0.0476190
angelegt customised 0.0476190
maßgeschneiderten customised 0.0476190
versenden customised 0.0476190
Heranführungsstrategie customised 0.0476190
maßgeschneiderte customised 0.0952381
Merkmale customised 0.0476190
individuellere customised 0.0476190
maßgeschneidertes customised 0.0476190
individualisierte customised 0.0476190
zugeschnittenen customised 0.0952381
benutzerfreundlich customised 0.0476190
halten mass-produce 0.1250000
verarbeitet mass-produce 0.1250000
Primärprodukte mass-produce 0.1250000
Massenproduktion mass-produce 0.1250000
daraus mass-produce 0.1250000
Leben mass-produce 0.1250000
standardisiert mass-produce 0.1250000
Massenerzeugnisse mass-produce 0.1250000
destruktiven dissociated 0.0188679
NULL dissociated 0.0566038
Kriminalitäten dissociated 0.0188679
wieder dissociated 0.0188679
getrennt dissociated 0.1320755
auskommt dissociated 0.0188679
irgendwelchen dissociated 0.0188679
trennen dissociated 0.0377358
wiewohl dissociated 0.0188679
anderem dissociated 0.0188679
Bahn dissociated 0.0188679
vom dissociated 0.0188679
desolidarisierten dissociated 0.0188679
abgetrennt dissociated 0.0188679
abgekoppelt dissociated 0.0943396
distanzierte dissociated 0.0188679
abgegangen dissociated 0.0188679
losgelöst dissociated 0.0566038
Acht dissociated 0.0188679
Ländernamen dissociated 0.0188679
abgegrenzt dissociated 0.0188679
NRO-Treffens dissociated 0.0188679
distanziert dissociated 0.0943396
unter dissociated 0.0188679
Beschluß dissociated 0.0188679
betrachtet dissociated 0.0566038
Nuklearsektors dissociated 0.0188679
unabhängig dissociated 0.0566038
davon dissociated 0.0377358
kleinerer SMBs 0.0909091
KMI SMBs 0.0909091
einsetzen SMBs 0.0909091
Bedürftigere SMBs 0.0909091
KMU SMBs 0.4545455
Kollektivsysteme SMBs 0.0909091
Marktanalyse SMBs 0.0909091
vertrösten fobbed 0.0303030
seiner fobbed 0.0303030
NULL fobbed 0.0303030
Globalabstimmung fobbed 0.0303030
abgespeist fobbed 0.1515152
vertröstet fobbed 0.0909091
läßt fobbed 0.0303030
einfordert fobbed 0.0303030
Dumpinglöhnen fobbed 0.0303030
abbringen fobbed 0.0303030
heute fobbed 0.0303030
Vertröstung fobbed 0.0303030
kategorischer fobbed 0.0303030
Mogelpackung fobbed 0.0303030
Absicht fobbed 0.0303030
wesentlich fobbed 0.0303030
lassen fobbed 0.0606061
reine fobbed 0.0303030
Hirngespinsten fobbed 0.0303030
worden fobbed 0.0303030
abspeisen fobbed 0.1515152
beschwichtigt fobbed 0.0303030
C6-0114 C6-0114 1.0000000
gehört tangential 0.5000000
emotionelle tangential 0.5000000
Nachwendezeit post-reunification 0.5000000
Aufbauwerkes post-reunification 0.5000000
biannual transcribed 0.2000000
NULL transcribed 0.2000000
Wortlautes transcribed 0.2000000
übermittelten transcribed 0.2000000
ihm transcribed 0.2000000
Verlautbarung proclamation 0.0087719
dank proclamation 0.0087719
Rahmen proclamation 0.0087719
Unterzeichnung proclamation 0.0087719
proklamiert proclamation 0.0087719
Ankündigungen proclamation 0.0087719
Donnerhall proclamation 0.0087719
Personenwahl proclamation 0.0087719
Unabhängigkeitserklärung proclamation 0.0438596
Veröffentlichung proclamation 0.0087719
EU-Menschenrechtscharta proclamation 0.0087719
Ankündigung proclamation 0.0350877
feierlichen proclamation 0.0087719
beweist proclamation 0.0087719
Bekanntgabe proclamation 0.0438596
lehrerhaft proclamation 0.0087719
Bekundung proclamation 0.0087719
Sinn proclamation 0.0087719
Anfangsmoment proclamation 0.0087719
Ausrufung proclamation 0.1228070
Ernennung proclamation 0.0087719
NULL proclamation 0.0175439
Grundsatzerklärung proclamation 0.0087719
abgegebene proclamation 0.0087719
Schönwetterprognose proclamation 0.0087719
feierlich proclamation 0.0175439
Erklärung proclamation 0.0614035
Verkündung proclamation 0.0877193
Proklamierung proclamation 0.1228070
danach proclamation 0.0087719
Verhängung proclamation 0.0087719
Proklamation proclamation 0.2543860
verfolgt Mauritanians 0.1111111
Mauretaniern Mauritanians 0.2222222
Mauretanier Mauritanians 0.1111111
Nahrungsmittel- Mauritanians 0.1111111
neutralem Mauritanians 0.1111111
Mauretanern Mauritanians 0.1111111
Mauretanien Mauritanians 0.1111111
Ausland Mauritanians 0.1111111
ab recalculation 0.2000000
Neuberechnung recalculation 0.4000000
folglich recalculation 0.2000000
Bemessungsgrundlage recalculation 0.2000000
größte safest 0.0148148
sicher safest 0.0074074
bestmöglichen safest 0.0074074
höchsten safest 0.0074074
Lebensmittelangebot safest 0.0074074
bestünde safest 0.0074074
sichere safest 0.0148148
irgend safest 0.0074074
Tunnel safest 0.0148148
anzweifelt safest 0.0074074
Lebensmittelkontrollsysteme safest 0.0074074
nur safest 0.0074074
abwerfende safest 0.0074074
fraglos safest 0.0074074
Beförderungsdistanz safest 0.0074074
Beförderungsart safest 0.0074074
Sicherheitsbedingungen safest 0.0074074
maximale safest 0.0074074
gefahrlosesten safest 0.0074074
Lebensmittelkontrollsystem safest 0.0074074
NULL safest 0.0222222
Kapitalanlage safest 0.0074074
Sicherste safest 0.0148148
am safest 0.0074074
Sicherheit safest 0.0074074
Beförderungsunternehmen safest 0.0074074
kleinere safest 0.0074074
möglichst safest 0.0148148
sicherste safest 0.3037037
Lebensmittelsicherheitsbehörde safest 0.0074074
Ort safest 0.0074074
sicherer safest 0.0074074
entsorgen safest 0.0074074
schonendsten safest 0.0074074
Pilot safest 0.0074074
sichersten safest 0.3925926
kommt 43.9 0.3333333
43,9 43.9 0.3333333
Marktanteil 43.9 0.3333333
beide two-week 0.0714286
Verlängerung two-week 0.0714286
Umsatzeinbruch two-week 0.0714286
um two-week 0.0714286
Seiten two-week 0.0714286
zweiwöchigen two-week 0.1428571
Wochen two-week 0.1428571
Australien-Urlaub two-week 0.0714286
geltende two-week 0.0714286
vierzehntägigen two-week 0.0714286
zwei two-week 0.1428571
schlecht ill-educated 0.2500000
ausgebildet ill-educated 0.2500000
wenigsten ill-educated 0.2500000
verstädtert ill-educated 0.2500000
A A380 0.0666667
geopfert A380 0.0666667
Auslieferungsverzögerung A380 0.0666667
starke A380 0.0666667
beim A380 0.1333333
A380 A380 0.3333333
Rolle A380 0.0666667
A-380 A380 0.0666667
380 A380 0.0666667
Fabrikation A380 0.0666667
Kollegen Hans-Peter 0.0270270
NULL Hans-Peter 0.0135135
: Hans-Peter 0.0270270
Martin Hans-Peter 0.0135135
rausgehen Hans-Peter 0.0135135
Mayer Hans-Peter 0.0675676
gegenüber Hans-Peter 0.0135135
Ferber Hans-Peter 0.0135135
öfter Hans-Peter 0.0135135
Hans-Peter Hans-Peter 0.7702703
Herrn Hans-Peter 0.0135135
gegeben Hans-Peter 0.0135135
A6-0087 A6-0087 1.0000000
mangelfreies defect-free 1.0000000
deren hops 0.0175439
NULL hops 0.0526316
ungültig hops 0.0175439
Hopfen hops 0.5789474
Hopfenverordnung hops 0.0175439
Wirkung hops 0.0175439
Hopfenfläche hops 0.0175439
dazugelernt hops 0.0175439
Hopfensektors hops 0.0175439
grundsätzlich hops 0.0175439
liberalisiert hops 0.0175439
Preisverfalls hops 0.0175439
völlig hops 0.0175439
gewordenen hops 0.0175439
Hopfenarten hops 0.0175439
stattfinden hops 0.0175439
Falle hops 0.0175439
Hopfenmarktes hops 0.0175439
überein hops 0.0175439
stetigen hops 0.0175439
Hopfenmarktordnung hops 0.0350877
Hopfenmarkt hops 0.0175439
UDMR DAHR 0.6666667
tritt DAHR 0.3333333
Likatschew Likhachev 1.0000000
Ertragseinbußen reducing 0.0001927
einzudämmen reducing 0.0025053
senken reducing 0.0206205
zahlenmäßige reducing 0.0001927
Zurückdrängen reducing 0.0001927
Zinssenkungen reducing 0.0001927
Drosselung reducing 0.0001927
Subventionsabbaus reducing 0.0001927
bedingte reducing 0.0003854
Abbau reducing 0.0287146
unerklärlicherweise reducing 0.0001927
abnehmen reducing 0.0001927
Kosteneinsparungen reducing 0.0001927
herabsetzen reducing 0.0003854
verringert reducing 0.0152245
lindert reducing 0.0001927
Entspannungsprozess reducing 0.0001927
Mittelkürzungen reducing 0.0001927
Bürokratie reducing 0.0005781
Ziel reducing 0.0005781
Pharmahersteller reducing 0.0001927
Verstädterungsprozeß reducing 0.0001927
G8-Gipfeln reducing 0.0001927
Ausgabenkürzung reducing 0.0005781
Kostendämpfung reducing 0.0001927
geringere reducing 0.0009636
Lohnunterschiede reducing 0.0001927
Skeptik reducing 0.0001927
vorgebeugt reducing 0.0001927
Zahl reducing 0.0003854
Weltbruttoprodukts reducing 0.0001927
Erfolgsaussichten reducing 0.0001927
tägliche reducing 0.0001927
bei reducing 0.0007709
Zugangsbarrieren reducing 0.0001927
Richtpreis reducing 0.0001927
verkürzen reducing 0.0028907
Schiffsausmusterungen reducing 0.0001927
-Reduktion reducing 0.0001927
sinken reducing 0.0005781
degressiven reducing 0.0001927
weitestgehende reducing 0.0001927
will reducing 0.0001927
Armutsminderung reducing 0.0005781
Lenkzeiten reducing 0.0001927
Abwrackpolitik reducing 0.0001927
Beschäftigungsfähigkeit reducing 0.0001927
Flottenabbau reducing 0.0001927
niedrigere reducing 0.0001927
Minderausgaben reducing 0.0001927
zurückgefahren reducing 0.0001927
Überwindung reducing 0.0007709
zur reducing 0.0150318
gerichtet reducing 0.0001927
man reducing 0.0013490
Verwaltungsaufwendungen reducing 0.0001927
Zyklamat reducing 0.0001927
Verringerns reducing 0.0001927
Beschneidung reducing 0.0011563
berufsbedingtes reducing 0.0001927
Finanzmittel reducing 0.0001927
Gegenparteiausfallrisiko reducing 0.0001927
ein reducing 0.0001927
FCKW reducing 0.0001927
entschärfen reducing 0.0003854
Gewaltminderung reducing 0.0001927
einzuschränken reducing 0.0036616
HIV-Erregers reducing 0.0001927
darauf reducing 0.0001927
Bürokratieabbau reducing 0.0009636
Aushöhlung reducing 0.0001927
Prävention reducing 0.0001927
abzubauen reducing 0.0080940
Kernkraftanwendung reducing 0.0001927
CO2-Reduktion reducing 0.0001927
kürzt reducing 0.0005781
des reducing 0.0009636
Übertragungsgebühren reducing 0.0001927
Monopolmächte reducing 0.0001927
Entlastungsaktion reducing 0.0001927
verringerten reducing 0.0005781
Betrugsbekämpfung reducing 0.0001927
CO2-Senkung reducing 0.0005781
Bekämpfung reducing 0.0028907
auswirken reducing 0.0001927
CO2-Reduktionen reducing 0.0001927
Kürzungen reducing 0.0007709
herabzusetzen reducing 0.0001927
Eindämmung reducing 0.0030834
wiederum reducing 0.0001927
Verlangsamung reducing 0.0001927
Rückfallrisiko reducing 0.0001927
Fälschungsmöglichkeiten reducing 0.0001927
abschottet reducing 0.0001927
zum reducing 0.0003854
abträglichen reducing 0.0001927
Menschenhandel reducing 0.0001927
zurückgeschraubt reducing 0.0001927
begrenzen reducing 0.0005781
Armutsbekämpfung reducing 0.0005781
mit reducing 0.0009636
Ausstoßverringerung reducing 0.0001927
Verringerung reducing 0.1042590
Gesetzesmodell reducing 0.0001927
Schuldenabbau reducing 0.0005781
Linderung reducing 0.0015417
Emissionssenkungen reducing 0.0001927
Milderung reducing 0.0001927
abbauen reducing 0.0015417
Personalumbau reducing 0.0001927
Emissionsabbau reducing 0.0001927
Preisreduzierung reducing 0.0001927
wenn reducing 0.0009636
Einsparung reducing 0.0001927
gekürzt reducing 0.0013490
gesenkt reducing 0.0042397
Entlassung reducing 0.0001927
Schmälerung reducing 0.0001927
Haushaltskürzung reducing 0.0001927
Schuldenabbaus reducing 0.0001927
Defizit- reducing 0.0001927
Absenkung reducing 0.0021199
Defizitabbau reducing 0.0001927
sowohl reducing 0.0001927
Anzahl reducing 0.0003854
Bereich reducing 0.0001927
wir reducing 0.0001927
vermindert reducing 0.0005781
größer reducing 0.0001927
Fluglärm reducing 0.0001927
CO2-Einsparungen reducing 0.0001927
Verbrauch reducing 0.0001927
Senkung reducing 0.0531894
Hinblick reducing 0.0001927
beim reducing 0.0007709
bekämpfen reducing 0.0001927
Flugzeuglärm reducing 0.0001927
beschränken reducing 0.0003854
Vorlaufzeit reducing 0.0001927
zurückgegangen reducing 0.0003854
Kürzen reducing 0.0001927
reduzieren reducing 0.0319907
ermäßigten reducing 0.0005781
nachgedacht reducing 0.0001927
verringern reducing 0.0443245
senkte reducing 0.0001927
Bemühungen reducing 0.0001927
Herabsetzung reducing 0.0011563
Geldangebots reducing 0.0001927
Nivellierung reducing 0.0001927
Entscheidungsfrist reducing 0.0001927
Lohnkürzungen reducing 0.0005781
es reducing 0.0011563
durch reducing 0.0019272
Einkommensrückgang reducing 0.0001927
kürzen reducing 0.0059742
schmälert reducing 0.0001927
beeinträchtigen reducing 0.0001927
Transportbedarf reducing 0.0001927
Treibhausgasausstoß reducing 0.0001927
-verringerung reducing 0.0001927
bezug reducing 0.0001927
Kostenreduzierung reducing 0.0003854
beschneiden reducing 0.0005781
Arbeitszeitverkürzung reducing 0.0019272
Stress- reducing 0.0001927
Schuldenerlaß reducing 0.0001927
baut reducing 0.0001927
daß reducing 0.0003854
darum reducing 0.0001927
zu reducing 0.0570437
ermäßigte reducing 0.0003854
senkt reducing 0.0011563
Befischungsdruck reducing 0.0001927
Deeskalation reducing 0.0001927
Kohäsionspolitik reducing 0.0003854
Schadensminderung reducing 0.0001927
Beseitigung reducing 0.0007709
Behebung reducing 0.0001927
Einschränkung reducing 0.0036616
Maßnahmen reducing 0.0003854
jegliches reducing 0.0001927
Dämpfung reducing 0.0001927
abgebaut reducing 0.0009636
Kostenreduktion reducing 0.0001927
Sichtbarmachen reducing 0.0001927
Macht reducing 0.0001927
Rückgang reducing 0.0023126
von reducing 0.0009636
Verkehrstodesfällen reducing 0.0001927
etwa reducing 0.0007709
Einschränkungen reducing 0.0001927
Reduzierungen reducing 0.0001927
Handelsbilanzdefizit reducing 0.0001927
Stickoxidreduktionstechnik reducing 0.0001927
Verelendung reducing 0.0001927
sinkende reducing 0.0005781
sinkt reducing 0.0007709
Schwächen reducing 0.0001927
Abmilderung reducing 0.0001927
geeignet reducing 0.0001927
einer reducing 0.0115629
dadurch reducing 0.0003854
Angebotsreduzierung reducing 0.0003854
Schwächung reducing 0.0003854
Einkünften reducing 0.0001927
Reduktion reducing 0.0044325
herunter reducing 0.0001927
Haushaltseinkommen reducing 0.0001927
verminderte reducing 0.0001927
Wahn- reducing 0.0001927
Wiederaufbaupläne reducing 0.0001927
Verminderung reducing 0.0044325
stehen reducing 0.0001927
Abkürzung reducing 0.0001927
die reducing 0.1318173
Dauerbudgets reducing 0.0001927
beiträgt reducing 0.0001927
reduzierten reducing 0.0003854
teilweisen reducing 0.0003854
langfristige reducing 0.0001927
denen reducing 0.0009636
Arbeitsplätzen reducing 0.0001927
Abbuchung reducing 0.0001927
Kapazitätsabbau reducing 0.0003854
lockern reducing 0.0001927
Komforts reducing 0.0001927
überhaupt reducing 0.0003854
Preissenkungspolitik reducing 0.0001927
Fischereiaufwand reducing 0.0001927
Abbaus reducing 0.0021199
gegen reducing 0.0005781
Verstümmelung reducing 0.0001927
herunterzusetzen reducing 0.0001927
mindert reducing 0.0003854
mindern reducing 0.0025053
einzusparen reducing 0.0003854
dabei reducing 0.0007709
Begrenzung reducing 0.0026980
mindernd reducing 0.0001927
Tendenz reducing 0.0001927
Einstimmigkeitsvorschrift reducing 0.0001927
Schaffung reducing 0.0001927
um reducing 0.0071305
Erleichterung reducing 0.0001927
verwässert reducing 0.0001927
Emissionssenkung reducing 0.0003854
Grundsteuer reducing 0.0001927
vermindern reducing 0.0009636
Parlamentsausschüsse reducing 0.0001927
damit reducing 0.0007709
Qualitätssenkung reducing 0.0001927
Absenken reducing 0.0001927
Verkleinerung reducing 0.0001927
Beeinträchtigungen reducing 0.0001927
Frist reducing 0.0001927
Preissenkungen reducing 0.0001927
Ausgleich reducing 0.0001927
reduziert reducing 0.0086722
Verkleinern reducing 0.0001927
Fangmengenberechnung reducing 0.0001927
Reduktionsmodell reducing 0.0001927
DEUEmissionen reducing 0.0001927
Personalabbau reducing 0.0001927
gleichzeitig reducing 0.0013490
Preissenkung reducing 0.0001927
verkürzt reducing 0.0007709
Forschungsbereichs reducing 0.0001927
Nachfragereduzierung reducing 0.0001927
Eindämmungsmaßnahmen reducing 0.0001927
fortschreitend reducing 0.0001927
Risikosenkung reducing 0.0001927
verschachern reducing 0.0001927
Mehrwertsteuersenkung reducing 0.0001927
Kostensenkung reducing 0.0011563
Herabwürdigung reducing 0.0001927
Reduzierung reducing 0.0745808
eingeschränkte reducing 0.0001927
herabgesetzt reducing 0.0001927
Abstriche reducing 0.0001927
dezimieren reducing 0.0001927
Minderung reducing 0.0042397
einen reducing 0.0003854
CO2-Reduzierung reducing 0.0001927
auslösenden reducing 0.0003854
Vertreibung reducing 0.0001927
anzustreben reducing 0.0001927
beschnitten reducing 0.0001927
multilingualen reducing 0.0001927
Gehaltseinbußen reducing 0.0001927
draufzahlen reducing 0.0001927
Massenhysterie reducing 0.0001927
Arbeitgeberbeiträge reducing 0.0001927
Emissionsreduktion reducing 0.0001927
Produktionssenkungen reducing 0.0001927
Entbürokratisierung reducing 0.0005781
Gesamtbelastung reducing 0.0001927
grausamste reducing 0.0001927
reduzierter reducing 0.0001927
Ermäßigung reducing 0.0005781
Steuerreformen reducing 0.0001927
abzusenken reducing 0.0003854
Vorbeugung reducing 0.0001927
wodurch reducing 0.0015417
schlechten reducing 0.0001927
Zollsenkung reducing 0.0003854
abbaut reducing 0.0003854
Steuererleichterungen reducing 0.0001927
Lohneinbußen reducing 0.0001927
Beschränkung reducing 0.0013490
Luftschadstoffreduzierung reducing 0.0001927
abnimmt reducing 0.0003854
Truppenabbaus reducing 0.0001927
hochwasserbedingten reducing 0.0001927
Modulation reducing 0.0001927
Mängelrisiken reducing 0.0001927
eineinhalb reducing 0.0001927
Lohnausgleich reducing 0.0007709
den reducing 0.0003854
womöglich reducing 0.0001927
Überhitzung reducing 0.0001927
Ausgabensenkung reducing 0.0001927
der reducing 0.1352862
Halbierung reducing 0.0001927
Arbeitslosengeldes reducing 0.0001927
bewirkt reducing 0.0001927
Kostenreduzierungen reducing 0.0001927
Verkürzung reducing 0.0057815
Kürzung reducing 0.0086722
Reduktionsmittels reducing 0.0003854
zurückzuschrauben reducing 0.0001927
Reduktionsziele reducing 0.0001927
zurückzufahren reducing 0.0003854
kürzte reducing 0.0003854
Mindestverbrauchsteuersatz reducing 0.0001927
Armut reducing 0.0001927
völliger reducing 0.0001927
verkehrsbezogene reducing 0.0001927
zurückzunehmen reducing 0.0001927
weniger reducing 0.0036616
gehen reducing 0.0003854
eine reducing 0.0298709
Verkehrsentlastung reducing 0.0001927
Agrarpreise reducing 0.0001927
Einsatz reducing 0.0001927
halbieren reducing 0.0001927
Verlagerungstendenzen reducing 0.0001927
VOC-Emissionen reducing 0.0001927
NULL reducing 0.0312199
indem reducing 0.0021199
wobei reducing 0.0003854
Verhandlungsmandats reducing 0.0003854
Minimierung reducing 0.0009636
degradieren reducing 0.0001927
zurückgeht reducing 0.0001927
Tabakkonsums reducing 0.0001927
CO2 reducing 0.0005781
zahlenmäßig reducing 0.0001927
Emissionsreduzierung reducing 0.0003854
Reduzieren reducing 0.0001927
sie reducing 0.0038543
dass reducing 0.0001927
geringeren reducing 0.0013490
Problemverständnis reducing 0.0001927
Überschwemmungsgefahr reducing 0.0001927
Sicherheitsaspekte reducing 0.0001927
eingeschränkt reducing 0.0005781
Reduktionspotentials reducing 0.0001927
Subventionsabbau reducing 0.0001927
recycelt reducing 0.0001927
Weizenpreis reducing 0.0001927
Steuersenkungen reducing 0.0007709
Ausgabenkürzungen reducing 0.0001927
verkleinern reducing 0.0009636
CO2-Minderungsprogramme reducing 0.0001927
Apartheidregime apartheid-like 0.5000000
Schande apartheid-like 0.5000000
Kindersoldaten child-soldiers 1.0000000
Kläger Louloudakis 0.5000000
Louloudakis Louloudakis 0.5000000
und Estonian-Russian 0.1428571
zwischen Estonian-Russian 0.1428571
Grenzvertrag Estonian-Russian 0.0714286
durch Estonian-Russian 0.0714286
Grenzvereinbarung Estonian-Russian 0.0714286
schließlich Estonian-Russian 0.0714286
Estland Estonian-Russian 0.1428571
äußern Estonian-Russian 0.0714286
estnisch-russischen Estonian-Russian 0.0714286
Russland Estonian-Russian 0.1428571
Wiederannäherung re-engagement 0.2000000
Engagement re-engagement 0.2000000
signalisiert re-engagement 0.2000000
Beziehungen re-engagement 0.2000000
neuerliche re-engagement 0.2000000
NULL Orden 0.0123457
Ordens Orden 0.0123457
Orden Orden 0.9382716
eingehe Orden 0.0061728
vorgebracht Orden 0.0061728
Abgeordneter Orden 0.0061728
hervorheben Orden 0.0061728
diesen Orden 0.0061728
trafen Orden 0.0061728
erörtert Material 0.0625000
das Material 0.1250000
Überwachung Material 0.0625000
EURATOM-Konferenz Material 0.0625000
Kernmaterial Material 0.0625000
von Material 0.1875000
regelmäßig Material 0.0625000
oder Material 0.1250000
Kernsprengkörper Material 0.0625000
für Material 0.1250000
Pflanzgutwesen Material 0.0625000
B5-0620 B5-0620 1.0000000
finanziert self-funded 0.2000000
selbst self-funded 0.2000000
leistungsfähige self-funded 0.2000000
kapitalgedeckte self-funded 0.2000000
Eigenfinanzierung self-funded 0.2000000
Kommission eliminates 0.0161290
Hemmnissen eliminates 0.0161290
dafür eliminates 0.0161290
eliminiert eliminates 0.0161290
dadurch eliminates 0.0161290
außer eliminates 0.0161290
schaltet eliminates 0.0161290
beseitigt eliminates 0.1129032
Vorwände eliminates 0.0161290
Qualifizierten eliminates 0.0161290
führt eliminates 0.0161290
schafft eliminates 0.0322581
ausschaltet eliminates 0.0161290
wird eliminates 0.0322581
ausschließt eliminates 0.0161290
eliminieren eliminates 0.0161290
Währungskosten eliminates 0.0161290
sorgt eliminates 0.0161290
vorsehen eliminates 0.0161290
Übergangszeiten eliminates 0.0161290
keinerlei eliminates 0.0161290
streicht eliminates 0.0322581
infiziert eliminates 0.0161290
Ausmusterung eliminates 0.0161290
NULL eliminates 0.0645161
hohes eliminates 0.0161290
abschafft eliminates 0.0322581
Ungerechtigkeiten eliminates 0.0161290
aufhebt eliminates 0.0161290
rechtsstaatlichen eliminates 0.0161290
zieht eliminates 0.0161290
Körperschaftssteuern eliminates 0.0161290
gering eliminates 0.0161290
zweifacher eliminates 0.0161290
Beseitigung eliminates 0.0483871
abbaut eliminates 0.0161290
jahrhundertealte eliminates 0.0161290
beseitige eliminates 0.0161290
fadenscheinige eliminates 0.0161290
Inkonsistenz eliminates 0.0161290
Ausbildungsniveau eliminates 0.0161290
von eliminates 0.0483871
ausräumt eliminates 0.0161290
gewährleistet eliminates 0.0161290
geschieht eliminates 0.0161290
so unknowns 0.1111111
diesmal unknowns 0.1111111
optimal unknowns 0.1111111
Unbekannten unknowns 0.1111111
Vorbereitungen unknowns 0.1111111
Unwägbarkeiten unknowns 0.1111111
Unbekannte unknowns 0.1111111
aufstellen unknowns 0.1111111
ungewiss unknowns 0.1111111
Arājs Arājs 0.5000000
Lettland Arājs 0.5000000
Gesellschaft Lloyd 0.0038760
s-Affäre Lloyd 0.0038760
geprüfte Lloyd 0.0038760
s-Skandal Lloyd 0.0038760
