Gauchet erklären 0.0002740
Gauchet Gauchet 0.6666667
measles übertreffen 0.0117647
measles stirbt 0.0053763
measles Masern 0.9090909
measles erkrankt 0.0073529
measles etc. 0.0028902
decentralizing Prinzip 0.0003157
decentralizing eine 0.0000038
decentralizing Unternehmenswachstum 0.0769231
decentralizing NULL 0.0000003
decentralizing Energiesysteme 0.0144928
decentralizing Dezentralisierung 0.0099010
decentralizing Friedenssicherung 0.0096154
AT AT 1.0000000
inconsequential viel 0.0000443
inconsequential gelten 0.0001898
inconsequential Konsequenzen 0.0004878
inconsequential Krämerladen 0.2000000
inconsequential Aktionsprogrammen 0.0109890
inconsequential inkonsequenten 0.2142857
inconsequential ohne 0.0000398
inconsequential inkonsequentes 1.0000000
inconsequential begnügen 0.0035587
inconsequential unbedeutende 0.0185185
inconsequential will 0.0000569
inconsequential dient 0.0005181
inconsequential Folge 0.0002483
inconsequential gewichtig 0.0400000
inconsequential inkonsequent 0.0109890
inconsequential belanglosen 0.1000000
inconsequential Beteuerungen 0.0166667
inconsequential weniger 0.0000941
B6 einmal 0.0000424
B6 Entschließungsantrag 0.0001065
B6 Haushaltslinie 0.0007148
B6 beeinträchtigend 0.5000000
B6 B6 1.0000000
0314 0314 1.0000000
Biopatnents Ziffer 0.0003289
Biopatnents heißt 0.0000944
Biopatnents unter 0.0000276
Biopatnents es 0.0000034
Biopatnents Biopatentrichtlinie 0.0500000
Village Village 0.5000000
Village Dorf 0.0053763
contras aufhalten 0.0016129
contras Kontras 0.5000000
contras KontraKontras 0.5000000
richer bereichern 0.0277778
richer reich 0.0171674
richer wohlhabender 0.0882353
richer irischen 0.0005362
richer bereicherten 0.1250000
richer ob 0.0000455
richer reichen 0.0044469
richer Reicheren 0.1111111
richer oder 0.0000312
richer braucht 0.0002753
richer reichere 0.6428571
richer während 0.0000669
richer vervierfacht 0.0250000
richer arm 0.0046729
richer immer 0.0001769
richer wohlhabendere 0.1666667
richer Aktionären 0.0156250
richer Reichtum 0.0052910
richer wohlhabenderes 0.2000000
richer weniger 0.0000941
richer reichhaltiger 0.5000000
richer innerem 0.1111111
richer einzubringen 0.0016051
richer Superreichen 0.2000000
richer intensiveren 0.0082645
richer umfangreicherer 0.0666667
richer deren 0.0000770
richer bereichert 0.0280899
richer leichten 0.0038023
richer zugleich 0.0001873
richer erzielt 0.0003660
richer NULL 0.0000018
richer neue 0.0000484
richer wohlhabenderen 0.1309524
richer Erweiterung 0.0000945
richer erfahren 0.0003874
richer reicherer 0.5000000
richer ärmeren 0.0031546
richer gewonnen 0.0010091
richer reicheren 0.5420561
richer Gebiete 0.0003239
richer vermehrt 0.0040984
richer unser 0.0000803
richer noch 0.0001378
richer mehr 0.0001057
richer Bereicherung 0.0088757
richer substantielleren 0.1666667
richer Reichsten 0.0243902
richer Reichen 0.0179641
richer reicher 0.3920455
richer reicheres 1.0000000
richer 28-Fache 0.1428571
richer reichsten 0.0454545
richer werdende 0.0059172
richer Schrotthändler 0.3333333
richer reiches 0.0149254
richer chancenreichere 0.3333333
richer vielfältigere 0.0416667
richer inhaltsreicher 0.0833333
richer Mafiaorganisationen 0.0263158
richer streben 0.0013605
richer vielseitiger 0.0270270
Kristoffersen mehr 0.0000211
Kristoffersen Leute 0.0004651
Kristoffersen Kristoffersen 0.5454545
Kristoffersen als 0.0000069
dwelling bin 0.0000371
dwelling NULL 0.0000013
dwelling auszudehnen 0.0016694
dwelling beschweren 0.0060606
dwelling eingehendere 0.0112360
dwelling Vergangenes 0.0526316
dwelling lohnte 0.0909091
dwelling aufzuhalten 0.0038462
dwelling verweilen 0.0192308
dwelling führen 0.0000762
dwelling darauf 0.0000259
dwelling absehen 0.0072993
dwelling Betrachtung 0.0027778
dwelling auszubreiten 0.0270270
dwelling aufhalten 0.0016129
dwelling näher 0.0003434
dwelling Ausführlichkeit 0.0208333
dwelling Verbesserung 0.0001263
dwelling drehen 0.0067568
dwelling sprechen 0.0000806
dwelling ausführlich 0.0009970
dwelling irgendeinen 0.0051020
dwelling später 0.0002691
pre-emptive Untersuchungshaft 0.0106383
pre-emptive Präventivkrieg 0.2625000
pre-emptive potentielle 0.0058480
pre-emptive Sinne. 0.5000000
pre-emptive vorausschauende 0.0217391
pre-emptive beherrscht 0.0029155
pre-emptive Präventivmaßnahmen 0.0032895
pre-emptive frühzeitige 0.0090090
pre-emptive vorherige 0.0027248
pre-emptive Eroberungskriege 0.2000000
pre-emptive einen 0.0000114
pre-emptive pre-emptive 1.0000000
pre-emptive präventives 0.1666667
pre-emptive präemptive 0.3333333
pre-emptive Präventivschlag 0.3333333
pre-emptive präemptiver 1.0000000
pre-emptive Feuerschneise 0.3333333
pre-emptive militärischer 0.0025510
pre-emptive vorbeugende 0.0317460
pre-emptive Präventivschlägen 0.0909091
pre-emptive erwogen 0.0040650
pre-emptive Präventivschläge 0.2666667
pre-emptive haltbare 0.1250000
pre-emptive verhütende 0.5000000
pre-emptive vorbeugenden 0.0352113
pre-emptive geplanten 0.0010965
pre-emptive Präventionskrieges 0.2500000
pre-emptive präventive 0.0054348
pre-emptive Präventivkrieges 0.2333333
pre-emptive Präventivkriegs 0.2400000
pre-emptive Präventivschlachtung 0.1666667
pre-emptive präemptiv 0.3333333
pre-emptive Präventivschlags 0.3333333
pre-emptive NULL 0.0000010
pre-emptive Gerichtsurteils 0.0333333
pre-emptive präventiven 0.0384615
pre-emptive vermittelbar 0.0136986
pre-emptive Vorfeld 0.0015314
pre-emptive findet 0.0000688
pre-emptive Abtreibungsverbot 0.5000000
pre-emptive Miniatomwaffen 0.2500000
pre-emptive kaum 0.0002543
pre-emptive Schläge 0.0238095
pre-emptive losschlagen 0.1250000
pre-emptive Vorverurteilung 0.0208333
pre-emptive Präventivkriegen 0.1250000
pre-emptive Präventivkriege 0.2413793
pre-emptive denn 0.0000282
pre-emptive durchführen 0.0004286
pre-emptive beeinträchtigende 0.2000000
pre-emptive präventiver 0.1190476
pre-emptive preemptive 0.5000000
pre-emptive Präventivkriegskonzept 0.3125000
pre-emptive einem 0.0000182
pre-emptive vorbeugendes 0.3333333
pre-emptive ' 0.0003105
Amalia Amalia 0.5714286
Wader Wader-Kunststoffspielzeug 0.2000000
Marché Euro-Nouveau 0.2500000
Marché NULL 0.0000003
Marché Bon-Marché- 0.5000000
Marché geleitet 0.0016367
Marché Marché 1.0000000
civil-military zivil-militärische 0.3000000
civil-military nennende 0.1666667
civil-military und 0.0000052
civil-military zivilen 0.0030581
civil-military zwischen 0.0001038
civil-military Zivilregierung 0.0149254
civil-military Zivilgesellschaft 0.0002687
civil-military Zivil-militärisch 1.0000000
civil-military dem 0.0000054
civil-military den 0.0000023
civil-military militärische 0.0006460
civil-military militärischen 0.0012987
civil-military Stellen 0.0010025
civil-military Militär 0.0049751
civil-military zivil-militärischen 0.4000000
civil-military zivile 0.0021692
scrapped bestimmte 0.0001690
scrapped vernichtet 0.0025974
scrapped ursprünglich 0.0006640
scrapped ausrangierter 1.0000000
scrapped abgeschafft 0.0112676
scrapped Abbau 0.0007220
scrapped verringert 0.0009653
scrapped ausgemustert 0.0476190
scrapped gezogen 0.0004615
scrapped streichen 0.0012346
scrapped führt 0.0001620
scrapped geworfen 0.0069204
scrapped Akten 0.0053191
scrapped verworfen 0.0132450
scrapped Forschen 0.3333333
scrapped fallenlassen 0.1666667
scrapped Tonnage 0.0163934
scrapped worden 0.0000428
scrapped Befreiung 0.0028736
scrapped eingestampft 0.2000000
scrapped Käfighaltung 0.0357143
scrapped Streichung 0.0028129
scrapped entsorgt 0.0058824
scrapped einschränkt 0.0058140
scrapped fallen 0.0003442
scrapped gelassen 0.0009337
scrapped trennen 0.0019194
scrapped verschrottet 0.4750000
scrapped Lotsendienst 0.0344828
scrapped verschrotteten 1.0000000
scrapped gestrichen 0.0205973
scrapped bewahrt 0.0031348
scrapped Verschrottung 0.0500000
scrapped Angebot 0.0009588
scrapped Planwirtschaftssystem 0.3333333
scrapped und 0.0000031
scrapped völlig 0.0002533
scrapped Abschaffung 0.0004390
scrapped gar 0.0001617
scrapped Ganzen 0.0011351
scrapped Verkehr 0.0002786
scrapped gut 0.0000662
scrapped mein 0.0001288
scrapped ohnegleichen 0.0400000
scrapped wieder 0.0000484
scrapped machen 0.0000432
scrapped damit 0.0000156
scrapped bestehen 0.0001254
scrapped gelegt 0.0004963
scrapped zurückziehen 0.0021882
scrapped geblieben 0.0009183
scrapped rauswerfen 1.0000000
scrapped verschrotten 0.0909091
scrapped teilzunehmen 0.0009320
scrapped Totalschaden 0.2500000
scrapped wird 0.0000109
scrapped hinfällig 0.0022026
scrapped ab 0.0000922
scrapped aufgegeben 0.0060362
scrapped Passage 0.0090090
scrapped Abwracken 0.0168067
scrapped abzubrechen 0.0178571
scrapped NULL 0.0000021
scrapped Aufhebung 0.0007353
scrapped verzichtet 0.0021459
scrapped freiheitsvernichtenden 0.5000000
scrapped Nachforschungen 0.0078740
scrapped größten 0.0003225
scrapped vorläufig 0.0017513
scrapped offensichtlich 0.0002083
scrapped abgebaut 0.0035971
scrapped abwracken 0.1538462
scrapped dass 0.0000040
scrapped ganz 0.0000330
scrapped wurde 0.0000489
scrapped SWP 0.0370370
scrapped werden 0.0000389
scrapped Strecke 0.0026810
scrapped Schluss 0.0003690
scrapped zurückgeschraubt 0.0232558
scrapped abgewrackt 0.2195122
scrapped ausgemusterter 0.2500000
scrapped abgewrackte 0.1666667
scrapped Abwrackmaßnahmen 0.0909091
scrapped ausrangiert 0.6250000
hotel-style Seniorenresidenzen 0.2000000
hotel-style können 0.0000133
hotel-style anbieten 0.0009852
hotel-style zu 0.0000021
hotel-style 6-Sterne-Hotel-ähnliche 1.0000000
Privé Privé 1.0000000
Privé public 0.0161290
Lehendakari Lehendakari 1.0000000
Komsomol heiligen 0.0144928
Komsomol dort 0.0000841
Komsomol abholzten 0.3333333
Komsomol Haine 0.3333333
Komsomol Komsomolzen 1.0000000
lumbar Leistenbrüche 0.2500000
lumbar ) 0.0000182
lumbar usw. 0.0001633
lumbar Lumbalschmerzen 0.2500000
mercury-mining Quecksilberbergbaus 1.0000000
mercury-mining Gebiete 0.0003239
mercury-mining des 0.0000026
dumpers deponieren 0.0666667
Brandt NULL 0.0000003
Brandt Brand 0.0079365
Brandt Brandts 0.3333333
Brandt Brandt 0.8823529
1785 Jahre 0.0000734
1785 1785 1.0000000
evasiveness Ausflüchte 0.0131579
evasiveness herausreden 0.0232558
evasiveness beantwortet 0.0004798
evasiveness ständigen 0.0008734
evasiveness Sie 0.0000155
evasiveness will 0.0000569
evasiveness Ausweichen 0.0769231
evasiveness ausweichenden 0.0909091
evasiveness Verhaltens 0.0045662
evasiveness Nicht-Antworten 0.5000000
Medvedjev entstehen 0.0003583
Medvedjev Medwedew 0.0204082
counter-claim Behauptung 0.0031596
counter-claim gegen 0.0000253
counter-claim also 0.0000366
counter-claim steht 0.0000699
UN-authorised Vereinten 0.0001896
UN-authorised ermächtigte 0.1428571
UN-authorised Nationen 0.0001590
UN-authorised von 0.0000029
toto niemals 0.0004585
toto übernommen 0.0003671
toto Gänze 0.0073529
toto angenommen 0.0001173
toto beigehalten 0.5000000
toto toto 0.3333333
toto mittels 0.0008403
toto insgesamt 0.0001055
toto Prognosetests 1.0000000
toto anzunehmen 0.0004615
toto Sicherheitsgarantien 0.0075758
over-protected geschützt 0.0005734
over-protected viel 0.0000443
over-protected Schutz 0.0000797
over-protected stark 0.0004441
over-protected geschützten 0.0062112
over-protected genießen 0.0009033
over-protected hohe 0.0003179
over-protected bevormundet 0.0454545
over-protected Arbeitnehmerschutzrechte 1.0000000
over-protected hier 0.0000164
over-protected zu 0.0000042
over-protected ; 0.0000481
Koltsidopoulos Student 0.0172414
Koltsidopoulos verlangen 0.0003521
Koltsidopoulos Koltsidopoulos 0.6666667
Bolkesteinise eine 0.0000038
Bolkesteinise abzielt 0.0010352
Bolkesteinise Bolkesteinsche 1.0000000
ALEGroup Freie 0.0026110
ALEGroup derjenige 0.0027701
ALEGroup Europäische 0.0000214
ALEGroup Allianz 0.0008921
55.5 bereitgestellt 0.0005266
55.5 rund 0.0008326
55.5 55,5 1.0000000
55.5 Landbevölkerung 0.0080000
55.5 55 0.0022026
reanalysed Ausgabenkapitel 0.1428571
152m Stauhöhe 0.2857143
152m bis 0.0000764
pubicly offen 0.0002286
ACS AKP-Abkommen 0.0416667
ACS AKP-Länder 0.0013245
ACS AKP-Staaten 0.0007042
ACS AKP-Ländern 0.0011962
Nik Nik 1.0000000
dually einigte 0.0103093
dually man 0.0000187
dually sowohl 0.0000775
dually doch 0.0000302
socio-health Gesundheitsversorgung 0.0017065
1638 / 0.0000419
1638 zurück 0.0003683
1638 98 0.0007837
1638 Nr. 0.0005226
1638 seither 0.0017036
1638 ) 0.0000363
1638 1638 1.0000000
1638 bezieht 0.0003937
1638 ( 0.0000361
1638 EG 0.0012232
over-implemented " 0.0000420
over-implemented six-pack 0.5000000
ICTR Anschuldigungen 0.0026810
ICTR Internationalen 0.0014019
ICTR Strafgerichtshof 0.0027548
ICTR lastenden 0.0476190
drochuair drochuair 0.5000000
drochuair bhí 0.5000000
drochuair an 0.0000080
gloves annehmen 0.0003690
gloves Handschuhen 1.0000000
gloves unsere 0.0000246
gloves essen 0.0028653
gloves Glacéhandschuhe 0.2000000
gloves anderen 0.0000300
gloves wir 0.0000027
gloves Handschuhe 0.5000000
gloves anfassen 0.0833333
gloves Auftreten 0.0020080
gloves angefasst 0.0909091
gloves unseriös 0.0166667
gloves Tisch 0.0005701
gloves Samthandschuhen 0.3333333
gloves Angeboten 0.0114943
gloves Boxhandschuhe 0.2500000
gloves dienen 0.0002962
gloves ab 0.0000922
gloves umgehen 0.0008203
gloves lassen 0.0000579
gloves auszuziehen 0.0909091
gloves Herausforderung 0.0003300
gloves anfasst 0.3333333
light-blue hellblaue 1.0000000
Zana- Zana- 1.0000000
2203 2203 0.5000000
Alexandros Herrn 0.0000285
Alexandros Alexandros 0.9375000
Leinen Leinen-Bericht 0.1428571
Leinen NULL 0.0000003
Leinen nichts 0.0000810
Leinen dürften 0.0011848
Leinen Lynne 0.0052356
Leinen sperrigen 0.5000000
Leinen Leinens 0.4545455
Leinen stammen 0.0011723
Leinen dahingehend 0.0008097
Leinen Herrn 0.0001425
Leinen Leine 0.1304348
Leinen Kollege 0.0004040
Leinen Berichterstatter 0.0000731
Leinen er 0.0000209
Leinen ausspricht 0.0030960
Leinen modifiziert 0.0133333
Leinen Kollegen 0.0000316
Leinen näher 0.0003434
Leinen Leinen 0.8000000
Leinen Bericht 0.0000153
Leinen entwirft 0.0333333
Leinen In 0.0020450
Leinen empfehlen 0.0008230
Leinen richten 0.0004088
Leinen Jo 0.1086957
exercise Verwirklichung 0.0005325
exercise Überschneidungen 0.0046083
exercise wachsam 0.0019455
exercise herumschlampt 0.2000000
exercise Ausüben 0.0909091
exercise gewährt 0.0004965
exercise Flaggenstaatkontrolle 0.1250000
exercise unterwerfen 0.0051948
exercise Bestandsaufnahme 0.0336323
exercise -sei 1.0000000
exercise Ziel 0.0000587
exercise ganze 0.0009926
exercise bezeichnet 0.0005754
exercise Rechtsausübung 0.5000000
exercise Akt 0.0111940
exercise diplomatischen 0.0016000
exercise Sports 0.0039062
exercise Koordinierung 0.0005318
exercise körperliche 0.0327869
exercise Maßnahme 0.0036436
exercise gewisse 0.0006079
exercise nehmen 0.0003746
exercise Gesetzgebungsorganen 0.0625000
exercise Gewaltausübung 0.1111111
exercise Aufsichtsfunktion 0.0666667
exercise geltend 0.0314465
exercise ohne 0.0000398
exercise wäre 0.0000632
exercise bei 0.0001171
exercise Planungsbeispiel 0.2500000
exercise Schritte 0.0002494
exercise beteiligen 0.0007846
exercise Amt 0.0006878
exercise Einsichtnahme 0.0270270
exercise unpraktisch 0.0400000
exercise ableitende 0.2000000
exercise Führungsstruktur 0.3333333
exercise Anhörung 0.0013414
exercise Verbindung 0.0003199
exercise organisatorische 0.0090909
exercise das 0.0000135
exercise Überprüfung 0.0025436
exercise exercise 0.5000000
exercise fordern 0.0001064
exercise tatsächliche 0.0013624
exercise Ganzen 0.0045403
exercise Dopingdebatte 0.5000000
exercise Charakter 0.0012495
exercise Prozess 0.0032244
exercise Präsidialrolle 0.1250000
exercise Selbstdisziplin 0.0303030
exercise anzuschließen 0.0020325
exercise Programmplanungsprozedur 0.5000000
exercise einzubinden 0.0030581
exercise zurückzuhalten 0.0166667
exercise Vorsicht 0.0091864
exercise Verantwortung 0.0001830
exercise können 0.0003451
exercise Reaktion 0.0004429
exercise Kontrolle 0.0021019
exercise verkaufen 0.0015175
exercise Machtausübung 0.1666667
exercise Operation 0.0043478
exercise intellektuelle 0.0131579
exercise Erfahrungsaustausch 0.0029155
exercise hoheitlicher 0.2000000
exercise dieses 0.0000171
exercise feierlicher 0.0333333
exercise freie 0.0009328
exercise scheinheilig 0.0070922
exercise Sache 0.0009012
exercise solide 0.0012151
exercise eigener 0.0021008
exercise Marktüberwachungsprozesses 0.3333333
exercise Tätigkeit 0.0013736
exercise Demagogie 0.0109290
exercise Maße 0.0002321
exercise Sevilla 0.0025063
exercise Tiefflugübung 0.5000000
exercise Grund- 0.0066667
exercise bringen 0.0002348
exercise Einfluß 0.0024213
exercise Unterfangens 0.0967742
exercise erhalten 0.0001668
exercise Hinsicht 0.0001705
exercise Vereinfachung 0.0005571
exercise Berufsausübung 0.0410959
exercise Sitzungspräsident 0.0065789
exercise eingeleitete 0.0056497
exercise Verantwortungsbereichen 0.0909091
exercise Deregulierungsaktion 0.5000000
exercise Autonomierechte 0.1000000
exercise Abstimmerei 0.2500000
exercise gebracht 0.0001453
exercise Altersgrenzen 0.0101010
exercise PR-Aktion 0.1250000
exercise Unterfangen 0.0578778
exercise konterkarieren 0.0250000
exercise durchzuführen 0.0013798
exercise Vorrecht 0.0084746
exercise Eintagsfliege 0.1000000
exercise Unterdrückungspolitik 0.0909091
exercise Screening-Maßnahmen 0.3333333
exercise Börsenwert 0.1250000
exercise Gründen 0.0001493
exercise auszuleben 0.1000000
exercise Projekts 0.0024907
exercise Unternehmens 0.0014948
exercise Risikoprofil 0.1428571
exercise „ 0.0001134
exercise Inanspruchnahme 0.0041408
exercise nützliche 0.0019120
exercise volles 0.0039216
exercise aufweisen 0.0015699
exercise niederschlagen 0.0048780
exercise Marküberwachung 1.0000000
exercise Haushaltsdisziplin 0.0040000
exercise wählen 0.0008811
exercise Herschieben 0.3333333
exercise ereilen 0.0416667
exercise Abnicken 0.1428571
exercise zunehmend 0.0004640
exercise Scheinpolitik 0.3333333
exercise ausübt 0.0426829
exercise ziehen 0.0001955
exercise gedenkt 0.0007315
exercise Übungsprogramm 0.5000000
exercise Hilfe 0.0000921
exercise Propagandaaktion 0.2500000
exercise nunmehr 0.0005760
exercise berechtigt 0.0012225
exercise Unternehmung 0.0444444
exercise fernen 0.0126582
exercise Kaschieren 0.3333333
exercise übernimmt 0.0010787
exercise Teilhabe 0.0037594
exercise daher 0.0000323
exercise Konsultation 0.0046823
exercise Betätigung 0.1111111
exercise unheilvolles 0.2000000
exercise dürfte 0.0004057
exercise Deregulierungsvorhaben 0.5000000
exercise absolutes 0.0062893
exercise Untersuchung 0.0011334
exercise denn 0.0000845
exercise Diskussion 0.0002799
exercise gezwungen 0.0004581
exercise willkürliche 0.0046083
exercise Bemühungen 0.0004512
exercise Neugewichtung 0.0294118
exercise Rechenübung 0.5000000
exercise Überwachungsprozess 0.0555556
exercise Erbringung 0.0026247
exercise durch 0.0000917
exercise Zwangsumbesetzung 0.2500000
exercise Vorschlag 0.0000694
exercise Schulterklopfen 0.0263158
exercise Einübung 0.2000000
exercise Machtwort 0.0833333
exercise Screenings 0.0500000
exercise Feinabstimmung 0.0285714
exercise sondieren 0.0153846
exercise Fall 0.0000532
exercise Beispiels 0.0181818
exercise Ertüchtigung 0.1000000
exercise mühsamen 0.0172414
exercise Biotechnologiebranche 0.1250000
exercise IV-Übung 0.2500000
exercise zusammenfinden 0.0185185
exercise Tautologie 0.0833333
exercise stoßen 0.0013624
exercise geht 0.0003191
exercise Ausnahme 0.0005420
exercise zensieren 0.0250000
exercise glaube 0.0000615
exercise Frage 0.0001278
exercise Ausgabendisziplin 0.0500000
exercise Überarbeitungsübung 0.3333333
exercise Unterwassersonarübung 0.2500000
exercise tun 0.0001346
exercise Vertragsänderungen 0.0044248
exercise bekleiden 0.0163934
exercise Anwendungsmodalitäten 0.0400000
exercise Ausübung 0.3018018
exercise Bewertungsinitiative 0.4000000
exercise Wiederholungsübung 0.1666667
exercise Veto 0.0034843
exercise zurückhalten 0.0087719
exercise Umfrageaktion 0.3333333
exercise Harmonie 0.0075758
exercise gearbeitet 0.0005305
exercise üben 0.0526316
exercise worum 0.0012121
exercise Zeichen 0.0008237
exercise Austausch 0.0013132
exercise durchführen 0.0017145
exercise gigantische 0.0112360
exercise von 0.0000058
exercise vorsichtig 0.0085890
exercise Nutzen 0.0003367
exercise kostensenkenden 0.5000000
exercise betrachtet 0.0002811
exercise agilen 0.3333333
exercise eigenständiger 0.0212766
exercise Praxis 0.0009315
exercise gemeinsam 0.0001105
exercise Revision 0.0006112
exercise kann 0.0000945
exercise auszuüben 0.1091371
exercise einer 0.0000182
exercise Regulierungsagenturen 0.0099010
exercise gebührend 0.0020325
exercise Öko-Weizen 0.3333333
exercise saubereKörperkultur 0.3333333
exercise Mikroorganismen 0.0151515
exercise Wettbewerbs 0.0007899
exercise gewagtes 0.2500000
exercise bißchen 0.0023981
exercise Wahltourismus 0.1111111
exercise unnatürlich 0.0526316
exercise Opt-out-Regelungen 0.1250000
exercise unwirksam 0.0076336
exercise Personalscreening 0.2857143
exercise lohnen 0.0056180
exercise Geschäftjahr 1.0000000
exercise anbelangt 0.0003476
exercise Meinungsbildungsprozess 0.0370370
exercise Konsultationsverfahren 0.0158730
exercise Gesundheitsbilanz 0.2000000
exercise Grundlage 0.0000929
exercise Gewohnheiten 0.0067114
exercise wahrnimmt 0.0109290
exercise Überwachung 0.0016415
exercise Bewegungsmangel 0.2608696
exercise Treu 0.0526316
exercise übt 0.0138889
exercise wahrnehmen 0.0679887
exercise Ganze 0.0074738
exercise Sparhaushalt 0.0133333
exercise uneingeschränkte 0.0011905
exercise Zynismus 0.0058480
exercise Manöver 0.0196078
exercise Bewegungsmangels 0.5000000
exercise Eulen 0.2000000
exercise mitzutragen 0.0103093
exercise Klärungsprozess 0.1666667
exercise Reformpolitik 0.0172414
exercise um 0.0000771
exercise Bemühung 0.0129870
exercise Probleme 0.0000574
exercise Koordinierungsaktion 0.3333333
exercise abgehakt 0.1111111
exercise Nutzung 0.0002649
exercise Wiederaufnahme 0.0012920
exercise Kristallkugel 0.0416667
exercise Ausbildungsaufgabe 0.5000000
exercise Haushaltsjahr 0.0036657
exercise Haushaltsplanung 0.0120482
exercise Kompromißübung 0.3333333
exercise Unternehmen 0.0000594
exercise bewusst 0.0002550
exercise Verfahren 0.0012495
exercise Krisensimulation 0.1428571
exercise schützen 0.0002504
exercise mitzuwirken 0.0026738
exercise SLIM-Übung 0.5000000
exercise Vorgang 0.0221675
exercise Sorgerechts 0.0476190
exercise beeinflussen 0.0017301
exercise Arbeiten 0.0004374
exercise Buchhaltung 0.0333333
exercise Selbstbewertung 0.0666667
exercise gelangen 0.0003526
exercise verwirklichen 0.0007962
exercise Mitsprache- 0.2500000
exercise sorgfältig 0.0012114
exercise ihrer 0.0000794
exercise Arbeitsbuch 0.5000000
exercise UN-Gewaltmonopols 0.1428571
exercise hochgeistigem 0.3333333
exercise Urteilsvermögen 0.0243902
exercise ständige 0.0011933
exercise Neufassung 0.0030581
exercise unsinnig 0.0039062
exercise Asylrechtverfahren 0.5000000
exercise Amadeus 0.1666667
exercise Schizophrenie 0.0222222
exercise nutzen 0.0024145
exercise verbrecherische 0.0158730
exercise fruchtbare 0.0057471
exercise Haushaltsverfahrens 0.0038835
exercise Anlaß 0.0008071
exercise Mal 0.0005684
exercise ihr 0.0002033
exercise Einzeltiere 0.2000000
exercise allzu 0.0003846
exercise unvollendeten 0.0833333
exercise tragen 0.0001619
exercise unnütze 0.0204082
exercise Kontrollmängeln 0.0909091
exercise Stadium 0.0015576
exercise Höchstmengen 0.0093458
exercise Frontloading 0.0357143
exercise klassifiziert 0.0263158
exercise Vorhabens 0.0075188
exercise Kontext 0.0007530
exercise wertvoller 0.0068966
exercise diplomatisch 0.0087719
exercise präsent 0.0019157
exercise funktionierende 0.0044543
exercise PR-Übung 0.4000000
exercise benutzen 0.0012092
exercise vorliegenden 0.0001887
exercise Doppelpass 0.5000000
exercise Studie 0.0009828
exercise miterlebt 0.0107527
exercise vorzunehmen 0.0029394
exercise keucht 0.1111111
exercise Verfahrens 0.0023529
exercise Test 0.0038760
exercise Bereitschaftsübung 0.5000000
exercise NATO-Übung 0.5000000
exercise Bewährungsprobe 0.0116279
exercise unangebracht 0.0064935
exercise Direktoriumsmitglied 0.0555556
exercise walten 0.0230415
exercise Durchsetzung 0.0020053
exercise unnötig 0.0016722
exercise Prozesses 0.0025974
exercise Veranstaltung 0.0140845
exercise Regulativfunktion 0.0555556
exercise klärt 0.0161290
exercise solle 0.0018762
exercise Personalscreenings 0.0833333
exercise Paradebeispiel 0.0270270
exercise Ziel-2-Programmplanungszeitraum 0.5000000
exercise seine 0.0000451
exercise theologische 0.0500000
exercise Ritual 0.0212766
exercise Gesprächen 0.0009794
exercise Körperertüchtigung 0.2500000
exercise verantwortungsbewusst 0.0041494
exercise Initiative 0.0006775
exercise parlamentieren 0.2000000
exercise Hegemonien 0.1000000
exercise tut 0.0003378
exercise Mäßigung 0.0241935
exercise Hülse 0.0294118
exercise Gedenken 0.0051020
exercise bench-marking 0.1000000
exercise Altersbegrenzungen 0.0312500
exercise Gesetzgebungsprogramms 0.0169492
exercise gehen 0.0001062
exercise eine 0.0001762
exercise vollstrecken 0.0217391
exercise Einsatz 0.0007782
exercise Problem 0.0000503
exercise deren 0.0002310
exercise kontrollieren 0.0207156
exercise Kosmetik 0.0250000
exercise NULL 0.0001280
exercise Zuhörens 0.0625000
exercise Durchführung 0.0014796
exercise souverän 0.0131579
exercise Recht 0.0000931
exercise Musterbeispiel 0.0081967
exercise stehenden 0.0004950
exercise Baseler 0.0131579
exercise Erdenkliche 0.0066225
exercise Aufräumaktion 0.2500000
exercise Sicherheitsaspekte 0.0087719
exercise Programmplanung 0.0184332
exercise Zurückhaltung 0.0257511
exercise Aufräumungsarbeiten 0.0555556
exercise Streben 0.0016155
exercise Testfall 0.0140845
exercise geschmackloser 0.0909091
exercise Exekutivgewalt 0.0277778
exercise Versachlichung 0.0909091
exercise achtsam 0.0769231
exercise zuzutrauen 0.1250000
exercise gute 0.0002433
exercise bewusste 0.0192308
exercise Routine 0.0289855
exercise Schritt 0.0003358
exercise Gebrauch 0.0342105
exercise Selbstzweck 0.0012346
exercise Aktivitäten 0.0005372
exercise abgehalten 0.0018904
exercise Arbeit 0.0004629
exercise Dekonzentration 0.0697674
exercise Weg 0.0000707
exercise ihre 0.0000229
exercise Zusammenschluss 0.0072993
exercise faszinierende 0.0434783
exercise Eigenständigkeit 0.0086207
exercise Ausgabenkürzung 0.0500000
exercise Marktüberwachungsprozess 0.3333333
exercise alle 0.0000400
exercise vermissen 0.0026596
exercise Mitentscheidung 0.0007353
exercise Konsolidierung 0.0015798
exercise Umdenken 0.0034722
exercise eröffnen 0.0017730
exercise Zusammenhang 0.0001200
exercise sportliche 0.0188679
exercise Dreierspiel 0.3333333
exercise Vernunftsgründen 0.1428571
exercise sinnlos 0.0063291
exercise VW-Werk 0.1666667
exercise Gestaltung 0.0021157
exercise Kosten-Nutzen-Verhältnis 0.0054945
exercise Erklärung 0.0001267
exercise praktizierter 0.1666667
exercise Gegenstand 0.0007171
exercise unnütz 0.0206186
exercise Slim 0.5000000
exercise erhöhter 0.0131579
exercise mitarbeiten 0.0052632
exercise Ressourcen 0.0002932
exercise KEDO-Problem 0.2500000
exercise Public-Relations-Aktion 0.2500000
exercise tatsächlich 0.0003386
exercise diese 0.0000085
exercise wachsamer 0.0232558
exercise screening-Untersuchung 0.5000000
exercise bestimmt 0.0004435
exercise hierbei 0.0004452
exercise Projekt 0.0011598
exercise vergnüglich 0.2500000
exercise AKP-Programmplanung 0.3333333
exercise SEM 0.0210526
exercise Mißbrauch 0.0019685
exercise Klärung 0.0027933
exercise erwartende 0.0208333
exercise lohnt 0.0014684
exercise unangenehme 0.0098039
exercise Kontrollmöglichkeiten 0.0233918
exercise gemäßigter 0.0333333
exercise Disziplinierungsgrad 0.2500000
exercise Gesamtbewertung 0.0151515
exercise Grippe-Simulationsübung 0.5000000
exercise vorne 0.0022075
exercise … 0.0043290
exercise Gesicht 0.0019048
exercise Dekonzentrationswelle 0.2000000
exercise treffen 0.0002145
exercise Stifte 0.2500000
exercise Übung 0.6769231
exercise Umverteilung 0.0053476
exercise wunderbare 0.0050761
exercise Benchmarking 0.0374332
exercise Abwägung 0.0070922
exercise Strafgerichtsbarkeit 0.0126582
exercise heuchlerischen 0.0512821
exercise Aufsichtsdurchführung 0.2500000
exercise Rechenexempel 0.3333333
exercise Kontrolleurs 0.2500000
exercise Routinearbeit 0.1428571
exercise propagiert 0.0075758
exercise vornehmen 0.0006006
exercise Art 0.0000862
exercise Prüfverfahren 0.0065359
exercise Phantasie 0.0058140
exercise Rolle 0.0001278
exercise ermitteln 0.0016978
exercise Instruments 0.0021645
exercise pochen 0.0136986
exercise statt 0.0001160
exercise Fingerübung 1.0000000
exercise Haushaltsrechten 0.2000000
exercise einschreiten 0.0076923
exercise beseitigendes 0.3333333
exercise obliegen 0.0063694
exercise Hauptzweck 0.0111111
exercise wertvoll 0.0066007
exercise praktizieren 0.0063694
exercise genommen 0.0003154
exercise statuieren 0.0526316
exercise Prozeß 0.0023935
exercise Klimaänderung 0.0015823
exercise gezogen 0.0009229
exercise Vorschlags 0.0003214
exercise erfüllen 0.0008997
exercise Pflichtübung 0.1111111
exercise Dossiers 0.0027397
exercise Rechtsetzung 0.0020429
exercise PR-Kampagne 0.0769231
exercise gelohnt 0.0084034
exercise ergeben 0.0012642
exercise Leitungsgremium 0.1111111
exercise Gleichgültigkeit 0.0041667
exercise einzubeziehen 0.0006361
exercise Funktionsregeln 0.0769231
exercise Grundrecht 0.0015798
exercise einlegen 0.0056180
exercise nützlich 0.0016878
exercise 1787 0.0833333
exercise Rechenaufgabe 0.3333333
exercise wahrzunehmen 0.0767888
exercise Untersuchungsausschuss 0.0027701
exercise Haushaltsentwurf 0.0036900
exercise dienlich 0.0041494
exercise Funktionen 0.0020661
exercise Kontrollmöglichkeit 0.0270270
exercise Angelegenheit 0.0019392
exercise Simulationsveranstaltung 0.5000000
exercise übernehmen 0.0011434
exercise Bewegung 0.0160000
exercise erfüllenden 0.0188679
exercise achten 0.0003647
exercise Haushaltsübung 0.3333333
exercise Vorhaben 0.0087137
exercise Einfluss 0.0020790
exercise Prüfung 0.0018643
exercise ausüben 0.1173736
exercise Umgangs 0.0052632
exercise Bewegungsarmut 1.0000000
exercise -Übung 0.3333333
exercise Vorgehen 0.0030960
exercise bewegen 0.0019130
exercise Bürgerdiplomatie 0.0714286
exercise Vorgehensweise 0.0033761
exercise exerzierte 0.2500000
exercise Dialog 0.0001426
exercise stärkeres 0.0033898
exercise machen 0.0022050
exercise sorgfältiges 0.1428571
exercise Entscheidungsfreiheit 0.0056818
exercise dazu 0.0000251
exercise Wahlmöglichkeit 0.0090909
exercise Weise 0.0002611
exercise Vorvermittlung 0.2500000
exercise wichtige 0.0000963
exercise Zweck 0.0007527
exercise Makulatur 0.0135135
exercise gestalten 0.0004077
exercise Waagschale 0.0107527
exercise Teilung 0.0025000
exercise Erarbeitung 0.0005173
exercise nur 0.0000134
exercise Werk 0.0019802
exercise herauszufinden 0.0019011
exercise Erkenntnisse 0.0012210
exercise Bekundung 0.0204082
exercise ihrerseits 0.0007262
exercise Überlegungen 0.0011534
exercise Vorgehens 0.0126904
exercise Aufgabe 0.0055995
exercise Außerordentliches 0.0454545
exercise halber 0.0044643
exercise welches 0.0011792
exercise Maßnahmen 0.0000622
exercise Möglichkeit 0.0000785
exercise Funktionieren 0.0013201
exercise propagandistischen 0.0555556
exercise Zuständigkeiten 0.0013680
exercise wiederholungswürdig 0.2000000
exercise besorgt 0.0004822
exercise Maß 0.0005353
exercise gegeben 0.0002565
exercise Aufräumarbeit 0.3333333
exercise extraterritoriale 0.0200000
exercise Aufsicht 0.0037879
exercise Abrechnungsübung 0.2000000
exercise Macht 0.0003036
exercise PR-Problem 0.5000000
exercise Kampfübung 0.3333333
exercise auszuführen 0.0043860
exercise Erfüllung 0.0016493
exercise was 0.0000423
exercise Experiment 0.0068966
exercise Staatssouveränität 0.1666667
exercise statistische 0.0088496
exercise betätigen 0.0144928
exercise nutzlos 0.0205479
exercise Training 0.0625000
exercise gewesen 0.0003248
exercise Ehrensache 0.0833333
exercise Wahrnehmung 0.0973783
exercise solche 0.0001517
exercise nachzukommen 0.0012837
exercise Propagandaübung 0.5000000
exercise diene 0.0270270
exercise Bedingungen 0.0001186
exercise angebracht 0.0004613
exercise übervorsichtig 0.0476190
exercise Erfahrungen 0.0002697
exercise wirklich 0.0001799
exercise Tatsache 0.0001081
exercise Aktion 0.0063547
exercise Entscheidungen 0.0001417
exercise ausschließliche 0.0037594
exercise PR-Instrument 0.3333333
exercise irgendeiner 0.0012690
exercise DAS-Prüfungen 0.1428571
exercise Federführung 0.0109890
exercise Diskussionsübung 0.5000000
exercise vorzugreifen 0.0126582
exercise gesund 0.0037313
exercise überhaupt 0.0001450
exercise beanspruche 0.0833333
exercise steuern 0.0062893
exercise Peer-Reviewgerecht 0.2000000
exercise Entlastungsverfahrens 0.0080000
exercise Thema 0.0000558
exercise hochpolitisch 0.0909091
exercise dabei 0.0003697
exercise Verteidigungssystem 0.0500000
exercise versetzen 0.0015649
exercise Schaffung 0.0002371
exercise überzusiedeln 0.5000000
exercise Rahmen 0.0003186
exercise Hauptziel 0.0017422
exercise Stilübung 0.1875000
exercise beanspruchte 0.0909091
exercise einzusetzen 0.0004405
exercise trockene 0.0285714
exercise vertragsgemäß 0.0263158
exercise UN-Partner 0.1666667
exercise großangelegte 0.0303030
exercise trägt 0.0006225
exercise Verantwortlichen 0.0013615
exercise Manipulationskampagne 0.5000000
exercise Ergebnis 0.0001241
exercise Beifallsübung 0.5000000
exercise übertragene 0.0106383
exercise -Einteilung 0.3333333
exercise Ernennungsbeschlüssen 0.2000000
exercise hier 0.0000819
exercise Mitgliedschaftsoption 0.1666667
exercise buchhalterische 0.0975610
exercise Haushaltsjahrs 0.0217391
exercise PR-Ereignis 0.3333333
exercise Leitsprüche 0.2500000
exercise ergreifen 0.0002053
exercise zusammenschreiben 0.1666667
exercise Führungskraft 0.0263158
exercise Selbstregelung 0.0769231
exercise umzugehen 0.0023256
exercise Versuch 0.0009634
exercise verzerrt 0.0047619
exercise handeln 0.0012494
exercise Zeit 0.0001266
exercise zufallende 0.0909091
exercise Ort 0.0004218
exercise Idee 0.0003638
exercise Courage 0.0227273
exercise Gedankenspiel 0.1111111
exercise Geltung 0.0071942
exercise arbeitsintensiv 0.0344828
exercise Geltendmachen 0.1666667
exercise Einflussnahme 0.0319149
exercise kosmetischen 0.0149254
exercise Belastung 0.0009588
exercise dürften 0.0023697
exercise Simulationsübung 0.4444444
exercise Abwägen 0.0227273
exercise SLIM-Initiative 0.0312500
exercise Zivilschutzübung 0.3333333
exercise Beispiel 0.0003155
exercise Vereinfachungsinitiative 0.5000000
exercise Papier 0.0025884
exercise Verwirrspiel 0.0625000
exercise Umschichtungsmaßnahmen 0.3333333
exercise NRO-Konsultation 0.3333333
exercise Aufgaben 0.0007084
exercise erfolgreicher 0.0025974
exercise Inhabers 0.0344828
exercise Möglichkeiten 0.0001332
exercise Industrieunternehmen 0.0068027
exercise Korrekturmaßnahme 0.2000000
exercise Verfahrensweise 0.0053050
exercise umzusetzen 0.0007005
exercise beispiellose 0.0072993
exercise abläuft 0.0042373
exercise Bevormundung 0.0108696
exercise Rechts 0.0012102
exercise Sandkastenspiel 1.0000000
exercise Umsetzung 0.0007016
exercise Bereinigung 0.0243902
exercise Ordnung 0.0004067
exercise kennenzulernen 0.0082645
exercise unbeachtet 0.0105263
exercise Anhörungen 0.0019157
exercise Nachdruck 0.0004931
exercise Urheberrechte 0.0059880
exercise Entlastungsverfahren 0.0045455
exercise sein 0.0003121
exercise In-Szene-Setzen 0.2500000
exercise Kodifizierungsarbeit 0.3333333
exercise Gehirnwäsche 0.0285714
exercise Einflussmöglichkeiten 0.0192308
exercise gerecht 0.0004428
exercise Wahlbeobachtungsmission 0.0037037
exercise Einmischung 0.0013947
exercise rationellere 0.0322581
exercise getan 0.0002993
exercise Treffen 0.0008100
exercise begrenzt 0.0007645
exercise sollte 0.0000882
exercise Wettbewerbskommissarin 0.0256410
exercise Papierverschwendung 0.2000000
exercise Kodifizierungsvorhaben 0.3333333
exercise Anspruch 0.0027710
exercise übliche 0.0042017
exercise ausgeübt 0.0033223
exercise Neuverteilung 0.0133333
exercise Sport 0.0031407
exercise Mindestmaß 0.0058480
exercise Gesamtbilanz 0.0416667
exercise dar 0.0001262
exercise macht 0.0002937
exercise Ermessen 0.0066007
exercise funktionsfähigen 0.0161290
exercise Förderung 0.0001128
exercise entzogen 0.0037313
exercise Auswahl 0.0011792
exercise bekommen 0.0001841
exercise Übungen 0.0400000
exercise Vetorecht 0.0020080
exercise Anwendung 0.0001208
exercise Konfliktverhütung 0.0023923
exercise Manövers 0.0833333
exercise Übungstiefflüge 0.1428571
exercise sie 0.0000140
exercise erfolgreiches 0.0053476
exercise bestimmen 0.0024896
exercise Sorgfaltspflicht 0.0108696
exercise EEF 0.0021322
exercise kostensensibel 0.2500000
exercise Wahlrecht 0.0015748
exercise Screening 0.0679612
exercise notwendigen 0.0002535
exercise Interessenlage 0.0357143
exercise gemacht 0.0000960
exercise Gesamtergebnisses 0.1111111
exercise Wirksamkeit 0.0015049
Intelligent Programms 0.0006605
Intelligent Europe 0.0072202
Intelligent intelligenten 0.0484848
Intelligent Initiative 0.0008130
Intelligent - 0.0000480
Intelligent " 0.0001470
Intelligent intelligenter 0.0073529
Intelligent „ 0.0004537
Intelligent für 0.0000111
Intelligent Nutzung 0.0005298
Intelligent intelligente 0.0320513
Intelligent Intelligente 0.6923077
Intelligent Notrufsystemen 0.3333333
Intelligent Programm 0.0005009
Intelligent Verkehrssysteme 0.0050251
Intelligent Intelligentes 0.2068966
Intelligent Intelligent 0.5000000
Intelligent ' 0.0003105
Intelligent Energie 0.0002204
cheques Negativsalden 0.1428571
cheques unterschreibt 0.0384615
cheques ungedeckte 0.1000000
cheques ausstellt 0.0800000
cheques Britenrabatt 0.0196078
cheques NULL 0.0000003
cheques ausstellen 0.0612245
cheques ihren 0.0000579
cheques Kartenzahlungen 0.1000000
cheques Finanztransfers 0.0476190
cheques trotz 0.0001500
cheques verteilen 0.0022779
cheques Blankovollmacht 0.0277778
cheques vom 0.0000245
cheques Scheckzahlungen 1.0000000
cheques ungedeckten 0.2000000
cheques gekürzt 0.0011211
cheques Instititutionen 0.2500000
cheques erinnern 0.0001583
cheques ausgegebenen 0.0149254
cheques finden 0.0000870
cheques ausschreiben 0.0416667
cheques ausgestellt 0.0056497
cheques geht 0.0000290
cheques vorzulegen 0.0002844
cheques Anordnungen 0.0270270
cheques Blankoschecks 0.2439024
cheques Schecks 0.5000000
batting überhaupt 0.0001450
batting ungerührt 0.0833333
batting nur 0.0000268
batting auch 0.0000093
batting abgeschlossen 0.0003382
batting mit 0.0000267
ânerie ânerie 0.3333333
ânerie ; 0.0000481
ânerie her 0.0005977
callout Notrufsystem 0.0303030
over-allocation übertriebenen 0.0080000
over-allocation ganz 0.0000330
over-allocation ausgeschlossen 0.0005385
over-allocation übermäßigen 0.0028571
over-allocation nicht 0.0000033
over-allocation Überallokation 0.6666667
over-allocation Zuteilung 0.0039841
over-allocation führten 0.0020325
over-allocation Mengenzuteilung 0.5000000
over-allocation Zuteilungen 0.0740741
over-allocation gebannt 0.0156250
over-allocation übermäßige 0.0030488
Pelopponese Peleponnes 0.2000000
Pelopponese welche 0.0000744
Pelopponese mit 0.0000045
intranational Landes 0.0001627
intranational Regionen 0.0001007
intranational unerheblich 0.0072464
intranational eines 0.0000182
intranational zwischen 0.0000259
intranational diese 0.0000085
intranational verschiedenen 0.0001106
quasi-Soviet quasi-sowjetischen 1.0000000
maladminstration Missstände 0.0040816
COMPAT COMPAT 1.0000000
COMPAT Neige 0.0384615
COMPAT langsam 0.0007622
COMPAT Zusammenhang 0.0000600
Jammu-Kashmir Dschamu-Kaschmir 0.5000000
Jammu-Kashmir genannt 0.0003846
SLIM-Intrastat besonderer 0.0005945
SLIM-Intrastat unter 0.0000276
SLIM-Intrastat Bereich 0.0000441
SLIM-Intrastat Berücksichtigung 0.0002326
SLIM-Intrastat SLIM-Intrastat-Initiative 0.1428571
2002-2009 2002-2009 1.0000000
equalled NULL 0.0000003
equalled Auswanderungszahlen 0.5000000
equalled gleichkommt 0.0064935
equalled Befrager 0.1666667
equalled hätten 0.0001254
equalled Sprache 0.0002834
equalled Estèvez 1.0000000
equalled Gesamtwachstum 0.0833333
equalled entsprechend 0.0001700
equalled ebenso 0.0000750
equalled wie 0.0000134
equalled denselben 0.0007236
equalled allgemeinverständlicher 0.1250000
equalled übertroffen 0.0105263
equalled noch 0.0000230
equalled eingeführt 0.0003281
equalled wurden 0.0000290
equalled gleiche 0.0002839
equalled Größenordnung 0.0027855
equalled Produktionsbeschränkungen 0.0303030
equalled konnten 0.0001629
equalled betrugen 0.0277778
equalled nirgendwo 0.0030675
pawn durchsichtige 0.2000000
pawn allzu 0.0003846
pawn erteilen 0.0005910
pawn Verhandlungstaktiken 0.3333333
pawn Schachfigur 0.6000000
pawn fremder 0.0416667
pawn zum 0.0000209
pawn Stabilisierungsstrebens 0.5000000
pawn Interessen 0.0001350
pawn Spielball 0.0720721
pawn Bauer 0.0303030
pawn Faustpfand 0.1111111
Diana Wallis 0.0037594
Diana dürfte 0.0004057
Diana Diana 0.6764706
Diana Anmerkungen 0.0005624
Diana hoffen 0.0001829
Diana von 0.0000087
Diana Lady 0.0588235
Diana Frau 0.0000605
Diana einige 0.0000333
cheaters Asylbetrüger 0.0833333
nostra ? 0.0000216
nostra wie 0.0000067
nostra patientia 0.5000000
Obviously Offensichtlich 0.0833333
Obviously besteht 0.0000453
Obviously NULL 0.0000003
Obviously Für 0.0062500
Obviously Selbstverständlich 0.0270270
Obviously selbstverständlich 0.0000754
Obviously Obviously 1.0000000
Substantially : 0.0000152
Substantially Substantially 0.4000000
Alstoms Alstoms 0.5000000
film-makers Filmproduzenten 0.0714286
film-makers Filmemachern 0.8000000
film-makers Filmschaffenden 0.3125000
film-makers NULL 0.0000003
film-makers Filmliebhaber 0.2000000
film-makers Filmunternehmen 1.0000000
film-makers Filme 0.0044643
film-makers Lehrenden 0.0344828
film-makers eigenen 0.0001006
film-makers Filmemacher 0.1739130
film-makers Dokumentarfilmer 0.5000000
film-makers Filmproduktionsfirmen 0.1428571
film-makers US-Filmmarkt 0.3333333
Interannual Mehrjahresprogramms 0.0121951
k k 0.0212766
Lawyers Rechtsanwälten 0.0192308
Lawyers Polizeistationen 0.0294118
Lawyers immer 0.0000295
Lawyers wieder 0.0000484
Lawyers Anwälte 0.0047619
Lawyers Anwaltskammer 0.0434783
wide-range unterschiedlichsten 0.0051282
wide-range Vielzahl 0.0005590
wide-range Palette 0.0062893
wide-range Bereichen 0.0001314
wide-range diversifizierte 0.0400000
wide-range breiten 0.0008873
wide-range Produktion 0.0003415
wide-range breite 0.0006390
satisfying wollen 0.0000267
satisfying dafür 0.0000252
satisfying stellenden 0.0196078
satisfying bemühen 0.0003015
satisfying Bedürfnis 0.0066225
satisfying Handelsboykotte 0.2000000
satisfying Sicherung 0.0015004
satisfying stellend 0.0130548
satisfying mich 0.0001069
satisfying gründlicherem 0.1111111
satisfying sehr 0.0000144
satisfying Einhaltung 0.0001783
satisfying zufriedenstellend 0.0019841
satisfying erfüllen 0.0002249
satisfying Grunde 0.0001912
satisfying sowohl 0.0000775
satisfying erfreulich 0.0049566
satisfying befriedigendes 0.1052632
satisfying gleichsam 0.0032468
satisfying abverlangt 0.0062112
satisfying freut 0.0005747
satisfying wichtigen 0.0001262
satisfying Schöneres 0.1428571
satisfying Gespräch 0.0016393
satisfying Westeuropäers 0.2000000
satisfying Forderungen 0.0005083
satisfying Hauptinstrument 0.0083333
satisfying befriedigen 0.0426540
satisfying etwas 0.0000896
satisfying denen 0.0000371
satisfying stellendes 0.0204082
satisfying folglich 0.0003554
satisfying Nebenbedingung 1.0000000
satisfying Trend 0.0023529
satisfying keine 0.0000211
satisfying Befriedigenderes 0.5000000
satisfying vorgetragenen 0.0034843
satisfying Polizeiführung 0.3333333
satisfying gegen 0.0000253
satisfying geeinigt 0.0009091
satisfying unbefriedigende 0.0125000
satisfying gut 0.0000662
satisfying befriedigendere 0.0909091
satisfying zufrieden 0.0044374
satisfying entgegenzukommen 0.0092593
satisfying um 0.0000450
satisfying auszuführende 0.2500000
satisfying zufriedenstellende 0.0062893
satisfying befriedigenden 0.0224719
satisfying Sättigung 0.0625000
satisfying Schienennetzwerke 0.3333333
satisfying Genugtuung 0.0070175
satisfying Grundbedürfnisse 0.0185185
satisfying nur 0.0000134
satisfying platonischen 0.1250000
satisfying erfreuliches 0.0357143
satisfying Befriedigung 0.0340426
satisfying freue 0.0001195
satisfying darum 0.0000628
satisfying Bedürfnisbefriedigung 0.2000000
satisfying befriedigend 0.0311111
satisfying oberflächlichen 0.0303030
satisfying NULL 0.0000039
satisfying Lebensabend 0.0263158
satisfying Notwendigkeiten 0.0054645
satisfying zufriedenzustellen 0.0294118
satisfying alltäglichen 0.0062500
satisfying Freude 0.0008285
satisfying Suchen 0.0909091
satisfying Deckung 0.0039370
satisfying sie 0.0000210
satisfying Freitagnachmittag 0.1666667
satisfying erfüllt 0.0005021
satisfying befriedigende 0.0080645
satisfying genügen 0.0018416
satisfying welche 0.0000744
satisfying schwer 0.0001945
satisfying Erfüllung 0.0071468
satisfying zufriedengestellt 0.0204082
satisfying vielen 0.0000997
satisfying Kompromissen 0.0034602
satisfying Zufriedenheit 0.0054054
H-0121 H-0121 1.0000000
RAL Zahlungen 0.0013569
RAL abzurechnende 0.3333333
RAL abzuwickelnden 0.0166667
RAL begleichenden 0.6666667
RAL Restmittel 0.0256410
RAL rein 0.0005750
RAL „ 0.0001134
RAL Verpflichtungen 0.0003606
RAL BNH 0.0121951
RAL RAL 0.1588785
RAL Rückstaus 0.2857143
RAL hängt 0.0003908
RAL bezeichnet 0.0005754
RAL RAL-Stau 1.0000000
RAL sogenannte 0.0012579
RAL Betrag 0.0007052
RAL Vergangenheit 0.0002539
RAL belaufen 0.0023641
RAL genannt 0.0003846
RAL Restsumme 0.1000000
RAL bestanden 0.0014006
RAL Rückstau 0.1176471
RAL anbelangt 0.0003476
RAL ausstehender 0.0588235
RAL logisch 0.0018051
RAL Restschuld 0.3636364
RAL “ 0.0001163
RAL abgebaut 0.0017986
RAL noch 0.0000230
RAL fordern 0.0001064
RAL RAL-Problems 0.2500000
RAL fiktiv 0.0400000
RAL ' 0.0001552
RAL RAL-Frage 0.3333333
Grôssetete Grossetête 0.0047170
Grôssetete NULL 0.0000003
Grôssetete bin 0.0000371
Grôssetete dafür 0.0000252
Whaling angehörenden 0.0068966
Whaling Walfischkommission 0.5000000
Whaling Walfangs 0.2500000
Whaling EU-Mitglieder 0.0091743
Whaling Walfangkommission 0.4705882
commuted Haft 0.0023697
commuted einfacher 0.0009515
commuted Aufhebung 0.0007353
commuted umgewandelt 0.0433213
commuted umzuwandeln 0.0053763
commuted Dokvadze 0.3333333
commuted Strafen 0.0014925
commuted andere 0.0000455
commuted können 0.0000133
commuted in 0.0000068
commuted Freiheitsbeschränkung 0.1428571
commuted Haftzeiten 0.0555556
commuted inzwischen 0.0002855
commuted Freiheit 0.0001855
commuted wurde 0.0000163
commuted Polizeiaufsicht 1.0000000
commuted ausgependelt 1.0000000
commuted Farbige 0.1111111
commuted aufgehoben 0.0024155
commuted lebenslängliche 0.1363636
commuted umgewandelten 0.3333333
commuted worden 0.0000428
commuted unter 0.0000276
gas-related Gas 0.0019084
gas-related Wirtschaftsabkommen 0.0178571
gas-related EU 0.0000273
gas-related zum 0.0000105
Mawudzuro Mawudzuro 1.0000000
feline dazu 0.0000251
feline bringen 0.0000783
feline Charaktere 0.1000000
feline muss 0.0000189
feline schlaue 0.1111111
non-Anglophone nicht-anglophonen 1.0000000
substituting workers 0.2000000
substituting ersetzen 0.0058182
substituting Stelle 0.0003658
substituting EU-Gelder 0.0077519
substituting durch 0.0002139
substituting geändert 0.0003876
substituting läßt 0.0004054
substituting gezielte 0.0023923
substituting Privatsysteme 0.2500000
substituting ihn 0.0001322
substituting erlebten 0.0062500
substituting Steuerformen 0.2500000
substituting ersetzbare 1.0000000
substituting Aufgaben 0.0002361
substituting erregende 0.0078740
substituting anstelle 0.0010718
substituting vertrete 0.0011025
substituting Weinmost 0.2500000
substituting Substitution 0.0267857
substituting Bestandteile 0.0027933
substituting NULL 0.0000003
substituting Umdenken 0.0034722
substituting unionsweit 0.0030960
substituting Handelsrecht 0.0238095
substituting insbesondere 0.0000298
substituting Landwirtschaftsentwicklungspolitik 0.2500000
substituting Ersetzung 0.0082645
substituting ersetzt 0.0008795
substituting stellvertretend 0.0098039
substituting zwingen 0.0010582
substituting work 0.0555556
substituting örtliches 0.1250000
substituting Westafrika 0.0049751
substituting force 0.0153846
substituting gefährlichere 0.0714286
substituting etwa 0.0001291
substituting folgende 0.0002966
substituting diesen 0.0000252
unrealistic wirklichkeitsfremdes 0.5000000
unrealistic Garantie 0.0008764
unrealistic realitätsfernen 0.2000000
unrealistic halten 0.0004347
unrealistic unverantwortliche 0.0103093
unrealistic irrealistischen 0.8000000
unrealistic unvernünftig 0.0096154
unrealistic erwarten 0.0003813
unrealistic für 0.0000083
unrealistic irreale 0.2000000
unrealistic sehr 0.0000288
unrealistic mangele 0.0588235
unrealistic hohen 0.0002903
unrealistic Grenze 0.0005807
unrealistic Bequemlichkeit 0.0192308
unrealistic unrealistischen 0.6666667
unrealistic unerfüllbaren 0.2000000
unrealistic irrealistisches 0.5000000
unrealistic bezeichnet 0.0005754
unrealistic irrealistisch 0.8571429
unrealistic Utopie 0.0084034
unrealistic nicht 0.0000879
unrealistic realisierende 0.1250000
unrealistic Mehrheit 0.0001295
unrealistic realitätsfremd 0.2000000
unrealistic spiegelt 0.0016340
unrealistic realistischen 0.0068493
unrealistic übertriebenen 0.0080000
unrealistic wahrscheinlich 0.0003012
unrealistic durchhalten 0.0204082
unrealistic reichlich 0.0028902
unrealistic ohne 0.0000398
unrealistic Traumtänzerei 0.1250000
unrealistic wäre 0.0000632
unrealistic irrealen 0.5000000
unrealistic Wirklichkeitsferne 0.3333333
unrealistic erscheint 0.0005175
unrealistic Forderungen 0.0002541
unrealistic utopisch 0.0312500
unrealistic unrealistischer 0.6111111
unrealistic phantasievoller 0.3333333
unrealistic vorkommen 0.0025381
unrealistic Vorstellung 0.0014025
unrealistic unrealistischsten 0.5000000
unrealistic keine 0.0000211
unrealistic Abgasnormen 0.0588235
unrealistic realitätsfern 0.1395349
unrealistic unrealistisches 0.5833333
unrealistic überzogenen 0.0151515
unrealistic völlig 0.0003799
unrealistic weit 0.0001163
unrealistic unrealistische 0.6875000
unrealistic Weltbild 0.0294118
unrealistic Falle 0.0002552
unrealistic Realität 0.0011621
unrealistic unmögliche 0.0149254
unrealistic überzogene 0.0116279
unrealistic Wirklichkeit 0.0006959
unrealistic Stelle 0.0001829
unrealistic Vorschlag 0.0000347
unrealistic realistisch 0.0243674
unrealistic einzureden 0.0416667
unrealistic hergeholt 0.0555556
unrealistic wenig 0.0001251
unrealistic irrealistische 0.3333333
unrealistic ich 0.0000029
unrealistic Betrachtungsweise 0.0066225
unrealistic wirklichkeitsfremd 0.1250000
unrealistic irreal 0.1111111
unrealistic herausgestellt 0.0014124
unrealistic vor 0.0000235
unrealistic unrealistisch 0.7039275
unrealistic ausfallen 0.0018975
unrealistic schürt 0.0120482
unrealistic Irrealismus 0.2000000
unrealistic Bedeutung 0.0000575
unrealistic Forderung 0.0001759
unrealistic mir 0.0000365
unrealistic Realitätsferne 0.1428571
unrealistic weltfremde 0.2222222
unrealistic illusorisch 0.0648148
unrealistic NULL 0.0000021
unrealistic praxisfern 0.1666667
unrealistic nachzuweisen 0.0042918
unrealistic Ordern 0.2000000
unrealistic unhaltbar 0.0049751
unrealistic unzureichend 0.0006614
unrealistic erhalten 0.0000834
unrealistic anzunehmen 0.0004615
unrealistic unseriös 0.0166667
unrealistic unsachgemäß 0.0384615
unrealistic unrealen 1.0000000
unrealistic schwer 0.0001945
unrealistic wirklichkeitsfern 0.3333333
unrealistic Realismus 0.0107914
unrealistic Haushaltsforderungen 0.1666667
unrealistic vorbei 0.0050934
unrealistic erfüllbaren 1.0000000
surges Industriezweig 0.0056818
surges einheimischer 0.0169492
surges sprunghafter 0.3333333
surges da 0.0000263
surges Anschwellen 0.0625000
surges ein 0.0000173
surges wenn 0.0000108
surges unvorhersehbar 0.0400000
surges falls 0.0005081
surges Anstieg 0.0005365
B6-0016 B6-0016 1.0000000
B6-0016 – 0.0000314
Solvay Solvay 1.0000000
Barkan Katzrin 1.0000000
Diffusion Ausstrahlung 0.0078740
Diffusion Werken 0.0093458
Diffusion zur 0.0000072
tautological Tautologien 0.5000000
tautological Tautologie 0.0833333
tautological wäre 0.0000316
Antiprohibitionist Antiprohibitionistischen 1.0000000
thirteen-point dreizehn 0.0052910
thirteen-point vorgelegt 0.0001407
thirteen-point Punkten 0.0003601
thirteen-point in 0.0000017
Woluwé Woluwe 1.0000000
Woluwé deutschsprachigen 0.0666667
Woluwé italienisch- 0.5000000
Woluwé von 0.0000058
Woluwé Woluwé 0.5000000
Woluwé erhalten 0.0000834
Woluwé Einzugsbereich 0.2500000
Woluwé Sektion 0.0384615
0.01 pro 0.0007372
0.01 0,1 0.0169492
0.01 einen 0.0000114
0.01 Wirkstoff 0.0526316
0.01 0 0.0141176
0.01 Promille 0.0128205
0.01 0,01 0.6666667
0.01 Höchstgrenzwerts 0.2000000
0.01 01 0.0172840
0.01 nur 0.0000134
0.01 Anteil 0.0003973
0.01 % 0.0000467
0.01 Milligrammwert 0.5000000
0.01 nun 0.0000412
0.01 denn 0.0000282
0.01 gehen 0.0001062
0.01 einem 0.0000182
0.01 hundertstel 0.2500000
0.01 davon 0.0000515
0.01 dabei 0.0000462
Benedict dargelegten 0.0023474
Benedict NULL 0.0000003
Benedict Benedikt 0.8518519
Benedict stellen 0.0000687
Benedict erörterte 0.0091743
Benedict Benedict 1.0000000
Benedict abgestimmt 0.0004103
Benedict allein 0.0001584
Benedict Reihen 0.0034483
Malloch Malloch 1.0000000
dent geschmälert 0.0104167
dent erschüttert 0.0025381
dent ist 0.0000028
dent nur 0.0000134
dent allenthalben 0.0098039
dent keinen 0.0000846
dent Tropfen 0.0091743
dent ein 0.0000058
dent heißen 0.0007855
dent daß 0.0000069
dent Abbruch 0.0058480
dent Ereignisse 0.0003630
dent worden 0.0000428
dent nehmendes 0.0500000
dent erheblich 0.0004505
valiantly unverdrossen 0.1666667
valiantly wacker 0.2857143
valiantly schon 0.0000398
valiantly tapfer 0.0833333
valiantly gegen 0.0000253
valiantly unternommen 0.0002730
valiantly beherzten 0.1428571
valiantly - 0.0000096
valiantly Zweistaatlichkeit 0.2000000
valiantly mutig 0.0054496
valiantly Versuch 0.0003211
valiantly ehrgeizige 0.0014388
valiantly sagte 0.0001389
400-hectare realisiert 0.0022422
one-stop-shop Pläne 0.0006761
one-stop-shop Errichtung 0.0005744
one-stop-shop Schaffung 0.0003557
one-stop-shop aufgewendet 0.0035842
one-stop-shop einzigen 0.0022202
one-stop-shop einer 0.0000454
one-stop-shop zentralen 0.0026858
one-stop-shop Anlaufstelle 0.0992366
one-stop-shop gehört 0.0001090
one-stop-shop Chartakonferenz 0.1111111
one-stop-shop basierendes 0.0344828
one-stop-shop Informationssystem 0.0018797
one-stop-shop ausgerichtet 0.0006072
one-stop-shop -Grundsatz 0.1428571
one-stop-shop -System 0.0169492
one-stop-shop Legislativpaket 0.0181818
one-stop-shop One-stop-shop 1.0000000
one-stop-shop Art 0.0000862
one-stop-shop enthalten 0.0001867
one-stop-shop zentrale 0.0025526
waste-incineration doch 0.0000302
waste-incineration Müllverbrennungsanlage 0.0625000
Oujda gebaut 0.0022173
Oujda Oujda 0.3333333
Oujda werden 0.0000039
hostage-takers Geiselnehmer 0.1764706
booth Französisch-Kabine 0.3333333
booth oben 0.0006887
booth Dolmetscherkabine 0.4000000
booth hinweisen 0.0001294
booth Dolmetschkabine 0.2500000
booth übersprungen 0.0526316
booth Englisch-Dolmetschkabine 0.3333333
booth Kabine 0.1538462
booth Wahlurnen 0.0123457
booth dort 0.0000841
booth etwas 0.0000448
booth Spanischkabine 0.3333333
booth übermitteln 0.0006281
cancels entzieht 0.0010515
cancels NULL 0.0000003
cancels beantragte 0.0142857
cancels dann 0.0000238
cancels fallen 0.0003442
cancels derart 0.0007205
cancels gestrichen 0.0010299
cancels beseitigt 0.0010893
cancels erhoben 0.0009191
cancels aufzuwiegen 0.1666667
cancels zunichte 0.0014993
cancels anzupflanzen 0.2500000
cancels aufzehrt 0.2000000
cancels neu 0.0002997
cancels werden 0.0000039
cancels aufgehoben 0.0012077
cancels ins 0.0001488
cancels einzurichten 0.0008658
cancels Euro-5-Verordnung 0.0454545
cancels eventuelles 0.0333333
cancels Gewicht 0.0006784
cancels hebt 0.0028571
cancels Benchmarksystem 1.0000000
cancels mit 0.0000089
cancels Umfang 0.0003561
debiting debiting 1.0000000
parrots Papageien 1.0000000
appreciable jetzt 0.0000288
appreciable the 0.0012484
appreciable beträchtlichen 0.0015873
appreciable bewirkt 0.0012151
appreciable erschöpft 0.0027778
appreciable erzielen 0.0002578
appreciable Umweltvorteile 0.0333333
appreciable state 0.0357143
appreciable nennenswerte 0.0413223
appreciable unzureichenden 0.0032787
appreciable bedeutenden 0.0009597
appreciable Einsparungen 0.0015924
appreciable EU-Mittelmeerpolitik 0.1666667
appreciable spürbaren 0.0245399
appreciable anerkennenswerten 0.0384615
appreciable Gegenzug 0.0028736
appreciable freigesetzt 0.0059172
appreciable beachtlichen 0.0057143
appreciable erhebliche 0.0020153
appreciable nennenswertem 0.0714286
appreciable merklich 0.0200000
appreciable Prozesstechniken 0.1666667
appreciable anerkennenswerte 0.0294118
appreciable bemerkenswerte 0.0069204
appreciable deutliche 0.0033223
appreciable NULL 0.0000013
appreciable of 0.0008432
appreciable Auftragskategorien 0.2500000
appreciable widerspricht 0.0009737
appreciable Reformprojekts 0.1666667
appreciable nennenswertes 0.1818182
appreciable beträchtliche 0.0017544
appreciable anerkennenswert 0.0131579
appreciable beachtliche 0.0028653
appreciable merkliche 0.0416667
appreciable vernachlässigende 0.0454545
appreciable anerkennenswertes 0.1666667
appreciable Dritter 0.0049751
appreciable einerseits 0.0001824
appreciable Anpassungsspielraum 0.1428571
appreciable spürbare 0.0171674
appreciable welcher 0.0004596
appreciable Maß 0.0005353
appreciable erheblichen 0.0016013
appreciable nennenswerten 0.0196078
appreciable Verwaltungsengpässe 0.3333333
appreciable brachte 0.0012937
appreciable anerkennens- 0.2500000
appreciable verkürzt 0.0056180
appreciable beträchtlichem 0.0091743
appreciable werden 0.0000039
appreciable spürbarer 0.0250000
appreciable bedeutenderen 0.0270270
appreciable Intensität 0.0048077
appreciable Vermittlung 0.0011099
appreciable einem 0.0000363
appreciable bewertet 0.0010604
appreciable maßgeblichen 0.0045872
appreciable beachtliches 0.0232558
appreciable wesentlichen 0.0005639
appreciable beachtenswert 0.0333333
appreciable minimalen 0.0104167
8 befassen 0.0002621
8 7 0.0008157
8 8.500 0.2857143
8 starke 0.0004829
8 Unternehmens 0.0014948
8 18 0.0005609
8 20.15 0.0555556
8 8.00 0.4166667
8 während 0.0000669
8 Schwerpunkt 0.0005754
8 20.00 0.5400000
8 ausstanden 0.1250000
8 20 0.0002430
8 mittragen 0.0043668
8 vorliegenden 0.0001887
8 heißt 0.0000944
8 Themenbereich 0.0093458
8 8000 0.3157895
8 Nr.8 0.5454545
8 48 0.0017153
8 8.August 0.3333333
8 bringt 0.0002535
8 8D 0.3333333
8 Senkung 0.0005970
8 Rechnungslegungsstandards 0.0066667
8 beschränke 0.0069444
8 8050 0.3333333
8 Live-8-Konzerten 0.2500000
8 achttausend 0.0909091
8 vorgesehen 0.0001643
8 7-8 0.2857143
8 Protokoll 0.0001987
8 Achterbande 0.5000000
8 Achte 0.0714286
8 8.12. 0.5000000
8 I-8 0.2500000
8 prinzipiell 0.0010616
8 -8 0.5000000
8 20.50 0.1250000
8 gefeiert 0.0095238
8 8.-12 1.0000000
8 um 0.0000064
8 vorschlägt 0.0007194
8 8500 0.5000000
8 bis 0.0000382
8 8. 0.8157895
8 d. 0.0002642
8 8-9 0.1428571
8 Vorschlages 0.0089286
8 Achttausender 0.3333333
8 800 0.0029326
8 8.000 0.3448276
8 regeln 0.0007052
8 Änderungsvorschlag 0.0017271
8 Vollstatus 0.2500000
8 NULL 0.0000101
8 8e 0.1428571
8 IFRS-8-Prozess 0.3333333
8 achtprozentigen 0.5000000
8 ansteigen 0.0032154
8 Artikel 0.0002918
8 9 0.0005692
8 8 0.8594970
8 acht 0.0489796
8 h. 0.0002496
8 enthalten 0.0001867
8 achtprozentige 0.5000000
8 COP-8-Konferenz 0.2500000
8 08.00 0.5000000
resonates Parmalat-Affäre 0.3333333
resonates stößt 0.0020704
resonates Nerv 0.0714286
resonates unserem 0.0001417
resonates Auswirkungen 0.0001081
resonates schwingt 0.0526316
resonates überall 0.0004136
resonates Tun 0.0060976
resonates eigentliches 0.0172414
resonates also 0.0000366
documentary dahinterstehenden 0.0769231
documentary Dokumentarist 1.0000000
documentary Dokumentarsendung 0.5000000
documentary children 0.0909091
documentary Bulgaria 0.2500000
documentary einzigen 0.0004440
documentary " 0.0000420
documentary Verwaltungsverfahren 0.0030303
documentary immensen 0.0053763
documentary Formalitäten 0.0070922
documentary Beurkundungen 0.3333333
documentary entsprechender 0.0015408
documentary s 0.0018868
documentary Ausstrahlung 0.0078740
documentary dokumentarischen 0.2000000
documentary Urkundenbeweise 0.4000000
documentary berichtet 0.0013158
documentary Fernsehreportage 0.1250000
documentary Dokumentarfilm 0.5862069
documentary dokumentiert 0.0052632
documentary nachweisen 0.0023585
documentary Quittungen 0.1428571
documentary Verwaltungsformalitäten 0.0243902
documentary Dokumentationen 0.0454545
documentary Dokumente 0.0019557
documentary Belegkontrollen 0.5000000
documentary NULL 0.0000013
documentary Dokumentations- 0.1666667
documentary Dokumentarfilms 0.8000000
documentary Belege 0.0128205
documentary Fernsehsendung 0.0487805
documentary verankert 0.0009058
documentary Nachweisdokumentation 0.2500000
documentary abandoned 1.0000000
documentary hohem 0.0007337
documentary Jahresmaßnahmen 0.2500000
documentary umfangreiches 0.0070423
documentary Beweismaterial 0.0178571
documentary Flughafenverbindungsbeamten 1.0000000
documentary verwandtschaftliche 0.1111111
documentary Vorlage 0.0005423
documentary Dokumentarfilme 0.1818182
documentary Dokumenten 0.0007179
documentary punktweise 0.2000000
documentary Fernsehdokumentationen 0.2857143
documentary BBC-Dokumentation 0.5000000
documentary Celex-Datenbank 0.3333333
documentary Dokumentationsanforderungen 0.2000000
documentary nachgewiesen 0.0036832
documentary Dokumentenanalyse 0.3333333
documentary Dokumentation 0.0347826
documentary angeprangert 0.0042194
documentary Wert 0.0003520
documentary Untersuchungsergebnisse 0.0142857
documentary Nachweis 0.0024876
documentary genannten 0.0001773
documentary Dokumentarfilmer 0.5000000
documentary ' 0.0000776
documentary Fernsehdokumentation 0.2500000
documentary dokumentarischem 0.2000000
geschlossenen geschlossenen 0.0041667
A6-0164 den 0.0000023
A6-0164 A6-0164 1.0000000
A6-0164 Bericht 0.0000153
reimporting verfassen 0.0036630
reimporting diese 0.0000085
reimporting Reimport 0.1111111
reimporting Informationsschriften 1.0000000
giros Gebühren 0.0012853
giros Transaktionen 0.0030211
terminals sea-Terminals 0.5000000
terminals Bahnumschlagplätze 0.2000000
terminals Ladeterminals 1.0000000
terminals Abfertigungsterminals 0.3333333
terminals Hafenterminals 0.5000000
terminals intermodal 0.0769231
terminals Busbahnhöfe 0.5000000
terminals Kombiterminals 0.3333333
terminals Breitband-Satellitenend- 0.3333333
terminals Buchungsterminals 0.5000000
terminals einlaufen 0.0909091
terminals herumgelaufen 0.3333333
terminals Datenstationen 0.5000000
terminals verbunden 0.0003123
terminals Terminals 0.8571429
terminals LNG-Terminals 0.3846154
terminals Vorhäfen 0.2500000
terminals Umschlaganlagen 0.2500000
terminals Vorhäfenregionen 0.3333333
terminals Umschlagplätze 0.3333333
terminals Umschlagsanlagen 0.5000000
terminals Mautsystemen 0.0384615
terminals Containerterminals 0.2500000
terminals Leistungskette 1.0000000
terminals sollen 0.0000680
terminals entlang 0.0045045
terminals Gasterminals 0.4000000
terminals NULL 0.0000008
terminals EU-Ölterminals 0.3333333
terminals Endgeräte 0.2142857
terminals Stahlterminals 0.5000000
terminals Ölhäfen 0.1250000
terminals wobei 0.0001604
terminals I-Terminals 0.5000000
terminals Flüssiggasterminals 0.2500000
terminals Seeterminals 0.5000000
terminals Modelle 0.0025316
terminals 3G-Endgeräte 0.5000000
terminals LkwAbfertigungsstationen 1.0000000
terminals Himmel 0.0032787
terminals Endstationen 1.0000000
terminals wichtiger 0.0001587
terminals verdunkelt 0.0833333
terminals Flughafenterminals 0.4000000
suckler-cow aber 0.0000121
suckler-cow Milchkuhprämien 0.1250000
suckler-cow PMTVA 0.5000000
suckler-cow uns 0.0000105
suckler-cow anstatt 0.0002679
Viriatu Viriatu-Pass 0.5000000
non-budgetary Fondstruktur 0.2500000
non-budgetary außerbudgetären 1.0000000
Bonn vorsieht 0.0004845
Bonn wollen 0.0000267
Bonn leeres 0.0106383
Bonn vertreten 0.0001873
Bonn Vereinbarung 0.0008246
Bonn Versprechen 0.0009372
Bonn geblieben 0.0009183
Bonn waren 0.0000698
Bonn erfüllen 0.0002249
Bonn SV 0.0009930
Bonn wirken 0.0010438
Bonn widmen 0.0006897
Bonn wirklich 0.0000600
Bonn erreicht 0.0001180
Bonn kein 0.0000553
Bonn Powers 0.2500000
Bonn Beschlüsse 0.0009188
Bonn äußerte 0.0030120
Bonn Bonn-Konferenz 0.4285714
Bonn beschreibt 0.0042194
Bonn Konferenz 0.0005881
Bonn möchte 0.0000055
Bonn NULL 0.0000005
Bonn erfolgreichen 0.0009443
Bonn Umsetzung 0.0000877
Bonn internationalen 0.0000850
Bonn Afghanistan-Konferenz 0.1111111
Bonn Verlauf 0.0007435
Bonn COP5-Konferenz 0.2000000
Bonn beschlossenen 0.0012690
Bonn Beschluss 0.0003701
Bonn unterstrichen 0.0008666
Bonn Stiefkind 0.0166667
Bonn einsetzt 0.0012255
Bonn gerichtet 0.0004975
Bonn EU-USA-Gipfel 0.0238095
Bonn betreffen 0.0003160
Bonn einem 0.0000363
Bonn Russen 0.0028571
Bonn Bonn 0.9589744
Bonn Bonner 0.8414634
Hager Hager 0.7500000
Hager stören 0.0043103
Hager Abgeordneter 0.0008885
Hager Aussagen 0.0007987
Hager Hagers 0.3333333
enigmatic verwirrende 0.0277778
enigmatic sibyllinischen 0.5000000
Interservice Arbeitsgruppe 0.0004739
Insolvency Insolvenz 0.0185185
Insolvency Insolvenzverfahren 0.0425532
Insolvency Insolvenzrichtlinie 0.0833333
Kiruna beruht 0.0003949
Kiruna nach 0.0000106
Kiruna auch 0.0000047
Kiruna Kiruna 0.5555556
Kiruna darauf 0.0000259
householder achte 0.0101010
householder stark 0.0002221
householder naturgemäß 0.0031646
householder Haushälter 0.0232558
householder darauf 0.0000259
householder sehr 0.0000144
fellow-President offensichtlich 0.0002083
fellow-President weil 0.0000346
fellow-President eingeschritten 0.0294118
fellow-President und 0.0000010
fellow-President – 0.0000314
fellow-President Kollege 0.0002020
compatriot Landsmannes 0.2142857
compatriot angeschlossen 0.0019380
compatriot Landsleuten 0.0169492
compatriot Kollegen 0.0000316
compatriot NULL 0.0000005
compatriot Landsleute 0.0076336
compatriot Landsmännin 0.3571429
compatriot Landsfrau 1.0000000
compatriot Landsmann 0.2250000
compatriot jemand 0.0004933
compatriot Beratungen 0.0006165
compatriot mir 0.0000365
compatriot – 0.0000314
compatriot Landsmanns 0.2857143
UPM-Kymmene UPM-Kymmene 0.4000000
UPM-Kymmene sich 0.0000057
UPM-Kymmene einigten 0.0131579
enterprise-driven unternehmerische 0.0055249
enterprise-driven geführt 0.0001419
enterprise-driven Handeln 0.0004523
non-papers verteilt 0.0007639
non-papers papers 0.1666667
non-papers Non-Papers 0.3333333
non-papers non-papers 0.2500000
non-papers non 0.0099010
non-papers Begriff 0.0004342
non-papers paper 0.1428571
C40203 C4-0203 0.3333333
C40203 Hinblick 0.0000910
Window Window 0.1666667
Jafari Jafari 1.0000000
ultra-technical zugleich 0.0001873
ultra-technical hochtechnischen 0.0400000
Brendan P. 0.0526316
Brendan Herrn 0.0000285
Brendan Brendan 0.9230769
Sabenas keine 0.0000211
Sabenas Sabenas 0.2500000
Sabenas allemal 0.0014837
Sabenas Sabena 0.0169492
Sabenas weiteren 0.0001708
Elio Elio 1.0000000
H-0805 Birgitta 0.0666667
H-0805 wurde 0.0000163
H-0805 H-0805 1.0000000
H-0805 übernommen 0.0003671
H-0805 Ahlqvist 0.0322581
H-0805 von 0.0000029
treaties befassen 0.0002621
treaties EU-Verträge 0.1686747
treaties Unionsverträgen 0.0714286
treaties WTO-Abkommen 0.0080645
treaties Unterzeichnung 0.0007837
treaties Vertrags 0.0015113
treaties vertragliche 0.0142857
treaties Konventionen 0.0089021
treaties Friedensverträge 0.0454545
treaties darstellt 0.0005918
treaties Verfassungsentwürfe 0.0833333
treaties Investitionsverträge 1.0000000
treaties solche 0.0000759
treaties Privatsektor 0.0026738
treaties unterzeichnet 0.0005339
treaties Vertragsschließungen 1.0000000
treaties lauten 0.0019455
treaties Umweltverträge 0.2500000
treaties Vertragslage 0.0833333
treaties beziehen 0.0004442
treaties anbelangt 0.0003476
treaties vertraglich 0.0207469
treaties UN-Verträgen 0.5000000
treaties Folgeverträge 0.5000000
treaties stehen 0.0001388
treaties Beitrittsvertrag 0.0072727
treaties findet 0.0001376
treaties drinstehen 0.0714286
treaties Grundlage 0.0000929
treaties Basisverträge 0.5000000
treaties Assoziierungsverträge 0.0303030
treaties EURATOM-Vertrag 0.0185185
treaties abzuschließen 0.0010173
treaties WIPO-Verträge 0.1250000
treaties Friedensverträgen 0.1666667
treaties dürfen 0.0000791
treaties Gegenstand 0.0003586
treaties unterschrieben 0.0030864
treaties Bestimmungen 0.0003168
treaties einsetzt 0.0012255
treaties Einzelverträgen 0.5000000
treaties Vertragswerken 0.5000000
treaties Grenzverträge 0.1666667
treaties Redebeitrag 0.0013870
treaties Vertragsverhandlungen 0.0277778
treaties Verträgen 0.1813187
treaties Gründungsverträge 0.1081081
treaties geben 0.0001076
treaties Grundsatzverträge 0.1250000
treaties Gesetzes 0.0020492
treaties Unionsvertrag 0.0060241
treaties Vertragsbestimmungen 0.0059524
treaties Beitrittsvertrags 0.0061728
treaties Teststoppabkommen 0.0714286
treaties System 0.0001228
treaties vorgesehene 0.0008749
treaties Vertragswerk 0.0243902
treaties eingeräumt 0.0006024
treaties Vertragsentwürfe 0.0714286
treaties zurückverweisen 0.0434783
treaties Übereinkommen 0.0053782
treaties vorgesehenen 0.0003451
treaties WIPO-Verträgen 0.2000000
treaties EUVerträge 0.5000000
treaties sehen 0.0001912
treaties Ausrufung 0.0131579
treaties EU-Abkommen 0.0322581
treaties Vertragsabschlusskompetenz 0.0714286
treaties Menschenrechtsübereinkommen 0.0217391
treaties steht 0.0000699
treaties Vertragsänderung 0.0033557
treaties widerspricht 0.0009737
treaties herausnehmen 0.0112360
treaties Römischen 0.0025974
treaties UNO-Menschenrechtsabkommen 0.2000000
treaties ILO-Abkommen 0.1428571
treaties bauen 0.0013755
treaties UN-Verträge 0.5000000
treaties sky 0.0666667
treaties Kooperationsabkommen 0.0009843
treaties wurden 0.0000581
treaties Beitrittsabkommen 0.1086957
treaties Verträge 0.1850205
treaties Einzug 0.0055556
treaties enthalten 0.0005602
treaties EU-Vertrag 0.0022422
treaties Besteuerungsvereinbarungen 0.3333333
treaties halten 0.0001087
treaties Menschenrechtsverträge 0.2307692
treaties NTM-Projekt 0.3333333
treaties EURATOM-Verträge 0.5000000
treaties erfolgen 0.0002413
treaties Garant 0.0046512
treaties Nachbarschaftsverträge 0.2500000
treaties bleiben 0.0001213
treaties Stoppverträgen 0.2500000
treaties Übereinkünfte 0.0107527
treaties Auslieferungsverträge 0.5000000
treaties treaties 0.5000000
treaties Friedensschluß 0.1111111
treaties Vertragsparteien 0.0024272
treaties Unterzeichnen 0.2000000
treaties sowohl 0.0000775
treaties bestehenden 0.0002300
treaties geschah 0.0014577
treaties Steuerabkommen 0.0500000
treaties neue 0.0000484
treaties Vertragsaushandlung 0.2500000
treaties Neuformulierung 0.0102041
treaties Dach 0.0031847
treaties Abrüstungsverträgen 0.5000000
treaties verankert 0.0009058
treaties Menschenrechtsabkommen 0.0740741
treaties Freihandelsverträgen 0.2500000
treaties Revisionsmechanismen 0.3333333
treaties Vertragsrevision 0.0634921
treaties WTO-Verträgen 0.1666667
treaties beizutreten 0.0021978
treaties Abkommen 0.0050617
treaties Menschenrechtskonventionen 0.0192308
treaties Vertragsrechtskonvention 0.0526316
treaties -Abkommen 0.0434783
treaties IAO-Übereinkommen 0.0138889
treaties kommt 0.0000776
treaties betreffen 0.0003160
treaties Vertrages 0.0007716
treaties angewiesen 0.0011507
treaties ausarbeiten 0.0023148
treaties Grenzverträgen 0.5000000
treaties unterliegen 0.0005587
treaties Umweltvereinbarungen 0.0101010
treaties Gemeinschaftsverträgen 0.1000000
treaties anerkennst 0.3333333
treaties EU-Verträgen 0.0606061
treaties Auslandsverträge 0.5000000
treaties Erweiterungsverträge 0.2307692
treaties zählen 0.0005747
treaties Unionsverträge 0.1052632
treaties Beitrittsverträge 0.2888889
treaties hält 0.0003081
treaties Besteuerungsabkommen 0.1428571
treaties Gründungsverträgen 0.2250000
treaties Beitrittsverträgen 0.1869919
treaties abschließen 0.0011013
treaties geschlossen 0.0005920
treaties letztgenannten 0.0059880
treaties Vertragsrecht 0.0130719
treaties Gemeinschaftsverträge 0.0869565
treaties völkerrechtliche 0.0114943
treaties Vertragsänderungen 0.0132743
treaties Religionsfragen 0.1428571
treaties NULL 0.0000137
treaties Nichtweiterverbreitungsabkommen 0.3333333
treaties Vertrag 0.0012702
treaties vorzusehen 0.0013587
treaties Vertragsunterzeichnung 0.0526316
treaties Vertragsgrundlagen 0.1000000
treaties anstehen 0.0049261
treaties Auslieferungsabkommen 0.0125000
treaties EG-Vertrag 0.0015140
treaties -verträge 0.4000000
treaties Lusaka 0.0142857
treaties Vertragsunterzeichnungen 0.2000000
treaties Vereinbarungen 0.0026149
treaties Genüge 0.0054348
treaties Verfassungsverträge 0.5000000
treaties Auslieferungsvereinbarungen 0.0714286
treaties Erweiterungsverträgen 0.3250000
treaties Auslieferungsverträgen 0.5000000
Observers beiwohnen 0.0142857
Observers hatten 0.0001356
Observers Sitzung 0.0001725
Observers dürfen 0.0000791
Observers Beobachtern 0.0083333
Observers Beobachter 0.0053763
Observers Beobachterdelegation 0.0222222
Ionic ionische 1.0000000
loftily Bürger 0.0000384
loftily überhören 0.1000000
loftily gut 0.0000662
constitutionalises den 0.0000023
constitutionalises konstitutionalisiert 0.6666667
4094 / 0.0000839
4094 40 0.0008576
4094 94 0.0072202
intrepid Entdeckergeist 0.5000000
intrepid unerschrockenen 0.2857143
intrepid Verurteilungen 0.0053763
intrepid unerschrockene 0.5000000
intrepid zweifellos 0.0001901
intrepid plakativen 0.2000000
lifebuoys Rettungsanker 0.0384615
doomsayers allen 0.0000446
doomsayers Schwarzmaler 0.1111111
doomsayers Unkenrufen 0.1428571
doomsayers Trotz 0.0067114
doomsayers zum 0.0000105
coreless ausweichende 0.0769231
coreless gehaltlose 0.5000000
EU-EuroMed Gipfeltreffen 0.0006154
EU-EuroMed Europa-Mittelmeerraum 0.0285714
road-transport Straßenverkehrssektor 0.0337079
road-transport beschäftigten 0.0451128
road-transport Straßengüterverkehr 0.0060606
road-transport beschäftigtem 1.0000000
road-transport im 0.0000100
road-transport Fahrpersonals 0.1395349
road-transport Zahlungsart 0.3333333
road-transport Fahrpersonal 0.0833333
road-transport unterstreicht 0.0012300
road-transport Straßenverkehr 0.0060137
price-fighters Billiganbieter 0.1250000
environs Umfeld 0.0016194
environs Umgebung 0.0088106
environs kommen 0.0000663
environs Ausdruck 0.0000957
environs zum 0.0000105
environs Nähe 0.0009709
environs Afghanistanveteran 0.3333333
environs aufstellen 0.0023148
wellqualified auch 0.0000047
hulled handelt 0.0000845
hulled Doppelhüllenschiffe 0.0666667
hulled zurückgehen 0.0024570
spectra Funkfrequenzen 0.0219780
spectra Spektren 0.5000000
spectra Frequenzen 0.0109290
spectra Bezug 0.0000997
spectra zugewiesen 0.0026738
slavishly sklavisch 0.2000000
slavishly bekämpft 0.0010438
slavishly servil 0.5000000
slavishly vorhandenen 0.0007267
slavishly beim 0.0000640
slavishly künftighin 0.1666667
slavishly Weise 0.0000653
slavishly Mustern 0.0129870
slavishly ergebenen 0.1428571
slavishly Verkettungen 0.3333333
slavishly Aggressionskrieg 0.0909091
slavishly BSE-Thematik 0.0909091
slavishly EU-Ausschuß 0.3333333
slavishly ergeben 0.0004214
slavishly willfährig 0.0833333
slavishly wissen 0.0000534
slavishly sklavische 0.1428571
refuellers Betankungsfirmen 1.0000000
refuellers usw. 0.0001633
refuellers Versorgungseinrichtungen 0.0285714
cola Cola 0.1428571
EU-Mercosur zwischen 0.0001556
EU-Mercosur befürwortet 0.0005005
EU-Mercosur Unternehmerforums 0.2000000
EU-Mercosur Aushandlung 0.0040816
EU-Mercosur EU-Mercosur 0.1000000
EU-Mercosur EU-Mercosur-Abkommens 0.1666667
EU-Mercosur Union-Mercosur 0.2857143
EU-Mercosur Mercosur-EU 0.5000000
EU-Mercosur EU 0.0002188
EU-Mercosur befindliche 0.0053191
EU-Mercosur und 0.0000093
EU-Mercosur Mercosur 0.0294118
EU-Mercosur Abkommen 0.0001055
EU-Mercosur Europäische 0.0000428
EU-Mercosur Union 0.0000105
EU-Mercosur dem 0.0000430
EU-Mercosur EU-MERCOSUR-Abkommens 0.5000000
EU-Mercosur Europäischen 0.0000119
practicalities Praxis 0.0006986
practicalities sides 0.1428571
practicalities Ausführung 0.0008389
practicalities übergehen 0.0014104
practicalities ob 0.0000455
practicalities Aspekte 0.0003584
practicalities praktizierbar 0.1666667
practicalities two 0.0666667
practicalities realen 0.0015773
practicalities Koordinierungssitzung 0.2500000
practicalities technische 0.0007840
practicalities konkret 0.0006146
practicalities Arbeit 0.0000386
practicalities Einzelheiten 0.0015785
practicalities funktionieren 0.0005862
practicalities praktischer 0.0032154
practicalities Mindestanzahl 0.0277778
practicalities geht 0.0000290
practicalities wird 0.0000054
practicalities Betrachtungsweise 0.0066225
practicalities Feinheiten 0.0217391
practicalities Frage 0.0000256
practicalities rentabelste 0.1428571
practicalities Notwendigen 0.0454545
practicalities NULL 0.0000010
practicalities of 0.0008432
practicalities abgleiten 0.0312500
practicalities bringt 0.0002535
practicalities Seite 0.0005397
practicalities Modalitäten 0.0104712
practicalities tätigen 0.0014493
practicalities bezüglich 0.0001527
practicalities Durchführung 0.0002114
practicalities Liquiditätsversorgung 0.0714286
practicalities Anwendbarkeit 0.0084746
practicalities praktischen 0.0071315
practicalities führen 0.0000762
practicalities ließen 0.0019380
practicalities technischen 0.0003313
practicalities Zwänge 0.0041152
practicalities Umsetzungsmöglichkeiten 0.0909091
practicalities Internet-Fragen 0.5000000
practicalities Behördenverfahren 0.1666667
practicalities gerade 0.0000638
practicalities Seiten 0.0002151
practicalities industry 0.0909091
practicalities Pragmatik 0.1111111
practicalities praktische 0.0065502
practicalities Durchführbarkeit 0.0086957
practicalities gefühlsorientierten 0.2000000
practicalities auszusehen 0.0185185
practicalities Flugbetrieb 0.0769231
practicalities eigentliche 0.0008666
Hoop Hoop 1.0000000
Siwiec Siwiec 1.0000000
Siwiec geleitet 0.0016367
customised jene 0.0002422
customised angepasste 0.0250000
customised kundengebundenen 1.0000000
customised kundengebundene 1.0000000
customised genau 0.0000820
customised individuellen 0.0019380
customised angelegt 0.0018939
customised maßgeschneiderten 0.0909091
customised versenden 0.0285714
customised Heranführungsstrategie 0.0043103
customised maßgeschneiderte 0.0434783
customised Merkmale 0.0018727
customised individuellere 0.5000000
customised maßgeschneidertes 0.2000000
customised individualisierte 0.1666667
customised zugeschnittenen 0.1333333
customised benutzerfreundlich 0.0476190
mass-produce halten 0.0001087
mass-produce verarbeitet 0.0056497
mass-produce Primärprodukte 0.0625000
mass-produce Massenproduktion 0.0200000
mass-produce daraus 0.0002143
mass-produce Leben 0.0001370
mass-produce standardisiert 0.0384615
mass-produce Massenerzeugnisse 0.3333333
dissociated destruktiven 0.0250000
dissociated NULL 0.0000008
dissociated Kriminalitäten 0.5000000
dissociated wieder 0.0000484
dissociated getrennt 0.0101892
dissociated auskommt 0.0400000
dissociated irgendwelchen 0.0056818
dissociated trennen 0.0038388
dissociated wiewohl 0.0120482
dissociated anderem 0.0002086
dissociated Bahn 0.0032051
dissociated vom 0.0000245
dissociated desolidarisierten 0.2500000
dissociated abgetrennt 0.0200000
dissociated abgekoppelt 0.0735294
dissociated distanzierte 0.1666667
dissociated abgegangen 0.0312500
dissociated losgelöst 0.0117647
dissociated Acht 0.0010929
dissociated Ländernamen 0.2500000
dissociated abgegrenzt 0.0125000
dissociated NRO-Treffens 0.1666667
dissociated distanziert 0.0294118
dissociated unter 0.0000276
dissociated Beschluß 0.0005066
dissociated betrachtet 0.0008432
dissociated Nuklearsektors 0.0400000
dissociated unabhängig 0.0010753
dissociated davon 0.0001029
SMBs kleinerer 0.0075188
SMBs KMI 0.2500000
SMBs einsetzen 0.0002431
SMBs Bedürftigere 1.0000000
SMBs KMU 0.0017289
SMBs Kollektivsysteme 0.3333333
SMBs Marktanalyse 0.0833333
fobbed vertrösten 0.0666667
fobbed seiner 0.0000653
fobbed NULL 0.0000003
fobbed Globalabstimmung 0.5000000
fobbed abgespeist 0.2631579
fobbed vertröstet 0.1000000
fobbed läßt 0.0004054
fobbed einfordert 0.0192308
fobbed Dumpinglöhnen 0.5000000
fobbed abbringen 0.0094340
fobbed heute 0.0000244
fobbed Vertröstung 0.1428571
fobbed kategorischer 0.1250000
fobbed Mogelpackung 0.0416667
fobbed Absicht 0.0003587
fobbed wesentlich 0.0002217
fobbed lassen 0.0001158
fobbed reine 0.0016892
fobbed Hirngespinsten 0.0526316
fobbed worden 0.0000428
fobbed abspeisen 0.1219512
fobbed beschwichtigt 0.0625000
C6-0114 C6-0114 1.0000000
tangential gehört 0.0001090
tangential emotionelle 0.5000000
post-reunification Nachwendezeit 0.2500000
post-reunification Aufbauwerkes 0.0909091
transcribed biannual 0.2500000
transcribed NULL 0.0000003
transcribed Wortlautes 0.0588235
transcribed übermittelten 0.0062112
transcribed ihm 0.0001236
proclamation Verlautbarung 0.0625000
proclamation dank 0.0003466
proclamation Rahmen 0.0000455
proclamation Unterzeichnung 0.0007837
proclamation proklamiert 0.0163934
proclamation Ankündigungen 0.0050000
proclamation Donnerhall 0.2000000
proclamation Personenwahl 0.1428571
proclamation Unabhängigkeitserklärung 0.0485437
proclamation Veröffentlichung 0.0012392
proclamation EU-Menschenrechtscharta 0.1666667
proclamation Ankündigung 0.0078431
proclamation feierlichen 0.0052632
proclamation beweist 0.0010384
proclamation Bekanntgabe 0.0416667
proclamation lehrerhaft 0.3333333
proclamation Bekundung 0.0204082
proclamation Sinn 0.0002790
proclamation Anfangsmoment 0.5000000
proclamation Ausrufung 0.1842105
proclamation Ernennung 0.0012531
proclamation NULL 0.0000005
proclamation Grundsatzerklärung 0.0161290
proclamation abgegebene 0.0079365
proclamation Schönwetterprognose 1.0000000
proclamation feierlich 0.0102041
proclamation Erklärung 0.0008870
proclamation Verkündung 0.1449275
proclamation Proklamierung 0.7000000
proclamation danach 0.0003407
proclamation Verhängung 0.0034014
proclamation Proklamation 0.6041667
Mauritanians verfolgt 0.0002489
Mauritanians Mauretaniern 0.2222222
Mauritanians Mauretanier 0.1000000
Mauritanians Nahrungsmittel- 0.0227273
Mauritanians neutralem 0.5000000
Mauritanians Mauretanern 0.3333333
Mauritanians Mauretanien 0.0037175
Mauritanians Ausland 0.0009042
recalculation ab 0.0000922
recalculation Neuberechnung 0.2857143
recalculation folglich 0.0003554
recalculation Bemessungsgrundlage 0.0053763
safest größte 0.0007153
safest sicher 0.0000954
safest bestmöglichen 0.0021008
safest höchsten 0.0011173
safest Lebensmittelangebot 0.2000000
safest bestünde 0.0022321
safest sichere 0.0022779
safest irgend 0.0022573
safest Tunnel 0.0125786
safest anzweifelt 0.0526316
safest Lebensmittelkontrollsysteme 0.2500000
safest nur 0.0000134
safest abwerfende 0.5000000
safest fraglos 0.0040486
safest Beförderungsdistanz 0.1428571
safest Beförderungsart 0.0178571
safest Sicherheitsbedingungen 0.0070922
safest maximale 0.0034364
safest gefahrlosesten 1.0000000
safest Lebensmittelkontrollsystem 0.2500000
safest NULL 0.0000008
safest Kapitalanlage 0.2000000
safest Sicherste 0.6666667
safest am 0.0000224
safest Sicherheit 0.0000565
safest Beförderungsunternehmen 0.0071429
safest kleinere 0.0019048
safest möglichst 0.0002733
safest sicherste 0.4315789
safest Lebensmittelsicherheitsbehörde 0.0208333
safest Ort 0.0002109
safest sicherer 0.0013928
safest entsorgen 0.0111111
safest schonendsten 0.2500000
safest Pilot 0.0238095
safest sichersten 0.6708861
43.9 kommt 0.0000776
43.9 43,9 1.0000000
43.9 Marktanteil 0.0052910
two-week beide 0.0002421
two-week Verlängerung 0.0009074
two-week Umsatzeinbruch 0.1666667
two-week um 0.0000064
two-week Seiten 0.0002151
two-week zweiwöchigen 0.1818182
two-week Wochen 0.0003925
two-week Australien-Urlaub 0.3333333
two-week geltende 0.0014815
two-week vierzehntägigen 0.3333333
two-week zwei 0.0001033
ill-educated schlecht 0.0005076
ill-educated ausgebildet 0.0045455
ill-educated wenigsten 0.0010718
ill-educated verstädtert 1.0000000
A380 A 0.0021097
A380 geopfert 0.0035587
A380 Auslieferungsverzögerung 0.2500000
A380 starke 0.0004829
A380 beim 0.0001281
A380 A380 1.0000000
A380 Rolle 0.0000639
A380 A-380 1.0000000
A380 380 0.0153846
A380 Fabrikation 0.1250000
Hans-Peter Kollegen 0.0000632
Hans-Peter NULL 0.0000003
Hans-Peter : 0.0000304
Hans-Peter Martin 0.0017637
Hans-Peter rausgehen 0.1428571
Hans-Peter Mayer 0.0406504
Hans-Peter gegenüber 0.0000574
Hans-Peter Ferber 0.0033784
Hans-Peter öfter 0.0025445
Hans-Peter Hans-Peter 0.5937500
Hans-Peter Herrn 0.0000285
Hans-Peter gegeben 0.0001283
A6-0087 A6-0087 1.0000000
defect-free mangelfreies 1.0000000
hops deren 0.0000770
hops NULL 0.0000008
hops ungültig 0.0073529
hops Hopfen 0.7021277
hops Hopfenverordnung 0.2500000
hops Wirkung 0.0005038
hops Hopfenfläche 0.3333333
hops dazugelernt 0.0416667
hops Hopfensektors 0.5000000
hops grundsätzlich 0.0003231
hops liberalisiert 0.0041494
hops Preisverfalls 0.1111111
hops völlig 0.0001266
hops gewordenen 0.0063694
hops Hopfenarten 1.0000000
hops stattfinden 0.0002231
hops Falle 0.0002552
hops Hopfenmarktes 0.2500000
hops überein 0.0005086
hops stetigen 0.0111111
hops Hopfenmarktordnung 0.2000000
hops Hopfenmarkt 0.1428571
DAHR UDMR 0.5000000
DAHR tritt 0.0006897
Likhachev Likatschew 1.0000000
reducing Ertragseinbußen 0.1000000
reducing einzudämmen 0.0401235
reducing senken 0.0910638
reducing zahlenmäßige 0.0181818
reducing Zurückdrängen 0.0357143
reducing Zinssenkungen 0.0416667
reducing Drosselung 0.0303030
reducing Subventionsabbaus 0.3333333
reducing bedingte 0.0151515
reducing Abbau 0.1075812
reducing unerklärlicherweise 0.0333333
reducing abnehmen 0.0056497
reducing Kosteneinsparungen 0.0212766
reducing herabsetzen 0.0465116
reducing verringert 0.0762548
reducing lindert 0.2500000
reducing Entspannungsprozess 0.3333333
reducing Mittelkürzungen 0.0135135
reducing Bürokratie 0.0018634
reducing Ziel 0.0001762
reducing Pharmahersteller 0.0769231
reducing Verstädterungsprozeß 0.2500000
reducing G8-Gipfeln 0.1666667
reducing Ausgabenkürzung 0.1500000
reducing Kostendämpfung 0.0526316
reducing geringere 0.0141243
reducing Lohnunterschiede 0.0188679
reducing Skeptik 0.5000000
reducing vorgebeugt 0.0161290
reducing Zahl 0.0003519
reducing Weltbruttoprodukts 0.2000000
reducing Erfolgsaussichten 0.0166667
reducing tägliche 0.0034602
reducing bei 0.0000390
reducing Zugangsbarrieren 0.1111111
reducing Richtpreis 0.1250000
reducing verkürzen 0.0738916
reducing Schiffsausmusterungen 0.3333333
reducing -Reduktion 0.0666667
reducing sinken 0.0072816
reducing degressiven 0.0294118
reducing weitestgehende 0.0227273
reducing will 0.0000569
reducing Armutsminderung 0.0361446
reducing Lenkzeiten 0.0082645
reducing Abwrackpolitik 0.1428571
reducing Beschäftigungsfähigkeit 0.0075188
reducing Flottenabbau 0.0476190
reducing niedrigere 0.0031250
reducing Minderausgaben 0.0833333
reducing zurückgefahren 0.0140845
reducing Überwindung 0.0049200
reducing zur 0.0005598
reducing gerichtet 0.0004975
reducing man 0.0001310
reducing Verwaltungsaufwendungen 0.1111111
reducing Zyklamat 0.1666667
reducing Verringerns 0.5000000
reducing Beschneidung 0.0422535
reducing berufsbedingtes 0.2500000
reducing Finanzmittel 0.0007843
reducing Gegenparteiausfallrisiko 0.2500000
reducing ein 0.0000058
reducing FCKW 0.0128205
reducing entschärfen 0.0169492
reducing Gewaltminderung 0.5000000
reducing einzuschränken 0.0376984
reducing HIV-Erregers 0.3333333
reducing darauf 0.0000259
reducing Bürokratieabbau 0.0384615
reducing Aushöhlung 0.0062500
reducing Prävention 0.0008190
reducing abzubauen 0.0693069
reducing Kernkraftanwendung 0.1666667
reducing CO2-Reduktion 0.0322581
reducing kürzt 0.0483871
reducing des 0.0000132
reducing Übertragungsgebühren 0.2000000
reducing Monopolmächte 0.2500000
reducing Entlastungsaktion 0.2500000
reducing verringerten 0.0566038
reducing Betrugsbekämpfung 0.0009533
reducing CO2-Senkung 0.3000000
reducing Bekämpfung 0.0015190
reducing auswirken 0.0005764
reducing CO2-Reduktionen 0.1250000
reducing Kürzungen 0.0050697
reducing herabzusetzen 0.0333333
reducing Eindämmung 0.0400000
reducing wiederum 0.0003233
reducing Verlangsamung 0.0064103
reducing Rückfallrisiko 0.2000000
reducing Fälschungsmöglichkeiten 0.2000000
reducing abschottet 0.0555556
reducing zum 0.0000209
reducing abträglichen 0.0714286
reducing Menschenhandel 0.0003833
reducing zurückgeschraubt 0.0232558
reducing begrenzen 0.0047393
reducing Armutsbekämpfung 0.0042735
reducing mit 0.0000223
reducing Ausstoßverringerung 1.0000000
reducing Verringerung 0.2332902
reducing Gesetzesmodell 0.3333333
reducing Schuldenabbau 0.0731707
reducing Linderung 0.0470588
reducing Emissionssenkungen 0.0263158
reducing Milderung 0.0181818
reducing abbauen 0.0281690
reducing Personalumbau 0.3333333
reducing Emissionsabbau 0.0588235
reducing Preisreduzierung 0.0714286
reducing wenn 0.0000539
reducing Einsparung 0.0069930
reducing gekürzt 0.0078475
reducing gesenkt 0.0370995
reducing Entlassung 0.0047619
reducing Schmälerung 0.0714286
reducing Haushaltskürzung 0.0588235
reducing Schuldenabbaus 0.5000000
reducing Defizit- 0.2000000
reducing Absenkung 0.0601093
reducing Defizitabbau 0.0666667
reducing sowohl 0.0000775
reducing Anzahl 0.0008628
reducing Bereich 0.0000441
reducing wir 0.0000027
reducing vermindert 0.0375000
reducing größer 0.0006925
reducing Fluglärm 0.0232558
reducing CO2-Einsparungen 0.2000000
reducing Verbrauch 0.0018553
reducing Senkung 0.1647761
reducing Hinblick 0.0000910
reducing beim 0.0002562
reducing bekämpfen 0.0003877
reducing Flugzeuglärm 0.0232558
reducing beschränken 0.0009025
reducing Vorlaufzeit 0.0833333
reducing zurückgegangen 0.0027435
reducing Kürzen 0.1428571
reducing reduzieren 0.1376451
reducing ermäßigten 0.0173410
reducing nachgedacht 0.0021459
reducing verringern 0.1371497
reducing senkte 0.0833333
reducing Bemühungen 0.0001504
reducing Herabsetzung 0.0731707
reducing Geldangebots 0.2500000
reducing Nivellierung 0.0217391
reducing Entscheidungsfrist 0.2000000
reducing Lohnkürzungen 0.0666667
reducing es 0.0000203
reducing durch 0.0001528
reducing Einkommensrückgang 0.0400000
reducing kürzen 0.0684327
reducing schmälert 0.0166667
reducing beeinträchtigen 0.0011669
reducing Transportbedarf 0.0714286
reducing Treibhausgasausstoß 0.0285714
reducing -verringerung 0.2000000
reducing bezug 0.0002532
reducing Kostenreduzierung 0.0689655
reducing beschneiden 0.0134529
reducing Arbeitszeitverkürzung 0.0220264
reducing Stress- 0.5000000
reducing Schuldenerlaß 0.0072993
reducing baut 0.0037594
reducing daß 0.0000137
reducing darum 0.0000628
reducing zu 0.0006210
reducing ermäßigte 0.0289855
reducing senkt 0.0705882
reducing Befischungsdruck 0.2000000
reducing Deeskalation 0.0204082
reducing Kohäsionspolitik 0.0009430
reducing Schadensminderung 0.0833333
reducing Beseitigung 0.0024435
reducing Behebung 0.0055556
reducing Einschränkung 0.0179245
reducing Maßnahmen 0.0000622
reducing jegliches 0.0057803
reducing Dämpfung 0.1250000
reducing abgebaut 0.0089928
reducing Kostenreduktion 0.2000000
reducing Sichtbarmachen 1.0000000
reducing Macht 0.0003036
reducing Rückgang 0.0101095
reducing von 0.0000145
reducing Verkehrstodesfällen 0.2500000
reducing etwa 0.0005163
reducing Einschränkungen 0.0012195
reducing Reduzierungen 0.0156250
reducing Handelsbilanzdefizit 0.0769231
reducing Stickoxidreduktionstechnik 0.1666667
reducing Verelendung 0.0384615
reducing sinkende 0.0340909
reducing sinkt 0.0155039
reducing Schwächen 0.0018282
reducing Abmilderung 0.0344828
reducing geeignet 0.0008333
reducing einer 0.0005454
reducing dadurch 0.0002466
reducing Angebotsreduzierung 0.1818182
reducing Schwächung 0.0067797
reducing Einkünften 0.0270270
reducing Reduktion 0.1179487
reducing herunter 0.0303030
reducing Haushaltseinkommen 0.0833333
reducing verminderte 0.0526316
reducing Wahn- 0.1428571
reducing Wiederaufbaupläne 0.2500000
reducing Verminderung 0.1564626
reducing stehen 0.0000694
reducing Abkürzung 0.0147059
reducing die 0.0004586
reducing Dauerbudgets 1.0000000
reducing beiträgt 0.0008271
reducing reduzierten 0.0350877
reducing teilweisen 0.0190476
reducing langfristige 0.0007468
reducing denen 0.0001857
reducing Arbeitsplätzen 0.0003578
reducing Abbuchung 0.1666667
reducing Kapazitätsabbau 0.0625000
reducing lockern 0.0086207
reducing Komforts 0.1000000
reducing überhaupt 0.0002899
reducing Preissenkungspolitik 0.1000000
reducing Fischereiaufwand 0.0048780
reducing Abbaus 0.1111111
reducing gegen 0.0000758
reducing Verstümmelung 0.0096154
reducing herunterzusetzen 0.3333333
reducing mindert 0.0377358
reducing mindern 0.0872483
reducing einzusparen 0.0210526
reducing dabei 0.0001848
reducing Begrenzung 0.0177215
reducing mindernd 1.0000000
reducing Tendenz 0.0010493
reducing Einstimmigkeitsvorschrift 0.2000000
reducing Schaffung 0.0001186
reducing um 0.0002378
reducing Erleichterung 0.0017065
reducing verwässert 0.0030395
reducing Emissionssenkung 0.0307692
reducing Grundsteuer 0.1428571
reducing vermindern 0.0520833
reducing Parlamentsausschüsse 0.0093458
reducing damit 0.0000626
reducing Qualitätssenkung 0.3333333
reducing Absenken 0.1111111
reducing Verkleinerung 0.0250000
reducing Beeinträchtigungen 0.0086207
reducing Frist 0.0006046
reducing Preissenkungen 0.0043668
reducing Ausgleich 0.0008977
reducing reduziert 0.0491803
reducing Verkleinern 1.0000000
reducing Fangmengenberechnung 1.0000000
reducing Reduktionsmodell 0.5000000
reducing DEUEmissionen 0.2500000
reducing Personalabbau 0.0243902
reducing gleichzeitig 0.0004136
reducing Preissenkung 0.0058480
reducing verkürzt 0.0224719
reducing Forschungsbereichs 0.0769231
reducing Nachfragereduzierung 0.1428571
reducing Eindämmungsmaßnahmen 0.0714286
reducing fortschreitend 0.1428571
reducing Risikosenkung 0.5000000
reducing verschachern 0.5000000
reducing Mehrwertsteuersenkung 0.2500000
reducing Kostensenkung 0.0576923
reducing Herabwürdigung 0.0909091
reducing Reduzierung 0.2172937
reducing eingeschränkte 0.0111111
reducing herabgesetzt 0.0181818
reducing Abstriche 0.0055249
reducing dezimieren 0.0500000
reducing Minderung 0.1605839
reducing einen 0.0000227
reducing CO2-Reduzierung 0.0416667
reducing auslösenden 0.1538462
reducing Vertreibung 0.0064516
reducing anzustreben 0.0019380
reducing beschnitten 0.0037453
reducing multilingualen 0.0833333
reducing Gehaltseinbußen 0.3333333
reducing draufzahlen 0.1428571
reducing Massenhysterie 0.0833333
reducing Arbeitgeberbeiträge 0.0322581
reducing Emissionsreduktion 0.0416667
reducing Produktionssenkungen 0.2000000
reducing Entbürokratisierung 0.0263158
reducing Gesamtbelastung 0.0454545
reducing grausamste 0.0666667
reducing reduzierter 0.0769231
reducing Ermäßigung 0.1500000
reducing Steuerreformen 0.0172414
reducing abzusenken 0.0408163
reducing Vorbeugung 0.0018051
reducing wodurch 0.0041237
reducing schlechten 0.0013699
reducing Zollsenkung 0.0540541
reducing abbaut 0.0512821
reducing Steuererleichterungen 0.0045872
reducing Lohneinbußen 0.0322581
reducing Beschränkung 0.0106222
reducing Luftschadstoffreduzierung 0.3333333
reducing abnimmt 0.0136986
reducing Truppenabbaus 0.1428571
reducing hochwasserbedingten 0.3333333
reducing Modulation 0.0033333
reducing Mängelrisiken 0.2500000
reducing eineinhalb 0.0016393
reducing Lohnausgleich 0.1428571
reducing den 0.0000046
reducing womöglich 0.0027027
reducing Überhitzung 0.0294118
reducing Ausgabensenkung 0.0909091
reducing der 0.0004794
reducing Halbierung 0.0116279
reducing Arbeitslosengeldes 0.1666667
reducing bewirkt 0.0012151
reducing Kostenreduzierungen 0.1666667
reducing Verkürzung 0.1369863
reducing Kürzung 0.0484914
reducing Reduktionsmittels 0.2857143
reducing zurückzuschrauben 0.0434783
reducing Reduktionsziele 0.0163934
reducing zurückzufahren 0.0555556
reducing kürzte 0.2000000
reducing Mindestverbrauchsteuersatz 0.1111111
reducing Armut 0.0002293
reducing völliger 0.0046083
reducing verkehrsbezogene 0.3333333
reducing zurückzunehmen 0.0059172
reducing weniger 0.0017881
reducing gehen 0.0002124
reducing eine 0.0005936
reducing Verkehrsentlastung 0.1000000
reducing Agrarpreise 0.0067568
reducing Einsatz 0.0002594
reducing halbieren 0.0108696
reducing Verlagerungstendenzen 0.1666667
reducing VOC-Emissionen 0.0344828
reducing NULL 0.0000420
reducing indem 0.0010526
reducing wobei 0.0003208
reducing Verhandlungsmandats 0.0240964
reducing Minimierung 0.0666667
reducing degradieren 0.0344828
reducing zurückgeht 0.0034965
reducing Tabakkonsums 0.0055556
reducing CO2 0.0045593
reducing zahlenmäßig 0.0075188
reducing Emissionsreduzierung 0.0400000
reducing Reduzieren 0.5000000
reducing sie 0.0001399
reducing dass 0.0000040
reducing geringeren 0.0207101
reducing Problemverständnis 0.1250000
reducing Überschwemmungsgefahr 0.5000000
reducing Sicherheitsaspekte 0.0087719
reducing eingeschränkt 0.0029240
reducing Reduktionspotentials 0.3333333
reducing Subventionsabbau 0.0625000
reducing recycelt 0.0196078
reducing Weizenpreis 0.1250000
reducing Steuersenkungen 0.0341880
reducing Ausgabenkürzungen 0.0175439
reducing verkleinern 0.1111111
reducing CO2-Minderungsprogramme 0.3333333
apartheid-like Apartheidregime 0.0500000
apartheid-like Schande 0.0015649
child-soldiers Kindersoldaten 0.0125523
Louloudakis Kläger 0.0114943
Louloudakis Louloudakis 1.0000000
Estonian-Russian und 0.0000021
Estonian-Russian zwischen 0.0000519
Estonian-Russian Grenzvertrag 0.0416667
Estonian-Russian durch 0.0000153
Estonian-Russian Grenzvereinbarung 0.2500000
Estonian-Russian schließlich 0.0000604
Estonian-Russian Estland 0.0031898
Estonian-Russian äußern 0.0002803
Estonian-Russian estnisch-russischen 0.2500000
Estonian-Russian Russland 0.0003644
re-engagement Wiederannäherung 0.1428571
re-engagement Engagement 0.0002795
re-engagement signalisiert 0.0034247
re-engagement Beziehungen 0.0000999
re-engagement neuerliche 0.0092593
Orden NULL 0.0000005
Orden Ordens 0.4000000
Orden Orden 0.8491620
Orden eingehe 0.0054348
Orden vorgebracht 0.0014493
Orden Abgeordneter 0.0004442
Orden hervorheben 0.0002922
Orden diesen 0.0000252
Orden trafen 0.0066667
Material erörtert 0.0006211
Material das 0.0000054
Material Überwachung 0.0003283
Material EURATOM-Konferenz 0.2000000
Material Kernmaterial 0.0062112
Material von 0.0000087
Material regelmäßig 0.0005400
Material oder 0.0000312
Material Kernsprengkörper 0.2000000
Material für 0.0000056
Material Pflanzgutwesen 0.5000000
B5-0620 B5-0620 1.0000000
self-funded finanziert 0.0005165
self-funded selbst 0.0000510
self-funded leistungsfähige 0.0096154
self-funded kapitalgedeckte 0.0357143
self-funded Eigenfinanzierung 0.0476190
eliminates Kommission 0.0000073
eliminates Hemmnissen 0.0109890
eliminates dafür 0.0000252
eliminates eliminiert 0.0222222
eliminates dadurch 0.0001233
eliminates außer 0.0002588
eliminates schaltet 0.0769231
eliminates beseitigt 0.0076253
eliminates Vorwände 0.0188679
eliminates Qualifizierten 0.0909091
eliminates führt 0.0001620
eliminates schafft 0.0009955
eliminates ausschaltet 0.0833333
eliminates wird 0.0000109
eliminates ausschließt 0.0036232
eliminates eliminieren 0.0232558
eliminates Währungskosten 0.3333333
eliminates sorgt 0.0013661
eliminates vorsehen 0.0010225
eliminates Übergangszeiten 0.0079365
eliminates keinerlei 0.0002685
eliminates streicht 0.0281690
eliminates infiziert 0.0075188
eliminates Ausmusterung 0.0208333
eliminates NULL 0.0000010
eliminates hohes 0.0009901
eliminates abschafft 0.0303030
eliminates Ungerechtigkeiten 0.0057471
eliminates aufhebt 0.0169492
eliminates rechtsstaatlichen 0.0018248
eliminates zieht 0.0009166
eliminates Körperschaftssteuern 0.0416667
eliminates gering 0.0009940
eliminates zweifacher 0.0128205
eliminates Beseitigung 0.0018326
eliminates abbaut 0.0256410
eliminates jahrhundertealte 0.0196078
eliminates beseitige 0.3333333
eliminates fadenscheinige 0.0588235
eliminates Inkonsistenz 0.0769231
eliminates Ausbildungsniveau 0.0123457
eliminates von 0.0000087
eliminates ausräumt 0.1000000
eliminates gewährleistet 0.0003021
eliminates geschieht 0.0002234
unknowns so 0.0000111
unknowns diesmal 0.0007067
unknowns optimal 0.0015649
unknowns Unbekannten 0.0243902
unknowns Vorbereitungen 0.0009294
unknowns Unwägbarkeiten 0.0158730
unknowns Unbekannte 0.0285714
unknowns aufstellen 0.0023148
unknowns ungewiss 0.0112360
Arājs Arājs 0.3333333
Arājs Lettland 0.0019342
Lloyd Gesellschaft 0.0001389
Lloyd s-Affäre 0.3333333
Lloyd geprüfte 0.0285714
Lloyd s-Skandal 0.3333333
