% ( ||| % ( since saving ||| 0.0200073 0.611159 0.0133382 4.56857e-08 2.718 2.718 1 1 1 1 1 1 ||| 0-0 1-1 ||| 2 3 1 ||| dom_toy 1
% ( ||| % ( since ||| 0.0200073 0.611159 0.0133382 0.000518567 2.718 2.718 1 1 1 1 1 1 ||| 0-0 1-1 ||| 2 3 1 ||| dom_toy 1
% ( ||| % ( ||| 0.0200073 0.611159 0.0133382 0.653683 2.718 2.718 1 1 1 1 1 1 ||| 0-0 1-1 ||| 2 3 1 ||| dom_toy 1
% , ||| % , making ||| 0.0400146 0.476101 0.0100036 0.000670807 2.718 2.718 1 1 1 1 1 1 ||| 0-0 1-1 ||| 1 4 1 ||| dom_toy 1
% , ||| % , ||| 0.0100036 0.476101 0.0100036 0.634213 2.718 2.718 1 1 1 1 1 1 ||| 0-0 1-1 ||| 4 4 1 ||| dom_toy 1
% , ||| % --the ||| 0.0133382 0.0201279 0.0100036 0.00465368 2.718 2.718 1 1 1 1 1 1 ||| 0-0 0-1 ||| 3 4 1 ||| dom_toy 1
% , ||| % of GDP , ||| 0.00800291 0.176217 0.0100036 0.000164987 2.718 2.718 1 1 1 1 1 1 ||| 0-0 0-1 0-2 1-3 ||| 5 4 1 ||| dom_toy 1
% . ||| % . ||| 1 0.692957 0.8125 0.843383 2.718 1 1 1 1 1 1 2.718 ||| 0-0 1-1 ||| 13 16 13 ||| dom_toy 1
% . ||| % of GDP . ||| 0.00800291 0.256481 0.00250091 0.000219401 2.718 2.718 1 1 1 1 1 1 ||| 0-0 0-1 0-2 1-3 ||| 5 16 1 ||| dom_toy 1
% . ||| % soon . ||| 0.0400146 0.692957 0.00250091 0.000520367 2.718 2.718 1 1 1 1 1 1 ||| 0-0 1-2 ||| 1 16 1 ||| dom_toy 1
% . ||| . ||| 7.89553e-06 4.93342e-05 0.00250091 0.974343 2.718 2.718 1 1 1 1 1 1 ||| 1-0 ||| 5068 16 1 ||| dom_toy 1
% de son ||| % of its ||| 0.0133382 0.062001 0.0133382 0.0521032 2.718 2.718 1 1 1 1 1 1 ||| 0-0 1-1 2-2 ||| 3 3 1 ||| dom_toy 1
% de son ||| % of ||| 0.0264086 0.000887879 0.334509 0.178371 2.718 1 2.718 1 1 1 1 1 ||| 0-0 1-1 ||| 38 3 2 ||| dom_toy 1
% de ||| % of ||| 0.180087 0.278725 0.684332 0.178371 2.718 1 1 1 1 1 2.718 1 ||| 0-0 1-1 ||| 38 10 8 ||| dom_toy 1
% de ||| % ||| 0.000270369 0.0508197 0.00400146 0.865591 2.718 2.718 1 1 1 1 1 1 ||| 0-0 ||| 148 10 1 ||| dom_toy 1
% de ||| 66 % of ||| 0.0400146 0.500349 0.00400146 2.35272e-05 2.718 2.718 1 1 1 1 1 1 ||| 1-0 0-1 1-2 ||| 1 10 1 ||| dom_toy 1
% des ||| % of Moldova ||| 0.0400146 0.109206 0.00160058 4.78687e-05 2.718 2.718 1 1 1 1 1 1 ||| 0-0 1-1 ||| 1 25 1 ||| dom_toy 1
% des ||| % of Russia ||| 0.0400146 0.109206 0.00160058 0.000207461 2.718 2.718 1 1 1 1 1 1 ||| 0-0 1-1 ||| 1 25 1 ||| dom_toy 1
% des ||| % of all external ||| 0.0100036 0.109206 0.00160058 1.22362e-07 2.718 2.718 1 1 1 1 1 1 ||| 0-0 1-1 ||| 4 25 1 ||| dom_toy 1
% des ||| % of all the ||| 0.0400146 0.0604067 0.00160058 1.30621e-05 2.718 2.718 1 1 1 1 1 1 ||| 0-0 1-1 1-2 ||| 1 25 1 ||| dom_toy 1
% des ||| % of all ||| 0.200706 0.0604067 0.0401411 0.000309372 2.718 1 2.718 1 1 1 1 1 ||| 0-0 1-1 1-2 ||| 5 25 2 ||| dom_toy 1
% des ||| % of ||| 0.289474 0.109206 0.44 0.181046 2.718 1 1 1 1 1 1 2.718 ||| 0-0 1-1 ||| 38 25 11 ||| dom_toy 1
% des ||| % ||| 0.0133274 0.0181393 0.0788983 0.865591 2.718 1 1 2.718 1 1 1 1 ||| 0-0 ||| 148 25 3 ||| dom_toy 1
% des ||| 68 % of Russia ||| 0.0400146 0.109206 0.00160058 1.82773e-08 2.718 2.718 1 1 1 1 1 1 ||| 0-1 1-2 ||| 1 25 1 ||| dom_toy 1
% des ||| 68 % of ||| 0.0400146 0.109206 0.00160058 1.59502e-05 2.718 2.718 1 1 1 1 1 1 ||| 0-1 1-2 ||| 1 25 1 ||| dom_toy 1
% des ||| in four ||| 0.0100036 0.00099674 0.00160058 0.000115758 2.718 2.718 1 1 1 1 1 1 ||| 1-0 0-1 ||| 4 25 1 ||| dom_toy 1
% des ||| while 68 % of Russia ||| 0.0400146 0.109206 0.00160058 6.44459e-12 2.718 2.718 1 1 1 1 1 1 ||| 0-2 1-3 ||| 1 25 1 ||| dom_toy 1
% des ||| while 68 % of ||| 0.0400146 0.109206 0.00160058 5.62404e-09 2.718 2.718 1 1 1 1 1 1 ||| 0-2 1-3 ||| 1 25 1 ||| dom_toy 1
% ||| % --the ||| 0.0133382 0.860987 0.00031019 0.00465368 2.718 2.718 1 1 1 1 1 1 ||| 0-0 0-1 ||| 3 129 1 ||| dom_toy 1
% ||| % currently ||| 0.0133382 0.721973 0.00031019 0.000228862 2.718 2.718 1 1 1 1 1 1 ||| 0-0 ||| 3 129 1 ||| dom_toy 1
% ||| % in the ||| 0.00666909 0.721973 0.00031019 0.000657157 2.718 2.718 1 1 1 1 1 1 ||| 0-0 ||| 6 129 1 ||| dom_toy 1
% ||| % in ||| 0.0771945 0.721973 0.00777929 0.0155646 2.718 1 2.718 1 1 1 1 1 ||| 0-0 ||| 13 129 2 ||| dom_toy 1
% ||| % last year ||| 0.0133382 0.246968 0.00031019 2.50196e-05 2.718 2.718 1 1 1 1 1 1 ||| 0-0 0-1 0-2 ||| 3 129 1 ||| dom_toy 1
% ||| % of GDP ||| 0.0627205 0.267221 0.00777929 0.000225179 2.718 1 2.718 1 1 1 1 1 ||| 0-0 0-1 0-2 ||| 16 129 2 ||| dom_toy 1
% ||| % over ||| 0.0400146 0.721973 0.00031019 0.00129709 2.718 2.718 1 1 1 1 1 1 ||| 0-0 ||| 1 129 1 ||| dom_toy 1
% ||| % say ||| 0.0400146 0.721973 0.00031019 0.00053407 2.718 2.718 1 1 1 1 1 1 ||| 0-0 ||| 1 129 1 ||| dom_toy 1
% ||| % soon ||| 0.0400146 0.721973 0.00031019 0.00053407 2.718 2.718 1 1 1 1 1 1 ||| 0-0 ||| 1 129 1 ||| dom_toy 1
% ||| % versus ||| 0.0400146 0.610987 0.00031019 0.00465368 2.718 2.718 1 1 1 1 1 1 ||| 0-0 0-1 ||| 1 129 1 ||| dom_toy 1
% ||| % would ||| 0.0400146 0.721973 0.00031019 0.0030519 2.718 2.718 1 1 1 1 1 1 ||| 0-0 ||| 1 129 1 ||| dom_toy 1
% ||| % ||| 0.756757 0.721973 0.868217 0.865591 2.718 1 1 1 1 1 1 2.718 ||| 0-0 ||| 148 129 112 ||| dom_toy 1
% ||| 41 % ||| 0.0400146 0.721973 0.00031019 7.62586e-05 2.718 2.718 1 1 1 1 1 1 ||| 0-1 ||| 1 129 1 ||| dom_toy 1
% ||| 68 % ||| 0.0400146 0.721973 0.00031019 7.62586e-05 2.718 2.718 1 1 1 1 1 1 ||| 0-1 ||| 1 129 1 ||| dom_toy 1
% ||| four ||| 0.00148202 0.0454545 0.00031019 0.0053763 2.718 2.718 1 1 1 1 1 1 ||| 0-0 ||| 27 129 1 ||| dom_toy 1
% ||| while 68 % ||| 0.0400146 0.721973 0.00031019 2.68888e-08 2.718 2.718 1 1 1 1 1 1 ||| 0-2 ||| 1 129 1 ||| dom_toy 1
% à ||| % and ||| 0.0200073 0.0194609 0.00500182 0.00212688 2.718 2.718 1 1 1 1 1 1 ||| 0-0 1-0 1-1 ||| 2 8 1 ||| dom_toy 1
% à ||| % to ||| 0.426829 0.167196 0.480183 0.253888 2.718 1 1 1 1 2.718 1 1 ||| 0-0 1-1 ||| 9 8 5 ||| dom_toy 1
% à ||| % ||| 0.0067806 0.0356131 0.125441 0.43459 2.718 1 2.718 1 1 1 1 1 ||| 0-0 1-0 ||| 148 8 2 ||| dom_toy 1
&amp; ||| &amp; ||| 0.501764 0.571429 0.334509 0.153846 2.718 1 2.718 1 1 1 1 1 ||| 0-0 ||| 2 3 2 ||| dom_toy 1
&amp; ||| &quot; ||| 5.55758e-05 0.014245 0.0133382 0.576923 2.718 2.718 1 1 1 1 1 1 ||| 0-0 ||| 720 3 1 ||| dom_toy 1
&apos; ||| &quot; consortium ||| 0.0400146 0.005698 0.0133382 0.00010578 2.718 2.718 1 1 1 1 1 1 ||| 0-0 ||| 1 3 1 ||| dom_toy 1
&apos; ||| &quot; ||| 5.55758e-05 0.005698 0.0133382 0.6 2.718 2.718 1 1 1 1 1 1 ||| 0-0 ||| 720 3 1 ||| dom_toy 1
&apos; ||| the ||| 7.22545e-06 0.0001212 0.0133382 0.1 2.718 2.718 1 1 1 1 1 1 ||| 0-0 ||| 5538 3 1 ||| dom_toy 1
&quot; , a @-@ t-il ||| , &quot; he ||| 0.00666909 3.44083e-07 0.0400146 0.0658777 2.718 2.718 1 1 1 1 1 1 ||| 1-0 0-1 3-1 4-2 ||| 6 1 1 ||| dom_toy 1
&quot; , a @-@ ||| , &quot; ||| 0.000412521 1.15268e-05 0.0400146 0.288215 2.718 2.718 1 1 1 1 1 1 ||| 1-0 0-1 3-1 ||| 97 1 1 ||| dom_toy 1
&quot; , a ||| &quot; has ||| 0.00666909 0.00373641 0.0400146 0.179472 2.718 2.718 1 1 1 1 1 1 ||| 0-0 2-1 ||| 6 1 1 ||| dom_toy 1
&quot; , ||| &quot; ||| 5.55758e-05 0.00876941 0.00210603 0.782178 2.718 2.718 1 1 1 1 1 1 ||| 0-0 ||| 720 19 1 ||| dom_toy 1
&quot; , ||| , &quot; moved ||| 0.0133382 0.24737 0.00210603 0.000101037 2.718 2.718 1 1 1 1 1 1 ||| 1-0 0-1 ||| 3 19 1 ||| dom_toy 1
&quot; , ||| , &quot; ||| 0.0927835 0.24737 0.473684 0.573097 2.718 1 1 1 1 1 2.718 1 ||| 1-0 0-1 ||| 97 19 9 ||| dom_toy 1
&quot; , ||| , ||| 0.000175473 0.00105036 0.0528173 0.732693 2.718 1 2.718 1 1 1 1 1 ||| 1-0 ||| 5719 19 2 ||| dom_toy 1
&quot; , ||| of the people , &quot; ||| 0.0400146 0.24737 0.00210603 5.0533e-07 2.718 2.718 1 1 1 1 1 1 ||| 1-3 0-4 ||| 1 19 1 ||| dom_toy 1
&quot; , ||| people , &quot; ||| 0.493115 0.24737 0.103814 0.000808239 2.718 1 1 2.718 1 1 1 1 ||| 1-1 0-2 ||| 4 19 3 ||| dom_toy 1
&quot; , ||| the people , &quot; ||| 0.501764 0.24737 0.0528173 3.41248e-05 2.718 1 2.718 1 1 1 1 1 ||| 1-2 0-3 ||| 2 19 2 ||| dom_toy 1
&quot; . ||| &quot; . ||| 0.0200073 0.360042 0.00129079 0.76211 2.718 2.718 1 1 1 1 1 1 ||| 0-0 1-1 ||| 2 31 1 ||| dom_toy 1
&quot; . ||| . &quot; ||| 0.236364 0.360042 0.83871 0.76211 2.718 1 1 1 1 1 1 2.718 ||| 1-0 0-1 ||| 110 31 26 ||| dom_toy 1
&quot; . ||| . ||| 7.89553e-06 0.00152878 0.00129079 0.974343 2.718 2.718 1 1 1 1 1 1 ||| 1-0 ||| 5068 31 1 ||| dom_toy 1
&quot; . ||| strategies themselves . &quot; ||| 0.0400146 0.360042 0.00129079 7.10495e-08 2.718 2.718 1 1 1 1 1 1 ||| 1-2 0-3 ||| 1 31 1 ||| dom_toy 1
&quot; . ||| themselves . &quot; ||| 0.0400146 0.360042 0.00129079 0.00026872 2.718 2.718 1 1 1 1 1 1 ||| 1-1 0-2 ||| 1 31 1 ||| dom_toy 1
&quot; . ||| victory . &quot; ||| 0.0400146 0.360042 0.00129079 6.71419e-05 2.718 2.718 1 1 1 1 1 1 ||| 1-1 0-2 ||| 1 31 1 ||| dom_toy 1
&quot; C&apos; est ||| &quot; That &apos;s ||| 0.0400146 0.00163807 0.0400146 0.00449205 2.718 2.718 1 1 1 1 1 1 ||| 0-0 1-1 2-2 ||| 1 1 1 ||| dom_toy 1
&quot; C&apos; ||| &quot; That ||| 0.0400146 0.375119 0.0400146 0.782178 2.718 2.718 1 1 1 1 1 1 ||| 0-0 1-1 ||| 1 1 1 ||| dom_toy 1
&quot; Ce ||| &quot; It ||| 0.0133382 0.12504 0.0400146 0.782178 2.718 2.718 1 1 1 1 1 1 ||| 0-0 1-1 ||| 3 1 1 ||| dom_toy 1
&quot; La ||| &quot; The ||| 0.125441 0.120038 0.334509 0.24067 2.718 1 2.718 1 1 1 1 1 ||| 0-0 1-1 ||| 8 3 2 ||| dom_toy 1
&quot; La ||| &quot; There ||| 0.0400146 0.375119 0.0133382 0.0300837 2.718 2.718 1 1 1 1 1 1 ||| 0-0 1-1 ||| 1 3 1 ||| dom_toy 1
&quot; Le ||| @-@ ended negotiations ||| 0.0200073 1.37793e-06 0.0133382 2.33069e-08 2.718 2.718 1 1 1 1 1 1 ||| 1-0 ||| 2 3 1 ||| dom_toy 1
&quot; Le ||| @-@ ended ||| 0.0200073 1.37793e-06 0.0133382 8.815e-05 2.718 2.718 1 1 1 1 1 1 ||| 1-0 ||| 2 3 1 ||| dom_toy 1
&quot; Le ||| @-@ ||| 6.00819e-05 1.37793e-06 0.0133382 0.5 2.718 2.718 1 1 1 1 1 1 ||| 1-0 ||| 666 3 1 ||| dom_toy 1
&quot; Si ||| &quot; If ||| 0.0100036 1.92811e-05 0.0200073 6.89099e-05 2.718 2.718 1 1 1 1 1 1 ||| 0-0 ||| 4 2 1 ||| dom_toy 1
&quot; Si ||| &quot; ||| 5.55758e-05 1.92811e-05 0.0200073 0.782178 2.718 2.718 1 1 1 1 1 1 ||| 0-0 ||| 720 2 1 ||| dom_toy 1
&quot; a @-@ t-il ||| , &quot; he ||| 0.328743 3.92187e-07 0.657486 0.00443898 2.718 1 1 2.718 1 1 1 1 ||| 1-0 0-1 3-2 ||| 6 3 3 ||| dom_toy 1
&quot; a @-@ ||| , &quot; ||| 0.0203346 1.31383e-05 0.657486 0.0194205 2.718 1 1 2.718 1 1 1 1 ||| 1-0 0-1 ||| 97 3 3 ||| dom_toy 1
&quot; a ||| &quot; ||| 5.55758e-05 0.00368123 0.0100036 0.782178 2.718 2.718 1 1 1 1 1 1 ||| 0-0 ||| 720 4 1 ||| dom_toy 1
&quot; a ||| , &quot; ||| 0.0203346 0.00154042 0.493115 0.0194205 2.718 1 1 2.718 1 1 1 1 ||| 1-0 0-1 ||| 97 4 3 ||| dom_toy 1
&quot; dans ||| &quot; in resource ||| 0.0400146 0.0886549 0.0133382 8.30078e-05 2.718 2.718 1 1 1 1 1 1 ||| 0-0 1-1 ||| 1 3 1 ||| dom_toy 1
&quot; dans ||| &quot; in ||| 0.125441 0.0886549 0.334509 0.470832 2.718 1 2.718 1 1 1 1 1 ||| 0-0 1-1 ||| 8 3 2 ||| dom_toy 1
&quot; de ||| &apos;s &quot; ||| 0.250882 0.112822 0.250882 0.0568575 2.718 1 2.718 1 1 1 1 1 ||| 1-0 0-1 ||| 4 4 2 ||| dom_toy 1
&quot; de ||| &quot; of ||| 0.0100036 0.144818 0.0100036 0.161182 2.718 2.718 1 1 1 1 1 1 ||| 0-0 1-1 ||| 4 4 1 ||| dom_toy 1
&quot; de ||| &quot; ||| 5.55758e-05 0.0264046 0.0100036 0.782178 2.718 2.718 1 1 1 1 1 1 ||| 0-0 ||| 720 4 1 ||| dom_toy 1
&quot; est ||| &apos; has ||| 0.0400146 0.00524181 0.0200073 0.000646799 2.718 2.718 1 1 1 1 1 1 ||| 0-0 1-1 ||| 1 2 1 ||| dom_toy 1
&quot; est ||| &quot; is ||| 0.00666909 0.154548 0.0200073 0.408777 2.718 2.718 1 1 1 1 1 1 ||| 0-0 1-1 ||| 6 2 1 ||| dom_toy 1
&quot; et &quot; ||| &quot; and &quot; ||| 0.00800291 0.111006 0.0400146 0.477965 2.718 2.718 1 1 1 1 1 1 ||| 0-0 1-1 2-2 ||| 5 1 1 ||| dom_toy 1
&quot; et ||| &quot; and thus ||| 0.0100036 0.15432 0.00166727 0.000369758 2.718 2.718 1 1 1 1 1 1 ||| 0-0 1-1 1-2 ||| 4 24 1 ||| dom_toy 1
&quot; et ||| &quot; and ||| 0.399193 0.295923 0.249496 0.611069 2.718 1 1 1 1 1 2.718 1 ||| 0-0 1-1 ||| 15 24 7 ||| dom_toy 1
&quot; et ||| &quot; earned &quot; and ||| 0.0133382 0.295923 0.00166727 4.21087e-05 2.718 2.718 1 1 1 1 1 1 ||| 0-0 0-2 1-3 ||| 3 24 1 ||| dom_toy 1
&quot; et ||| &quot; ||| 5.55758e-05 0.0038354 0.00166727 0.782178 2.718 2.718 1 1 1 1 1 1 ||| 0-0 ||| 720 24 1 ||| dom_toy 1
&quot; et ||| , &quot; and ||| 0.00307804 0.295923 0.00166727 0.0216527 2.718 2.718 1 1 1 1 1 1 ||| 0-1 1-2 ||| 13 24 1 ||| dom_toy 1
&quot; et ||| and the distinction ||| 0.0100036 0.26296 0.00166727 6.53167e-05 2.718 2.718 1 1 1 1 1 1 ||| 1-0 0-2 ||| 4 24 1 ||| dom_toy 1
&quot; et ||| and ||| 0.000301269 0.00125653 0.0418137 0.781241 2.718 1 2.718 1 1 1 1 1 ||| 1-0 ||| 3331 24 2 ||| dom_toy 1
&quot; et ||| competing with each other . &quot; The ||| 0.0200073 0.00750179 0.00166727 4.899e-17 2.718 2.718 1 1 1 1 1 1 ||| 1-3 0-5 0-6 ||| 2 24 1 ||| dom_toy 1
&quot; et ||| each other . &quot; The Court rejected ||| 0.0200073 0.00750179 0.00166727 3.16082e-18 2.718 2.718 1 1 1 1 1 1 ||| 1-1 0-3 0-4 ||| 2 24 1 ||| dom_toy 1
&quot; et ||| each other . &quot; The Court ||| 0.0200073 0.00750179 0.00166727 1.79286e-14 2.718 2.718 1 1 1 1 1 1 ||| 1-1 0-3 0-4 ||| 2 24 1 ||| dom_toy 1
&quot; et ||| each other . &quot; The ||| 0.0200073 0.00750179 0.00166727 5.08469e-11 2.718 2.718 1 1 1 1 1 1 ||| 1-1 0-3 0-4 ||| 2 24 1 ||| dom_toy 1
&quot; et ||| other . &quot; The Court rejected the ||| 0.0200073 0.00750179 0.00166727 2.16294e-16 2.718 2.718 1 1 1 1 1 1 ||| 1-0 0-2 0-3 ||| 2 24 1 ||| dom_toy 1
&quot; et ||| other . &quot; The Court rejected ||| 0.0200073 0.00750179 0.00166727 5.12288e-15 2.718 2.718 1 1 1 1 1 1 ||| 1-0 0-2 0-3 ||| 2 24 1 ||| dom_toy 1
&quot; et ||| other . &quot; The Court ||| 0.0200073 0.00750179 0.00166727 2.90577e-11 2.718 2.718 1 1 1 1 1 1 ||| 1-0 0-2 0-3 ||| 2 24 1 ||| dom_toy 1
&quot; et ||| other . &quot; The ||| 0.0200073 0.00750179 0.00166727 8.24099e-08 2.718 2.718 1 1 1 1 1 1 ||| 1-0 0-2 0-3 ||| 2 24 1 ||| dom_toy 1
&quot; et ||| with each other . &quot; The Court ||| 0.0200073 0.00750179 0.00166727 9.79799e-17 2.718 2.718 1 1 1 1 1 1 ||| 1-2 0-4 0-5 ||| 2 24 1 ||| dom_toy 1
&quot; et ||| with each other . &quot; The ||| 0.0200073 0.00750179 0.00166727 2.77878e-13 2.718 2.718 1 1 1 1 1 1 ||| 1-2 0-4 0-5 ||| 2 24 1 ||| dom_toy 1
&quot; les ||| &quot; The ||| 0.00500182 0.0297071 0.0100036 0.00261678 2.718 2.718 1 1 1 1 1 1 ||| 0-0 0-1 1-1 ||| 8 4 1 ||| dom_toy 1
&quot; les ||| &quot; the ||| 0.0528173 0.0483555 0.250882 0.208164 2.718 1 2.718 1 1 1 1 1 ||| 0-0 1-1 ||| 19 4 2 ||| dom_toy 1
&quot; les ||| &quot; ||| 5.55758e-05 0.00992583 0.0100036 0.782178 2.718 2.718 1 1 1 1 1 1 ||| 0-0 ||| 720 4 1 ||| dom_toy 1
&quot; ou ||| &quot; or ||| 0.0400146 0.235223 0.0400146 0.61158 2.718 2.718 1 1 1 1 1 1 ||| 0-0 1-1 ||| 1 1 1 ||| dom_toy 1
&quot; pour ||| &quot; and ||| 0.00266764 0.000573069 0.0200073 0.00318479 2.718 2.718 1 1 1 1 1 1 ||| 0-0 1-1 ||| 15 2 1 ||| dom_toy 1
&quot; pour ||| &quot; to ||| 0.00333455 0.0384589 0.0200073 0.253507 2.718 2.718 1 1 1 1 1 1 ||| 0-0 1-1 ||| 12 2 1 ||| dom_toy 1
&quot; travailleurs &quot; ||| &quot; working people &quot; ||| 0.0400146 7.2327e-06 0.0400146 3.04232e-07 2.718 2.718 1 1 1 1 1 1 ||| 0-0 2-3 ||| 1 1 1 ||| dom_toy 1
&quot; travailleurs ||| &quot; working people ||| 0.0200073 1.92811e-05 0.0133382 3.88955e-07 2.718 2.718 1 1 1 1 1 1 ||| 0-0 ||| 2 3 1 ||| dom_toy 1
&quot; travailleurs ||| &quot; working ||| 0.0200073 1.92811e-05 0.0133382 0.000275796 2.718 2.718 1 1 1 1 1 1 ||| 0-0 ||| 2 3 1 ||| dom_toy 1
&quot; travailleurs ||| &quot; ||| 5.55758e-05 1.92811e-05 0.0133382 0.782178 2.718 2.718 1 1 1 1 1 1 ||| 0-0 ||| 720 3 1 ||| dom_toy 1
&quot; ||| &apos; ||| 0.0357345 0.0507246 0.009544 0.0138614 2.718 1 1 1 2.718 1 1 1 ||| 0-0 ||| 86 322 4 ||| dom_toy 1
&quot; ||| &quot; &quot; ||| 0.200706 0.375119 0.00311655 0.611803 2.718 1 2.718 1 1 1 1 1 ||| 0-0 0-1 ||| 5 322 2 ||| dom_toy 1
&quot; ||| &quot; If ||| 0.0100036 0.375119 0.000124269 6.89099e-05 2.718 2.718 1 1 1 1 1 1 ||| 0-0 ||| 4 322 1 ||| dom_toy 1
&quot; ||| &quot; Islamic World ||| 0.0200073 0.375119 0.000124269 4.86228e-08 2.718 2.718 1 1 1 1 1 1 ||| 0-0 ||| 2 322 1 ||| dom_toy 1
&quot; ||| &quot; Islamic ||| 0.0200073 0.375119 0.000124269 0.000275796 2.718 2.718 1 1 1 1 1 1 ||| 0-0 ||| 2 322 1 ||| dom_toy 1
&quot; ||| &quot; The Court rejected the ||| 0.0200073 0.247559 0.000124269 1.21955e-11 2.718 2.718 1 1 1 1 1 1 ||| 0-0 0-1 ||| 2 322 1 ||| dom_toy 1
&quot; ||| &quot; The Court rejected ||| 0.0200073 0.247559 0.000124269 2.88849e-10 2.718 2.718 1 1 1 1 1 1 ||| 0-0 0-1 ||| 2 322 1 ||| dom_toy 1
&quot; ||| &quot; The Court ||| 0.0200073 0.247559 0.000124269 1.63839e-06 2.718 2.718 1 1 1 1 1 1 ||| 0-0 0-1 ||| 2 322 1 ||| dom_toy 1
&quot; ||| &quot; The ||| 0.00500182 0.247559 0.000124269 0.00464661 2.718 2.718 1 1 1 1 1 1 ||| 0-0 0-1 ||| 8 322 1 ||| dom_toy 1
&quot; ||| &quot; They ||| 0.0100036 0.375119 0.000124269 6.89099e-05 2.718 2.718 1 1 1 1 1 1 ||| 0-0 ||| 4 322 1 ||| dom_toy 1
&quot; ||| &quot; Wipe Out Poisonous Weeds Campaign ||| 0.0133382 0.888889 0.000124269 8.60575e-19 2.718 2.718 1 1 1 1 1 1 ||| 0-3 0-4 0-5 ||| 3 322 1 ||| dom_toy 1
&quot; ||| &quot; advanced ||| 0.0200073 0.375119 0.000124269 0.000206808 2.718 2.718 1 1 1 1 1 1 ||| 0-0 ||| 2 322 1 ||| dom_toy 1
&quot; ||| &quot; business as ||| 0.0400146 0.201073 0.000124269 1.96595e-05 2.718 2.718 1 1 1 1 1 1 ||| 0-0 0-1 ||| 1 322 1 ||| dom_toy 1
&quot; ||| &quot; business ||| 0.0400146 0.201073 0.000124269 0.00309774 2.718 2.718 1 1 1 1 1 1 ||| 0-0 0-1 ||| 1 322 1 ||| dom_toy 1
&quot; ||| &quot; earned &quot; ||| 0.0400146 0.375119 0.000124269 5.38998e-05 2.718 2.718 1 1 1 1 1 1 ||| 0-0 0-2 ||| 1 322 1 ||| dom_toy 1
&quot; ||| &quot; has ||| 0.00666909 0.375119 0.000124269 0.0030336 2.718 2.718 1 1 1 1 1 1 ||| 0-0 ||| 6 322 1 ||| dom_toy 1
&quot; ||| &quot; he said , &quot; ||| 0.0400146 0.375119 0.000124269 2.9209e-10 2.718 2.718 1 1 1 1 1 1 ||| 0-4 ||| 1 322 1 ||| dom_toy 1
&quot; ||| &quot; moved ||| 0.0400146 0.375119 0.000124269 0.000137898 2.718 2.718 1 1 1 1 1 1 ||| 0-0 ||| 1 322 1 ||| dom_toy 1
&quot; ||| &quot; quartet &quot; ||| 0.0133382 0.375119 0.000124269 4.91996e-07 2.718 2.718 1 1 1 1 1 1 ||| 0-0 ||| 3 322 1 ||| dom_toy 1
&quot; ||| &quot; quartet ||| 0.0133382 0.375119 0.000124269 6.89099e-05 2.718 2.718 1 1 1 1 1 1 ||| 0-0 ||| 3 322 1 ||| dom_toy 1
&quot; ||| &quot; the ||| 0.00210603 0.375119 0.000124269 0.0330245 2.718 2.718 1 1 1 1 1 1 ||| 0-0 ||| 19 322 1 ||| dom_toy 1
&quot; ||| &quot; vesting &quot; ||| 0.0200073 0.375119 0.000124269 4.91996e-07 2.718 2.718 1 1 1 1 1 1 ||| 0-0 ||| 2 322 1 ||| dom_toy 1
&quot; ||| &quot; vesting ||| 0.0200073 0.375119 0.000124269 6.89099e-05 2.718 2.718 1 1 1 1 1 1 ||| 0-0 ||| 2 322 1 ||| dom_toy 1
&quot; ||| &quot; virtual &quot; ||| 0.0400146 0.375119 0.000124269 4.91996e-07 2.718 2.718 1 1 1 1 1 1 ||| 0-2 ||| 1 322 1 ||| dom_toy 1
&quot; ||| &quot; welfare ||| 0.0400146 0.375119 0.000124269 6.89099e-05 2.718 2.718 1 1 1 1 1 1 ||| 0-0 ||| 1 322 1 ||| dom_toy 1
&quot; ||| &quot; who drive ||| 0.0133382 0.375119 0.000124269 5.4691e-07 2.718 2.718 1 1 1 1 1 1 ||| 0-0 ||| 3 322 1 ||| dom_toy 1
&quot; ||| &quot; who ||| 0.0133382 0.375119 0.000124269 0.001241 2.718 2.718 1 1 1 1 1 1 ||| 0-0 ||| 3 322 1 ||| dom_toy 1
&quot; ||| &quot; whole ||| 0.0200073 0.375119 0.000124269 0.000551592 2.718 2.718 1 1 1 1 1 1 ||| 0-0 ||| 2 322 1 ||| dom_toy 1
&quot; ||| &quot; working people ||| 0.0200073 0.375119 0.000124269 3.88955e-07 2.718 2.718 1 1 1 1 1 1 ||| 0-0 ||| 2 322 1 ||| dom_toy 1
&quot; ||| &quot; working ||| 0.0200073 0.375119 0.000124269 0.000275796 2.718 2.718 1 1 1 1 1 1 ||| 0-0 ||| 2 322 1 ||| dom_toy 1
&quot; ||| &quot; ||| 0.338889 0.375119 0.757764 0.782178 2.718 1 1 1 1 1 1 2.718 ||| 0-0 ||| 720 322 244 ||| dom_toy 1
&quot; ||| , &quot; ||| 0.0103457 0.375119 0.00311655 0.0277158 2.718 1 2.718 1 1 1 1 1 ||| 0-1 ||| 97 322 2 ||| dom_toy 1
&quot; ||| . &quot; The Court rejected the ||| 0.0200073 0.247559 0.000124269 1.02122e-13 2.718 2.718 1 1 1 1 1 1 ||| 0-1 0-2 ||| 2 322 1 ||| dom_toy 1
&quot; ||| . &quot; The Court rejected ||| 0.0200073 0.247559 0.000124269 2.41873e-12 2.718 2.718 1 1 1 1 1 1 ||| 0-1 0-2 ||| 2 322 1 ||| dom_toy 1
&quot; ||| . &quot; The Court ||| 0.0200073 0.247559 0.000124269 1.37194e-08 2.718 2.718 1 1 1 1 1 1 ||| 0-1 0-2 ||| 2 322 1 ||| dom_toy 1
&quot; ||| . &quot; The ||| 0.0133382 0.247559 0.000124269 3.89093e-05 2.718 2.718 1 1 1 1 1 1 ||| 0-1 0-2 ||| 3 322 1 ||| dom_toy 1
&quot; ||| Eliminate Demons ||| 0.0100036 1 0.000124269 1.74456e-07 2.718 2.718 1 1 1 1 1 1 ||| 0-0 ||| 4 322 1 ||| dom_toy 1
&quot; ||| Eliminate ||| 0.0100036 1 0.000124269 0.0019802 2.718 2.718 1 1 1 1 1 1 ||| 0-0 ||| 4 322 1 ||| dom_toy 1
&quot; ||| Out Poisonous Weeds Campaign ||| 0.0133382 0.888889 0.000124269 1.36815e-12 2.718 2.718 1 1 1 1 1 1 ||| 0-1 0-2 0-3 ||| 3 322 1 ||| dom_toy 1
&quot; ||| Poisonous Weeds Campaign ||| 0.0133382 0.888889 0.000124269 1.55295e-08 2.718 2.718 1 1 1 1 1 1 ||| 0-0 0-1 0-2 ||| 3 322 1 ||| dom_toy 1
&quot; ||| Wipe Out Poisonous Weeds Campaign ||| 0.0133382 0.888889 0.000124269 1.20534e-16 2.718 2.718 1 1 1 1 1 1 ||| 0-2 0-3 0-4 ||| 3 322 1 ||| dom_toy 1
&quot; ||| be &quot; ||| 0.00666909 0.375119 0.000124269 0.00530872 2.718 2.718 1 1 1 1 1 1 ||| 0-1 ||| 6 322 1 ||| dom_toy 1
&quot; ||| called a &quot; ||| 0.0400146 0.231419 0.000124269 0.000129698 2.718 2.718 1 1 1 1 1 1 ||| 0-0 0-2 ||| 1 322 1 ||| dom_toy 1
&quot; ||| called ||| 0.000889212 0.0877193 0.000124269 0.009901 2.718 2.718 1 1 1 1 1 1 ||| 0-0 ||| 45 322 1 ||| dom_toy 1
&quot; ||| calls &quot; ||| 0.0200073 0.375119 0.000124269 0.000275796 2.718 2.718 1 1 1 1 1 1 ||| 0-1 ||| 2 322 1 ||| dom_toy 1
&quot; ||| cannot doubt &quot; ||| 0.0133382 0.375119 0.000124269 7.29205e-08 2.718 2.718 1 1 1 1 1 1 ||| 0-2 ||| 3 322 1 ||| dom_toy 1
&quot; ||| coined ||| 0.0200073 1 0.000124269 0.0019802 2.718 2.718 1 1 1 1 1 1 ||| 0-0 ||| 2 322 1 ||| dom_toy 1
&quot; ||| county ||| 0.0200073 0.5 0.000124269 0.0019802 2.718 2.718 1 1 1 1 1 1 ||| 0-0 ||| 2 322 1 ||| dom_toy 1
&quot; ||| distinction ||| 0.0200073 0.333333 0.000124269 0.0019802 2.718 2.718 1 1 1 1 1 1 ||| 0-0 ||| 2 322 1 ||| dom_toy 1
&quot; ||| doubt &quot; ||| 0.0133382 0.375119 0.000124269 0.000206808 2.718 2.718 1 1 1 1 1 1 ||| 0-1 ||| 3 322 1 ||| dom_toy 1
&quot; ||| ended negotiations &quot; ||| 0.0100036 0.375119 0.000124269 3.64602e-08 2.718 2.718 1 1 1 1 1 1 ||| 0-2 ||| 4 322 1 ||| dom_toy 1
&quot; ||| enjoy the &quot; ||| 0.0133382 0.375119 0.000124269 1.16444e-05 2.718 2.718 1 1 1 1 1 1 ||| 0-2 ||| 3 322 1 ||| dom_toy 1
&quot; ||| enlarging ||| 0.0400146 1 0.000124269 0.0019802 2.718 2.718 1 1 1 1 1 1 ||| 0-0 ||| 1 322 1 ||| dom_toy 1
&quot; ||| he said , &quot; ||| 0.0400146 0.375119 0.000124269 4.09107e-08 2.718 2.718 1 1 1 1 1 1 ||| 0-3 ||| 1 322 1 ||| dom_toy 1
&quot; ||| man &quot; ||| 0.0400146 0.375119 0.000124269 6.89099e-05 2.718 2.718 1 1 1 1 1 1 ||| 0-1 ||| 1 322 1 ||| dom_toy 1
&quot; ||| negotiations &quot; ||| 0.00800291 0.375119 0.000124269 0.000206808 2.718 2.718 1 1 1 1 1 1 ||| 0-1 ||| 5 322 1 ||| dom_toy 1
&quot; ||| organization called ||| 0.00400146 0.0877193 0.000124269 1.74555e-06 2.718 2.718 1 1 1 1 1 1 ||| 0-1 ||| 10 322 1 ||| dom_toy 1
&quot; ||| people &quot; &quot; ||| 0.0400146 0.375119 0.000124269 0.000862825 2.718 2.718 1 1 1 1 1 1 ||| 0-1 0-2 ||| 1 322 1 ||| dom_toy 1
&quot; ||| people &quot; ||| 0.0200073 0.375119 0.000124269 0.00110311 2.718 2.718 1 1 1 1 1 1 ||| 0-1 ||| 2 322 1 ||| dom_toy 1
&quot; ||| representation &quot; ||| 0.0200073 0.229226 0.000124269 0.00154887 2.718 2.718 1 1 1 1 1 1 ||| 0-0 0-1 ||| 2 322 1 ||| dom_toy 1
&quot; ||| said , &quot; ||| 0.0400146 0.375119 0.000124269 2.44287e-05 2.718 2.718 1 1 1 1 1 1 ||| 0-2 ||| 1 322 1 ||| dom_toy 1
&quot; ||| say ||| 0.0528173 0.0465116 0.00311655 0.0039604 2.718 1 2.718 1 1 1 1 1 ||| 0-0 ||| 19 322 2 ||| dom_toy 1
&quot; ||| science ||| 0.0528173 0.153846 0.00311655 0.0039604 2.718 1 2.718 1 1 1 1 1 ||| 0-0 ||| 19 322 2 ||| dom_toy 1
&quot; ||| tag ||| 0.0400146 1 0.000124269 0.0019802 2.718 2.718 1 1 1 1 1 1 ||| 0-0 ||| 1 322 1 ||| dom_toy 1
&quot; ||| technological ||| 0.0133382 0.333333 0.000124269 0.0019802 2.718 2.718 1 1 1 1 1 1 ||| 0-0 ||| 3 322 1 ||| dom_toy 1
&quot; ||| the &quot; ||| 0.000909422 0.375119 0.000124269 0.0330245 2.718 2.718 1 1 1 1 1 1 ||| 0-1 ||| 44 322 1 ||| dom_toy 1
&quot; ||| the distinction ||| 0.0200073 0.333333 0.000124269 8.36064e-05 2.718 2.718 1 1 1 1 1 1 ||| 0-1 ||| 2 322 1 ||| dom_toy 1
&quot; ||| unfounded representation &quot; ||| 0.0200073 0.229226 0.000124269 1.36455e-07 2.718 2.718 1 1 1 1 1 1 ||| 0-1 0-2 ||| 2 322 1 ||| dom_toy 1
&quot; ||| virtual &quot; ||| 0.0400146 0.375119 0.000124269 6.89099e-05 2.718 2.718 1 1 1 1 1 1 ||| 0-1 ||| 1 322 1 ||| dom_toy 1
&quot; ||| working people &quot; ||| 0.0200073 0.375119 0.000124269 3.88955e-07 2.718 2.718 1 1 1 1 1 1 ||| 0-2 ||| 2 322 1 ||| dom_toy 1
&quot; ||| you cannot doubt &quot; ||| 0.0133382 0.375119 0.000124269 4.49919e-11 2.718 2.718 1 1 1 1 1 1 ||| 0-3 ||| 3 322 1 ||| dom_toy 1
&quot; ||| ‘ ||| 0.0200073 0.25 0.000124269 0.0019802 2.718 2.718 1 1 1 1 1 1 ||| 0-0 ||| 2 322 1 ||| dom_toy 1
( la ||| ( the ||| 0.00400146 0.160913 0.0200073 0.245217 2.718 2.718 1 1 1 1 1 1 ||| 0-0 1-1 ||| 10 2 1 ||| dom_toy 1
( la ||| - ||| 0.000201078 0.00188288 0.0200073 0.0456432 2.718 2.718 1 1 1 1 1 1 ||| 0-0 ||| 199 2 1 ||| dom_toy 1
( ||| &apos;s -- airline ||| 0.0200073 0.0217984 0.00014498 1.54667e-08 2.718 2.718 1 1 1 1 1 1 ||| 0-1 ||| 2 276 1 ||| dom_toy 1
( ||| &apos;s -- ||| 0.0100036 0.0217984 0.00014498 0.000175558 2.718 2.718 1 1 1 1 1 1 ||| 0-1 ||| 4 276 1 ||| dom_toy 1
( ||| &quot; -- ||| 0.00571636 0.0217984 0.00014498 0.000237002 2.718 2.718 1 1 1 1 1 1 ||| 0-1 ||| 7 276 1 ||| dom_toy 1
( ||| &quot; ||| 5.55758e-05 0.0009497 0.00014498 0.0041494 2.718 2.718 1 1 1 1 1 1 ||| 0-0 ||| 720 276 1 ||| dom_toy 1
( ||| ( &quot; ||| 0.0400146 0.846512 0.00014498 0.00539181 2.718 2.718 1 1 1 1 1 1 ||| 0-0 ||| 1 276 1 ||| dom_toy 1
( ||| ( ACP ||| 0.0200073 0.846512 0.00014498 6.65319e-05 2.718 2.718 1 1 1 1 1 1 ||| 0-0 ||| 2 276 1 ||| dom_toy 1
( ||| ( ANP ||| 0.200706 0.846512 0.00363597 0.000133139 2.718 1 2.718 1 1 1 1 1 ||| 0-0 ||| 5 276 2 ||| dom_toy 1
( ||| ( LDCs ||| 0.0100036 0.846512 0.00014498 6.65319e-05 2.718 2.718 1 1 1 1 1 1 ||| 0-0 ||| 4 276 1 ||| dom_toy 1
( ||| ( NPT ||| 0.0400146 0.846512 0.00014498 0.000133139 2.718 2.718 1 1 1 1 1 1 ||| 0-0 ||| 1 276 1 ||| dom_toy 1
( ||| ( Oregon and Minnesota ||| 0.0100036 0.846512 0.00014498 6.04487e-11 2.718 2.718 1 1 1 1 1 1 ||| 0-0 ||| 4 276 1 ||| dom_toy 1
( ||| ( Oregon and ||| 0.0100036 0.846512 0.00014498 6.86137e-07 2.718 2.718 1 1 1 1 1 1 ||| 0-0 ||| 4 276 1 ||| dom_toy 1
( ||| ( Oregon ||| 0.0100036 0.846512 0.00014498 6.65319e-05 2.718 2.718 1 1 1 1 1 1 ||| 0-0 ||| 4 276 1 ||| dom_toy 1
( ||| ( RSV ||| 0.0200073 0.846512 0.00014498 6.65319e-05 2.718 2.718 1 1 1 1 1 1 ||| 0-0 ||| 2 276 1 ||| dom_toy 1
( ||| ( discussed next ||| 0.0100036 0.846512 0.00014498 4.10502e-08 2.718 2.718 1 1 1 1 1 1 ||| 0-0 ||| 4 276 1 ||| dom_toy 1
( ||| ( discussed ||| 0.0100036 0.846512 0.00014498 6.65319e-05 2.718 2.718 1 1 1 1 1 1 ||| 0-0 ||| 4 276 1 ||| dom_toy 1
( ||| ( from ||| 0.0133382 0.846512 0.00014498 0.00219669 2.718 2.718 1 1 1 1 1 1 ||| 0-0 ||| 3 276 1 ||| dom_toy 1
( ||| ( i.e. , ||| 0.00800291 0.610756 0.00014498 0.000333103 2.718 2.718 1 1 1 1 1 1 ||| 0-0 0-1 ||| 5 276 1 ||| dom_toy 1
( ||| ( i.e. ||| 0.167255 0.610756 0.00363597 0.00940064 2.718 1 2.718 1 1 1 1 1 ||| 0-0 0-1 ||| 6 276 2 ||| dom_toy 1
( ||| ( in ||| 0.0100036 0.846512 0.00014498 0.0135794 2.718 2.718 1 1 1 1 1 1 ||| 0-0 ||| 4 276 1 ||| dom_toy 1
( ||| ( meaning ||| 0.0200073 0.846512 0.00014498 6.65319e-05 2.718 2.718 1 1 1 1 1 1 ||| 0-0 ||| 2 276 1 ||| dom_toy 1
( ||| ( one of ||| 0.0200073 0.846512 0.00014498 2.75997e-05 2.718 2.718 1 1 1 1 1 1 ||| 0-0 ||| 2 276 1 ||| dom_toy 1
( ||| ( one ||| 0.0200073 0.846512 0.00014498 0.0018638 2.718 2.718 1 1 1 1 1 1 ||| 0-0 ||| 2 276 1 ||| dom_toy 1
( ||| ( since saving ||| 0.0200073 0.846512 0.00014498 5.27798e-08 2.718 2.718 1 1 1 1 1 1 ||| 0-0 ||| 2 276 1 ||| dom_toy 1
( ||| ( since ||| 0.0200073 0.846512 0.00014498 0.00059909 2.718 2.718 1 1 1 1 1 1 ||| 0-0 ||| 2 276 1 ||| dom_toy 1
( ||| ( the ||| 0.100353 0.846512 0.00363597 0.0318849 2.718 1 2.718 1 1 1 1 1 ||| 0-0 ||| 10 276 2 ||| dom_toy 1
( ||| ( their ||| 0.0200073 0.846512 0.00014498 0.00232983 2.718 2.718 1 1 1 1 1 1 ||| 0-0 ||| 2 276 1 ||| dom_toy 1
( ||| ( together with ||| 0.0200073 0.846512 0.00014498 1.81881e-06 2.718 2.718 1 1 1 1 1 1 ||| 0-0 ||| 2 276 1 ||| dom_toy 1
( ||| ( together ||| 0.0200073 0.846512 0.00014498 0.000332811 2.718 2.718 1 1 1 1 1 1 ||| 0-0 ||| 2 276 1 ||| dom_toy 1
( ||| ( unknown ||| 0.0133382 0.846512 0.00014498 6.65319e-05 2.718 2.718 1 1 1 1 1 1 ||| 0-0 ||| 3 276 1 ||| dom_toy 1
( ||| ( up ||| 0.0200073 0.846512 0.00014498 0.00299545 2.718 2.718 1 1 1 1 1 1 ||| 0-0 ||| 2 276 1 ||| dom_toy 1
( ||| ( when ||| 0.0400146 0.846512 0.00014498 0.000865368 2.718 2.718 1 1 1 1 1 1 ||| 0-0 ||| 1 276 1 ||| dom_toy 1
( ||| ( written ||| 0.00400146 0.846512 0.00014498 0.000266279 2.718 2.718 1 1 1 1 1 1 ||| 0-0 ||| 10 276 1 ||| dom_toy 1
( ||| ( ||| 0.585284 0.846512 0.634058 0.755187 2.718 1 1 1 1 1 1 2.718 ||| 0-0 ||| 299 276 175 ||| dom_toy 1
( ||| - ||| 0.0502513 0.0607735 0.0362319 0.0456432 2.718 1 1 1 1 1 2.718 1 ||| 0-0 ||| 199 276 10 ||| dom_toy 1
( ||| -- airline ||| 0.0200073 0.0217984 0.00014498 2.92448e-06 2.718 2.718 1 1 1 1 1 1 ||| 0-0 ||| 2 276 1 ||| dom_toy 1
( ||| -- ||| 0.0148215 0.0217984 0.0216953 0.033195 2.718 1 1 1 1 1 2.718 1 ||| 0-0 ||| 404 276 7 ||| dom_toy 1
( ||| . ( ||| 0.0400146 0.846512 0.00014498 0.00632371 2.718 2.718 1 1 1 1 1 1 ||| 0-1 ||| 1 276 1 ||| dom_toy 1
( ||| @-@ western ( ||| 0.0400146 0.846512 0.00014498 2.63999e-06 2.718 2.718 1 1 1 1 1 1 ||| 0-2 ||| 1 276 1 ||| dom_toy 1
( ||| Council ( ||| 0.0200073 0.846512 0.00014498 0.000133139 2.718 2.718 1 1 1 1 1 1 ||| 0-1 ||| 2 276 1 ||| dom_toy 1
( ||| Countries ( LDCs ||| 0.0100036 0.846512 0.00014498 5.86146e-09 2.718 2.718 1 1 1 1 1 1 ||| 0-1 ||| 4 276 1 ||| dom_toy 1
( ||| Countries ( ||| 0.0100036 0.846512 0.00014498 6.65319e-05 2.718 2.718 1 1 1 1 1 1 ||| 0-1 ||| 4 276 1 ||| dom_toy 1
( ||| Dawa ( ||| 0.0200073 0.846512 0.00014498 6.65319e-05 2.718 2.718 1 1 1 1 1 1 ||| 0-1 ||| 2 276 1 ||| dom_toy 1
( ||| Northwest ( Oregon and Minnesota ||| 0.0100036 0.846512 0.00014498 5.32553e-15 2.718 2.718 1 1 1 1 1 1 ||| 0-1 ||| 4 276 1 ||| dom_toy 1
( ||| Northwest ( Oregon and ||| 0.0100036 0.846512 0.00014498 6.04487e-11 2.718 2.718 1 1 1 1 1 1 ||| 0-1 ||| 4 276 1 ||| dom_toy 1
( ||| Northwest ( Oregon ||| 0.0100036 0.846512 0.00014498 5.86146e-09 2.718 2.718 1 1 1 1 1 1 ||| 0-1 ||| 4 276 1 ||| dom_toy 1
( ||| Northwest ( ||| 0.0100036 0.846512 0.00014498 6.65319e-05 2.718 2.718 1 1 1 1 1 1 ||| 0-1 ||| 4 276 1 ||| dom_toy 1
( ||| Nuclear Research ( ||| 0.0100036 0.846512 0.00014498 1.7591e-08 2.718 2.718 1 1 1 1 1 1 ||| 0-2 ||| 4 276 1 ||| dom_toy 1
( ||| Prosperity ( ||| 0.0400146 0.846512 0.00014498 6.65319e-05 2.718 2.718 1 1 1 1 1 1 ||| 0-1 ||| 1 276 1 ||| dom_toy 1
( ||| Quo ( written ||| 0.00444606 0.846512 0.00014498 2.34592e-08 2.718 2.718 1 1 1 1 1 1 ||| 0-1 ||| 9 276 1 ||| dom_toy 1
( ||| Quo ( ||| 0.00444606 0.846512 0.00014498 6.65319e-05 2.718 2.718 1 1 1 1 1 1 ||| 0-1 ||| 9 276 1 ||| dom_toy 1
( ||| Research ( ||| 0.0100036 0.846512 0.00014498 6.65319e-05 2.718 2.718 1 1 1 1 1 1 ||| 0-1 ||| 4 276 1 ||| dom_toy 1
( ||| Russia ( ||| 0.0200073 0.846512 0.00014498 0.000865368 2.718 2.718 1 1 1 1 1 1 ||| 0-1 ||| 2 276 1 ||| dom_toy 1
( ||| Status Quo ( written ||| 0.00444606 0.846512 0.00014498 2.06675e-12 2.718 2.718 1 1 1 1 1 1 ||| 0-2 ||| 9 276 1 ||| dom_toy 1
( ||| Status Quo ( ||| 0.00444606 0.846512 0.00014498 5.86146e-09 2.718 2.718 1 1 1 1 1 1 ||| 0-2 ||| 9 276 1 ||| dom_toy 1
( ||| TOTAL ( ||| 0.0400146 0.846512 0.00014498 6.65319e-05 2.718 2.718 1 1 1 1 1 1 ||| 0-1 ||| 1 276 1 ||| dom_toy 1
( ||| a family ( ||| 0.0100036 0.846512 0.00014498 3.344e-06 2.718 2.718 1 1 1 1 1 1 ||| 0-2 ||| 4 276 1 ||| dom_toy 1
( ||| burden ( ||| 0.0400146 0.846512 0.00014498 6.65319e-05 2.718 2.718 1 1 1 1 1 1 ||| 0-1 ||| 1 276 1 ||| dom_toy 1
( ||| called EUSEC ||| 0.0133382 0.0175439 0.00014498 3.65562e-07 2.718 2.718 1 1 1 1 1 1 ||| 0-0 ||| 3 276 1 ||| dom_toy 1
( ||| called ||| 0.000889212 0.0175439 0.00014498 0.0041494 2.718 2.718 1 1 1 1 1 1 ||| 0-0 ||| 45 276 1 ||| dom_toy 1
( ||| capacity . ( ||| 0.0400146 0.846512 0.00014498 5.57119e-07 2.718 2.718 1 1 1 1 1 1 ||| 0-2 ||| 1 276 1 ||| dom_toy 1
( ||| cell ( ||| 0.0100036 0.846512 0.00014498 0.000199671 2.718 2.718 1 1 1 1 1 1 ||| 0-1 ||| 4 276 1 ||| dom_toy 1
( ||| commit themselves ( ||| 0.0400146 0.846512 0.00014498 2.34592e-08 2.718 2.718 1 1 1 1 1 1 ||| 0-2 ||| 1 276 1 ||| dom_toy 1
( ||| company TOTAL ( ||| 0.0400146 0.846512 0.00014498 5.86146e-09 2.718 2.718 1 1 1 1 1 1 ||| 0-2 ||| 1 276 1 ||| dom_toy 1
( ||| consortium ( ||| 0.0400146 0.846512 0.00014498 0.000133139 2.718 2.718 1 1 1 1 1 1 ||| 0-1 ||| 1 276 1 ||| dom_toy 1
( ||| contributions ( up ||| 0.0200073 0.846512 0.00014498 1.05619e-06 2.718 2.718 1 1 1 1 1 1 ||| 0-1 ||| 2 276 1 ||| dom_toy 1
( ||| contributions ( ||| 0.0200073 0.846512 0.00014498 0.000266279 2.718 2.718 1 1 1 1 1 1 ||| 0-1 ||| 2 276 1 ||| dom_toy 1
( ||| effort ( ||| 0.0100036 0.846512 0.00014498 0.00046595 2.718 2.718 1 1 1 1 1 1 ||| 0-1 ||| 4 276 1 ||| dom_toy 1
( ||| essence - ||| 0.0400146 0.0607735 0.00014498 4.02117e-06 2.718 2.718 1 1 1 1 1 1 ||| 0-1 ||| 1 276 1 ||| dom_toy 1
( ||| exposed ( ||| 0.0400146 0.846512 0.00014498 0.000199671 2.718 2.718 1 1 1 1 1 1 ||| 0-1 ||| 1 276 1 ||| dom_toy 1
( ||| family ( ||| 0.0100036 0.846512 0.00014498 0.000199671 2.718 2.718 1 1 1 1 1 1 ||| 0-1 ||| 4 276 1 ||| dom_toy 1
( ||| in a family ( ||| 0.0100036 0.846512 0.00014498 6.01301e-08 2.718 2.718 1 1 1 1 1 1 ||| 0-3 ||| 4 276 1 ||| dom_toy 1
( ||| in office ( ||| 0.0400146 0.846512 0.00014498 2.39405e-06 2.718 2.718 1 1 1 1 1 1 ||| 0-2 ||| 1 276 1 ||| dom_toy 1
( ||| legislate - ||| 0.0200073 0.0607735 0.00014498 4.02117e-06 2.718 2.718 1 1 1 1 1 1 ||| 0-1 ||| 2 276 1 ||| dom_toy 1
( ||| movements ( from ||| 0.0200073 0.846512 0.00014498 5.80804e-07 2.718 2.718 1 1 1 1 1 1 ||| 0-1 ||| 2 276 1 ||| dom_toy 1
( ||| movements ( ||| 0.0200073 0.846512 0.00014498 0.000199671 2.718 2.718 1 1 1 1 1 1 ||| 0-1 ||| 2 276 1 ||| dom_toy 1
( ||| office ( ||| 0.0400146 0.846512 0.00014498 0.000133139 2.718 2.718 1 1 1 1 1 1 ||| 0-1 ||| 1 276 1 ||| dom_toy 1
( ||| one ( ||| 0.0400146 0.846512 0.00014498 0.0018638 2.718 2.718 1 1 1 1 1 1 ||| 0-1 ||| 1 276 1 ||| dom_toy 1
( ||| population ( ||| 0.0400146 0.846512 0.00014498 6.65319e-05 2.718 2.718 1 1 1 1 1 1 ||| 0-1 ||| 1 276 1 ||| dom_toy 1
( ||| present ( ||| 0.0100036 0.846512 0.00014498 0.000665622 2.718 2.718 1 1 1 1 1 1 ||| 0-1 ||| 4 276 1 ||| dom_toy 1
( ||| professionals ( ||| 0.0133382 0.846512 0.00014498 0.000133139 2.718 2.718 1 1 1 1 1 1 ||| 0-1 ||| 3 276 1 ||| dom_toy 1
( ||| remedial capacity . ( ||| 0.0400146 0.846512 0.00014498 4.90821e-11 2.718 2.718 1 1 1 1 1 1 ||| 0-3 ||| 1 276 1 ||| dom_toy 1
( ||| that legislate - ||| 0.0200073 0.0607735 0.00014498 3.72167e-08 2.718 2.718 1 1 1 1 1 1 ||| 0-2 ||| 2 276 1 ||| dom_toy 1
( ||| themselves ( ||| 0.0400146 0.846512 0.00014498 0.000266279 2.718 2.718 1 1 1 1 1 1 ||| 0-1 ||| 1 276 1 ||| dom_toy 1
( ||| western ( ||| 0.0400146 0.846512 0.00014498 0.000199671 2.718 2.718 1 1 1 1 1 1 ||| 0-1 ||| 1 276 1 ||| dom_toy 1
) , ||| ) , gas ||| 0.0200073 0.560373 0.00105301 4.86817e-05 2.718 2.718 1 1 1 1 1 1 ||| 0-0 1-1 ||| 2 38 1 ||| dom_toy 1
) , ||| ) , ||| 0.47619 0.560373 0.526316 0.552573 2.718 1 1 1 1 1 1 2.718 ||| 0-0 1-1 ||| 42 38 20 ||| dom_toy 1
) , ||| ) had ||| 0.0133382 0.0198656 0.00105301 0.001263 2.718 2.718 1 1 1 1 1 1 ||| 0-0 ||| 3 38 1 ||| dom_toy 1
) , ||| ) ||| 0.0206479 0.0198656 0.157576 0.754167 2.718 1 1 1 1 1 2.718 1 ||| 0-0 ||| 290 38 7 ||| dom_toy 1
) , ||| , ||| 0.000175473 0.000847057 0.0264086 0.732693 2.718 1 2.718 1 1 1 1 1 ||| 1-0 ||| 5719 38 2 ||| dom_toy 1
) , ||| - ||| 0.00504286 0.0174598 0.0264086 0.0305446 2.718 1 2.718 1 1 1 1 1 ||| 0-0 1-0 ||| 199 38 2 ||| dom_toy 1
) , ||| -- ||| 0.00248398 0.00522686 0.0264086 0.0235892 2.718 1 2.718 1 1 1 1 1 ||| 0-0 1-0 ||| 404 38 2 ||| dom_toy 1
) , ||| ANP ) ||| 0.00571636 0.0198656 0.00105301 0.00013296 2.718 2.718 1 1 1 1 1 1 ||| 0-1 ||| 7 38 1 ||| dom_toy 1
) , ||| chosen , ||| 0.00800291 0.000847057 0.00105301 0.000129174 2.718 2.718 1 1 1 1 1 1 ||| 1-1 ||| 5 38 1 ||| dom_toy 1
) , ||| lie ) ||| 0.0200073 0.0198656 0.00105301 0.00013296 2.718 2.718 1 1 1 1 1 1 ||| 0-1 ||| 2 38 1 ||| dom_toy 1
) . ||| ) . ||| 0.72093 0.815613 0.607843 0.734817 2.718 1 1 1 1 1 1 2.718 ||| 0-0 1-1 ||| 43 51 31 ||| dom_toy 1
) . ||| ) ||| 0.000137981 0.00292523 0.000784599 0.754167 2.718 2.718 1 1 1 1 1 1 ||| 0-0 ||| 290 51 1 ||| dom_toy 1
) . ||| . ) ||| 0.0200073 0.815613 0.000784599 0.734817 2.718 2.718 1 1 1 1 1 1 ||| 1-0 0-1 ||| 2 51 1 ||| dom_toy 1
) . ||| . entry ||| 0.0200073 0.00123288 0.000784599 0.000429393 2.718 2.718 1 1 1 1 1 1 ||| 1-0 ||| 2 51 1 ||| dom_toy 1
) . ||| . ||| 0.0013503 0.00123288 0.134183 0.495505 2.718 1 1 1 1 1 2.718 1 ||| 0-0 1-0 ||| 5068 51 8 ||| dom_toy 1
) . ||| @-@ invasion predictions . ||| 0.0400146 0.0024909 0.000784599 9.45309e-11 2.718 2.718 1 1 1 1 1 1 ||| 0-0 1-3 ||| 1 51 1 ||| dom_toy 1
) . ||| admit ) ||| 0.0100036 0.00292523 0.000784599 6.64421e-05 2.718 2.718 1 1 1 1 1 1 ||| 0-1 ||| 4 51 1 ||| dom_toy 1
) . ||| appears ) . ||| 0.0200073 0.815613 0.000784599 0.000194286 2.718 2.718 1 1 1 1 1 1 ||| 0-1 1-2 ||| 2 51 1 ||| dom_toy 1
) . ||| available ) . ||| 0.0400146 0.815613 0.000784599 0.000194286 2.718 2.718 1 1 1 1 1 1 ||| 0-1 1-2 ||| 1 51 1 ||| dom_toy 1
) . ||| discussed next ) . ||| 0.0100036 0.815613 0.000784599 3.9943e-08 2.718 2.718 1 1 1 1 1 1 ||| 0-2 1-3 ||| 4 51 1 ||| dom_toy 1
) . ||| force . ||| 0.00571636 0.000795394 0.000784599 0.000567799 2.718 2.718 1 1 1 1 1 1 ||| 0-1 1-1 ||| 7 51 1 ||| dom_toy 1
) . ||| least ) . ||| 0.0400146 0.815613 0.000784599 0.000259096 2.718 2.718 1 1 1 1 1 1 ||| 0-1 1-2 ||| 1 51 1 ||| dom_toy 1
) . ||| next ) . ||| 0.0100036 0.815613 0.000784599 0.000453382 2.718 2.718 1 1 1 1 1 1 ||| 0-1 1-2 ||| 4 51 1 ||| dom_toy 1
) . ||| post @-@ invasion predictions . ||| 0.0400146 0.0024909 0.000784599 2.4994e-14 2.718 2.718 1 1 1 1 1 1 ||| 0-1 1-4 ||| 1 51 1 ||| dom_toy 1
) a ||| ) have become a ||| 0.0400146 0.00510267 0.00266764 4.55273e-08 2.718 2.718 1 1 1 1 1 1 ||| 0-0 1-3 ||| 1 15 1 ||| dom_toy 1
) a ||| ) ||| 0.000137981 0.00833917 0.00266764 0.754167 2.718 2.718 1 1 1 1 1 1 ||| 0-0 ||| 290 15 1 ||| dom_toy 1
) a ||| -- has now mutated into ||| 0.0133382 0.00928771 0.00266764 1.69099e-12 2.718 2.718 1 1 1 1 1 1 ||| 0-0 1-1 ||| 3 15 1 ||| dom_toy 1
) a ||| -- has now mutated ||| 0.0133382 0.00928771 0.00266764 1.00972e-09 2.718 2.718 1 1 1 1 1 1 ||| 0-0 1-1 ||| 3 15 1 ||| dom_toy 1
) a ||| -- has now ||| 0.0133382 0.00928771 0.00266764 1.14611e-05 2.718 2.718 1 1 1 1 1 1 ||| 0-0 1-1 ||| 3 15 1 ||| dom_toy 1
) a ||| -- has ||| 0.00800291 0.00928771 0.00266764 0.0076484 2.718 2.718 1 1 1 1 1 1 ||| 0-0 1-1 ||| 5 15 1 ||| dom_toy 1
) a ||| -- ||| 9.90459e-05 0.000213919 0.00266764 0.0333333 2.718 2.718 1 1 1 1 1 1 ||| 0-0 ||| 404 15 1 ||| dom_toy 1
) a ||| Albanians -- ||| 0.0133382 0.000213919 0.00266764 2.93666e-06 2.718 2.718 1 1 1 1 1 1 ||| 0-1 ||| 3 15 1 ||| dom_toy 1
) a ||| Olympics -- has now mutated into ||| 0.0133382 0.00928771 0.00266764 1.48976e-16 2.718 2.718 1 1 1 1 1 1 ||| 0-1 1-2 ||| 3 15 1 ||| dom_toy 1
) a ||| Olympics -- has now mutated ||| 0.0133382 0.00928771 0.00266764 8.89567e-14 2.718 2.718 1 1 1 1 1 1 ||| 0-1 1-2 ||| 3 15 1 ||| dom_toy 1
) a ||| Olympics -- has now ||| 0.0133382 0.00928771 0.00266764 1.00972e-09 2.718 2.718 1 1 1 1 1 1 ||| 0-1 1-2 ||| 3 15 1 ||| dom_toy 1
) a ||| Olympics -- has ||| 0.0133382 0.00928771 0.00266764 6.73824e-07 2.718 2.718 1 1 1 1 1 1 ||| 0-1 1-2 ||| 3 15 1 ||| dom_toy 1
) a ||| about the ||| 0.000930571 7.3142e-06 0.00266764 7.09386e-05 2.718 2.718 1 1 1 1 1 1 ||| 1-1 ||| 43 15 1 ||| dom_toy 1
) a ||| bandied about the ||| 0.0200073 7.3142e-06 0.00266764 6.24969e-09 2.718 2.718 1 1 1 1 1 1 ||| 1-2 ||| 2 15 1 ||| dom_toy 1
) a ||| the ||| 7.22545e-06 7.3142e-06 0.00266764 0.0402397 2.718 2.718 1 1 1 1 1 1 ||| 1-0 ||| 5538 15 1 ||| dom_toy 1
) alors ||| ) then ||| 0.0200073 0.141628 0.0400146 0.106567 2.718 2.718 1 1 1 1 1 1 ||| 0-0 1-1 ||| 2 1 1 ||| dom_toy 1
) et ||| ) , and ||| 0.00444606 0.34932 0.00181884 0.0418937 2.718 2.718 1 1 1 1 1 1 ||| 0-0 1-1 1-2 ||| 9 22 1 ||| dom_toy 1
) et ||| ) and equivalent ||| 0.0400146 0.670362 0.00181884 0.000103873 2.718 2.718 1 1 1 1 1 1 ||| 0-0 1-1 ||| 1 22 1 ||| dom_toy 1
) et ||| ) and ||| 0.273733 0.670362 0.31106 0.589186 2.718 1 1 1 1 1 2.718 1 ||| 0-0 1-1 ||| 25 22 8 ||| dom_toy 1
) et ||| ) ||| 0.000137981 0.00868843 0.00181884 0.754167 2.718 2.718 1 1 1 1 1 1 ||| 0-0 ||| 290 22 1 ||| dom_toy 1
) et ||| -- and ||| 0.00108147 0.0171963 0.00181884 0.0260413 2.718 2.718 1 1 1 1 1 1 ||| 0-0 1-1 ||| 37 22 1 ||| dom_toy 1
) et ||| EUPOL and ||| 0.0100036 0.00101331 0.00181884 6.88273e-05 2.718 2.718 1 1 1 1 1 1 ||| 1-1 ||| 4 22 1 ||| dom_toy 1
) et ||| LDCs ) and ||| 0.0100036 0.670362 0.00181884 5.19072e-05 2.718 2.718 1 1 1 1 1 1 ||| 0-1 1-2 ||| 4 22 1 ||| dom_toy 1
) et ||| and reviving the ||| 0.0400146 0.000241002 0.00181884 1.46073e-06 2.718 2.718 1 1 1 1 1 1 ||| 0-0 1-0 ||| 1 22 1 ||| dom_toy 1
) et ||| and reviving ||| 0.0400146 0.000241002 0.00181884 3.45972e-05 2.718 2.718 1 1 1 1 1 1 ||| 0-0 1-0 ||| 1 22 1 ||| dom_toy 1
) et ||| and ||| 0.000922596 0.00101331 0.139689 0.781241 2.718 1 1 1 2.718 1 1 1 ||| 1-0 ||| 3331 22 4 ||| dom_toy 1
) et ||| nice ) and ||| 0.0200073 0.670362 0.00181884 5.19072e-05 2.718 2.718 1 1 1 1 1 1 ||| 0-1 1-2 ||| 2 22 1 ||| dom_toy 1
) et ||| sounds nice ) and ||| 0.0200073 0.670362 0.00181884 4.57303e-09 2.718 2.718 1 1 1 1 1 1 ||| 0-2 1-3 ||| 2 22 1 ||| dom_toy 1
) ||| &quot; ? - ||| 0.0400146 0.0718232 0.000147112 1.70434e-07 2.718 2.718 1 1 1 1 1 1 ||| 0-2 ||| 1 272 1 ||| dom_toy 1
) ||| ) , as ||| 0.0200073 0.849765 0.000147112 0.000169596 2.718 2.718 1 1 1 1 1 1 ||| 0-0 ||| 2 272 1 ||| dom_toy 1
) ||| ) , ||| 0.0238935 0.849765 0.00368944 0.0267232 2.718 1 2.718 1 1 1 1 1 ||| 0-0 ||| 42 272 2 ||| dom_toy 1
) ||| ) - ||| 0.0200073 0.460794 0.000147112 0.0408507 2.718 2.718 1 1 1 1 1 1 ||| 0-0 0-1 ||| 2 272 1 ||| dom_toy 1
) ||| ) . at the ||| 0.0200073 0.849765 0.000147112 9.16581e-07 2.718 2.718 1 1 1 1 1 1 ||| 0-0 ||| 2 272 1 ||| dom_toy 1
) ||| ) . at ||| 0.0200073 0.849765 0.000147112 2.1709e-05 2.718 2.718 1 1 1 1 1 1 ||| 0-0 ||| 2 272 1 ||| dom_toy 1
) ||| ) . ||| 0.000930571 0.849765 0.000147112 0.00631517 2.718 2.718 1 1 1 1 1 1 ||| 0-0 ||| 43 272 1 ||| dom_toy 1
) ||| ) are associated with ||| 0.0200073 0.849765 0.000147112 6.2435e-09 2.718 2.718 1 1 1 1 1 1 ||| 0-0 ||| 2 272 1 ||| dom_toy 1
) ||| ) are associated ||| 0.0200073 0.849765 0.000147112 1.14245e-06 2.718 2.718 1 1 1 1 1 1 ||| 0-0 ||| 2 272 1 ||| dom_toy 1
) ||| ) are ||| 0.00500182 0.849765 0.000147112 0.00432092 2.718 2.718 1 1 1 1 1 1 ||| 0-0 ||| 8 272 1 ||| dom_toy 1
) ||| ) come ||| 0.0100036 0.849765 0.000147112 0.0008642 2.718 2.718 1 1 1 1 1 1 ||| 0-0 ||| 4 272 1 ||| dom_toy 1
) ||| ) concluded ||| 0.0133382 0.849765 0.000147112 0.000332361 2.718 2.718 1 1 1 1 1 1 ||| 0-0 ||| 3 272 1 ||| dom_toy 1
) ||| ) disappears ||| 0.0400146 0.849765 0.000147112 0.00013296 2.718 2.718 1 1 1 1 1 1 ||| 0-0 ||| 1 272 1 ||| dom_toy 1
) ||| ) had ||| 0.0133382 0.849765 0.000147112 0.001263 2.718 2.718 1 1 1 1 1 1 ||| 0-0 ||| 3 272 1 ||| dom_toy 1
) ||| ) have become ||| 0.0400146 0.849765 0.000147112 3.54505e-06 2.718 2.718 1 1 1 1 1 1 ||| 0-0 ||| 1 272 1 ||| dom_toy 1
) ||| ) have joined ||| 0.0200073 0.849765 0.000147112 1.28918e-06 2.718 2.718 1 1 1 1 1 1 ||| 0-0 ||| 2 272 1 ||| dom_toy 1
) ||| ) have ||| 0.334509 0.849765 0.00368944 0.0036562 2.718 1 2.718 1 1 1 1 1 ||| 0-0 ||| 3 272 2 ||| dom_toy 1
) ||| ) offers ||| 0.0400146 0.849765 0.000147112 0.000332361 2.718 2.718 1 1 1 1 1 1 ||| 0-0 ||| 1 272 1 ||| dom_toy 1
) ||| ) raise ||| 0.00666909 0.849765 0.000147112 0.000332361 2.718 2.718 1 1 1 1 1 1 ||| 0-0 ||| 6 272 1 ||| dom_toy 1
) ||| ) raised a ||| 0.0400146 0.849765 0.000147112 6.68022e-06 2.718 2.718 1 1 1 1 1 1 ||| 0-0 ||| 1 272 1 ||| dom_toy 1
) ||| ) raised ||| 0.0400146 0.849765 0.000147112 0.000398879 2.718 2.718 1 1 1 1 1 1 ||| 0-0 ||| 1 272 1 ||| dom_toy 1
) ||| ) remained virtually unchanged ||| 0.0200073 0.849765 0.000147112 1.54768e-12 2.718 2.718 1 1 1 1 1 1 ||| 0-0 ||| 2 272 1 ||| dom_toy 1
) ||| ) remained virtually ||| 0.0200073 0.849765 0.000147112 1.75673e-08 2.718 2.718 1 1 1 1 1 1 ||| 0-0 ||| 2 272 1 ||| dom_toy 1
) ||| ) remained ||| 0.0200073 0.849765 0.000147112 0.000199402 2.718 2.718 1 1 1 1 1 1 ||| 0-0 ||| 2 272 1 ||| dom_toy 1
) ||| ) solely ||| 0.0200073 0.849765 0.000147112 0.000332361 2.718 2.718 1 1 1 1 1 1 ||| 0-0 ||| 2 272 1 ||| dom_toy 1
) ||| ) succeeded in getting ||| 0.0400146 0.849765 0.000147112 4.21261e-10 2.718 2.718 1 1 1 1 1 1 ||| 0-0 ||| 1 272 1 ||| dom_toy 1
) ||| ) succeeded in ||| 0.0400146 0.849765 0.000147112 1.19473e-06 2.718 2.718 1 1 1 1 1 1 ||| 0-0 ||| 1 272 1 ||| dom_toy 1
) ||| ) succeeded ||| 0.0400146 0.849765 0.000147112 6.64421e-05 2.718 2.718 1 1 1 1 1 1 ||| 0-0 ||| 1 272 1 ||| dom_toy 1
) ||| ) suggested ||| 0.00666909 0.849765 0.000147112 0.000265919 2.718 2.718 1 1 1 1 1 1 ||| 0-0 ||| 6 272 1 ||| dom_toy 1
) ||| ) the standard ||| 0.0400146 0.849765 0.000147112 8.41898e-06 2.718 2.718 1 1 1 1 1 1 ||| 0-0 ||| 1 272 1 ||| dom_toy 1
) ||| ) the ||| 0.0200073 0.849765 0.000147112 0.0318418 2.718 2.718 1 1 1 1 1 1 ||| 0-0 ||| 2 272 1 ||| dom_toy 1
) ||| ) will ||| 0.0400146 0.849765 0.000147112 0.00418796 2.718 2.718 1 1 1 1 1 1 ||| 0-0 ||| 1 272 1 ||| dom_toy 1
) ||| ) worries ||| 0.0400146 0.849765 0.000147112 0.00013296 2.718 2.718 1 1 1 1 1 1 ||| 0-0 ||| 1 272 1 ||| dom_toy 1
) ||| ) ||| 0.6 0.849765 0.639706 0.754167 2.718 1 1 1 1 1 1 2.718 ||| 0-0 ||| 290 272 174 ||| dom_toy 1
) ||| , say ) ||| 0.0400146 0.849765 0.000147112 1.64882e-05 2.718 2.718 1 1 1 1 1 1 ||| 0-2 ||| 1 272 1 ||| dom_toy 1
) ||| - ||| 0.03009 0.0718232 0.0220143 0.0541667 2.718 1 1 1 1 1 2.718 1 ||| 0-0 ||| 199 272 7 ||| dom_toy 1
) ||| -- is ||| 0.00400146 0.0217984 0.000147112 0.000329073 2.718 2.718 1 1 1 1 1 1 ||| 0-0 ||| 10 272 1 ||| dom_toy 1
) ||| -- ||| 0.00950857 0.0217984 0.014123 0.0333333 2.718 1 1 1 1 2.718 1 1 ||| 0-0 ||| 404 272 5 ||| dom_toy 1
) ||| ? - ||| 0.0400146 0.0718232 0.000147112 2.38713e-05 2.718 2.718 1 1 1 1 1 1 ||| 0-1 ||| 1 272 1 ||| dom_toy 1
) ||| @-@ based agenda ||| 0.0400146 0.0025952 0.000147112 2.13676e-09 2.718 2.718 1 1 1 1 1 1 ||| 0-0 ||| 1 272 1 ||| dom_toy 1
) ||| @-@ based ||| 0.0023538 0.0025952 0.000147112 1.212e-05 2.718 2.718 1 1 1 1 1 1 ||| 0-0 ||| 17 272 1 ||| dom_toy 1
) ||| @-@ invasion predictions ||| 0.0400146 0.0025952 0.000147112 9.70201e-11 2.718 2.718 1 1 1 1 1 1 ||| 0-0 ||| 1 272 1 ||| dom_toy 1
) ||| @-@ invasion ||| 0.0400146 0.0025952 0.000147112 1.10125e-06 2.718 2.718 1 1 1 1 1 1 ||| 0-0 ||| 1 272 1 ||| dom_toy 1
) ||| @-@ ||| 0.0015068 0.0025952 0.00368944 0.0125 2.718 1 2.718 1 1 1 1 1 ||| 0-0 ||| 666 272 2 ||| dom_toy 1
) ||| ACP ) ||| 0.0200073 0.849765 0.000147112 6.64421e-05 2.718 2.718 1 1 1 1 1 1 ||| 0-1 ||| 2 272 1 ||| dom_toy 1
) ||| ANP ) ||| 0.143361 0.849765 0.00368944 0.00013296 2.718 1 2.718 1 1 1 1 1 ||| 0-1 ||| 7 272 2 ||| dom_toy 1
) ||| Albanians -- ||| 0.0133382 0.0217984 0.000147112 2.93666e-06 2.718 2.718 1 1 1 1 1 1 ||| 0-1 ||| 3 272 1 ||| dom_toy 1
) ||| Bahr ) suggested ||| 0.00666909 0.849765 0.000147112 2.34275e-08 2.718 2.718 1 1 1 1 1 1 ||| 0-1 ||| 6 272 1 ||| dom_toy 1
) ||| Bahr ) ||| 0.00666909 0.849765 0.000147112 6.64421e-05 2.718 2.718 1 1 1 1 1 1 ||| 0-1 ||| 6 272 1 ||| dom_toy 1
) ||| Egon Bahr ) suggested ||| 0.00666909 0.849765 0.000147112 2.06396e-12 2.718 2.718 1 1 1 1 1 1 ||| 0-2 ||| 6 272 1 ||| dom_toy 1
) ||| Egon Bahr ) ||| 0.00666909 0.849765 0.000147112 5.85355e-09 2.718 2.718 1 1 1 1 1 1 ||| 0-2 ||| 6 272 1 ||| dom_toy 1
) ||| LDCs ) ||| 0.0200073 0.849765 0.000147112 6.64421e-05 2.718 2.718 1 1 1 1 1 1 ||| 0-1 ||| 2 272 1 ||| dom_toy 1
) ||| Muslims ) ||| 0.0400146 0.849765 0.000147112 0.00013296 2.718 2.718 1 1 1 1 1 1 ||| 0-1 ||| 1 272 1 ||| dom_toy 1
) ||| NPT ) ||| 0.0400146 0.849765 0.000147112 0.00013296 2.718 2.718 1 1 1 1 1 1 ||| 0-1 ||| 1 272 1 ||| dom_toy 1
) ||| Netherlands ) ||| 0.0400146 0.849765 0.000147112 6.64421e-05 2.718 2.718 1 1 1 1 1 1 ||| 0-1 ||| 1 272 1 ||| dom_toy 1
) ||| Olympics -- ||| 0.0400146 0.0217984 0.000147112 2.93666e-06 2.718 2.718 1 1 1 1 1 1 ||| 0-1 ||| 1 272 1 ||| dom_toy 1
) ||| RSV ) are associated with ||| 0.0200073 0.849765 0.000147112 5.50052e-13 2.718 2.718 1 1 1 1 1 1 ||| 0-1 ||| 2 272 1 ||| dom_toy 1
) ||| RSV ) are associated ||| 0.0200073 0.849765 0.000147112 1.0065e-10 2.718 2.718 1 1 1 1 1 1 ||| 0-1 ||| 2 272 1 ||| dom_toy 1
) ||| RSV ) are ||| 0.0200073 0.849765 0.000147112 3.80673e-07 2.718 2.718 1 1 1 1 1 1 ||| 0-1 ||| 2 272 1 ||| dom_toy 1
) ||| RSV ) ||| 0.0200073 0.849765 0.000147112 6.64421e-05 2.718 2.718 1 1 1 1 1 1 ||| 0-1 ||| 2 272 1 ||| dom_toy 1
) ||| Rose ) ||| 0.0400146 0.849765 0.000147112 6.64421e-05 2.718 2.718 1 1 1 1 1 1 ||| 0-1 ||| 1 272 1 ||| dom_toy 1
) ||| admit ) ||| 0.0100036 0.849765 0.000147112 6.64421e-05 2.718 2.718 1 1 1 1 1 1 ||| 0-1 ||| 4 272 1 ||| dom_toy 1
) ||| appears ) ||| 0.0200073 0.849765 0.000147112 0.000199402 2.718 2.718 1 1 1 1 1 1 ||| 0-1 ||| 2 272 1 ||| dom_toy 1
) ||| available ) ||| 0.0400146 0.849765 0.000147112 0.000199402 2.718 2.718 1 1 1 1 1 1 ||| 0-1 ||| 1 272 1 ||| dom_toy 1
) ||| blood cells ) ||| 0.0400146 0.849765 0.000147112 5.85355e-09 2.718 2.718 1 1 1 1 1 1 ||| 0-2 ||| 1 272 1 ||| dom_toy 1
) ||| cells ) ||| 0.0400146 0.849765 0.000147112 6.64421e-05 2.718 2.718 1 1 1 1 1 1 ||| 0-1 ||| 1 272 1 ||| dom_toy 1
) ||| corps ) worries ||| 0.0400146 0.849765 0.000147112 1.17137e-08 2.718 2.718 1 1 1 1 1 1 ||| 0-1 ||| 1 272 1 ||| dom_toy 1
) ||| corps ) ||| 0.0400146 0.849765 0.000147112 6.64421e-05 2.718 2.718 1 1 1 1 1 1 ||| 0-1 ||| 1 272 1 ||| dom_toy 1
) ||| discussed next ) ||| 0.0100036 0.849765 0.000147112 4.09948e-08 2.718 2.718 1 1 1 1 1 1 ||| 0-2 ||| 4 272 1 ||| dom_toy 1
) ||| equivalents ) come ||| 0.0100036 0.849765 0.000147112 7.6136e-08 2.718 2.718 1 1 1 1 1 1 ||| 0-1 ||| 4 272 1 ||| dom_toy 1
) ||| equivalents ) ||| 0.0100036 0.849765 0.000147112 6.64421e-05 2.718 2.718 1 1 1 1 1 1 ||| 0-1 ||| 4 272 1 ||| dom_toy 1
) ||| fiasco ) ||| 0.0400146 0.849765 0.000147112 6.64421e-05 2.718 2.718 1 1 1 1 1 1 ||| 0-1 ||| 1 272 1 ||| dom_toy 1
) ||| following ) ||| 0.0100036 0.849765 0.000147112 6.64421e-05 2.718 2.718 1 1 1 1 1 1 ||| 0-1 ||| 4 272 1 ||| dom_toy 1
) ||| fund ) ||| 0.0200073 0.849765 0.000147112 6.64421e-05 2.718 2.718 1 1 1 1 1 1 ||| 0-1 ||| 2 272 1 ||| dom_toy 1
) ||| least ) ||| 0.0400146 0.849765 0.000147112 0.000265919 2.718 2.718 1 1 1 1 1 1 ||| 0-1 ||| 1 272 1 ||| dom_toy 1
) ||| lie ) ||| 0.0200073 0.849765 0.000147112 0.00013296 2.718 2.718 1 1 1 1 1 1 ||| 0-1 ||| 2 272 1 ||| dom_toy 1
) ||| next ) ||| 0.0100036 0.849765 0.000147112 0.000465321 2.718 2.718 1 1 1 1 1 1 ||| 0-1 ||| 4 272 1 ||| dom_toy 1
) ||| nice ) ||| 0.0400146 0.849765 0.000147112 6.64421e-05 2.718 2.718 1 1 1 1 1 1 ||| 0-1 ||| 1 272 1 ||| dom_toy 1
) ||| nowadays ) ||| 0.0100036 0.849765 0.000147112 0.000199402 2.718 2.718 1 1 1 1 1 1 ||| 0-1 ||| 4 272 1 ||| dom_toy 1
) ||| post @-@ invasion predictions ||| 0.0400146 0.0025952 0.000147112 2.56521e-14 2.718 2.718 1 1 1 1 1 1 ||| 0-1 ||| 1 272 1 ||| dom_toy 1
) ||| post @-@ invasion ||| 0.0400146 0.0025952 0.000147112 2.91171e-10 2.718 2.718 1 1 1 1 1 1 ||| 0-1 ||| 1 272 1 ||| dom_toy 1
) ||| post @-@ ||| 0.00266764 0.0025952 0.000147112 3.305e-06 2.718 2.718 1 1 1 1 1 1 ||| 0-1 ||| 15 272 1 ||| dom_toy 1
) ||| say ) ||| 0.0400146 0.849765 0.000147112 0.000465321 2.718 2.718 1 1 1 1 1 1 ||| 0-1 ||| 1 272 1 ||| dom_toy 1
) ||| simply following ) ||| 0.0100036 0.849765 0.000147112 2.34275e-08 2.718 2.718 1 1 1 1 1 1 ||| 0-2 ||| 4 272 1 ||| dom_toy 1
) ||| sounds nice ) ||| 0.0400146 0.849765 0.000147112 5.85355e-09 2.718 2.718 1 1 1 1 1 1 ||| 0-2 ||| 1 272 1 ||| dom_toy 1
, &quot; ||| &quot; They ||| 0.0100036 0.00876941 0.00666909 6.89099e-05 2.718 2.718 1 1 1 1 1 1 ||| 1-0 ||| 4 6 1 ||| dom_toy 1
, &quot; ||| &quot; ||| 5.55758e-05 0.00876941 0.00666909 0.782178 2.718 2.718 1 1 1 1 1 1 ||| 1-0 ||| 720 6 1 ||| dom_toy 1
, &quot; ||| , &quot; ||| 0.0203346 0.24737 0.328743 0.573097 2.718 1 1 2.718 1 1 1 1 ||| 0-0 1-1 ||| 97 6 3 ||| dom_toy 1
, &quot; ||| say , ||| 0.00400146 0.0306718 0.00666909 0.00290176 2.718 2.718 1 1 1 1 1 1 ||| 1-0 0-1 ||| 10 6 1 ||| dom_toy 1
, a @-@ ||| , that routinely ||| 0.0200073 2.43481e-05 0.0200073 7.74165e-07 2.718 2.718 1 1 1 1 1 1 ||| 0-0 1-1 ||| 2 2 1 ||| dom_toy 1
, a @-@ ||| , that ||| 0.00210603 2.43481e-05 0.0200073 0.00439118 2.718 2.718 1 1 1 1 1 1 ||| 0-0 1-1 ||| 19 2 1 ||| dom_toy 1
, a ||| , addressed ||| 0.0200073 0.00647146 0.000869882 0.000258348 2.718 2.718 1 1 1 1 1 1 ||| 0-0 ||| 2 46 1 ||| dom_toy 1
, a ||| , although ||| 0.00363769 0.0166948 0.000869882 0.00125459 2.718 2.718 1 1 1 1 1 1 ||| 0-0 1-1 ||| 11 46 1 ||| dom_toy 1
, a ||| , argued ||| 0.00666909 0.0039367 0.000869882 0.000115253 2.718 2.718 1 1 1 1 1 1 ||| 0-0 0-1 ||| 6 46 1 ||| dom_toy 1
, a ||| , fell ||| 0.00800291 0.00647146 0.000869882 0.000322898 2.718 2.718 1 1 1 1 1 1 ||| 0-0 ||| 5 46 1 ||| dom_toy 1
, a ||| , has put ||| 0.0400146 0.165849 0.000869882 0.000575754 2.718 2.718 1 1 1 1 1 1 ||| 0-0 1-1 1-2 ||| 1 46 1 ||| dom_toy 1
, a ||| , has ||| 0.325872 0.280972 0.148768 0.168118 2.718 1 1 1 1 1 2.718 1 ||| 0-0 1-1 ||| 21 46 8 ||| dom_toy 1
, a ||| , that routinely ||| 0.0200073 0.00285474 0.000869882 7.74165e-07 2.718 2.718 1 1 1 1 1 1 ||| 0-0 1-1 ||| 2 46 1 ||| dom_toy 1
, a ||| , that ||| 0.00210603 0.00285474 0.000869882 0.00439118 2.718 2.718 1 1 1 1 1 1 ||| 0-0 1-1 ||| 19 46 1 ||| dom_toy 1
, a ||| , went ||| 0.0200073 0.219815 0.000869882 0.00250926 2.718 2.718 1 1 1 1 1 1 ||| 0-0 1-1 ||| 2 46 1 ||| dom_toy 1
, a ||| , ||| 0.0015737 0.00647146 0.195652 0.732693 2.718 1 1 1 1 1 2.718 1 ||| 0-0 ||| 5719 46 9 ||| dom_toy 1
, a ||| -- has ||| 0.00800291 0.102165 0.000869882 0.00317681 2.718 2.718 1 1 1 1 1 1 ||| 0-0 1-1 ||| 5 46 1 ||| dom_toy 1
, a ||| -- may ||| 0.0200073 0.0023531 0.000869882 1.46441e-05 2.718 2.718 1 1 1 1 1 1 ||| 0-0 ||| 2 46 1 ||| dom_toy 1
, a ||| -- ||| 0.00248398 0.0023531 0.0218158 0.0138452 2.718 1 2.718 1 1 1 1 1 ||| 0-0 ||| 404 46 2 ||| dom_toy 1
, a ||| Eastern affairs , addressed ||| 0.0200073 0.00647146 0.000869882 2.00519e-12 2.718 2.718 1 1 1 1 1 1 ||| 0-2 ||| 2 46 1 ||| dom_toy 1
, a ||| Eastern affairs , ||| 0.0200073 0.00647146 0.000869882 5.68688e-09 2.718 2.718 1 1 1 1 1 1 ||| 0-2 ||| 2 46 1 ||| dom_toy 1
, a ||| affairs , addressed ||| 0.0200073 0.00647146 0.000869882 2.27604e-08 2.718 2.718 1 1 1 1 1 1 ||| 0-1 ||| 2 46 1 ||| dom_toy 1
, a ||| affairs , ||| 0.0200073 0.00647146 0.000869882 6.45503e-05 2.718 2.718 1 1 1 1 1 1 ||| 0-1 ||| 2 46 1 ||| dom_toy 1
, a ||| challenged him , ||| 0.0400146 0.0782392 0.000869882 1.16103e-06 2.718 2.718 1 1 1 1 1 1 ||| 1-1 0-2 ||| 1 46 1 ||| dom_toy 1
, a ||| do without ||| 0.00400146 0.000297378 0.000869882 5.8251e-07 2.718 2.718 1 1 1 1 1 1 ||| 0-1 ||| 10 46 1 ||| dom_toy 1
, a ||| enlargement rounds -- may ||| 0.0200073 0.0023531 0.000869882 2.27452e-13 2.718 2.718 1 1 1 1 1 1 ||| 0-2 ||| 2 46 1 ||| dom_toy 1
, a ||| enlargement rounds -- ||| 0.0200073 0.0023531 0.000869882 2.15044e-10 2.718 2.718 1 1 1 1 1 1 ||| 0-2 ||| 2 46 1 ||| dom_toy 1
, a ||| has ||| 0.00499357 0.00996061 0.0428795 0.229452 2.718 1 1 2.718 1 1 1 1 ||| 1-0 ||| 395 46 3 ||| dom_toy 1
, a ||| him , ||| 0.0400146 0.0782392 0.000869882 0.00439118 2.718 2.718 1 1 1 1 1 1 ||| 1-0 0-1 ||| 1 46 1 ||| dom_toy 1
, a ||| rounds -- may ||| 0.0200073 0.0023531 0.000869882 2.58175e-09 2.718 2.718 1 1 1 1 1 1 ||| 0-1 ||| 2 46 1 ||| dom_toy 1
, a ||| rounds -- ||| 0.0200073 0.0023531 0.000869882 2.44091e-06 2.718 2.718 1 1 1 1 1 1 ||| 0-1 ||| 2 46 1 ||| dom_toy 1
, a ||| south , went ||| 0.0200073 0.219815 0.000869882 2.21065e-07 2.718 2.718 1 1 1 1 1 1 ||| 0-1 1-2 ||| 2 46 1 ||| dom_toy 1
, a ||| the ||| 7.22545e-06 0.000133117 0.000869882 0.0402397 2.718 2.718 1 1 1 1 1 1 ||| 1-0 ||| 5538 46 1 ||| dom_toy 1
, a ||| without ||| 0.000506513 0.000297378 0.000869882 0.0003147 2.718 2.718 1 1 1 1 1 1 ||| 0-0 ||| 79 46 1 ||| dom_toy 1
, après un ||| , after narrowing to ||| 0.0400146 0.00124951 0.0400146 2.73674e-05 2.718 2.718 1 1 1 1 1 1 ||| 0-0 1-1 1-2 2-3 ||| 1 1 1 ||| dom_toy 1
, après ||| , after approaching ||| 0.0133382 0.478708 0.00200073 4.30335e-05 2.718 2.718 1 1 1 1 1 1 ||| 0-0 1-1 ||| 3 20 1 ||| dom_toy 1
, après ||| , after narrowing ||| 0.0400146 0.404215 0.00200073 0.00332286 2.718 2.718 1 1 1 1 1 1 ||| 0-0 1-1 1-2 ||| 1 20 1 ||| dom_toy 1
, après ||| , after ||| 0.427707 0.478708 0.299395 0.488462 2.718 1 1 1 1 1 2.718 1 ||| 0-0 1-1 ||| 14 20 7 ||| dom_toy 1
, après ||| , however , after ||| 0.0100036 0.377077 0.00200073 0.000957221 2.718 2.718 1 1 1 1 1 1 ||| 0-0 0-1 0-2 1-3 ||| 4 20 1 ||| dom_toy 1
, après ||| following ||| 0.00105301 0.0054548 0.00200073 0.047619 2.718 2.718 1 1 1 1 1 1 ||| 1-0 ||| 38 20 1 ||| dom_toy 1
, après ||| fraud that was supposed to ||| 0.0200073 0.000205518 0.00200073 5.81984e-13 2.718 2.718 1 1 1 1 1 1 ||| 1-2 ||| 2 20 1 ||| dom_toy 1
, après ||| fraud that was supposed ||| 0.0200073 0.000205518 0.00200073 2.93449e-11 2.718 2.718 1 1 1 1 1 1 ||| 1-2 ||| 2 20 1 ||| dom_toy 1
, après ||| fraud that was ||| 0.0200073 0.000205518 0.00200073 6.65871e-08 2.718 2.718 1 1 1 1 1 1 ||| 1-2 ||| 2 20 1 ||| dom_toy 1
, après ||| that was supposed to ||| 0.0200073 0.000205518 0.00200073 2.20115e-09 2.718 2.718 1 1 1 1 1 1 ||| 1-1 ||| 2 20 1 ||| dom_toy 1
, après ||| that was supposed ||| 0.0200073 0.000205518 0.00200073 1.10987e-07 2.718 2.718 1 1 1 1 1 1 ||| 1-1 ||| 2 20 1 ||| dom_toy 1
, après ||| that was ||| 0.00500182 0.000205518 0.00200073 0.000251842 2.718 2.718 1 1 1 1 1 1 ||| 1-1 ||| 8 20 1 ||| dom_toy 1
, après ||| was supposed to ||| 0.0133382 0.000205518 0.00200073 2.37828e-07 2.718 2.718 1 1 1 1 1 1 ||| 1-0 ||| 3 20 1 ||| dom_toy 1
, après ||| was supposed ||| 0.0133382 0.000205518 0.00200073 1.19918e-05 2.718 2.718 1 1 1 1 1 1 ||| 1-0 ||| 3 20 1 ||| dom_toy 1
, après ||| was ||| 0.000108441 0.000205518 0.00200073 0.0272109 2.718 2.718 1 1 1 1 1 1 ||| 1-0 ||| 369 20 1 ||| dom_toy 1
, au ||| , at ||| 0.0857591 0.118737 0.116027 0.0483995 2.718 1 1 2.718 1 1 1 1 ||| 0-0 1-1 ||| 23 17 3 ||| dom_toy 1
, au ||| , not ||| 0.00108147 0.00399808 0.0023538 0.00180829 2.718 2.718 1 1 1 1 1 1 ||| 0-0 ||| 37 17 1 ||| dom_toy 1
, au ||| , the ||| 9.57286e-05 0.0130227 0.0023538 0.121371 2.718 2.718 1 1 1 1 1 1 ||| 0-0 1-1 ||| 418 17 1 ||| dom_toy 1
, au ||| , ||| 0.000893874 0.00399808 0.30071 0.732693 2.718 1 1 1 1 2.718 1 1 ||| 0-0 ||| 5719 17 6 ||| dom_toy 1
, au ||| at the ||| 0.000579921 0.00332083 0.0023538 0.00562755 2.718 2.718 1 1 1 1 1 1 ||| 0-0 1-0 1-1 ||| 69 17 1 ||| dom_toy 1
, au ||| but ||| 6.53833e-05 0.000482796 0.0023538 0.0081812 2.718 2.718 1 1 1 1 1 1 ||| 0-0 ||| 612 17 1 ||| dom_toy 1
, au ||| himself in ||| 0.0400146 0.00222822 0.0023538 4.36966e-05 2.718 2.718 1 1 1 1 1 1 ||| 0-0 0-1 1-1 ||| 1 17 1 ||| dom_toy 1
, au ||| on ||| 7.15824e-05 0.000111384 0.0023538 0.00656955 2.718 2.718 1 1 1 1 1 1 ||| 0-0 1-0 ||| 559 17 1 ||| dom_toy 1
, au ||| reflect on ||| 0.00666909 0.000111384 0.0023538 5.78777e-07 2.718 2.718 1 1 1 1 1 1 ||| 0-1 1-1 ||| 6 17 1 ||| dom_toy 1
, au ||| within ||| 0.000470759 0.00566732 0.0023538 0.0243902 2.718 2.718 1 1 1 1 1 1 ||| 1-0 ||| 85 17 1 ||| dom_toy 1
, avec la ||| , by using both ||| 0.0400146 4.42102e-06 0.00666909 3.92441e-10 2.718 2.718 1 1 1 1 1 1 ||| 0-0 1-0 2-1 ||| 1 6 1 ||| dom_toy 1
, avec la ||| , by using ||| 0.0400146 4.42102e-06 0.00666909 2.22611e-07 2.718 2.718 1 1 1 1 1 1 ||| 0-0 1-0 2-1 ||| 1 6 1 ||| dom_toy 1
, avec la ||| , by ||| 0.00125045 4.42102e-06 0.00666909 0.000841948 2.718 2.718 1 1 1 1 1 1 ||| 0-0 1-0 2-1 ||| 32 6 1 ||| dom_toy 1
, avec la ||| and , by using both ||| 0.0400146 4.42102e-06 0.00666909 4.04721e-12 2.718 2.718 1 1 1 1 1 1 ||| 0-1 1-1 2-2 ||| 1 6 1 ||| dom_toy 1
, avec la ||| and , by using ||| 0.0400146 4.42102e-06 0.00666909 2.29577e-09 2.718 2.718 1 1 1 1 1 1 ||| 0-1 1-1 2-2 ||| 1 6 1 ||| dom_toy 1
, avec la ||| and , by ||| 0.0133382 4.42102e-06 0.00666909 8.68293e-06 2.718 2.718 1 1 1 1 1 1 ||| 0-1 1-1 2-2 ||| 3 6 1 ||| dom_toy 1
, avec ||| ( with Winston Churchill in ||| 0.0200073 0.267046 0.000930571 2.56192e-13 2.718 2.718 1 1 1 1 1 1 ||| 0-0 1-1 0-2 0-3 ||| 2 43 1 ||| dom_toy 1
, avec ||| ( with Winston Churchill ||| 0.0200073 0.267046 0.000930571 1.42475e-11 2.718 2.718 1 1 1 1 1 1 ||| 0-0 1-1 0-2 0-3 ||| 2 43 1 ||| dom_toy 1
, avec ||| , with large ||| 0.0200073 0.261117 0.000930571 0.000567227 2.718 2.718 1 1 1 1 1 1 ||| 0-0 1-1 ||| 2 43 1 ||| dom_toy 1
, avec ||| , with significant ||| 0.0200073 0.261117 0.000930571 0.000378187 2.718 2.718 1 1 1 1 1 1 ||| 0-0 1-1 ||| 2 43 1 ||| dom_toy 1
, avec ||| , with the ||| 0.00200073 0.261117 0.000930571 0.0226425 2.718 2.718 1 1 1 1 1 1 ||| 0-0 1-1 ||| 20 43 1 ||| dom_toy 1
, avec ||| , with ||| 0.25 0.261117 0.488372 0.536284 2.718 1 1 1 1 1 1 2.718 ||| 0-0 1-1 ||| 84 43 21 ||| dom_toy 1
, avec ||| , ||| 0.000344896 0.00199904 0.0458711 0.732693 2.718 1 1 2.718 1 1 1 1 ||| 0-0 ||| 5719 43 3 ||| dom_toy 1
, avec ||| America retains , with ||| 0.0133382 0.261117 0.000930571 6.24884e-08 2.718 2.718 1 1 1 1 1 1 ||| 0-2 1-3 ||| 3 43 1 ||| dom_toy 1
, avec ||| and , ||| 0.00129079 0.000280132 0.000930571 0.00381416 2.718 2.718 1 1 1 1 1 1 ||| 0-1 1-1 ||| 31 43 1 ||| dom_toy 1
, avec ||| and the walls , with ||| 0.0400146 0.261117 0.000930571 2.05723e-08 2.718 2.718 1 1 1 1 1 1 ||| 0-3 1-4 ||| 1 43 1 ||| dom_toy 1
, avec ||| bureaucracies , with ||| 0.0200073 0.261117 0.000930571 9.45468e-05 2.718 2.718 1 1 1 1 1 1 ||| 0-1 1-2 ||| 2 43 1 ||| dom_toy 1
, avec ||| imperialist planners ( with Winston Churchill in ||| 0.0200073 0.267046 0.000930571 3.97918e-21 2.718 2.718 1 1 1 1 1 1 ||| 0-2 1-3 0-4 0-5 ||| 2 43 1 ||| dom_toy 1
, avec ||| imperialist planners ( with Winston Churchill ||| 0.0200073 0.267046 0.000930571 2.21293e-19 2.718 2.718 1 1 1 1 1 1 ||| 0-2 1-3 0-4 0-5 ||| 2 43 1 ||| dom_toy 1
, avec ||| planners ( with Winston Churchill in ||| 0.0200073 0.267046 0.000930571 4.51666e-17 2.718 2.718 1 1 1 1 1 1 ||| 0-1 1-2 0-3 0-4 ||| 2 43 1 ||| dom_toy 1
, avec ||| planners ( with Winston Churchill ||| 0.0200073 0.267046 0.000930571 2.51184e-15 2.718 2.718 1 1 1 1 1 1 ||| 0-1 1-2 0-3 0-4 ||| 2 43 1 ||| dom_toy 1
, avec ||| range , ||| 0.0200073 0.00199904 0.000930571 0.000193724 2.718 2.718 1 1 1 1 1 1 ||| 0-1 ||| 2 43 1 ||| dom_toy 1
, avec ||| retains , with ||| 0.0133382 0.261117 0.000930571 0.000141793 2.718 2.718 1 1 1 1 1 1 ||| 0-1 1-2 ||| 3 43 1 ||| dom_toy 1
, avec ||| the walls , with ||| 0.0400146 0.261117 0.000930571 1.99481e-06 2.718 2.718 1 1 1 1 1 1 ||| 0-2 1-3 ||| 1 43 1 ||| dom_toy 1
, avec ||| to ||| 1.6494e-05 5.41989e-05 0.000930571 0.020979 2.718 2.718 1 1 1 1 1 1 ||| 1-0 ||| 2426 43 1 ||| dom_toy 1
, avec ||| walls , with ||| 0.0400146 0.261117 0.000930571 4.72466e-05 2.718 2.718 1 1 1 1 1 1 ||| 0-1 1-2 ||| 1 43 1 ||| dom_toy 1
, avec ||| with ||| 6.47485e-05 0.00649121 0.000930571 0.36699 2.718 2.718 1 1 1 1 1 1 ||| 0-0 1-0 ||| 618 43 1 ||| dom_toy 1
, bien ||| , though ||| 0.111503 0.127635 0.200706 0.0186278 2.718 1 2.718 1 1 1 1 1 ||| 0-0 1-1 ||| 9 5 2 ||| dom_toy 1
, bien ||| are ||| 6.75922e-05 0.000172955 0.00800291 0.0254237 2.718 2.718 1 1 1 1 1 1 ||| 1-0 ||| 592 5 1 ||| dom_toy 1
, bien ||| but ||| 6.53833e-05 0.00019639 0.00800291 0.0081812 2.718 2.718 1 1 1 1 1 1 ||| 0-0 ||| 612 5 1 ||| dom_toy 1
, bien ||| par ||| 0.0100036 0.0116888 0.00800291 0.0042373 2.718 2.718 1 1 1 1 1 1 ||| 1-0 ||| 4 5 1 ||| dom_toy 1
, ce qui ||| , allowing ||| 0.00666909 2.35046e-05 0.000754992 0.000193724 2.718 2.718 1 1 1 1 1 1 ||| 0-0 ||| 6 53 1 ||| dom_toy 1
, ce qui ||| , leading ||| 0.00666909 1.35345e-05 0.000754992 0.000345831 2.718 2.718 1 1 1 1 1 1 ||| 0-0 0-1 ||| 6 53 1 ||| dom_toy 1
, ce qui ||| , posing ||| 0.0133382 1.43121e-05 0.000754992 3.37914e-05 2.718 2.718 1 1 1 1 1 1 ||| 0-0 1-0 ||| 3 53 1 ||| dom_toy 1
, ce qui ||| , so ||| 0.00333455 0.000224451 0.000754992 0.0132734 2.718 2.718 1 1 1 1 1 1 ||| 0-0 1-1 ||| 12 53 1 ||| dom_toy 1
, ce qui ||| , something it ||| 0.0133382 0.000101478 0.000754992 2.17177e-05 2.718 2.718 1 1 1 1 1 1 ||| 0-0 0-1 1-2 ||| 3 53 1 ||| dom_toy 1
, ce qui ||| , thus leading ||| 0.0400146 0.0093142 0.000754992 3.44944e-05 2.718 2.718 1 1 1 1 1 1 ||| 0-0 1-1 2-2 ||| 1 53 1 ||| dom_toy 1
, ce qui ||| , what inspires ||| 0.0133382 0.0177752 0.000754992 8.54722e-06 2.718 2.718 1 1 1 1 1 1 ||| 0-0 1-1 2-1 ||| 3 53 1 ||| dom_toy 1
, ce qui ||| , what ||| 0.00800291 0.0177752 0.000754992 0.0484811 2.718 2.718 1 1 1 1 1 1 ||| 0-0 1-1 2-1 ||| 5 53 1 ||| dom_toy 1
, ce qui ||| , which presumably was ||| 0.0400146 0.028043 0.000754992 1.68025e-08 2.718 2.718 1 1 1 1 1 1 ||| 0-0 1-1 2-1 ||| 1 53 1 ||| dom_toy 1
, ce qui ||| , which presumably ||| 0.0400146 0.028043 0.000754992 6.14914e-06 2.718 2.718 1 1 1 1 1 1 ||| 0-0 1-1 2-1 ||| 1 53 1 ||| dom_toy 1
, ce qui ||| , which will ||| 0.0100036 0.0161635 0.000754992 0.001138 2.718 2.718 1 1 1 1 1 1 ||| 0-0 1-1 2-1 1-2 ||| 4 53 1 ||| dom_toy 1
, ce qui ||| , which ||| 0.0993377 0.028043 0.283019 0.0697973 2.718 1 1 1 1 1 1 2.718 ||| 0-0 1-1 2-1 ||| 151 53 15 ||| dom_toy 1
, ce qui ||| , with ||| 0.000476364 5.14596e-05 0.000754992 0.00917027 2.718 2.718 1 1 1 1 1 1 ||| 0-0 1-0 2-1 ||| 84 53 1 ||| dom_toy 1
, ce qui ||| , ||| 0.00104702 2.35046e-05 0.112979 0.732693 2.718 1 1 1 1 1 2.718 1 ||| 0-0 ||| 5719 53 7 ||| dom_toy 1
, ce qui ||| - ||| 0.000201078 8.66462e-06 0.000754992 0.0069226 2.718 2.718 1 1 1 1 1 1 ||| 0-0 ||| 199 53 1 ||| dom_toy 1
, ce qui ||| -- thereby causing ||| 0.0100036 8.54657e-06 0.000754992 1.29075e-09 2.718 2.718 1 1 1 1 1 1 ||| 0-0 ||| 4 53 1 ||| dom_toy 1
, ce qui ||| -- thereby ||| 0.0100036 8.54657e-06 0.000754992 4.88182e-06 2.718 2.718 1 1 1 1 1 1 ||| 0-0 ||| 4 53 1 ||| dom_toy 1
, ce qui ||| -- ||| 9.90459e-05 8.54657e-06 0.000754992 0.0138452 2.718 2.718 1 1 1 1 1 1 ||| 0-0 ||| 404 53 1 ||| dom_toy 1
, ce qui ||| a failure , ||| 0.0133382 1.51641e-05 0.000754992 4.36348e-06 2.718 2.718 1 1 1 1 1 1 ||| 2-0 0-2 ||| 3 53 1 ||| dom_toy 1
, ce qui ||| and which incited ||| 0.00333455 0.00217606 0.000754992 1.77975e-06 2.718 2.718 1 1 1 1 1 1 ||| 1-1 2-1 1-2 ||| 12 53 1 ||| dom_toy 1
, ce qui ||| efficiently , so ||| 0.0200073 0.000224451 0.000754992 1.16939e-06 2.718 2.718 1 1 1 1 1 1 ||| 0-1 1-2 ||| 2 53 1 ||| dom_toy 1
, ce qui ||| evasion , ||| 0.0200073 1.43121e-05 0.000754992 3.37914e-05 2.718 2.718 1 1 1 1 1 1 ||| 0-1 1-1 ||| 2 53 1 ||| dom_toy 1
, ce qui ||| for , what inspires ||| 0.0133382 0.0177752 0.000754992 5.6504e-08 2.718 2.718 1 1 1 1 1 1 ||| 0-1 1-2 2-2 ||| 3 53 1 ||| dom_toy 1
, ce qui ||| for , what ||| 0.0133382 0.0177752 0.000754992 0.000320499 2.718 2.718 1 1 1 1 1 1 ||| 0-1 1-2 2-2 ||| 3 53 1 ||| dom_toy 1
, ce qui ||| grown , with ||| 0.0133382 5.14596e-05 0.000754992 3.23344e-06 2.718 2.718 1 1 1 1 1 1 ||| 0-1 1-1 2-2 ||| 3 53 1 ||| dom_toy 1
, ce qui ||| laws ||| 0.0023538 1.1881e-05 0.000754992 0.000472 2.718 2.718 1 1 1 1 1 1 ||| 0-0 ||| 17 53 1 ||| dom_toy 1
, ce qui ||| stands for , what inspires ||| 0.0133382 0.0177752 0.000754992 9.96165e-12 2.718 2.718 1 1 1 1 1 1 ||| 0-2 1-3 2-3 ||| 3 53 1 ||| dom_toy 1
, ce qui ||| stands for , what ||| 0.0133382 0.0177752 0.000754992 5.6504e-08 2.718 2.718 1 1 1 1 1 1 ||| 0-2 1-3 2-3 ||| 3 53 1 ||| dom_toy 1
, ce qui ||| strip , ||| 0.00571636 2.35046e-05 0.000754992 6.45503e-05 2.718 2.718 1 1 1 1 1 1 ||| 0-1 ||| 7 53 1 ||| dom_toy 1
, ce qui ||| that ||| 3.04525e-05 7.2913e-05 0.000754992 0.152805 2.718 2.718 1 1 1 1 1 1 ||| 1-0 2-0 ||| 1314 53 1 ||| dom_toy 1
, ce qui ||| views , which ||| 0.0400146 0.0437183 0.000754992 0.000361502 2.718 2.718 1 1 1 1 1 1 ||| 1-0 0-1 2-2 ||| 1 53 1 ||| dom_toy 1
, ce qui ||| ways that ||| 0.0200073 7.2913e-05 0.000754992 9.42805e-05 2.718 2.718 1 1 1 1 1 1 ||| 1-1 2-1 ||| 2 53 1 ||| dom_toy 1
, ce qui ||| which incited ||| 0.00333455 0.00217606 0.000754992 0.000172575 2.718 2.718 1 1 1 1 1 1 ||| 1-0 2-0 1-1 ||| 12 53 1 ||| dom_toy 1
, ce ||| , &quot; this ||| 0.0400146 0.117922 0.000851373 0.000976114 2.718 2.718 1 1 1 1 1 1 ||| 0-0 1-2 ||| 1 47 1 ||| dom_toy 1
, ce ||| , allowing ||| 0.00666909 0.00291382 0.000851373 0.000193724 2.718 2.718 1 1 1 1 1 1 ||| 0-0 ||| 6 47 1 ||| dom_toy 1
, ce ||| , causing ||| 0.0200073 0.00291382 0.000851373 0.000193724 2.718 2.718 1 1 1 1 1 1 ||| 0-0 ||| 2 47 1 ||| dom_toy 1
, ce ||| , it will ||| 0.0912298 0.0153746 0.0213517 0.000562676 2.718 1 2.718 1 1 1 1 1 ||| 0-0 1-1 1-2 ||| 11 47 2 ||| dom_toy 1
, ce ||| , it ||| 0.000367106 0.0208077 0.000851373 0.0345109 2.718 2.718 1 1 1 1 1 1 ||| 0-0 1-1 ||| 109 47 1 ||| dom_toy 1
, ce ||| , leading ||| 0.00666909 0.00167784 0.000851373 0.000345831 2.718 2.718 1 1 1 1 1 1 ||| 0-0 0-1 ||| 6 47 1 ||| dom_toy 1
, ce ||| , posing ||| 0.0133382 0.00177424 0.000851373 3.37914e-05 2.718 2.718 1 1 1 1 1 1 ||| 0-0 1-0 ||| 3 47 1 ||| dom_toy 1
, ce ||| , producing ||| 0.0400146 0.00177424 0.000851373 0.000202863 2.718 2.718 1 1 1 1 1 1 ||| 0-0 1-0 ||| 1 47 1 ||| dom_toy 1
, ce ||| , so ||| 0.00333455 0.0278247 0.000851373 0.0132734 2.718 2.718 1 1 1 1 1 1 ||| 0-0 1-1 ||| 12 47 1 ||| dom_toy 1
, ce ||| , something it ||| 0.0133382 0.01258 0.000851373 2.17177e-05 2.718 2.718 1 1 1 1 1 1 ||| 0-0 0-1 1-2 ||| 3 47 1 ||| dom_toy 1
, ce ||| , such a ||| 0.0133382 0.0500472 0.000851373 0.000377905 2.718 2.718 1 1 1 1 1 1 ||| 0-0 1-1 ||| 3 47 1 ||| dom_toy 1
, ce ||| , such ||| 0.00285818 0.0500472 0.000851373 0.0225648 2.718 2.718 1 1 1 1 1 1 ||| 0-0 1-1 ||| 14 47 1 ||| dom_toy 1
, ce ||| , the ||| 0.00240079 0.00215711 0.0213517 0.0358382 2.718 1 2.718 1 1 1 1 1 ||| 0-0 1-1 ||| 418 47 2 ||| dom_toy 1
, ce ||| , this ||| 0.0680158 0.117922 0.0419672 0.136716 2.718 1 1 2.718 1 1 1 1 ||| 0-0 1-1 ||| 29 47 3 ||| dom_toy 1
, ce ||| , thus ||| 0.0133382 0.0558852 0.000851373 0.00663674 2.718 2.718 1 1 1 1 1 1 ||| 0-0 1-1 ||| 3 47 1 ||| dom_toy 1
, ce ||| , which the others ||| 0.0400146 0.0239648 0.000851373 2.21781e-07 2.718 2.718 1 1 1 1 1 1 ||| 0-0 1-1 0-2 0-3 ||| 1 47 1 ||| dom_toy 1
, ce ||| , which ||| 0.000264997 0.0650768 0.000851373 0.0398203 2.718 2.718 1 1 1 1 1 1 ||| 0-0 1-1 ||| 151 47 1 ||| dom_toy 1
, ce ||| , ||| 0.00227312 0.00291382 0.276596 0.732693 2.718 1 1 1 1 1 1 2.718 ||| 0-0 ||| 5719 47 13 ||| dom_toy 1
, ce ||| - ||| 0.000201078 0.00107413 0.000851373 0.0069226 2.718 2.718 1 1 1 1 1 1 ||| 0-0 ||| 199 47 1 ||| dom_toy 1
, ce ||| -- thereby causing ||| 0.0100036 0.0010595 0.000851373 1.29075e-09 2.718 2.718 1 1 1 1 1 1 ||| 0-0 ||| 4 47 1 ||| dom_toy 1
, ce ||| -- thereby ||| 0.0100036 0.0010595 0.000851373 4.88182e-06 2.718 2.718 1 1 1 1 1 1 ||| 0-0 ||| 4 47 1 ||| dom_toy 1
, ce ||| -- ||| 9.90459e-05 0.0010595 0.000851373 0.0138452 2.718 2.718 1 1 1 1 1 1 ||| 0-0 ||| 404 47 1 ||| dom_toy 1
, ce ||| ; ||| 0.000270369 0.000942201 0.000851373 0.0045626 2.718 2.718 1 1 1 1 1 1 ||| 0-0 ||| 148 47 1 ||| dom_toy 1
, ce ||| efficiently , so ||| 0.0200073 0.0278247 0.000851373 1.16939e-06 2.718 2.718 1 1 1 1 1 1 ||| 0-1 1-2 ||| 2 47 1 ||| dom_toy 1
, ce ||| evasion , ||| 0.0200073 0.00177424 0.000851373 3.37914e-05 2.718 2.718 1 1 1 1 1 1 ||| 0-1 1-1 ||| 2 47 1 ||| dom_toy 1
, ce ||| failure , ||| 0.0100036 0.00291382 0.000851373 0.000322898 2.718 2.718 1 1 1 1 1 1 ||| 0-1 ||| 4 47 1 ||| dom_toy 1
, ce ||| grown , ||| 0.0400146 0.00177424 0.000851373 0.000135242 2.718 2.718 1 1 1 1 1 1 ||| 0-1 1-1 ||| 1 47 1 ||| dom_toy 1
, ce ||| it ||| 6.55976e-05 0.000459515 0.000851373 0.0244947 2.718 2.718 1 1 1 1 1 1 ||| 0-0 1-0 ||| 610 47 1 ||| dom_toy 1
, ce ||| laws ||| 0.0023538 0.00147287 0.000851373 0.000472 2.718 2.718 1 1 1 1 1 1 ||| 0-0 ||| 17 47 1 ||| dom_toy 1
, ce ||| strip , ||| 0.00571636 0.00291382 0.000851373 6.45503e-05 2.718 2.718 1 1 1 1 1 1 ||| 0-1 ||| 7 47 1 ||| dom_toy 1
, ce ||| views , ||| 0.0400146 0.101453 0.000851373 0.0026547 2.718 2.718 1 1 1 1 1 1 ||| 1-0 0-1 ||| 1 47 1 ||| dom_toy 1
, chef ||| , which led ||| 0.0400146 0.0121638 0.0200073 0.000146712 2.718 2.718 1 1 1 1 1 1 ||| 0-0 0-1 1-2 ||| 1 2 1 ||| dom_toy 1
, chef ||| @-@ led ||| 0.00666909 0.000268466 0.0200073 0.000128727 2.718 2.718 1 1 1 1 1 1 ||| 0-0 1-1 ||| 6 2 1 ||| dom_toy 1
, comme ||| , Altiero Spinelli , ||| 0.0133382 0.000587443 0.000606281 6.77183e-09 2.718 2.718 1 1 1 1 1 1 ||| 0-0 1-0 0-1 0-2 0-3 ||| 3 66 1 ||| dom_toy 1
, comme ||| , as was ||| 0.0200073 0.0706266 0.000606281 0.00081619 2.718 2.718 1 1 1 1 1 1 ||| 0-0 1-1 0-2 ||| 2 66 1 ||| dom_toy 1
, comme ||| , as ||| 0.228571 0.134956 0.242424 0.370558 2.718 1 1 1 1 1 1 2.718 ||| 0-0 1-1 ||| 70 66 16 ||| dom_toy 1
, comme ||| , just as under ||| 0.0200073 0.0781143 0.000606281 2.44034e-06 2.718 2.718 1 1 1 1 1 1 ||| 0-0 1-1 1-2 ||| 2 66 1 ||| dom_toy 1
, comme ||| , just as ||| 0.0100036 0.0781143 0.000606281 0.00212963 2.718 2.718 1 1 1 1 1 1 ||| 0-0 1-1 1-2 ||| 4 66 1 ||| dom_toy 1
, comme ||| , like ||| 0.464733 0.255461 0.0774556 0.090534 2.718 1 1 1 1 2.718 1 1 ||| 0-0 1-1 ||| 11 66 6 ||| dom_toy 1
, comme ||| , say ||| 0.0200073 0.000282839 0.000606281 0.000352613 2.718 2.718 1 1 1 1 1 1 ||| 0-0 1-0 0-1 ||| 2 66 1 ||| dom_toy 1
, comme ||| , since ||| 0.00210603 0.0015247 0.000606281 0.000581246 2.718 2.718 1 1 1 1 1 1 ||| 0-0 ||| 19 66 1 ||| dom_toy 1
, comme ||| , such as news ||| 0.0200073 0.0998616 0.000606281 1.03239e-05 2.718 2.718 1 1 1 1 1 1 ||| 0-0 1-1 1-2 ||| 2 66 1 ||| dom_toy 1
, comme ||| , such as ||| 0.187122 0.0998616 0.0907258 0.0234261 2.718 1 1 1 1 1 2.718 1 ||| 0-0 1-1 1-2 ||| 32 66 7 ||| dom_toy 1
, comme ||| , such ||| 0.00285818 0.0647669 0.000606281 0.0463197 2.718 2.718 1 1 1 1 1 1 ||| 0-0 1-1 ||| 14 66 1 ||| dom_toy 1
, comme ||| , ||| 0.000175473 0.000466887 0.015205 0.373531 2.718 1 2.718 1 1 1 1 1 ||| 0-0 1-0 ||| 5719 66 2 ||| dom_toy 1
, comme ||| - just ||| 0.00800291 0.00784175 0.000606281 3.97849e-05 2.718 2.718 1 1 1 1 1 1 ||| 0-0 1-1 ||| 5 66 1 ||| dom_toy 1
, comme ||| -- ||| 9.90459e-05 0.0005544 0.000606281 0.0138452 2.718 2.718 1 1 1 1 1 1 ||| 0-0 ||| 404 66 1 ||| dom_toy 1
, comme ||| already buried ||| 0.0200073 0.00115605 0.000606281 4.15901e-08 2.718 2.718 1 1 1 1 1 1 ||| 0-1 ||| 2 66 1 ||| dom_toy 1
, comme ||| and , since ||| 0.00444606 0.0015247 0.000606281 5.99433e-06 2.718 2.718 1 1 1 1 1 1 ||| 0-1 ||| 9 66 1 ||| dom_toy 1
, comme ||| and , ||| 0.00129079 0.0015247 0.000606281 0.00755619 2.718 2.718 1 1 1 1 1 1 ||| 0-1 ||| 31 66 1 ||| dom_toy 1
, comme ||| and gone , as was ||| 0.0400146 0.0706266 0.000606281 5.19347e-09 2.718 2.718 1 1 1 1 1 1 ||| 0-2 1-3 0-4 ||| 1 66 1 ||| dom_toy 1
, comme ||| as ||| 0.00181142 0.00478427 0.015205 0.25366 2.718 1 2.718 1 1 1 1 1 ||| 0-0 1-0 ||| 554 66 2 ||| dom_toy 1
, comme ||| assets , such as news ||| 0.0200073 0.0998616 0.000606281 4.54973e-09 2.718 2.718 1 1 1 1 1 1 ||| 0-1 1-2 1-3 ||| 2 66 1 ||| dom_toy 1
, comme ||| assets , such as ||| 0.0200073 0.0998616 0.000606281 1.03239e-05 2.718 2.718 1 1 1 1 1 1 ||| 0-1 1-2 1-3 ||| 2 66 1 ||| dom_toy 1
, comme ||| buried ||| 0.0133382 0.00115605 0.000606281 0.0001573 2.718 2.718 1 1 1 1 1 1 ||| 0-0 ||| 3 66 1 ||| dom_toy 1
, comme ||| but not least ||| 0.0100036 0.000141228 0.000606281 3.03786e-09 2.718 2.718 1 1 1 1 1 1 ||| 0-0 0-1 0-2 ||| 4 66 1 ||| dom_toy 1
, comme ||| decision to ||| 0.0133382 5.92846e-05 0.000606281 3.11965e-06 2.718 2.718 1 1 1 1 1 1 ||| 0-0 ||| 3 66 1 ||| dom_toy 1
, comme ||| decision ||| 0.00114327 5.92846e-05 0.000606281 0.0001573 2.718 2.718 1 1 1 1 1 1 ||| 0-0 ||| 35 66 1 ||| dom_toy 1
, comme ||| described as ||| 0.0133382 0.0101847 0.000606281 0.00581321 2.718 2.718 1 1 1 1 1 1 ||| 1-0 1-1 ||| 3 66 1 ||| dom_toy 1
, comme ||| executive regulations , as ||| 0.0133382 0.134956 0.000606281 5.75551e-09 2.718 2.718 1 1 1 1 1 1 ||| 0-2 1-3 ||| 3 66 1 ||| dom_toy 1
, comme ||| gone , as was ||| 0.0400146 0.0706266 0.000606281 5.03589e-07 2.718 2.718 1 1 1 1 1 1 ||| 0-1 1-2 0-3 ||| 1 66 1 ||| dom_toy 1
, comme ||| groups , such ||| 0.0400146 0.0647669 0.000606281 2.04131e-05 2.718 2.718 1 1 1 1 1 1 ||| 0-1 1-2 ||| 1 66 1 ||| dom_toy 1
, comme ||| like ||| 0.0123892 0.00905623 0.015205 0.0618602 2.718 1 2.718 1 1 1 1 1 ||| 0-0 1-0 ||| 81 66 2 ||| dom_toy 1
, comme ||| presence , as ||| 0.0400146 0.134956 0.000606281 9.79754e-05 2.718 2.718 1 1 1 1 1 1 ||| 0-1 1-2 ||| 1 66 1 ||| dom_toy 1
, comme ||| regulations , as ||| 0.0133382 0.134956 0.000606281 3.26461e-05 2.718 2.718 1 1 1 1 1 1 ||| 0-1 1-2 ||| 3 66 1 ||| dom_toy 1
, comme ||| state , as are ||| 0.0400146 0.0687184 0.000606281 6.68131e-07 2.718 2.718 1 1 1 1 1 1 ||| 0-0 0-1 1-2 ||| 1 66 1 ||| dom_toy 1
, comme ||| state , as ||| 0.0133382 0.0687184 0.000606281 0.000116614 2.718 2.718 1 1 1 1 1 1 ||| 0-0 0-1 1-2 ||| 3 66 1 ||| dom_toy 1
, comme ||| succeeds as ||| 0.0200073 0.102326 0.000606281 7.9554e-05 2.718 2.718 1 1 1 1 1 1 ||| 0-0 1-1 ||| 2 66 1 ||| dom_toy 1
, comme ||| the decision to ||| 0.0200073 5.92846e-05 0.000606281 1.31715e-07 2.718 2.718 1 1 1 1 1 1 ||| 0-1 ||| 2 66 1 ||| dom_toy 1
, comme ||| the decision ||| 0.00333455 5.92846e-05 0.000606281 6.64139e-06 2.718 2.718 1 1 1 1 1 1 ||| 0-1 ||| 12 66 1 ||| dom_toy 1
, contre ||| , about ||| 0.00400146 0.00474418 0.0133382 0.00763225 2.718 2.718 1 1 1 1 1 1 ||| 0-0 1-1 ||| 10 3 1 ||| dom_toy 1
, contre ||| , ||| 0.000175473 0.00118588 0.334509 0.732693 2.718 1 2.718 1 1 1 1 1 ||| 0-0 ||| 5719 3 2 ||| dom_toy 1
, dans le ||| , especially ||| 0.0023538 0.000232251 0.00571636 0.000338394 2.718 2.718 1 1 1 1 1 1 ||| 0-0 2-0 1-1 ||| 17 7 1 ||| dom_toy 1
, dans le ||| , in the ||| 0.100353 0.0260949 0.143361 0.193193 2.718 1 2.718 1 1 1 1 1 ||| 0-0 1-1 2-2 ||| 10 7 2 ||| dom_toy 1
, dans le ||| , when assessing ||| 0.0100036 0.0129768 0.00571636 1.4886e-06 2.718 2.718 1 1 1 1 1 1 ||| 0-0 1-2 ||| 4 7 1 ||| dom_toy 1
, dans le ||| , ||| 6.99677e-06 8.86771e-05 0.00571636 0.732693 2.718 2.718 1 1 1 1 1 1 ||| 0-0 ||| 5719 7 1 ||| dom_toy 1
, dans le ||| Lijiang in ||| 0.0100036 0.000108724 0.00571636 5.30318e-05 2.718 2.718 1 1 1 1 1 1 ||| 1-1 ||| 4 7 1 ||| dom_toy 1
, dans le ||| in ||| 1.75811e-05 0.000108724 0.00571636 0.60195 2.718 2.718 1 1 1 1 1 1 ||| 1-0 ||| 2276 7 1 ||| dom_toy 1
, dans ||| , at ||| 0.00173976 0.00450632 0.00108147 0.00251871 2.718 2.718 1 1 1 1 1 1 ||| 0-0 ||| 23 37 1 ||| dom_toy 1
, dans ||| , in 3 ||| 0.0200073 0.0910559 0.00108147 6.93764e-05 2.718 2.718 1 1 1 1 1 1 ||| 0-0 1-1 0-2 ||| 2 37 1 ||| dom_toy 1
, dans ||| , in ||| 0.232143 0.155852 0.351351 0.441045 2.718 1 1 1 1 1 1 2.718 ||| 0-0 1-1 ||| 56 37 13 ||| dom_toy 1
, dans ||| , when assessing ||| 0.0100036 0.659445 0.00108147 1.4886e-06 2.718 2.718 1 1 1 1 1 1 ||| 0-0 1-2 ||| 4 37 1 ||| dom_toy 1
, dans ||| , ||| 0.00104702 0.00450632 0.161835 0.732693 2.718 1 1 1 1 1 2.718 1 ||| 0-0 ||| 5719 37 7 ||| dom_toy 1
, dans ||| -- in ||| 0.00500182 0.0566697 0.00108147 0.00833412 2.718 2.718 1 1 1 1 1 1 ||| 0-0 1-1 ||| 8 37 1 ||| dom_toy 1
, dans ||| Lijiang in ||| 0.0100036 0.00552505 0.00108147 5.30318e-05 2.718 2.718 1 1 1 1 1 1 ||| 1-1 ||| 4 37 1 ||| dom_toy 1
, dans ||| across ||| 0.00108147 0.00363653 0.00108147 0.0062057 2.718 2.718 1 1 1 1 1 1 ||| 1-0 ||| 37 37 1 ||| dom_toy 1
, dans ||| big ||| 0.00160058 0.000200986 0.00108147 0.0001573 2.718 2.718 1 1 1 1 1 1 ||| 0-0 ||| 25 37 1 ||| dom_toy 1
, dans ||| he wants in ||| 0.0133382 0.00552505 0.00108147 3.55451e-07 2.718 2.718 1 1 1 1 1 1 ||| 1-2 ||| 3 37 1 ||| dom_toy 1
, dans ||| in Pakistan ||| 0.00266764 0.00552505 0.00108147 0.000424495 2.718 2.718 1 1 1 1 1 1 ||| 1-0 ||| 15 37 1 ||| dom_toy 1
, dans ||| in ||| 0.00263089 0.00552505 0.161835 0.60195 2.718 1 1 1 1 1 2.718 1 ||| 1-0 ||| 2276 37 7 ||| dom_toy 1
, dans ||| wants in ||| 0.00800291 0.00552505 0.00108147 0.000212248 2.718 2.718 1 1 1 1 1 1 ||| 1-1 ||| 5 37 1 ||| dom_toy 1
, de ||| , alleviate , ||| 0.0200073 0.0426772 0.000571636 8.44449e-05 2.718 2.718 1 1 1 1 1 1 ||| 0-0 0-1 0-2 ||| 2 70 1 ||| dom_toy 1
, de ||| , and textiles , ||| 0.0200073 0.0464183 0.000571636 2.35885e-08 2.718 2.718 1 1 1 1 1 1 ||| 0-0 ||| 2 70 1 ||| dom_toy 1
, de ||| , and textiles ||| 0.0200073 0.0464183 0.000571636 6.65701e-07 2.718 2.718 1 1 1 1 1 1 ||| 0-0 ||| 2 70 1 ||| dom_toy 1
, de ||| , and ||| 6.62493e-05 0.0464183 0.000571636 0.00755619 2.718 2.718 1 1 1 1 1 1 ||| 0-0 ||| 604 70 1 ||| dom_toy 1
, de ||| , bringing ||| 0.0133382 0.0464183 0.000571636 0.000258348 2.718 2.718 1 1 1 1 1 1 ||| 0-0 ||| 3 70 1 ||| dom_toy 1
, de ||| , for ||| 0.00129079 0.0327609 0.000571636 0.00599299 2.718 2.718 1 1 1 1 1 1 ||| 0-0 1-1 ||| 31 70 1 ||| dom_toy 1
, de ||| , from ||| 0.00444606 0.245267 0.000571636 0.0204922 2.718 2.718 1 1 1 1 1 1 ||| 0-0 1-1 ||| 9 70 1 ||| dom_toy 1
, de ||| , its ||| 0.0912298 0.0555044 0.0143361 0.00405978 2.718 1 2.718 1 1 1 1 1 ||| 0-0 1-1 ||| 11 70 2 ||| dom_toy 1
, de ||| , reduced ||| 0.0400146 0.263778 0.000571636 0.000193358 2.718 2.718 1 1 1 1 1 1 ||| 0-0 1-1 ||| 1 70 1 ||| dom_toy 1
, de ||| , so ||| 0.00333455 0.0111298 0.000571636 0.000386642 2.718 2.718 1 1 1 1 1 1 ||| 0-0 1-1 ||| 12 70 1 ||| dom_toy 1
, de ||| , surprisingly ||| 0.0133382 0.0302482 0.000571636 0.000345831 2.718 2.718 1 1 1 1 1 1 ||| 0-0 0-1 ||| 3 70 1 ||| dom_toy 1
, de ||| , to ||| 0.00200073 0.0596252 0.000571636 0.0339282 2.718 2.718 1 1 1 1 1 1 ||| 0-0 1-1 ||| 20 70 1 ||| dom_toy 1
, de ||| , turning hostility ||| 0.0200073 0.366358 0.000571636 5.10271e-08 2.718 2.718 1 1 1 1 1 1 ||| 0-0 1-1 1-2 ||| 2 70 1 ||| dom_toy 1
, de ||| , upon ||| 0.0200073 0.0464183 0.000571636 0.000193724 2.718 2.718 1 1 1 1 1 1 ||| 0-0 ||| 2 70 1 ||| dom_toy 1
, de ||| , ||| 0.00559538 0.0464183 0.457143 0.732693 2.718 1 1 1 1 1 1 2.718 ||| 0-0 ||| 5719 70 32 ||| dom_toy 1
, de ||| - ||| 0.000201078 0.0171114 0.000571636 0.0069226 2.718 2.718 1 1 1 1 1 1 ||| 0-0 ||| 199 70 1 ||| dom_toy 1
, de ||| -- surprise , ||| 0.0200073 0.0464183 0.000571636 1.47936e-07 2.718 2.718 1 1 1 1 1 1 ||| 0-2 ||| 2 70 1 ||| dom_toy 1
, de ||| Our ||| 0.00400146 0.0233777 0.000571636 0.0001319 2.718 2.718 1 1 1 1 1 1 ||| 1-0 ||| 10 70 1 ||| dom_toy 1
, de ||| another , ||| 0.00400146 0.0464183 0.000571636 0.000516695 2.718 2.718 1 1 1 1 1 1 ||| 0-1 ||| 10 70 1 ||| dom_toy 1
, de ||| avert , alleviate , ||| 0.0200073 0.0426772 0.000571636 7.4396e-09 2.718 2.718 1 1 1 1 1 1 ||| 0-1 0-2 0-3 ||| 2 70 1 ||| dom_toy 1
, de ||| book by ||| 0.0200073 0.001241 0.000571636 4.30043e-07 2.718 2.718 1 1 1 1 1 1 ||| 1-1 ||| 2 70 1 ||| dom_toy 1
, de ||| by ||| 5.79921e-05 0.001241 0.000571636 0.0048813 2.718 2.718 1 1 1 1 1 1 ||| 1-0 ||| 690 70 1 ||| dom_toy 1
, de ||| capacity ||| 0.00200073 0.0044529 0.000571636 0.0005277 2.718 2.718 1 1 1 1 1 1 ||| 1-0 ||| 20 70 1 ||| dom_toy 1
, de ||| competition , ||| 0.0200073 0.0113698 0.000571636 9.66423e-05 2.718 2.718 1 1 1 1 1 1 ||| 1-0 0-1 ||| 2 70 1 ||| dom_toy 1
, de ||| diverse , bringing ||| 0.0200073 0.0464183 0.000571636 6.83071e-08 2.718 2.718 1 1 1 1 1 1 ||| 0-1 ||| 2 70 1 ||| dom_toy 1
, de ||| diverse , ||| 0.0200073 0.0464183 0.000571636 0.000193724 2.718 2.718 1 1 1 1 1 1 ||| 0-1 ||| 2 70 1 ||| dom_toy 1
, de ||| have made ||| 0.00160058 0.000959084 0.000571636 3.62815e-06 2.718 2.718 1 1 1 1 1 1 ||| 1-0 ||| 25 70 1 ||| dom_toy 1
, de ||| have ||| 0.000102601 0.000959084 0.000571636 0.0031662 2.718 2.718 1 1 1 1 1 1 ||| 1-0 ||| 390 70 1 ||| dom_toy 1
, de ||| lamely ||| 0.00400146 0.0233777 0.000571636 0.0001319 2.718 2.718 1 1 1 1 1 1 ||| 1-0 ||| 10 70 1 ||| dom_toy 1
, de ||| not stop , ||| 0.0400146 0.0610713 0.000571636 3.19375e-07 2.718 2.718 1 1 1 1 1 1 ||| 0-0 1-1 0-2 ||| 1 70 1 ||| dom_toy 1
, de ||| of ||| 1.68482e-05 0.0090252 0.000571636 0.206069 2.718 2.718 1 1 1 1 1 1 ||| 1-0 ||| 2375 70 1 ||| dom_toy 1
, de ||| on life support ||| 0.0200073 0.000385 0.000571636 5.92403e-10 2.718 2.718 1 1 1 1 1 1 ||| 0-0 1-0 1-1 ||| 2 70 1 ||| dom_toy 1
, de ||| on life ||| 0.0200073 0.000385 0.000571636 9.60134e-07 2.718 2.718 1 1 1 1 1 1 ||| 0-0 1-0 1-1 ||| 2 70 1 ||| dom_toy 1
, de ||| otherwise ||| 0.00210603 0.00439938 0.000571636 0.0001573 2.718 2.718 1 1 1 1 1 1 ||| 0-0 ||| 19 70 1 ||| dom_toy 1
, de ||| state , turning hostility ||| 0.0200073 0.366358 0.000571636 5.39714e-11 2.718 2.718 1 1 1 1 1 1 ||| 0-1 1-2 1-3 ||| 2 70 1 ||| dom_toy 1
, de ||| surprise , ||| 0.0200073 0.0464183 0.000571636 6.45503e-05 2.718 2.718 1 1 1 1 1 1 ||| 0-1 ||| 2 70 1 ||| dom_toy 1
, de ||| to be ||| 0.000347953 0.00211375 0.000571636 0.000314284 2.718 2.718 1 1 1 1 1 1 ||| 1-0 ||| 115 70 1 ||| dom_toy 1
, de ||| to ||| 1.6494e-05 0.00211375 0.000571636 0.0463061 2.718 2.718 1 1 1 1 1 1 ||| 1-0 ||| 2426 70 1 ||| dom_toy 1
, des ||| , Caribbean ||| 0.0200073 0.0165683 0.00121256 6.45503e-05 2.718 2.718 1 1 1 1 1 1 ||| 0-0 ||| 2 33 1 ||| dom_toy 1
, des ||| , contested ||| 0.0400146 0.659445 0.00121256 0.000250435 2.718 2.718 1 1 1 1 1 1 ||| 0-0 1-1 ||| 1 33 1 ||| dom_toy 1
, des ||| , for example , ||| 0.00200073 0.0285884 0.00121256 4.6191e-06 2.718 2.718 1 1 1 1 1 1 ||| 0-0 1-1 0-2 0-3 ||| 20 33 1 ||| dom_toy 1
, des ||| , from ||| 0.00444606 0.0809845 0.00121256 0.0175285 2.718 2.718 1 1 1 1 1 1 ||| 0-0 1-1 ||| 9 33 1 ||| dom_toy 1
, des ||| , innovative ||| 0.0400146 0.164861 0.00121256 0.000250435 2.718 2.718 1 1 1 1 1 1 ||| 0-0 1-1 ||| 1 33 1 ||| dom_toy 1
, des ||| , the three ||| 0.0400146 0.0060016 0.00121256 1.13477e-05 2.718 2.718 1 1 1 1 1 1 ||| 0-0 1-1 0-2 ||| 1 33 1 ||| dom_toy 1
, des ||| , ||| 0.00332226 0.0165683 0.575758 0.732693 2.718 1 1 1 1 1 1 2.718 ||| 0-0 ||| 5719 33 19 ||| dom_toy 1
, des ||| 80s , ||| 0.0200073 0.659445 0.00121256 0.000250435 2.718 2.718 1 1 1 1 1 1 ||| 1-0 0-1 ||| 2 33 1 ||| dom_toy 1
, des ||| ; ||| 0.000270369 0.00535745 0.00121256 0.0045626 2.718 2.718 1 1 1 1 1 1 ||| 0-0 ||| 148 33 1 ||| dom_toy 1
, des ||| from ||| 0.000120164 0.00287095 0.00121256 0.0239234 2.718 2.718 1 1 1 1 1 1 ||| 1-0 ||| 333 33 1 ||| dom_toy 1
, des ||| murder , ||| 0.00571636 0.0107966 0.00121256 0.000230579 2.718 2.718 1 1 1 1 1 1 ||| 0-0 0-1 ||| 7 33 1 ||| dom_toy 1
, des ||| nervous , ||| 0.0200073 0.0165683 0.00121256 6.45503e-05 2.718 2.718 1 1 1 1 1 1 ||| 0-1 ||| 2 33 1 ||| dom_toy 1
, des ||| now it ||| 0.0200073 0.000672386 0.00121256 2.67341e-06 2.718 2.718 1 1 1 1 1 1 ||| 0-0 0-1 ||| 2 33 1 ||| dom_toy 1
, des ||| of the ||| 8.10011e-05 0.00197199 0.00121256 0.0102935 2.718 2.718 1 1 1 1 1 1 ||| 1-0 1-1 ||| 494 33 1 ||| dom_toy 1
, des ||| the ||| 7.22545e-06 0.00040785 0.00121256 0.0492139 2.718 2.718 1 1 1 1 1 1 ||| 1-0 ||| 5538 33 1 ||| dom_toy 1
, devant ||| , ||| 6.99677e-06 0.000169411 0.0400146 0.732693 2.718 2.718 1 1 1 1 1 1 ||| 0-0 ||| 5719 1 1 ||| dom_toy 1
, dont ||| , including ||| 0.0853658 0.106675 0.202182 0.095948 2.718 1 1 1 1 2.718 1 1 ||| 0-0 1-1 ||| 45 19 5 ||| dom_toy 1
, dont ||| , which made ||| 0.0133382 0.0130153 0.00210603 5.9971e-05 2.718 2.718 1 1 1 1 1 1 ||| 0-0 1-1 ||| 3 19 1 ||| dom_toy 1
, dont ||| , which ||| 0.00664588 0.0130153 0.0528173 0.0523353 2.718 1 2.718 1 1 1 1 1 ||| 0-0 1-1 ||| 151 19 2 ||| dom_toy 1
, dont ||| , whose ||| 0.384146 0.425448 0.202182 0.174451 2.718 1 1 1 1 2.718 1 1 ||| 0-0 1-1 ||| 10 19 5 ||| dom_toy 1
, dont ||| , ||| 0.000175473 0.000880952 0.0528173 0.732693 2.718 1 2.718 1 1 1 1 1 ||| 0-0 ||| 5719 19 2 ||| dom_toy 1
, dont ||| -- which ||| 0.00571636 0.00473253 0.00210603 0.000988943 2.718 2.718 1 1 1 1 1 1 ||| 0-0 1-1 ||| 7 19 1 ||| dom_toy 1
, dont ||| ; ||| 0.000270369 0.000284861 0.00210603 0.0045626 2.718 2.718 1 1 1 1 1 1 ||| 0-0 ||| 148 19 1 ||| dom_toy 1
, dont ||| an ||| 0.000106991 0.000189677 0.00210603 0.047619 2.718 2.718 1 1 1 1 1 1 ||| 1-0 ||| 374 19 1 ||| dom_toy 1
, dont ||| including ||| 0.000689906 0.00378169 0.00210603 0.130952 2.718 2.718 1 1 1 1 1 1 ||| 1-0 ||| 58 19 1 ||| dom_toy 1
, en ||| , and ||| 6.62493e-05 0.0124686 0.000869882 0.00755619 2.718 2.718 1 1 1 1 1 1 ||| 0-0 ||| 604 46 1 ||| dom_toy 1
, en ||| , arguing ||| 0.00571636 0.0124686 0.000869882 0.000129174 2.718 2.718 1 1 1 1 1 1 ||| 0-0 ||| 7 46 1 ||| dom_toy 1
, en ||| , by leveraging ||| 0.00800291 0.117319 0.000869882 3.65657e-06 2.718 2.718 1 1 1 1 1 1 ||| 0-0 1-1 ||| 5 46 1 ||| dom_toy 1
, en ||| , by ||| 0.0960365 0.117319 0.066808 0.0415048 2.718 1 1 1 2.718 1 1 1 ||| 0-0 1-1 ||| 32 46 4 ||| dom_toy 1
, en ||| , in utter ||| 0.0400146 0.157688 0.000869882 4.05402e-05 2.718 2.718 1 1 1 1 1 1 ||| 0-0 1-1 ||| 1 46 1 ||| dom_toy 1
, en ||| , in ||| 0.178571 0.157688 0.217391 0.22995 2.718 1 1 1 1 1 2.718 1 ||| 0-0 1-1 ||| 56 46 10 ||| dom_toy 1
, en ||| , which ||| 0.000264997 0.0124686 0.000869882 0.00174374 2.718 2.718 1 1 1 1 1 1 ||| 0-0 ||| 151 46 1 ||| dom_toy 1
, en ||| , with ||| 0.000476364 0.0063498 0.000869882 0.00208697 2.718 2.718 1 1 1 1 1 1 ||| 0-0 1-0 ||| 84 46 1 ||| dom_toy 1
, en ||| , ||| 0.00262284 0.0124686 0.326087 0.732693 2.718 1 1 1 1 1 1 2.718 ||| 0-0 ||| 5719 46 15 ||| dom_toy 1
, en ||| Serbia--despite ||| 0.0100036 0.0189077 0.000869882 0.0001573 2.718 2.718 1 1 1 1 1 1 ||| 0-0 ||| 4 46 1 ||| dom_toy 1
, en ||| and vegetables , ||| 0.0400146 0.659445 0.000869882 3.45167e-06 2.718 2.718 1 1 1 1 1 1 ||| 1-1 0-2 ||| 1 46 1 ||| dom_toy 1
, en ||| gracefully written popular ||| 0.00666909 0.0189077 0.000869882 3.42213e-11 2.718 2.718 1 1 1 1 1 1 ||| 0-0 ||| 6 46 1 ||| dom_toy 1
, en ||| gracefully written ||| 0.00666909 0.0189077 0.000869882 5.5464e-08 2.718 2.718 1 1 1 1 1 1 ||| 0-0 ||| 6 46 1 ||| dom_toy 1
, en ||| gracefully ||| 0.00666909 0.0189077 0.000869882 0.0001573 2.718 2.718 1 1 1 1 1 1 ||| 0-0 ||| 6 46 1 ||| dom_toy 1
, en ||| in ||| 0.000866634 0.00559014 0.0428795 0.313842 2.718 1 1 2.718 1 1 1 1 ||| 1-0 ||| 2276 46 3 ||| dom_toy 1
, en ||| instead , ||| 0.00166727 0.0124686 0.000869882 0.000258348 2.718 2.718 1 1 1 1 1 1 ||| 0-1 ||| 24 46 1 ||| dom_toy 1
, en ||| together in ||| 0.00666909 0.0512406 0.000869882 0.000592533 2.718 2.718 1 1 1 1 1 1 ||| 0-0 1-1 ||| 6 46 1 ||| dom_toy 1
, en ||| vegetables , ||| 0.0400146 0.659445 0.000869882 0.000334694 2.718 2.718 1 1 1 1 1 1 ||| 1-0 0-1 ||| 1 46 1 ||| dom_toy 1
, et le ||| , and the ||| 0.098499 0.0871029 0.54878 0.250735 2.718 1 1 1 1 2.718 1 1 ||| 0-0 1-1 2-2 ||| 39 7 5 ||| dom_toy 1
, et le ||| , ||| 6.99677e-06 0.000132681 0.00571636 0.732693 2.718 2.718 1 1 1 1 1 1 ||| 0-0 ||| 5719 7 1 ||| dom_toy 1
, et le ||| work , and the ||| 0.0400146 0.0871029 0.00571636 0.000530431 2.718 2.718 1 1 1 1 1 1 ||| 0-1 1-2 2-3 ||| 1 7 1 ||| dom_toy 1
, et ||| , Norway ||| 0.0133382 0.0118964 0.00015816 6.32187e-05 2.718 2.718 1 1 1 1 1 1 ||| 0-0 1-0 0-1 ||| 3 253 1 ||| dom_toy 1
, et ||| , and France ||| 0.0400146 0.264755 0.00015816 0.000173211 2.718 2.718 1 1 1 1 1 1 ||| 0-0 1-1 1-2 ||| 1 253 1 ||| dom_toy 1
, et ||| , and Nagorno ||| 0.0400146 0.65455 0.00015816 9.00401e-05 2.718 2.718 1 1 1 1 1 1 ||| 0-0 1-1 0-2 ||| 1 253 1 ||| dom_toy 1
, et ||| , and also ||| 0.0400146 0.520222 0.00015816 0.0010091 2.718 2.718 1 1 1 1 1 1 ||| 0-0 1-1 ||| 1 253 1 ||| dom_toy 1
, et ||| , and he ||| 0.0200073 0.271885 0.00015816 0.000720492 2.718 2.718 1 1 1 1 1 1 ||| 0-0 1-1 0-2 ||| 2 253 1 ||| dom_toy 1
, et ||| , and in ||| 0.00666909 0.520222 0.00015816 0.0102928 2.718 2.718 1 1 1 1 1 1 ||| 0-0 1-1 ||| 6 253 1 ||| dom_toy 1
, et ||| , and is ||| 0.0100036 0.520222 0.00015816 0.00565094 2.718 2.718 1 1 1 1 1 1 ||| 0-0 1-1 ||| 4 253 1 ||| dom_toy 1
, et ||| , and it ||| 0.0100036 0.520222 0.00015816 0.00353183 2.718 2.718 1 1 1 1 1 1 ||| 0-0 1-1 ||| 4 253 1 ||| dom_toy 1
, et ||| , and possibly ||| 0.00666909 0.303938 0.00015816 9.00401e-05 2.718 2.718 1 1 1 1 1 1 ||| 0-0 1-1 0-2 ||| 6 253 1 ||| dom_toy 1
, et ||| , and show ||| 0.0400146 0.282093 0.00015816 0.000173211 2.718 2.718 1 1 1 1 1 1 ||| 0-0 1-1 1-2 ||| 1 253 1 ||| dom_toy 1
, et ||| , and to ||| 0.250882 0.520222 0.00396652 0.0113523 2.718 1 2.718 1 1 1 1 1 ||| 0-0 1-1 ||| 4 253 2 ||| dom_toy 1
, et ||| , and ||| 0.175497 0.520222 0.418972 0.57241 2.718 1 1 1 1 1 1 2.718 ||| 0-0 1-1 ||| 604 253 106 ||| dom_toy 1
, et ||| , but ||| 0.00393541 0.012297 0.00396652 0.00328802 2.718 1 2.718 1 1 1 1 1 ||| 0-0 1-0 0-1 ||| 255 253 2 ||| dom_toy 1
, et ||| , coupled with strong ||| 0.0133382 0.00674249 0.00015816 4.35315e-10 2.718 2.718 1 1 1 1 1 1 ||| 0-0 ||| 3 253 1 ||| dom_toy 1
, et ||| , coupled with ||| 0.0100036 0.00674249 0.00015816 3.52767e-07 2.718 2.718 1 1 1 1 1 1 ||| 0-0 ||| 4 253 1 ||| dom_toy 1
, et ||| , coupled ||| 0.0100036 0.00674249 0.00015816 6.45503e-05 2.718 2.718 1 1 1 1 1 1 ||| 0-0 ||| 4 253 1 ||| dom_toy 1
, et ||| , of course , will invariably ||| 0.0400146 0.0219442 0.00015816 1.09196e-13 2.718 2.718 1 1 1 1 1 1 ||| 0-3 1-3 ||| 1 253 1 ||| dom_toy 1
, et ||| , of course , will ||| 0.0400146 0.0219442 0.00015816 6.19373e-10 2.718 2.718 1 1 1 1 1 1 ||| 0-3 1-3 ||| 1 253 1 ||| dom_toy 1
, et ||| , of course , ||| 0.00800291 0.0219442 0.00015816 1.11537e-07 2.718 2.718 1 1 1 1 1 1 ||| 0-3 1-3 ||| 5 253 1 ||| dom_toy 1
, et ||| , ordered ||| 0.00800291 0.00674249 0.00015816 0.000129174 2.718 2.718 1 1 1 1 1 1 ||| 0-0 ||| 5 253 1 ||| dom_toy 1
, et ||| , possibly ||| 0.0200073 0.0219442 0.00015816 0.00014171 2.718 2.718 1 1 1 1 1 1 ||| 0-0 1-0 ||| 2 253 1 ||| dom_toy 1
, et ||| , provide a shot ||| 0.00800291 0.00674249 0.00015816 1.71618e-09 2.718 2.718 1 1 1 1 1 1 ||| 0-0 ||| 5 253 1 ||| dom_toy 1
, et ||| , provide a ||| 0.00800291 0.00674249 0.00015816 9.73441e-06 2.718 2.718 1 1 1 1 1 1 ||| 0-0 ||| 5 253 1 ||| dom_toy 1
, et ||| , provide ||| 0.00800291 0.00674249 0.00015816 0.000581246 2.718 2.718 1 1 1 1 1 1 ||| 0-0 ||| 5 253 1 ||| dom_toy 1
, et ||| , the US is ||| 0.0100036 0.0219442 0.00015816 1.03359e-07 2.718 2.718 1 1 1 1 1 1 ||| 0-0 1-0 ||| 4 253 1 ||| dom_toy 1
, et ||| , the US ||| 0.00250091 0.0219442 0.00015816 1.04697e-05 2.718 2.718 1 1 1 1 1 1 ||| 0-0 1-0 ||| 16 253 1 ||| dom_toy 1
, et ||| , the ||| 9.57286e-05 0.0219442 0.00015816 0.0169687 2.718 2.718 1 1 1 1 1 1 ||| 0-0 1-0 ||| 418 253 1 ||| dom_toy 1
, et ||| , while spreading ||| 0.0200073 0.0276414 0.00015816 2.7359e-07 2.718 2.718 1 1 1 1 1 1 ||| 0-0 1-1 ||| 2 253 1 ||| dom_toy 1
, et ||| , while ||| 0.0119468 0.0276414 0.00396652 0.00155184 2.718 1 2.718 1 1 1 1 1 ||| 0-0 1-1 ||| 84 253 2 ||| dom_toy 1
, et ||| , will invariably ||| 0.0400146 0.0219442 0.00015816 3.93464e-07 2.718 2.718 1 1 1 1 1 1 ||| 0-0 1-0 ||| 1 253 1 ||| dom_toy 1
, et ||| , will ||| 0.00250091 0.0219442 0.00015816 0.00223179 2.718 2.718 1 1 1 1 1 1 ||| 0-0 1-0 ||| 16 253 1 ||| dom_toy 1
, et ||| , with ||| 0.000476364 0.0112448 0.00015816 0.000822004 2.718 2.718 1 1 1 1 1 1 ||| 0-0 1-0 0-1 ||| 84 253 1 ||| dom_toy 1
, et ||| , ||| 0.00629481 0.0219442 0.142292 0.401899 2.718 1 1 1 1 1 1 2.718 ||| 0-0 1-0 ||| 5719 253 36 ||| dom_toy 1
, et ||| - and ||| 0.0358403 0.191772 0.00396652 0.00540822 2.718 1 2.718 1 1 1 1 1 ||| 0-0 1-1 ||| 28 253 2 ||| dom_toy 1
, et ||| -- and , ||| 0.0200073 0.35469 0.00015816 0.00792513 2.718 2.718 1 1 1 1 1 1 ||| 0-0 1-1 0-2 ||| 2 253 1 ||| dom_toy 1
, et ||| -- and ||| 0.0830586 0.189159 0.0121469 0.0108164 2.718 1 1 1 2.718 1 1 1 ||| 0-0 1-1 ||| 37 253 4 ||| dom_toy 1
, et ||| . the ||| 0.00333455 9.29049e-05 0.00015816 9.88088e-05 2.718 2.718 1 1 1 1 1 1 ||| 0-1 ||| 12 253 1 ||| dom_toy 1
, et ||| ; ||| 0.000270369 0.00940743 0.00015816 0.003189 2.718 2.718 1 1 1 1 1 1 ||| 0-0 1-0 ||| 148 253 1 ||| dom_toy 1
, et ||| Nations ||| 0.00210603 0.000730322 0.00015816 0.0003147 2.718 2.718 1 1 1 1 1 1 ||| 0-0 ||| 19 253 1 ||| dom_toy 1
, et ||| Ron Kirk and ||| 0.0100036 0.788879 0.00015816 1.93305e-08 2.718 2.718 1 1 1 1 1 1 ||| 0-0 0-1 1-2 ||| 4 253 1 ||| dom_toy 1
, et ||| Zardari , and ||| 0.0400146 0.65455 0.00015816 9.00401e-05 2.718 2.718 1 1 1 1 1 1 ||| 0-0 0-1 1-2 ||| 1 253 1 ||| dom_toy 1
, et ||| a ||| 2.0658e-05 1.1218e-05 0.00015816 0.00185775 2.718 2.718 1 1 1 1 1 1 ||| 0-0 1-0 ||| 1937 253 1 ||| dom_toy 1
, et ||| agencies , ||| 0.0100036 0.00401028 0.00015816 0.000230579 2.718 2.718 1 1 1 1 1 1 ||| 0-0 0-1 ||| 4 253 1 ||| dom_toy 1
, et ||| an evenhanded manner , and ||| 0.0400146 0.520222 0.00015816 1.84057e-11 2.718 2.718 1 1 1 1 1 1 ||| 0-3 1-4 ||| 1 253 1 ||| dom_toy 1
, et ||| and , ||| 0.00129079 0.520222 0.00015816 0.57241 2.718 2.718 1 1 1 1 1 1 ||| 1-0 0-1 ||| 31 253 1 ||| dom_toy 1
, et ||| and - ||| 0.0400146 0.191772 0.00015816 0.00540822 2.718 2.718 1 1 1 1 1 1 ||| 1-0 0-1 ||| 1 253 1 ||| dom_toy 1
, et ||| and adjusted ||| 0.0200073 0.0184422 0.00015816 6.88273e-05 2.718 2.718 1 1 1 1 1 1 ||| 1-0 ||| 2 253 1 ||| dom_toy 1
, et ||| and the non @-@ ||| 0.0200073 0.0184422 0.00015816 1.53775e-07 2.718 2.718 1 1 1 1 1 1 ||| 1-0 ||| 2 253 1 ||| dom_toy 1
, et ||| and the non ||| 0.0200073 0.0184422 0.00015816 1.16305e-05 2.718 2.718 1 1 1 1 1 1 ||| 1-0 ||| 2 253 1 ||| dom_toy 1
, et ||| and the ||| 0.000215132 0.0184422 0.00015816 0.0329849 2.718 2.718 1 1 1 1 1 1 ||| 1-0 ||| 186 253 1 ||| dom_toy 1
, et ||| and ||| 0.00360252 0.0184422 0.0474308 0.781241 2.718 1 1 1 1 1 1 2.718 ||| 1-0 ||| 3331 253 12 ||| dom_toy 1
, et ||| beneath ||| 0.00800291 0.00340817 0.00015816 0.0001573 2.718 2.718 1 1 1 1 1 1 ||| 0-0 ||| 5 253 1 ||| dom_toy 1
, et ||| centre , and ||| 0.0133382 0.520222 0.00015816 5.04293e-05 2.718 2.718 1 1 1 1 1 1 ||| 0-1 1-2 ||| 3 253 1 ||| dom_toy 1
, et ||| claims , ||| 0.0200073 0.0135318 0.00015816 0.000126478 2.718 2.718 1 1 1 1 1 1 ||| 0-0 0-1 1-1 ||| 2 253 1 ||| dom_toy 1
, et ||| commissioner , and ||| 0.0100036 0.65455 0.00015816 9.00401e-05 2.718 2.718 1 1 1 1 1 1 ||| 0-0 0-1 1-2 ||| 4 253 1 ||| dom_toy 1
, et ||| conducted , and ||| 0.0400146 0.520222 0.00015816 0.000201832 2.718 2.718 1 1 1 1 1 1 ||| 0-1 1-2 ||| 1 253 1 ||| dom_toy 1
, et ||| constraints , and ||| 0.0400146 0.320061 0.00015816 0.000346365 2.718 2.718 1 1 1 1 1 1 ||| 1-0 0-1 1-2 ||| 1 253 1 ||| dom_toy 1
, et ||| counseling centre , and ||| 0.0133382 0.520222 0.00015816 4.44282e-09 2.718 2.718 1 1 1 1 1 1 ||| 0-2 1-3 ||| 3 253 1 ||| dom_toy 1
, et ||| course , will invariably ||| 0.0400146 0.0219442 0.00015816 2.08103e-10 2.718 2.718 1 1 1 1 1 1 ||| 0-1 1-1 ||| 1 253 1 ||| dom_toy 1
, et ||| course , will ||| 0.0400146 0.0219442 0.00015816 1.18039e-06 2.718 2.718 1 1 1 1 1 1 ||| 0-1 1-1 ||| 1 253 1 ||| dom_toy 1
, et ||| course , ||| 0.00666909 0.0219442 0.00015816 0.000212564 2.718 2.718 1 1 1 1 1 1 ||| 0-1 1-1 ||| 6 253 1 ||| dom_toy 1
, et ||| crises , and possibly ||| 0.0100036 0.303938 0.00015816 1.58741e-08 2.718 2.718 1 1 1 1 1 1 ||| 0-1 1-2 0-3 ||| 4 253 1 ||| dom_toy 1
, et ||| entry , and ||| 0.0400146 0.520222 0.00015816 0.000252261 2.718 2.718 1 1 1 1 1 1 ||| 0-1 1-2 ||| 1 253 1 ||| dom_toy 1
, et ||| evenhanded manner , and ||| 0.0400146 0.520222 0.00015816 4.44282e-09 2.718 2.718 1 1 1 1 1 1 ||| 0-2 1-3 ||| 1 253 1 ||| dom_toy 1
, et ||| forever , and ||| 0.0133382 0.65455 0.00015816 9.00401e-05 2.718 2.718 1 1 1 1 1 1 ||| 0-0 0-1 1-2 ||| 3 253 1 ||| dom_toy 1
, et ||| guard . they want to ||| 0.0200073 0.0175333 0.00015816 2.45942e-13 2.718 2.718 1 1 1 1 1 1 ||| 1-0 ||| 2 253 1 ||| dom_toy 1
, et ||| guard . they want ||| 0.0200073 0.0175333 0.00015816 1.2401e-11 2.718 2.718 1 1 1 1 1 1 ||| 1-0 ||| 2 253 1 ||| dom_toy 1
, et ||| guard . they ||| 0.0200073 0.0175333 0.00015816 2.00988e-08 2.718 2.718 1 1 1 1 1 1 ||| 1-0 ||| 2 253 1 ||| dom_toy 1
, et ||| guard . ||| 0.0200073 0.0175333 0.00015816 7.60081e-06 2.718 2.718 1 1 1 1 1 1 ||| 1-0 ||| 2 253 1 ||| dom_toy 1
, et ||| guard ||| 0.00800291 0.0175333 0.00015816 0.0009077 2.718 2.718 1 1 1 1 1 1 ||| 1-0 ||| 5 253 1 ||| dom_toy 1
