% ( ||| % ( since saving ||| 0.600000 0.200000 0.200000 0.200000 0.200000 0.600000 
% ( ||| % ( since ||| 0.600000 0.200000 0.200000 0.200000 0.200000 0.600000 
% ( ||| % ( ||| 0.600000 0.200000 0.200000 0.200000 0.200000 0.600000 
% , ||| % , making ||| 0.600000 0.200000 0.200000 0.600000 0.200000 0.200000 
% , ||| % , ||| 0.600000 0.200000 0.200000 0.200000 0.200000 0.600000 
% , ||| % --the ||| 0.600000 0.200000 0.200000 0.200000 0.200000 0.600000 
% , ||| % of GDP , ||| 0.600000 0.200000 0.200000 0.200000 0.200000 0.600000 
% . ||| % . ||| 0.931034 0.034483 0.034483 0.931034 0.034483 0.034483 
% . ||| % of GDP . ||| 0.600000 0.200000 0.200000 0.600000 0.200000 0.200000 
% . ||| % soon . ||| 0.600000 0.200000 0.200000 0.600000 0.200000 0.200000 
% . ||| . ||| 0.600000 0.200000 0.200000 0.600000 0.200000 0.200000 
% de son ||| % of its ||| 0.600000 0.200000 0.200000 0.600000 0.200000 0.200000 
% de son ||| % of ||| 0.714286 0.142857 0.142857 0.714286 0.142857 0.142857 
% de ||| % of ||| 0.894737 0.052632 0.052632 0.684211 0.052632 0.263158 
% de ||| % ||| 0.600000 0.200000 0.200000 0.200000 0.200000 0.600000 
% de ||| 66 % of ||| 0.600000 0.200000 0.200000 0.600000 0.200000 0.200000 
% des ||| % of Moldova ||| 0.200000 0.200000 0.600000 0.200000 0.200000 0.600000 
% des ||| % of Russia ||| 0.200000 0.200000 0.600000 0.200000 0.200000 0.600000 
% des ||| % of all external ||| 0.600000 0.200000 0.200000 0.200000 0.200000 0.600000 
% des ||| % of all the ||| 0.600000 0.200000 0.200000 0.600000 0.200000 0.200000 
% des ||| % of all ||| 0.714286 0.142857 0.142857 0.142857 0.142857 0.714286 
% des ||| % of ||| 0.760000 0.040000 0.200000 0.280000 0.040000 0.680000 
% des ||| % ||| 0.777778 0.111111 0.111111 0.333333 0.111111 0.555556 
% des ||| 68 % of Russia ||| 0.200000 0.200000 0.600000 0.200000 0.200000 0.600000 
% des ||| 68 % of ||| 0.200000 0.200000 0.600000 0.200000 0.200000 0.600000 
% des ||| in four ||| 0.200000 0.200000 0.600000 0.600000 0.200000 0.200000 
% des ||| while 68 % of Russia ||| 0.200000 0.200000 0.600000 0.200000 0.200000 0.600000 
% des ||| while 68 % of ||| 0.200000 0.200000 0.600000 0.200000 0.200000 0.600000 
% ||| % --the ||| 0.600000 0.200000 0.200000 0.200000 0.200000 0.600000 
% ||| % currently ||| 0.600000 0.200000 0.200000 0.200000 0.200000 0.600000 
% ||| % in the ||| 0.200000 0.200000 0.600000 0.200000 0.600000 0.200000 
% ||| % in ||| 0.428571 0.142857 0.428571 0.428571 0.142857 0.428571 
% ||| % last year ||| 0.600000 0.200000 0.200000 0.200000 0.200000 0.600000 
% ||| % of GDP ||| 0.714286 0.142857 0.142857 0.714286 0.142857 0.142857 
% ||| % over ||| 0.600000 0.200000 0.200000 0.600000 0.200000 0.200000 
% ||| % say ||| 0.600000 0.200000 0.200000 0.200000 0.200000 0.600000 
% ||| % soon ||| 0.600000 0.200000 0.200000 0.600000 0.200000 0.200000 
% ||| % versus ||| 0.600000 0.200000 0.200000 0.200000 0.200000 0.600000 
% ||| % would ||| 0.600000 0.200000 0.200000 0.600000 0.200000 0.200000 
% ||| % ||| 0.920705 0.013216 0.066079 0.744493 0.004405 0.251101 
% ||| 41 % ||| 0.200000 0.200000 0.600000 0.200000 0.200000 0.600000 
% ||| 68 % ||| 0.200000 0.200000 0.600000 0.600000 0.200000 0.200000 
% ||| four ||| 0.200000 0.600000 0.200000 0.200000 0.200000 0.600000 
% ||| while 68 % ||| 0.200000 0.200000 0.600000 0.600000 0.200000 0.200000 
% à ||| % and ||| 0.200000 0.200000 0.600000 0.600000 0.200000 0.200000 
% à ||| % to ||| 0.846154 0.076923 0.076923 0.846154 0.076923 0.076923 
% à ||| % ||| 0.714286 0.142857 0.142857 0.142857 0.142857 0.714286 
&amp; ||| &amp; ||| 0.714286 0.142857 0.142857 0.714286 0.142857 0.142857 
&amp; ||| &quot; ||| 0.200000 0.200000 0.600000 0.200000 0.600000 0.200000 
&apos; ||| &quot; consortium ||| 0.600000 0.200000 0.200000 0.600000 0.200000 0.200000 
&apos; ||| &quot; ||| 0.600000 0.200000 0.200000 0.200000 0.200000 0.600000 
&apos; ||| the ||| 0.200000 0.200000 0.600000 0.600000 0.200000 0.200000 
&quot; , a @-@ t-il ||| , &quot; he ||| 0.200000 0.200000 0.600000 0.600000 0.200000 0.200000 
&quot; , a @-@ ||| , &quot; ||| 0.200000 0.200000 0.600000 0.600000 0.200000 0.200000 
&quot; , a ||| &quot; has ||| 0.200000 0.200000 0.600000 0.200000 0.600000 0.200000 
&quot; , ||| &quot; ||| 0.200000 0.200000 0.600000 0.600000 0.200000 0.200000 
&quot; , ||| , &quot; moved ||| 0.200000 0.200000 0.600000 0.200000 0.200000 0.600000 
&quot; , ||| , &quot; ||| 0.333333 0.047619 0.619048 0.333333 0.047619 0.619048 
&quot; , ||| , ||| 0.428571 0.142857 0.428571 0.142857 0.142857 0.714286 
&quot; , ||| of the people , &quot; ||| 0.600000 0.200000 0.200000 0.600000 0.200000 0.200000 
&quot; , ||| people , &quot; ||| 0.111111 0.111111 0.777778 0.555556 0.111111 0.333333 
&quot; , ||| the people , &quot; ||| 0.428571 0.142857 0.428571 0.714286 0.142857 0.142857 
&quot; . ||| &quot; . ||| 0.600000 0.200000 0.200000 0.600000 0.200000 0.200000 
&quot; . ||| . &quot; ||| 0.672727 0.018182 0.309091 0.963636 0.018182 0.018182 
&quot; . ||| . ||| 0.600000 0.200000 0.200000 0.600000 0.200000 0.200000 
&quot; . ||| strategies themselves . &quot; ||| 0.200000 0.200000 0.600000 0.600000 0.200000 0.200000 
&quot; . ||| themselves . &quot; ||| 0.200000 0.200000 0.600000 0.600000 0.200000 0.200000 
&quot; . ||| victory . &quot; ||| 0.600000 0.200000 0.200000 0.600000 0.200000 0.200000 
&quot; C&apos; est ||| &quot; That &apos;s ||| 0.600000 0.200000 0.200000 0.600000 0.200000 0.200000 
&quot; C&apos; ||| &quot; That ||| 0.600000 0.200000 0.200000 0.600000 0.200000 0.200000 
&quot; Ce ||| &quot; It ||| 0.600000 0.200000 0.200000 0.600000 0.200000 0.200000 
&quot; La ||| &quot; The ||| 0.714286 0.142857 0.142857 0.428571 0.142857 0.428571 
&quot; La ||| &quot; There ||| 0.600000 0.200000 0.200000 0.200000 0.200000 0.600000 
&quot; Le ||| @-@ ended negotiations ||| 0.200000 0.200000 0.600000 0.200000 0.200000 0.600000 
&quot; Le ||| @-@ ended ||| 0.200000 0.200000 0.600000 0.200000 0.200000 0.600000 
&quot; Le ||| @-@ ||| 0.200000 0.200000 0.600000 0.200000 0.200000 0.600000 
&quot; Si ||| &quot; If ||| 0.600000 0.200000 0.200000 0.200000 0.200000 0.600000 
&quot; Si ||| &quot; ||| 0.600000 0.200000 0.200000 0.200000 0.200000 0.600000 
&quot; a @-@ t-il ||| , &quot; he ||| 0.555556 0.111111 0.333333 0.777778 0.111111 0.111111 
&quot; a @-@ ||| , &quot; ||| 0.555556 0.111111 0.333333 0.777778 0.111111 0.111111 
&quot; a ||| &quot; ||| 0.600000 0.200000 0.200000 0.200000 0.200000 0.600000 
&quot; a ||| , &quot; ||| 0.555556 0.111111 0.333333 0.111111 0.111111 0.777778 
&quot; dans ||| &quot; in resource ||| 0.600000 0.200000 0.200000 0.600000 0.200000 0.200000 
&quot; dans ||| &quot; in ||| 0.428571 0.142857 0.428571 0.142857 0.142857 0.714286 
&quot; de ||| &apos;s &quot; ||| 0.142857 0.714286 0.142857 0.142857 0.714286 0.142857 
&quot; de ||| &quot; of ||| 0.600000 0.200000 0.200000 0.600000 0.200000 0.200000 
&quot; de ||| &quot; ||| 0.200000 0.600000 0.200000 0.200000 0.600000 0.200000 
&quot; est ||| &apos; has ||| 0.600000 0.200000 0.200000 0.600000 0.200000 0.200000 
&quot; est ||| &quot; is ||| 0.600000 0.200000 0.200000 0.600000 0.200000 0.200000 
&quot; et &quot; ||| &quot; and &quot; ||| 0.200000 0.200000 0.600000 0.200000 0.200000 0.600000 
&quot; et ||| &quot; and thus ||| 0.600000 0.200000 0.200000 0.200000 0.200000 0.600000 
&quot; et ||| &quot; and ||| 0.529412 0.058824 0.411765 0.411765 0.058824 0.529412 
&quot; et ||| &quot; earned &quot; and ||| 0.200000 0.200000 0.600000 0.200000 0.200000 0.600000 
&quot; et ||| &quot; ||| 0.600000 0.200000 0.200000 0.200000 0.200000 0.600000 
&quot; et ||| , &quot; and ||| 0.200000 0.200000 0.600000 0.200000 0.200000 0.600000 
&quot; et ||| and the distinction ||| 0.200000 0.200000 0.600000 0.200000 0.200000 0.600000 
&quot; et ||| and ||| 0.142857 0.428571 0.428571 0.142857 0.142857 0.714286 
&quot; et ||| competing with each other . &quot; The ||| 0.200000 0.200000 0.600000 0.200000 0.200000 0.600000 
&quot; et ||| each other . &quot; The Court rejected ||| 0.200000 0.200000 0.600000 0.200000 0.200000 0.600000 
&quot; et ||| each other . &quot; The Court ||| 0.200000 0.200000 0.600000 0.200000 0.200000 0.600000 
&quot; et ||| each other . &quot; The ||| 0.200000 0.200000 0.600000 0.200000 0.200000 0.600000 
&quot; et ||| other . &quot; The Court rejected the ||| 0.200000 0.200000 0.600000 0.200000 0.200000 0.600000 
&quot; et ||| other . &quot; The Court rejected ||| 0.200000 0.200000 0.600000 0.200000 0.200000 0.600000 
&quot; et ||| other . &quot; The Court ||| 0.200000 0.200000 0.600000 0.200000 0.200000 0.600000 
&quot; et ||| other . &quot; The ||| 0.200000 0.200000 0.600000 0.200000 0.200000 0.600000 
&quot; et ||| with each other . &quot; The Court ||| 0.200000 0.200000 0.600000 0.200000 0.200000 0.600000 
&quot; et ||| with each other . &quot; The ||| 0.200000 0.200000 0.600000 0.200000 0.200000 0.600000 
&quot; les ||| &quot; The ||| 0.600000 0.200000 0.200000 0.600000 0.200000 0.200000 
&quot; les ||| &quot; the ||| 0.714286 0.142857 0.142857 0.428571 0.142857 0.428571 
&quot; les ||| &quot; ||| 0.600000 0.200000 0.200000 0.200000 0.200000 0.600000 
&quot; ou ||| &quot; or ||| 0.600000 0.200000 0.200000 0.600000 0.200000 0.200000 
&quot; pour ||| &quot; and ||| 0.600000 0.200000 0.200000 0.600000 0.200000 0.200000 
&quot; pour ||| &quot; to ||| 0.200000 0.200000 0.600000 0.600000 0.200000 0.200000 
&quot; travailleurs &quot; ||| &quot; working people &quot; ||| 0.600000 0.200000 0.200000 0.600000 0.200000 0.200000 
&quot; travailleurs ||| &quot; working people ||| 0.600000 0.200000 0.200000 0.600000 0.200000 0.200000 
&quot; travailleurs ||| &quot; working ||| 0.600000 0.200000 0.200000 0.200000 0.200000 0.600000 
&quot; travailleurs ||| &quot; ||| 0.600000 0.200000 0.200000 0.200000 0.200000 0.600000 
&quot; ||| &apos; ||| 0.818182 0.090909 0.090909 0.636364 0.090909 0.272727 
&quot; ||| &quot; &quot; ||| 0.142857 0.428571 0.428571 0.142857 0.142857 0.714286 
&quot; ||| &quot; If ||| 0.600000 0.200000 0.200000 0.200000 0.200000 0.600000 
&quot; ||| &quot; Islamic World ||| 0.600000 0.200000 0.200000 0.200000 0.200000 0.600000 
&quot; ||| &quot; Islamic ||| 0.600000 0.200000 0.200000 0.200000 0.200000 0.600000 
&quot; ||| &quot; The Court rejected the ||| 0.200000 0.200000 0.600000 0.200000 0.200000 0.600000 
&quot; ||| &quot; The Court rejected ||| 0.200000 0.200000 0.600000 0.200000 0.200000 0.600000 
&quot; ||| &quot; The Court ||| 0.200000 0.200000 0.600000 0.200000 0.200000 0.600000 
&quot; ||| &quot; The ||| 0.200000 0.200000 0.600000 0.200000 0.200000 0.600000 
&quot; ||| &quot; They ||| 0.200000 0.200000 0.600000 0.200000 0.200000 0.600000 
&quot; ||| &quot; Wipe Out Poisonous Weeds Campaign ||| 0.200000 0.200000 0.600000 0.200000 0.200000 0.600000 
&quot; ||| &quot; advanced ||| 0.200000 0.200000 0.600000 0.200000 0.200000 0.600000 
&quot; ||| &quot; business as ||| 0.200000 0.200000 0.600000 0.600000 0.200000 0.200000 
&quot; ||| &quot; business ||| 0.200000 0.200000 0.600000 0.200000 0.200000 0.600000 
&quot; ||| &quot; earned &quot; ||| 0.200000 0.200000 0.600000 0.600000 0.200000 0.200000 
&quot; ||| &quot; has ||| 0.600000 0.200000 0.200000 0.200000 0.200000 0.600000 
&quot; ||| &quot; he said , &quot; ||| 0.200000 0.200000 0.600000 0.200000 0.200000 0.600000 
&quot; ||| &quot; moved ||| 0.200000 0.600000 0.200000 0.200000 0.200000 0.600000 
&quot; ||| &quot; quartet &quot; ||| 0.200000 0.200000 0.600000 0.200000 0.200000 0.600000 
&quot; ||| &quot; quartet ||| 0.200000 0.200000 0.600000 0.200000 0.200000 0.600000 
&quot; ||| &quot; the ||| 0.600000 0.200000 0.200000 0.200000 0.200000 0.600000 
&quot; ||| &quot; vesting &quot; ||| 0.200000 0.200000 0.600000 0.200000 0.200000 0.600000 
&quot; ||| &quot; vesting ||| 0.200000 0.200000 0.600000 0.200000 0.200000 0.600000 
&quot; ||| &quot; virtual &quot; ||| 0.200000 0.200000 0.600000 0.200000 0.600000 0.200000 
&quot; ||| &quot; welfare ||| 0.600000 0.200000 0.200000 0.200000 0.200000 0.600000 
&quot; ||| &quot; who drive ||| 0.600000 0.200000 0.200000 0.200000 0.200000 0.600000 
&quot; ||| &quot; who ||| 0.600000 0.200000 0.200000 0.200000 0.200000 0.600000 
&quot; ||| &quot; whole ||| 0.600000 0.200000 0.200000 0.200000 0.200000 0.600000 
&quot; ||| &quot; working people ||| 0.600000 0.200000 0.200000 0.200000 0.200000 0.600000 
&quot; ||| &quot; working ||| 0.600000 0.200000 0.200000 0.200000 0.200000 0.600000 
&quot; ||| &quot; ||| 0.519348 0.201629 0.279022 0.503055 0.046843 0.450102 
&quot; ||| , &quot; ||| 0.142857 0.142857 0.714286 0.428571 0.142857 0.428571 
&quot; ||| . &quot; The Court rejected the ||| 0.200000 0.600000 0.200000 0.200000 0.200000 0.600000 
&quot; ||| . &quot; The Court rejected ||| 0.200000 0.600000 0.200000 0.200000 0.200000 0.600000 
&quot; ||| . &quot; The Court ||| 0.200000 0.600000 0.200000 0.200000 0.200000 0.600000 
&quot; ||| . &quot; The ||| 0.200000 0.600000 0.200000 0.200000 0.200000 0.600000 
&quot; ||| Eliminate Demons ||| 0.200000 0.200000 0.600000 0.200000 0.200000 0.600000 
&quot; ||| Eliminate ||| 0.200000 0.200000 0.600000 0.200000 0.200000 0.600000 
&quot; ||| Out Poisonous Weeds Campaign ||| 0.200000 0.200000 0.600000 0.200000 0.200000 0.600000 
&quot; ||| Poisonous Weeds Campaign ||| 0.200000 0.200000 0.600000 0.200000 0.200000 0.600000 
&quot; ||| Wipe Out Poisonous Weeds Campaign ||| 0.200000 0.200000 0.600000 0.200000 0.200000 0.600000 
&quot; ||| be &quot; ||| 0.200000 0.200000 0.600000 0.200000 0.200000 0.600000 
&quot; ||| called a &quot; ||| 0.600000 0.200000 0.200000 0.600000 0.200000 0.200000 
&quot; ||| called ||| 0.200000 0.200000 0.600000 0.200000 0.200000 0.600000 
&quot; ||| calls &quot; ||| 0.200000 0.200000 0.600000 0.200000 0.600000 0.200000 
&quot; ||| cannot doubt &quot; ||| 0.200000 0.200000 0.600000 0.200000 0.200000 0.600000 
&quot; ||| coined ||| 0.200000 0.200000 0.600000 0.200000 0.200000 0.600000 
&quot; ||| county ||| 0.200000 0.600000 0.200000 0.200000 0.200000 0.600000 
&quot; ||| distinction ||| 0.200000 0.200000 0.600000 0.200000 0.200000 0.600000 
&quot; ||| doubt &quot; ||| 0.200000 0.200000 0.600000 0.200000 0.200000 0.600000 
&quot; ||| ended negotiations &quot; ||| 0.200000 0.200000 0.600000 0.200000 0.200000 0.600000 
&quot; ||| enjoy the &quot; ||| 0.200000 0.200000 0.600000 0.600000 0.200000 0.200000 
&quot; ||| enlarging ||| 0.200000 0.200000 0.600000 0.200000 0.600000 0.200000 
&quot; ||| he said , &quot; ||| 0.200000 0.200000 0.600000 0.200000 0.200000 0.600000 
&quot; ||| man &quot; ||| 0.600000 0.200000 0.200000 0.600000 0.200000 0.200000 
&quot; ||| negotiations &quot; ||| 0.200000 0.200000 0.600000 0.200000 0.200000 0.600000 
&quot; ||| organization called ||| 0.200000 0.200000 0.600000 0.200000 0.200000 0.600000 
&quot; ||| people &quot; &quot; ||| 0.600000 0.200000 0.200000 0.200000 0.200000 0.600000 
&quot; ||| people &quot; ||| 0.200000 0.200000 0.600000 0.600000 0.200000 0.200000 
&quot; ||| representation &quot; ||| 0.200000 0.200000 0.600000 0.200000 0.200000 0.600000 
&quot; ||| said , &quot; ||| 0.200000 0.200000 0.600000 0.200000 0.200000 0.600000 
&quot; ||| say ||| 0.142857 0.142857 0.714286 0.142857 0.428571 0.428571 
&quot; ||| science ||| 0.428571 0.142857 0.428571 0.714286 0.142857 0.142857 
&quot; ||| tag ||| 0.200000 0.600000 0.200000 0.200000 0.200000 0.600000 
&quot; ||| technological ||| 0.200000 0.200000 0.600000 0.600000 0.200000 0.200000 
&quot; ||| the &quot; ||| 0.200000 0.200000 0.600000 0.600000 0.200000 0.200000 
&quot; ||| the distinction ||| 0.200000 0.600000 0.200000 0.200000 0.200000 0.600000 
&quot; ||| unfounded representation &quot; ||| 0.200000 0.200000 0.600000 0.200000 0.200000 0.600000 
&quot; ||| virtual &quot; ||| 0.200000 0.200000 0.600000 0.200000 0.600000 0.200000 
&quot; ||| working people &quot; ||| 0.200000 0.200000 0.600000 0.600000 0.200000 0.200000 
&quot; ||| you cannot doubt &quot; ||| 0.200000 0.200000 0.600000 0.200000 0.200000 0.600000 
&quot; ||| ‘ ||| 0.600000 0.200000 0.200000 0.600000 0.200000 0.200000 
( la ||| ( the ||| 0.600000 0.200000 0.200000 0.600000 0.200000 0.200000 
( la ||| - ||| 0.600000 0.200000 0.200000 0.600000 0.200000 0.200000 
( ||| &apos;s -- airline ||| 0.200000 0.200000 0.600000 0.200000 0.200000 0.600000 
( ||| &apos;s -- ||| 0.200000 0.200000 0.600000 0.200000 0.200000 0.600000 
( ||| &quot; -- ||| 0.600000 0.200000 0.200000 0.200000 0.200000 0.600000 
( ||| &quot; ||| 0.200000 0.200000 0.600000 0.200000 0.200000 0.600000 
( ||| ( &quot; ||| 0.600000 0.200000 0.200000 0.200000 0.200000 0.600000 
( ||| ( ACP ||| 0.600000 0.200000 0.200000 0.200000 0.200000 0.600000 
( ||| ( ANP ||| 0.142857 0.142857 0.714286 0.142857 0.142857 0.714286 
( ||| ( LDCs ||| 0.200000 0.200000 0.600000 0.200000 0.200000 0.600000 
( ||| ( NPT ||| 0.200000 0.200000 0.600000 0.200000 0.200000 0.600000 
( ||| ( Oregon and Minnesota ||| 0.200000 0.200000 0.600000 0.200000 0.200000 0.600000 
( ||| ( Oregon and ||| 0.200000 0.200000 0.600000 0.200000 0.200000 0.600000 
( ||| ( Oregon ||| 0.200000 0.200000 0.600000 0.200000 0.200000 0.600000 
( ||| ( RSV ||| 0.200000 0.200000 0.600000 0.200000 0.200000 0.600000 
( ||| ( discussed next ||| 0.600000 0.200000 0.200000 0.200000 0.200000 0.600000 
( ||| ( discussed ||| 0.600000 0.200000 0.200000 0.200000 0.200000 0.600000 
( ||| ( from ||| 0.200000 0.200000 0.600000 0.200000 0.200000 0.600000 
( ||| ( i.e. , ||| 0.600000 0.200000 0.200000 0.600000 0.200000 0.200000 
( ||| ( i.e. ||| 0.428571 0.142857 0.428571 0.142857 0.142857 0.714286 
( ||| ( in ||| 0.200000 0.200000 0.600000 0.200000 0.200000 0.600000 
( ||| ( meaning ||| 0.600000 0.200000 0.200000 0.200000 0.200000 0.600000 
( ||| ( one of ||| 0.600000 0.200000 0.200000 0.200000 0.200000 0.600000 
( ||| ( one ||| 0.600000 0.200000 0.200000 0.200000 0.200000 0.600000 
( ||| ( since saving ||| 0.600000 0.200000 0.200000 0.200000 0.200000 0.600000 
( ||| ( since ||| 0.600000 0.200000 0.200000 0.200000 0.200000 0.600000 
( ||| ( the ||| 0.428571 0.142857 0.428571 0.428571 0.142857 0.428571 
( ||| ( their ||| 0.600000 0.200000 0.200000 0.200000 0.200000 0.600000 
( ||| ( together with ||| 0.600000 0.200000 0.200000 0.200000 0.200000 0.600000 
( ||| ( together ||| 0.600000 0.200000 0.200000 0.200000 0.200000 0.600000 
( ||| ( unknown ||| 0.600000 0.200000 0.200000 0.200000 0.200000 0.600000 
( ||| ( up ||| 0.200000 0.200000 0.600000 0.200000 0.200000 0.600000 
( ||| ( when ||| 0.200000 0.200000 0.600000 0.200000 0.200000 0.600000 
( ||| ( written ||| 0.200000 0.200000 0.600000 0.200000 0.200000 0.600000 
( ||| ( ||| 0.416431 0.031161 0.552408 0.597734 0.019830 0.382436 
( ||| - ||| 0.478261 0.130435 0.391304 0.478261 0.043478 0.478261 
( ||| -- airline ||| 0.200000 0.200000 0.600000 0.200000 0.200000 0.600000 
( ||| -- ||| 0.411765 0.176471 0.411765 0.529412 0.058824 0.411765 
( ||| . ( ||| 0.200000 0.200000 0.600000 0.600000 0.200000 0.200000 
( ||| @-@ western ( ||| 0.600000 0.200000 0.200000 0.600000 0.200000 0.200000 
( ||| Council ( ||| 0.200000 0.200000 0.600000 0.600000 0.200000 0.200000 
( ||| Countries ( LDCs ||| 0.200000 0.200000 0.600000 0.200000 0.200000 0.600000 
( ||| Countries ( ||| 0.200000 0.200000 0.600000 0.200000 0.200000 0.600000 
( ||| Dawa ( ||| 0.200000 0.200000 0.600000 0.200000 0.600000 0.200000 
( ||| Northwest ( Oregon and Minnesota ||| 0.200000 0.200000 0.600000 0.200000 0.200000 0.600000 
( ||| Northwest ( Oregon and ||| 0.200000 0.200000 0.600000 0.200000 0.200000 0.600000 
( ||| Northwest ( Oregon ||| 0.200000 0.200000 0.600000 0.200000 0.200000 0.600000 
( ||| Northwest ( ||| 0.200000 0.200000 0.600000 0.200000 0.200000 0.600000 
( ||| Nuclear Research ( ||| 0.200000 0.200000 0.600000 0.600000 0.200000 0.200000 
( ||| Prosperity ( ||| 0.200000 0.200000 0.600000 0.600000 0.200000 0.200000 
( ||| Quo ( written ||| 0.200000 0.200000 0.600000 0.200000 0.200000 0.600000 
( ||| Quo ( ||| 0.200000 0.200000 0.600000 0.200000 0.200000 0.600000 
( ||| Research ( ||| 0.200000 0.200000 0.600000 0.600000 0.200000 0.200000 
( ||| Russia ( ||| 0.200000 0.200000 0.600000 0.600000 0.200000 0.200000 
( ||| Status Quo ( written ||| 0.200000 0.200000 0.600000 0.200000 0.200000 0.600000 
( ||| Status Quo ( ||| 0.200000 0.200000 0.600000 0.200000 0.200000 0.600000 
( ||| TOTAL ( ||| 0.200000 0.200000 0.600000 0.200000 0.600000 0.200000 
( ||| a family ( ||| 0.200000 0.200000 0.600000 0.200000 0.200000 0.600000 
( ||| burden ( ||| 0.600000 0.200000 0.200000 0.600000 0.200000 0.200000 
( ||| called EUSEC ||| 0.200000 0.200000 0.600000 0.200000 0.200000 0.600000 
( ||| called ||| 0.200000 0.200000 0.600000 0.200000 0.200000 0.600000 
( ||| capacity . ( ||| 0.200000 0.200000 0.600000 0.600000 0.200000 0.200000 
( ||| cell ( ||| 0.200000 0.200000 0.600000 0.200000 0.200000 0.600000 
( ||| commit themselves ( ||| 0.200000 0.200000 0.600000 0.600000 0.200000 0.200000 
( ||| company TOTAL ( ||| 0.200000 0.200000 0.600000 0.200000 0.600000 0.200000 
( ||| consortium ( ||| 0.600000 0.200000 0.200000 0.600000 0.200000 0.200000 
( ||| contributions ( up ||| 0.200000 0.200000 0.600000 0.200000 0.200000 0.600000 
( ||| contributions ( ||| 0.200000 0.200000 0.600000 0.200000 0.200000 0.600000 
( ||| effort ( ||| 0.200000 0.200000 0.600000 0.200000 0.200000 0.600000 
( ||| essence - ||| 0.200000 0.200000 0.600000 0.600000 0.200000 0.200000 
( ||| exposed ( ||| 0.200000 0.200000 0.600000 0.600000 0.200000 0.200000 
( ||| family ( ||| 0.200000 0.200000 0.600000 0.200000 0.200000 0.600000 
( ||| in a family ( ||| 0.200000 0.200000 0.600000 0.200000 0.200000 0.600000 
( ||| in office ( ||| 0.600000 0.200000 0.200000 0.600000 0.200000 0.200000 
( ||| legislate - ||| 0.200000 0.200000 0.600000 0.600000 0.200000 0.200000 
( ||| movements ( from ||| 0.600000 0.200000 0.200000 0.200000 0.200000 0.600000 
( ||| movements ( ||| 0.600000 0.200000 0.200000 0.200000 0.200000 0.600000 
( ||| office ( ||| 0.200000 0.200000 0.600000 0.600000 0.200000 0.200000 
( ||| one ( ||| 0.600000 0.200000 0.200000 0.600000 0.200000 0.200000 
( ||| population ( ||| 0.200000 0.600000 0.200000 0.600000 0.200000 0.200000 
( ||| present ( ||| 0.200000 0.200000 0.600000 0.200000 0.200000 0.600000 
( ||| professionals ( ||| 0.200000 0.200000 0.600000 0.200000 0.200000 0.600000 
( ||| remedial capacity . ( ||| 0.200000 0.200000 0.600000 0.600000 0.200000 0.200000 
( ||| that legislate - ||| 0.200000 0.200000 0.600000 0.600000 0.200000 0.200000 
( ||| themselves ( ||| 0.200000 0.200000 0.600000 0.600000 0.200000 0.200000 
( ||| western ( ||| 0.200000 0.200000 0.600000 0.600000 0.200000 0.200000 
) , ||| ) , gas ||| 0.600000 0.200000 0.200000 0.200000 0.200000 0.600000 
) , ||| ) , ||| 0.767442 0.023256 0.209302 0.674419 0.023256 0.302326 
) , ||| ) had ||| 0.600000 0.200000 0.200000 0.200000 0.200000 0.600000 
) , ||| ) ||| 0.647059 0.058824 0.294118 0.411765 0.058824 0.529412 
) , ||| , ||| 0.142857 0.142857 0.714286 0.714286 0.142857 0.142857 
) , ||| - ||| 0.428571 0.142857 0.428571 0.714286 0.142857 0.142857 
) , ||| -- ||| 0.142857 0.142857 0.714286 0.714286 0.142857 0.142857 
) , ||| ANP ) ||| 0.200000 0.200000 0.600000 0.200000 0.200000 0.600000 
) , ||| chosen , ||| 0.200000 0.200000 0.600000 0.600000 0.200000 0.200000 
) , ||| lie ) ||| 0.600000 0.200000 0.200000 0.600000 0.200000 0.200000 
) . ||| ) . ||| 0.600000 0.015385 0.384615 0.969231 0.015385 0.015385 
) . ||| ) ||| 0.200000 0.200000 0.600000 0.200000 0.200000 0.600000 
) . ||| . ) ||| 0.600000 0.200000 0.200000 0.600000 0.200000 0.200000 
) . ||| . entry ||| 0.200000 0.200000 0.600000 0.200000 0.200000 0.600000 
) . ||| . ||| 0.473684 0.052632 0.473684 0.789474 0.052632 0.157895 
) . ||| @-@ invasion predictions . ||| 0.200000 0.200000 0.600000 0.600000 0.200000 0.200000 
) . ||| admit ) ||| 0.200000 0.200000 0.600000 0.200000 0.200000 0.600000 
) . ||| appears ) . ||| 0.200000 0.200000 0.600000 0.600000 0.200000 0.200000 
) . ||| available ) . ||| 0.200000 0.200000 0.600000 0.600000 0.200000 0.200000 
) . ||| discussed next ) . ||| 0.200000 0.200000 0.600000 0.600000 0.200000 0.200000 
) . ||| force . ||| 0.200000 0.200000 0.600000 0.600000 0.200000 0.200000 
) . ||| least ) . ||| 0.600000 0.200000 0.200000 0.600000 0.200000 0.200000 
) . ||| next ) . ||| 0.200000 0.200000 0.600000 0.600000 0.200000 0.200000 
) . ||| post @-@ invasion predictions . ||| 0.200000 0.200000 0.600000 0.600000 0.200000 0.200000 
) a ||| ) have become a ||| 0.600000 0.200000 0.200000 0.600000 0.200000 0.200000 
) a ||| ) ||| 0.600000 0.200000 0.200000 0.200000 0.200000 0.600000 
) a ||| -- has now mutated into ||| 0.200000 0.200000 0.600000 0.200000 0.200000 0.600000 
) a ||| -- has now mutated ||| 0.200000 0.200000 0.600000 0.200000 0.200000 0.600000 
) a ||| -- has now ||| 0.200000 0.200000 0.600000 0.200000 0.200000 0.600000 
) a ||| -- has ||| 0.200000 0.200000 0.600000 0.200000 0.200000 0.600000 
) a ||| -- ||| 0.200000 0.200000 0.600000 0.200000 0.200000 0.600000 
) a ||| Albanians -- ||| 0.600000 0.200000 0.200000 0.200000 0.200000 0.600000 
) a ||| Olympics -- has now mutated into ||| 0.200000 0.200000 0.600000 0.200000 0.200000 0.600000 
) a ||| Olympics -- has now mutated ||| 0.200000 0.200000 0.600000 0.200000 0.200000 0.600000 
) a ||| Olympics -- has now ||| 0.200000 0.200000 0.600000 0.200000 0.200000 0.600000 
) a ||| Olympics -- has ||| 0.200000 0.200000 0.600000 0.200000 0.200000 0.600000 
) a ||| about the ||| 0.200000 0.200000 0.600000 0.200000 0.200000 0.600000 
) a ||| bandied about the ||| 0.200000 0.600000 0.200000 0.200000 0.200000 0.600000 
) a ||| the ||| 0.200000 0.200000 0.600000 0.200000 0.200000 0.600000 
) alors ||| ) then ||| 0.600000 0.200000 0.200000 0.200000 0.200000 0.600000 
) et ||| ) , and ||| 0.200000 0.200000 0.600000 0.600000 0.200000 0.200000 
) et ||| ) and equivalent ||| 0.600000 0.200000 0.200000 0.600000 0.200000 0.200000 
) et ||| ) and ||| 0.473684 0.052632 0.473684 0.473684 0.052632 0.473684 
) et ||| ) ||| 0.200000 0.200000 0.600000 0.200000 0.200000 0.600000 
) et ||| -- and ||| 0.600000 0.200000 0.200000 0.600000 0.200000 0.200000 
) et ||| EUPOL and ||| 0.200000 0.200000 0.600000 0.600000 0.200000 0.200000 
) et ||| LDCs ) and ||| 0.200000 0.200000 0.600000 0.200000 0.200000 0.600000 
) et ||| and reviving the ||| 0.600000 0.200000 0.200000 0.200000 0.200000 0.600000 
) et ||| and reviving ||| 0.600000 0.200000 0.200000 0.200000 0.200000 0.600000 
) et ||| and ||| 0.454545 0.090909 0.454545 0.272727 0.090909 0.636364 
) et ||| nice ) and ||| 0.200000 0.200000 0.600000 0.200000 0.200000 0.600000 
) et ||| sounds nice ) and ||| 0.200000 0.200000 0.600000 0.200000 0.200000 0.600000 
) ||| &quot; ? - ||| 0.600000 0.200000 0.200000 0.600000 0.200000 0.200000 
) ||| ) , as ||| 0.600000 0.200000 0.200000 0.200000 0.200000 0.600000 
) ||| ) , ||| 0.428571 0.142857 0.428571 0.142857 0.142857 0.714286 
) ||| ) - ||| 0.600000 0.200000 0.200000 0.200000 0.200000 0.600000 
) ||| ) . at the ||| 0.600000 0.200000 0.200000 0.200000 0.200000 0.600000 
) ||| ) . at ||| 0.600000 0.200000 0.200000 0.200000 0.200000 0.600000 
) ||| ) . ||| 0.600000 0.200000 0.200000 0.200000 0.200000 0.600000 
) ||| ) are associated with ||| 0.200000 0.200000 0.600000 0.200000 0.200000 0.600000 
) ||| ) are associated ||| 0.200000 0.200000 0.600000 0.200000 0.200000 0.600000 
) ||| ) are ||| 0.200000 0.200000 0.600000 0.200000 0.200000 0.600000 
) ||| ) come ||| 0.200000 0.200000 0.600000 0.200000 0.200000 0.600000 
) ||| ) concluded ||| 0.600000 0.200000 0.200000 0.200000 0.200000 0.600000 
) ||| ) disappears ||| 0.600000 0.200000 0.200000 0.200000 0.200000 0.600000 
) ||| ) had ||| 0.600000 0.200000 0.200000 0.200000 0.200000 0.600000 
) ||| ) have become ||| 0.600000 0.200000 0.200000 0.600000 0.200000 0.200000 
) ||| ) have joined ||| 0.600000 0.200000 0.200000 0.200000 0.200000 0.600000 
) ||| ) have ||| 0.714286 0.142857 0.142857 0.142857 0.142857 0.714286 
) ||| ) offers ||| 0.600000 0.200000 0.200000 0.200000 0.200000 0.600000 
) ||| ) raise ||| 0.200000 0.200000 0.600000 0.200000 0.200000 0.600000 
) ||| ) raised a ||| 0.600000 0.200000 0.200000 0.200000 0.200000 0.600000 
) ||| ) raised ||| 0.600000 0.200000 0.200000 0.200000 0.200000 0.600000 
) ||| ) remained virtually unchanged ||| 0.200000 0.200000 0.600000 0.200000 0.200000 0.600000 
) ||| ) remained virtually ||| 0.200000 0.200000 0.600000 0.200000 0.200000 0.600000 
) ||| ) remained ||| 0.200000 0.200000 0.600000 0.200000 0.200000 0.600000 
) ||| ) solely ||| 0.600000 0.200000 0.200000 0.200000 0.200000 0.600000 
) ||| ) succeeded in getting ||| 0.600000 0.200000 0.200000 0.600000 0.200000 0.200000 
) ||| ) succeeded in ||| 0.600000 0.200000 0.200000 0.200000 0.200000 0.600000 
) ||| ) succeeded ||| 0.600000 0.200000 0.200000 0.200000 0.200000 0.600000 
) ||| ) suggested ||| 0.200000 0.200000 0.600000 0.200000 0.200000 0.600000 
) ||| ) the standard ||| 0.200000 0.200000 0.600000 0.600000 0.200000 0.200000 
) ||| ) the ||| 0.200000 0.200000 0.600000 0.200000 0.200000 0.600000 
) ||| ) will ||| 0.200000 0.200000 0.600000 0.200000 0.200000 0.600000 
) ||| ) worries ||| 0.200000 0.200000 0.600000 0.600000 0.200000 0.200000 
) ||| ) ||| 0.549858 0.014245 0.435897 0.584046 0.031339 0.384615 
) ||| , say ) ||| 0.600000 0.200000 0.200000 0.200000 0.200000 0.600000 
) ||| - ||| 0.294118 0.058824 0.647059 0.764706 0.058824 0.176471 
) ||| -- is ||| 0.200000 0.200000 0.600000 0.600000 0.200000 0.200000 
) ||| -- ||| 0.384615 0.076923 0.538462 0.538462 0.076923 0.384615 
) ||| ? - ||| 0.200000 0.200000 0.600000 0.600000 0.200000 0.200000 
) ||| @-@ based agenda ||| 0.600000 0.200000 0.200000 0.200000 0.200000 0.600000 
) ||| @-@ based ||| 0.600000 0.200000 0.200000 0.200000 0.200000 0.600000 
) ||| @-@ invasion predictions ||| 0.200000 0.200000 0.600000 0.600000 0.200000 0.200000 
) ||| @-@ invasion ||| 0.200000 0.200000 0.600000 0.200000 0.200000 0.600000 
) ||| @-@ ||| 0.428571 0.142857 0.428571 0.142857 0.142857 0.714286 
) ||| ACP ) ||| 0.200000 0.200000 0.600000 0.200000 0.200000 0.600000 
) ||| ANP ) ||| 0.142857 0.142857 0.714286 0.142857 0.142857 0.714286 
) ||| Albanians -- ||| 0.600000 0.200000 0.200000 0.200000 0.200000 0.600000 
) ||| Bahr ) suggested ||| 0.200000 0.200000 0.600000 0.200000 0.200000 0.600000 
) ||| Bahr ) ||| 0.200000 0.200000 0.600000 0.200000 0.200000 0.600000 
) ||| Egon Bahr ) suggested ||| 0.200000 0.200000 0.600000 0.200000 0.200000 0.600000 
) ||| Egon Bahr ) ||| 0.200000 0.200000 0.600000 0.200000 0.200000 0.600000 
) ||| LDCs ) ||| 0.200000 0.200000 0.600000 0.600000 0.200000 0.200000 
) ||| Muslims ) ||| 0.200000 0.200000 0.600000 0.600000 0.200000 0.200000 
) ||| NPT ) ||| 0.200000 0.200000 0.600000 0.200000 0.200000 0.600000 
) ||| Netherlands ) ||| 0.200000 0.200000 0.600000 0.600000 0.200000 0.200000 
) ||| Olympics -- ||| 0.200000 0.200000 0.600000 0.600000 0.200000 0.200000 
) ||| RSV ) are associated with ||| 0.200000 0.200000 0.600000 0.200000 0.200000 0.600000 
) ||| RSV ) are associated ||| 0.200000 0.200000 0.600000 0.200000 0.200000 0.600000 
) ||| RSV ) are ||| 0.200000 0.200000 0.600000 0.200000 0.200000 0.600000 
) ||| RSV ) ||| 0.200000 0.200000 0.600000 0.200000 0.200000 0.600000 
) ||| Rose ) ||| 0.200000 0.200000 0.600000 0.600000 0.200000 0.200000 
) ||| admit ) ||| 0.200000 0.200000 0.600000 0.200000 0.200000 0.600000 
) ||| appears ) ||| 0.200000 0.200000 0.600000 0.600000 0.200000 0.200000 
) ||| available ) ||| 0.200000 0.200000 0.600000 0.600000 0.200000 0.200000 
) ||| blood cells ) ||| 0.200000 0.200000 0.600000 0.600000 0.200000 0.200000 
) ||| cells ) ||| 0.200000 0.200000 0.600000 0.600000 0.200000 0.200000 
) ||| corps ) worries ||| 0.600000 0.200000 0.200000 0.600000 0.200000 0.200000 
) ||| corps ) ||| 0.600000 0.200000 0.200000 0.200000 0.200000 0.600000 
) ||| discussed next ) ||| 0.200000 0.200000 0.600000 0.600000 0.200000 0.200000 
) ||| equivalents ) come ||| 0.200000 0.200000 0.600000 0.200000 0.200000 0.600000 
) ||| equivalents ) ||| 0.200000 0.200000 0.600000 0.200000 0.200000 0.600000 
) ||| fiasco ) ||| 0.200000 0.200000 0.600000 0.200000 0.200000 0.600000 
) ||| following ) ||| 0.200000 0.200000 0.600000 0.600000 0.200000 0.200000 
) ||| fund ) ||| 0.200000 0.200000 0.600000 0.200000 0.200000 0.600000 
) ||| least ) ||| 0.600000 0.200000 0.200000 0.600000 0.200000 0.200000 
) ||| lie ) ||| 0.600000 0.200000 0.200000 0.200000 0.200000 0.600000 
) ||| next ) ||| 0.200000 0.200000 0.600000 0.600000 0.200000 0.200000 
) ||| nice ) ||| 0.200000 0.200000 0.600000 0.600000 0.200000 0.200000 
) ||| nowadays ) ||| 0.200000 0.200000 0.600000 0.600000 0.200000 0.200000 
) ||| post @-@ invasion predictions ||| 0.200000 0.200000 0.600000 0.600000 0.200000 0.200000 
) ||| post @-@ invasion ||| 0.200000 0.200000 0.600000 0.200000 0.200000 0.600000 
) ||| post @-@ ||| 0.200000 0.200000 0.600000 0.200000 0.200000 0.600000 
) ||| say ) ||| 0.200000 0.200000 0.600000 0.200000 0.200000 0.600000 
) ||| simply following ) ||| 0.200000 0.200000 0.600000 0.600000 0.200000 0.200000 
) ||| sounds nice ) ||| 0.200000 0.200000 0.600000 0.600000 0.200000 0.200000 
, &quot; ||| &quot; They ||| 0.200000 0.200000 0.600000 0.200000 0.200000 0.600000 
, &quot; ||| &quot; ||| 0.200000 0.200000 0.600000 0.200000 0.200000 0.600000 
, &quot; ||| , &quot; ||| 0.555556 0.333333 0.111111 0.555556 0.111111 0.333333 
, &quot; ||| say , ||| 0.600000 0.200000 0.200000 0.200000 0.200000 0.600000 
, a @-@ ||| , that routinely ||| 0.200000 0.200000 0.600000 0.600000 0.200000 0.200000 
, a @-@ ||| , that ||| 0.200000 0.200000 0.600000 0.200000 0.200000 0.600000 
, a ||| , addressed ||| 0.200000 0.200000 0.600000 0.600000 0.200000 0.200000 
, a ||| , although ||| 0.200000 0.200000 0.600000 0.200000 0.200000 0.600000 
, a ||| , argued ||| 0.200000 0.600000 0.200000 0.200000 0.200000 0.600000 
, a ||| , fell ||| 0.200000 0.200000 0.600000 0.200000 0.200000 0.600000 
, a ||| , has put ||| 0.600000 0.200000 0.200000 0.200000 0.200000 0.600000 
, a ||| , has ||| 0.578947 0.052632 0.368421 0.789474 0.052632 0.157895 
, a ||| , that routinely ||| 0.200000 0.200000 0.600000 0.200000 0.200000 0.600000 
, a ||| , that ||| 0.200000 0.200000 0.600000 0.200000 0.200000 0.600000 
, a ||| , went ||| 0.200000 0.200000 0.600000 0.200000 0.200000 0.600000 
, a ||| , ||| 0.428571 0.047619 0.523810 0.238095 0.238095 0.523810 
, a ||| -- has ||| 0.200000 0.200000 0.600000 0.600000 0.200000 0.200000 
, a ||| -- may ||| 0.200000 0.200000 0.600000 0.600000 0.200000 0.200000 
, a ||| -- ||| 0.428571 0.142857 0.428571 0.428571 0.142857 0.428571 
, a ||| Eastern affairs , addressed ||| 0.600000 0.200000 0.200000 0.600000 0.200000 0.200000 
, a ||| Eastern affairs , ||| 0.600000 0.200000 0.200000 0.200000 0.200000 0.600000 
, a ||| affairs , addressed ||| 0.200000 0.200000 0.600000 0.600000 0.200000 0.200000 
, a ||| affairs , ||| 0.200000 0.200000 0.600000 0.200000 0.200000 0.600000 
, a ||| challenged him , ||| 0.200000 0.200000 0.600000 0.600000 0.200000 0.200000 
, a ||| do without ||| 0.200000 0.200000 0.600000 0.200000 0.200000 0.600000 
, a ||| enlargement rounds -- may ||| 0.600000 0.200000 0.200000 0.600000 0.200000 0.200000 
, a ||| enlargement rounds -- ||| 0.600000 0.200000 0.200000 0.200000 0.200000 0.600000 
, a ||| has ||| 0.333333 0.111111 0.555556 0.555556 0.111111 0.333333 
, a ||| him , ||| 0.200000 0.200000 0.600000 0.600000 0.200000 0.200000 
, a ||| rounds -- may ||| 0.200000 0.200000 0.600000 0.600000 0.200000 0.200000 
, a ||| rounds -- ||| 0.200000 0.200000 0.600000 0.200000 0.200000 0.600000 
, a ||| south , went ||| 0.200000 0.200000 0.600000 0.200000 0.200000 0.600000 
, a ||| the ||| 0.200000 0.200000 0.600000 0.600000 0.200000 0.200000 
, a ||| without ||| 0.200000 0.200000 0.600000 0.200000 0.200000 0.600000 
, après un ||| , after narrowing to ||| 0.600000 0.200000 0.200000 0.200000 0.200000 0.600000 
, après ||| , after approaching ||| 0.200000 0.200000 0.600000 0.200000 0.200000 0.600000 
, après ||| , after narrowing ||| 0.600000 0.200000 0.200000 0.600000 0.200000 0.200000 
, après ||| , after ||| 0.647059 0.058824 0.294118 0.529412 0.058824 0.411765 
, après ||| , however , after ||| 0.600000 0.200000 0.200000 0.200000 0.200000 0.600000 
, après ||| following ||| 0.200000 0.200000 0.600000 0.200000 0.200000 0.600000 
, après ||| fraud that was supposed to ||| 0.200000 0.200000 0.600000 0.200000 0.200000 0.600000 
, après ||| fraud that was supposed ||| 0.200000 0.200000 0.600000 0.200000 0.200000 0.600000 
, après ||| fraud that was ||| 0.200000 0.200000 0.600000 0.200000 0.200000 0.600000 
, après ||| that was supposed to ||| 0.200000 0.200000 0.600000 0.200000 0.200000 0.600000 
, après ||| that was supposed ||| 0.200000 0.200000 0.600000 0.200000 0.200000 0.600000 
, après ||| that was ||| 0.200000 0.200000 0.600000 0.200000 0.200000 0.600000 
, après ||| was supposed to ||| 0.200000 0.200000 0.600000 0.200000 0.200000 0.600000 
, après ||| was supposed ||| 0.200000 0.200000 0.600000 0.200000 0.200000 0.600000 
, après ||| was ||| 0.200000 0.200000 0.600000 0.200000 0.200000 0.600000 
, au ||| , at ||| 0.777778 0.111111 0.111111 0.555556 0.111111 0.333333 
, au ||| , not ||| 0.200000 0.200000 0.600000 0.200000 0.200000 0.600000 
, au ||| , the ||| 0.600000 0.200000 0.200000 0.600000 0.200000 0.200000 
, au ||| , ||| 0.600000 0.066667 0.333333 0.600000 0.066667 0.333333 
, au ||| at the ||| 0.600000 0.200000 0.200000 0.600000 0.200000 0.200000 
, au ||| but ||| 0.600000 0.200000 0.200000 0.600000 0.200000 0.200000 
, au ||| himself in ||| 0.200000 0.200000 0.600000 0.200000 0.600000 0.200000 
, au ||| on ||| 0.200000 0.200000 0.600000 0.200000 0.200000 0.600000 
, au ||| reflect on ||| 0.200000 0.200000 0.600000 0.200000 0.200000 0.600000 
, au ||| within ||| 0.200000 0.200000 0.600000 0.600000 0.200000 0.200000 
, avec la ||| , by using both ||| 0.200000 0.200000 0.600000 0.600000 0.200000 0.200000 
, avec la ||| , by using ||| 0.200000 0.200000 0.600000 0.200000 0.200000 0.600000 
, avec la ||| , by ||| 0.200000 0.200000 0.600000 0.200000 0.200000 0.600000 
, avec la ||| and , by using both ||| 0.200000 0.200000 0.600000 0.600000 0.200000 0.200000 
, avec la ||| and , by using ||| 0.200000 0.200000 0.600000 0.200000 0.200000 0.600000 
, avec la ||| and , by ||| 0.200000 0.200000 0.600000 0.200000 0.200000 0.600000 
, avec ||| ( with Winston Churchill in ||| 0.200000 0.200000 0.600000 0.600000 0.200000 0.200000 
, avec ||| ( with Winston Churchill ||| 0.200000 0.200000 0.600000 0.200000 0.200000 0.600000 
, avec ||| , with large ||| 0.200000 0.200000 0.600000 0.200000 0.200000 0.600000 
, avec ||| , with significant ||| 0.200000 0.200000 0.600000 0.200000 0.200000 0.600000 
, avec ||| , with the ||| 0.600000 0.200000 0.200000 0.200000 0.200000 0.600000 
, avec ||| , with ||| 0.511111 0.022222 0.466667 0.600000 0.022222 0.377778 
, avec ||| , ||| 0.111111 0.111111 0.777778 0.333333 0.333333 0.333333 
, avec ||| America retains , with ||| 0.200000 0.200000 0.600000 0.200000 0.200000 0.600000 
, avec ||| and , ||| 0.200000 0.200000 0.600000 0.600000 0.200000 0.200000 
, avec ||| and the walls , with ||| 0.600000 0.200000 0.200000 0.600000 0.200000 0.200000 
, avec ||| bureaucracies , with ||| 0.600000 0.200000 0.200000 0.200000 0.200000 0.600000 
, avec ||| imperialist planners ( with Winston Churchill in ||| 0.200000 0.200000 0.600000 0.600000 0.200000 0.200000 
, avec ||| imperialist planners ( with Winston Churchill ||| 0.200000 0.200000 0.600000 0.200000 0.200000 0.600000 
, avec ||| planners ( with Winston Churchill in ||| 0.200000 0.200000 0.600000 0.600000 0.200000 0.200000 
, avec ||| planners ( with Winston Churchill ||| 0.200000 0.200000 0.600000 0.200000 0.200000 0.600000 
, avec ||| range , ||| 0.200000 0.600000 0.200000 0.200000 0.200000 0.600000 
, avec ||| retains , with ||| 0.200000 0.200000 0.600000 0.200000 0.200000 0.600000 
, avec ||| the walls , with ||| 0.200000 0.200000 0.600000 0.600000 0.200000 0.200000 
, avec ||| to ||| 0.200000 0.200000 0.600000 0.200000 0.200000 0.600000 
, avec ||| walls , with ||| 0.200000 0.200000 0.600000 0.600000 0.200000 0.200000 
, avec ||| with ||| 0.600000 0.200000 0.200000 0.200000 0.200000 0.600000 
, bien ||| , though ||| 0.428571 0.142857 0.428571 0.714286 0.142857 0.142857 
, bien ||| are ||| 0.600000 0.200000 0.200000 0.600000 0.200000 0.200000 
, bien ||| but ||| 0.600000 0.200000 0.200000 0.200000 0.200000 0.600000 
, bien ||| par ||| 0.200000 0.200000 0.600000 0.200000 0.200000 0.600000 
, ce qui ||| , allowing ||| 0.600000 0.200000 0.200000 0.200000 0.200000 0.600000 
, ce qui ||| , leading ||| 0.600000 0.200000 0.200000 0.200000 0.200000 0.600000 
, ce qui ||| , posing ||| 0.200000 0.200000 0.600000 0.200000 0.200000 0.600000 
, ce qui ||| , so ||| 0.200000 0.200000 0.600000 0.200000 0.200000 0.600000 
, ce qui ||| , something it ||| 0.200000 0.200000 0.600000 0.200000 0.200000 0.600000 
, ce qui ||| , thus leading ||| 0.600000 0.200000 0.200000 0.200000 0.200000 0.600000 
, ce qui ||| , what inspires ||| 0.200000 0.200000 0.600000 0.200000 0.200000 0.600000 
, ce qui ||| , what ||| 0.200000 0.200000 0.600000 0.200000 0.200000 0.600000 
, ce qui ||| , which presumably was ||| 0.200000 0.200000 0.600000 0.200000 0.200000 0.600000 
, ce qui ||| , which presumably ||| 0.200000 0.200000 0.600000 0.200000 0.200000 0.600000 
, ce qui ||| , which will ||| 0.600000 0.200000 0.200000 0.200000 0.200000 0.600000 
, ce qui ||| , which ||| 0.575758 0.030303 0.393939 0.757576 0.030303 0.212121 
, ce qui ||| , with ||| 0.200000 0.200000 0.600000 0.200000 0.200000 0.600000 
, ce qui ||| , ||| 0.411765 0.058824 0.529412 0.176471 0.058824 0.764706 
, ce qui ||| - ||| 0.600000 0.200000 0.200000 0.200000 0.200000 0.600000 
, ce qui ||| -- thereby causing ||| 0.200000 0.200000 0.600000 0.200000 0.200000 0.600000 
, ce qui ||| -- thereby ||| 0.200000 0.200000 0.600000 0.200000 0.200000 0.600000 
, ce qui ||| -- ||| 0.200000 0.200000 0.600000 0.200000 0.200000 0.600000 
, ce qui ||| a failure , ||| 0.200000 0.200000 0.600000 0.200000 0.200000 0.600000 
, ce qui ||| and which incited ||| 0.200000 0.200000 0.600000 0.200000 0.200000 0.600000 
, ce qui ||| efficiently , so ||| 0.600000 0.200000 0.200000 0.200000 0.200000 0.600000 
, ce qui ||| evasion , ||| 0.200000 0.200000 0.600000 0.200000 0.200000 0.600000 
, ce qui ||| for , what inspires ||| 0.200000 0.200000 0.600000 0.200000 0.200000 0.600000 
, ce qui ||| for , what ||| 0.200000 0.200000 0.600000 0.200000 0.200000 0.600000 
, ce qui ||| grown , with ||| 0.200000 0.200000 0.600000 0.200000 0.200000 0.600000 
, ce qui ||| laws ||| 0.200000 0.200000 0.600000 0.200000 0.200000 0.600000 
, ce qui ||| stands for , what inspires ||| 0.600000 0.200000 0.200000 0.200000 0.200000 0.600000 
, ce qui ||| stands for , what ||| 0.600000 0.200000 0.200000 0.200000 0.200000 0.600000 
, ce qui ||| strip , ||| 0.600000 0.200000 0.200000 0.200000 0.200000 0.600000 
, ce qui ||| that ||| 0.200000 0.200000 0.600000 0.200000 0.200000 0.600000 
, ce qui ||| views , which ||| 0.200000 0.200000 0.600000 0.600000 0.200000 0.200000 
, ce qui ||| ways that ||| 0.200000 0.200000 0.600000 0.200000 0.200000 0.600000 
, ce qui ||| which incited ||| 0.200000 0.200000 0.600000 0.200000 0.200000 0.600000 
, ce ||| , &quot; this ||| 0.200000 0.200000 0.600000 0.600000 0.200000 0.200000 
, ce ||| , allowing ||| 0.600000 0.200000 0.200000 0.200000 0.200000 0.600000 
, ce ||| , causing ||| 0.600000 0.200000 0.200000 0.200000 0.200000 0.600000 
, ce ||| , it will ||| 0.428571 0.142857 0.428571 0.142857 0.142857 0.714286 
, ce ||| , it ||| 0.200000 0.200000 0.600000 0.200000 0.200000 0.600000 
, ce ||| , leading ||| 0.600000 0.200000 0.200000 0.200000 0.200000 0.600000 
, ce ||| , posing ||| 0.200000 0.200000 0.600000 0.200000 0.200000 0.600000 
, ce ||| , producing ||| 0.200000 0.200000 0.600000 0.600000 0.200000 0.200000 
, ce ||| , so ||| 0.200000 0.200000 0.600000 0.200000 0.200000 0.600000 
, ce ||| , something it ||| 0.200000 0.200000 0.600000 0.200000 0.200000 0.600000 
, ce ||| , such a ||| 0.600000 0.200000 0.200000 0.600000 0.200000 0.200000 
, ce ||| , such ||| 0.600000 0.200000 0.200000 0.200000 0.200000 0.600000 
, ce ||| , the ||| 0.428571 0.142857 0.428571 0.428571 0.142857 0.428571 
, ce ||| , this ||| 0.555556 0.111111 0.333333 0.777778 0.111111 0.111111 
, ce ||| , thus ||| 0.600000 0.200000 0.200000 0.600000 0.200000 0.200000 
, ce ||| , which the others ||| 0.200000 0.200000 0.600000 0.200000 0.200000 0.600000 
, ce ||| , which ||| 0.200000 0.200000 0.600000 0.200000 0.200000 0.600000 
, ce ||| , ||| 0.379310 0.034483 0.586207 0.172414 0.034483 0.793103 
, ce ||| - ||| 0.600000 0.200000 0.200000 0.200000 0.200000 0.600000 
, ce ||| -- thereby causing ||| 0.200000 0.200000 0.600000 0.200000 0.200000 0.600000 
, ce ||| -- thereby ||| 0.200000 0.200000 0.600000 0.200000 0.200000 0.600000 
, ce ||| -- ||| 0.200000 0.200000 0.600000 0.200000 0.200000 0.600000 
, ce ||| ; ||| 0.200000 0.200000 0.600000 0.200000 0.200000 0.600000 
, ce ||| efficiently , so ||| 0.600000 0.200000 0.200000 0.200000 0.200000 0.600000 
, ce ||| evasion , ||| 0.200000 0.200000 0.600000 0.200000 0.200000 0.600000 
, ce ||| failure , ||| 0.200000 0.600000 0.200000 0.200000 0.200000 0.600000 
, ce ||| grown , ||| 0.200000 0.200000 0.600000 0.600000 0.200000 0.200000 
, ce ||| it ||| 0.600000 0.200000 0.200000 0.200000 0.600000 0.200000 
, ce ||| laws ||| 0.200000 0.200000 0.600000 0.200000 0.200000 0.600000 
, ce ||| strip , ||| 0.600000 0.200000 0.200000 0.200000 0.200000 0.600000 
, ce ||| views , ||| 0.200000 0.200000 0.600000 0.600000 0.200000 0.200000 
, chef ||| , which led ||| 0.600000 0.200000 0.200000 0.600000 0.200000 0.200000 
, chef ||| @-@ led ||| 0.200000 0.600000 0.200000 0.200000 0.200000 0.600000 
, comme ||| , Altiero Spinelli , ||| 0.600000 0.200000 0.200000 0.200000 0.200000 0.600000 
, comme ||| , as was ||| 0.200000 0.200000 0.600000 0.200000 0.600000 0.200000 
, comme ||| , as ||| 0.485714 0.028571 0.485714 0.771429 0.028571 0.200000 
, comme ||| , just as under ||| 0.600000 0.200000 0.200000 0.200000 0.200000 0.600000 
, comme ||| , just as ||| 0.600000 0.200000 0.200000 0.200000 0.200000 0.600000 
, comme ||| , like ||| 0.600000 0.066667 0.333333 0.600000 0.066667 0.333333 
, comme ||| , say ||| 0.200000 0.200000 0.600000 0.600000 0.200000 0.200000 
, comme ||| , since ||| 0.200000 0.200000 0.600000 0.200000 0.200000 0.600000 
, comme ||| , such as news ||| 0.200000 0.200000 0.600000 0.600000 0.200000 0.200000 
, comme ||| , such as ||| 0.411765 0.058824 0.529412 0.764706 0.058824 0.176471 
, comme ||| , such ||| 0.200000 0.200000 0.600000 0.600000 0.200000 0.200000 
, comme ||| , ||| 0.428571 0.142857 0.428571 0.428571 0.142857 0.428571 
, comme ||| - just ||| 0.600000 0.200000 0.200000 0.600000 0.200000 0.200000 
, comme ||| -- ||| 0.200000 0.200000 0.600000 0.200000 0.600000 0.200000 
, comme ||| already buried ||| 0.200000 0.200000 0.600000 0.600000 0.200000 0.200000 
, comme ||| and , since ||| 0.200000 0.200000 0.600000 0.200000 0.200000 0.600000 
, comme ||| and , ||| 0.200000 0.200000 0.600000 0.200000 0.200000 0.600000 
, comme ||| and gone , as was ||| 0.200000 0.200000 0.600000 0.200000 0.600000 0.200000 
, comme ||| as ||| 0.428571 0.142857 0.428571 0.142857 0.142857 0.714286 
, comme ||| assets , such as news ||| 0.200000 0.200000 0.600000 0.600000 0.200000 0.200000 
, comme ||| assets , such as ||| 0.200000 0.200000 0.600000 0.200000 0.200000 0.600000 
, comme ||| buried ||| 0.200000 0.200000 0.600000 0.600000 0.200000 0.200000 
, comme ||| but not least ||| 0.600000 0.200000 0.200000 0.600000 0.200000 0.200000 
, comme ||| decision to ||| 0.200000 0.200000 0.600000 0.200000 0.600000 0.200000 
, comme ||| decision ||| 0.200000 0.200000 0.600000 0.200000 0.200000 0.600000 
, comme ||| described as ||| 0.600000 0.200000 0.200000 0.600000 0.200000 0.200000 
, comme ||| executive regulations , as ||| 0.200000 0.200000 0.600000 0.600000 0.200000 0.200000 
, comme ||| gone , as was ||| 0.200000 0.200000 0.600000 0.200000 0.600000 0.200000 
, comme ||| groups , such ||| 0.200000 0.200000 0.600000 0.600000 0.200000 0.200000 
, comme ||| like ||| 0.142857 0.142857 0.714286 0.428571 0.142857 0.428571 
, comme ||| presence , as ||| 0.200000 0.200000 0.600000 0.200000 0.200000 0.600000 
, comme ||| regulations , as ||| 0.200000 0.200000 0.600000 0.600000 0.200000 0.200000 
, comme ||| state , as are ||| 0.600000 0.200000 0.200000 0.600000 0.200000 0.200000 
, comme ||| state , as ||| 0.600000 0.200000 0.200000 0.200000 0.200000 0.600000 
, comme ||| succeeds as ||| 0.200000 0.200000 0.600000 0.200000 0.200000 0.600000 
, comme ||| the decision to ||| 0.200000 0.200000 0.600000 0.200000 0.600000 0.200000 
, comme ||| the decision ||| 0.200000 0.200000 0.600000 0.200000 0.200000 0.600000 
, contre ||| , about ||| 0.600000 0.200000 0.200000 0.600000 0.200000 0.200000 
, contre ||| , ||| 0.428571 0.142857 0.428571 0.428571 0.142857 0.428571 
, dans le ||| , especially ||| 0.200000 0.600000 0.200000 0.200000 0.200000 0.600000 
, dans le ||| , in the ||| 0.714286 0.142857 0.142857 0.428571 0.142857 0.428571 
, dans le ||| , when assessing ||| 0.600000 0.200000 0.200000 0.200000 0.200000 0.600000 
, dans le ||| , ||| 0.600000 0.200000 0.200000 0.200000 0.200000 0.600000 
, dans le ||| Lijiang in ||| 0.200000 0.200000 0.600000 0.600000 0.200000 0.200000 
, dans le ||| in ||| 0.200000 0.200000 0.600000 0.600000 0.200000 0.200000 
, dans ||| , at ||| 0.600000 0.200000 0.200000 0.600000 0.200000 0.200000 
, dans ||| , in 3 ||| 0.600000 0.200000 0.200000 0.200000 0.200000 0.600000 
, dans ||| , in ||| 0.862069 0.034483 0.103448 0.793103 0.034483 0.172414 
, dans ||| , when assessing ||| 0.600000 0.200000 0.200000 0.200000 0.200000 0.600000 
, dans ||| , ||| 0.647059 0.058824 0.294118 0.176471 0.176471 0.647059 
, dans ||| -- in ||| 0.200000 0.200000 0.600000 0.600000 0.200000 0.200000 
, dans ||| Lijiang in ||| 0.200000 0.200000 0.600000 0.200000 0.200000 0.600000 
, dans ||| across ||| 0.200000 0.200000 0.600000 0.200000 0.200000 0.600000 
, dans ||| big ||| 0.200000 0.200000 0.600000 0.200000 0.200000 0.600000 
, dans ||| he wants in ||| 0.200000 0.600000 0.200000 0.200000 0.200000 0.600000 
, dans ||| in Pakistan ||| 0.200000 0.200000 0.600000 0.200000 0.200000 0.600000 
, dans ||| in ||| 0.294118 0.058824 0.647059 0.411765 0.058824 0.529412 
, dans ||| wants in ||| 0.200000 0.200000 0.600000 0.200000 0.200000 0.600000 
, de ||| , alleviate , ||| 0.200000 0.200000 0.600000 0.600000 0.200000 0.200000 
, de ||| , and textiles , ||| 0.200000 0.600000 0.200000 0.200000 0.200000 0.600000 
, de ||| , and textiles ||| 0.200000 0.600000 0.200000 0.200000 0.200000 0.600000 
, de ||| , and ||| 0.200000 0.600000 0.200000 0.200000 0.200000 0.600000 
, de ||| , bringing ||| 0.200000 0.200000 0.600000 0.200000 0.200000 0.600000 
, de ||| , for ||| 0.600000 0.200000 0.200000 0.600000 0.200000 0.200000 
, de ||| , from ||| 0.600000 0.200000 0.200000 0.600000 0.200000 0.200000 
, de ||| , its ||| 0.714286 0.142857 0.142857 0.714286 0.142857 0.142857 
, de ||| , reduced ||| 0.200000 0.200000 0.600000 0.200000 0.200000 0.600000 
, de ||| , so ||| 0.600000 0.200000 0.200000 0.200000 0.200000 0.600000 
, de ||| , surprisingly ||| 0.600000 0.200000 0.200000 0.200000 0.200000 0.600000 
, de ||| , to ||| 0.600000 0.200000 0.200000 0.600000 0.200000 0.200000 
, de ||| , turning hostility ||| 0.200000 0.200000 0.600000 0.600000 0.200000 0.200000 
, de ||| , upon ||| 0.600000 0.200000 0.200000 0.600000 0.200000 0.200000 
, de ||| , ||| 0.492537 0.104478 0.402985 0.432836 0.014925 0.552239 
, de ||| - ||| 0.600000 0.200000 0.200000 0.600000 0.200000 0.200000 
, de ||| -- surprise , ||| 0.200000 0.200000 0.600000 0.200000 0.200000 0.600000 
, de ||| Our ||| 0.200000 0.200000 0.600000 0.200000 0.200000 0.600000 
, de ||| another , ||| 0.200000 0.200000 0.600000 0.200000 0.200000 0.600000 
, de ||| avert , alleviate , ||| 0.600000 0.200000 0.200000 0.600000 0.200000 0.200000 
, de ||| book by ||| 0.200000 0.200000 0.600000 0.200000 0.600000 0.200000 
, de ||| by ||| 0.200000 0.200000 0.600000 0.200000 0.600000 0.200000 
, de ||| capacity ||| 0.200000 0.200000 0.600000 0.600000 0.200000 0.200000 
, de ||| competition , ||| 0.200000 0.200000 0.600000 0.200000 0.200000 0.600000 
, de ||| diverse , bringing ||| 0.200000 0.600000 0.200000 0.200000 0.200000 0.600000 
, de ||| diverse , ||| 0.200000 0.600000 0.200000 0.200000 0.200000 0.600000 
, de ||| have made ||| 0.200000 0.200000 0.600000 0.200000 0.200000 0.600000 
, de ||| have ||| 0.200000 0.200000 0.600000 0.200000 0.200000 0.600000 
, de ||| lamely ||| 0.600000 0.200000 0.200000 0.200000 0.200000 0.600000 
, de ||| not stop , ||| 0.200000 0.200000 0.600000 0.600000 0.200000 0.200000 
, de ||| of ||| 0.200000 0.200000 0.600000 0.600000 0.200000 0.200000 
, de ||| on life support ||| 0.200000 0.200000 0.600000 0.200000 0.200000 0.600000 
, de ||| on life ||| 0.200000 0.200000 0.600000 0.200000 0.200000 0.600000 
, de ||| otherwise ||| 0.200000 0.200000 0.600000 0.200000 0.200000 0.600000 
, de ||| state , turning hostility ||| 0.200000 0.200000 0.600000 0.600000 0.200000 0.200000 
, de ||| surprise , ||| 0.200000 0.200000 0.600000 0.200000 0.200000 0.600000 
, de ||| to be ||| 0.200000 0.200000 0.600000 0.200000 0.200000 0.600000 
, de ||| to ||| 0.200000 0.200000 0.600000 0.200000 0.200000 0.600000 
, des ||| , Caribbean ||| 0.600000 0.200000 0.200000 0.600000 0.200000 0.200000 
, des ||| , contested ||| 0.200000 0.200000 0.600000 0.600000 0.200000 0.200000 
, des ||| , for example , ||| 0.600000 0.200000 0.200000 0.200000 0.200000 0.600000 
, des ||| , from ||| 0.600000 0.200000 0.200000 0.200000 0.200000 0.600000 
, des ||| , innovative ||| 0.600000 0.200000 0.200000 0.600000 0.200000 0.200000 
, des ||| , the three ||| 0.600000 0.200000 0.200000 0.200000 0.200000 0.600000 
, des ||| , ||| 0.463415 0.024390 0.512195 0.317073 0.170732 0.512195 
, des ||| 80s , ||| 0.200000 0.200000 0.600000 0.200000 0.200000 0.600000 
, des ||| ; ||| 0.200000 0.200000 0.600000 0.200000 0.200000 0.600000 
, des ||| from ||| 0.200000 0.600000 0.200000 0.200000 0.200000 0.600000 
, des ||| murder , ||| 0.200000 0.200000 0.600000 0.600000 0.200000 0.200000 
, des ||| nervous , ||| 0.200000 0.200000 0.600000 0.200000 0.200000 0.600000 
, des ||| now it ||| 0.200000 0.200000 0.600000 0.200000 0.200000 0.600000 
, des ||| of the ||| 0.600000 0.200000 0.200000 0.200000 0.200000 0.600000 
, des ||| the ||| 0.200000 0.200000 0.600000 0.200000 0.200000 0.600000 
, devant ||| , ||| 0.200000 0.200000 0.600000 0.600000 0.200000 0.200000 
, dont ||| , including ||| 0.538462 0.076923 0.384615 0.692308 0.076923 0.230769 
, dont ||| , which made ||| 0.600000 0.200000 0.200000 0.600000 0.200000 0.200000 
, dont ||| , which ||| 0.428571 0.142857 0.428571 0.142857 0.142857 0.714286 
, dont ||| , whose ||| 0.538462 0.076923 0.384615 0.076923 0.076923 0.846154 
, dont ||| , ||| 0.428571 0.142857 0.428571 0.142857 0.428571 0.428571 
, dont ||| -- which ||| 0.600000 0.200000 0.200000 0.600000 0.200000 0.200000 
, dont ||| ; ||| 0.600000 0.200000 0.200000 0.600000 0.200000 0.200000 
, dont ||| an ||| 0.200000 0.200000 0.600000 0.200000 0.200000 0.600000 
, dont ||| including ||| 0.200000 0.200000 0.600000 0.200000 0.200000 0.600000 
, en ||| , and ||| 0.200000 0.200000 0.600000 0.200000 0.200000 0.600000 
, en ||| , arguing ||| 0.600000 0.200000 0.200000 0.200000 0.200000 0.600000 
, en ||| , by leveraging ||| 0.200000 0.200000 0.600000 0.200000 0.200000 0.600000 
, en ||| , by ||| 0.454545 0.090909 0.454545 0.636364 0.090909 0.272727 
, en ||| , in utter ||| 0.600000 0.200000 0.200000 0.600000 0.200000 0.200000 
, en ||| , in ||| 0.652174 0.043478 0.304348 0.652174 0.043478 0.304348 
, en ||| , which ||| 0.200000 0.200000 0.600000 0.200000 0.200000 0.600000 
, en ||| , with ||| 0.200000 0.200000 0.600000 0.200000 0.200000 0.600000 
, en ||| , ||| 0.515152 0.030303 0.454545 0.575758 0.090909 0.333333 
, en ||| Serbia--despite ||| 0.200000 0.200000 0.600000 0.200000 0.200000 0.600000 
, en ||| and vegetables , ||| 0.600000 0.200000 0.200000 0.600000 0.200000 0.200000 
, en ||| gracefully written popular ||| 0.200000 0.200000 0.600000 0.200000 0.200000 0.600000 
, en ||| gracefully written ||| 0.200000 0.200000 0.600000 0.200000 0.200000 0.600000 
, en ||| gracefully ||| 0.200000 0.200000 0.600000 0.200000 0.200000 0.600000 
, en ||| in ||| 0.555556 0.111111 0.333333 0.555556 0.111111 0.333333 
, en ||| instead , ||| 0.200000 0.200000 0.600000 0.200000 0.600000 0.200000 
, en ||| together in ||| 0.200000 0.200000 0.600000 0.600000 0.200000 0.200000 
, en ||| vegetables , ||| 0.200000 0.200000 0.600000 0.600000 0.200000 0.200000 
, et le ||| , and the ||| 0.692308 0.076923 0.230769 0.692308 0.076923 0.230769 
, et le ||| , ||| 0.200000 0.200000 0.600000 0.200000 0.200000 0.600000 
, et le ||| work , and the ||| 0.600000 0.200000 0.200000 0.600000 0.200000 0.200000 
, et ||| , Norway ||| 0.600000 0.200000 0.200000 0.600000 0.200000 0.200000 
, et ||| , and France ||| 0.200000 0.200000 0.600000 0.200000 0.200000 0.600000 
, et ||| , and Nagorno ||| 0.600000 0.200000 0.200000 0.600000 0.200000 0.200000 
, et ||| , and also ||| 0.600000 0.200000 0.200000 0.600000 0.200000 0.200000 
, et ||| , and he ||| 0.200000 0.200000 0.600000 0.600000 0.200000 0.200000 
, et ||| , and in ||| 0.600000 0.200000 0.200000 0.600000 0.200000 0.200000 
, et ||| , and is ||| 0.600000 0.200000 0.200000 0.200000 0.200000 0.600000 
, et ||| , and it ||| 0.600000 0.200000 0.200000 0.600000 0.200000 0.200000 
, et ||| , and possibly ||| 0.200000 0.200000 0.600000 0.200000 0.200000 0.600000 
, et ||| , and show ||| 0.600000 0.200000 0.200000 0.600000 0.200000 0.200000 
, et ||| , and to ||| 0.714286 0.142857 0.142857 0.142857 0.142857 0.714286 
, et ||| , and ||| 0.525581 0.013953 0.460465 0.655814 0.013953 0.330233 
, et ||| , but ||| 0.714286 0.142857 0.142857 0.714286 0.142857 0.142857 
, et ||| , coupled with strong ||| 0.200000 0.200000 0.600000 0.200000 0.200000 0.600000 
, et ||| , coupled with ||| 0.200000 0.200000 0.600000 0.200000 0.200000 0.600000 
, et ||| , coupled ||| 0.200000 0.200000 0.600000 0.200000 0.200000 0.600000 
, et ||| , of course , will invariably ||| 0.200000 0.200000 0.600000 0.200000 0.600000 0.200000 
, et ||| , of course , will ||| 0.200000 0.200000 0.600000 0.200000 0.200000 0.600000 
, et ||| , of course , ||| 0.200000 0.200000 0.600000 0.200000 0.200000 0.600000 
, et ||| , ordered ||| 0.600000 0.200000 0.200000 0.600000 0.200000 0.200000 
, et ||| , possibly ||| 0.600000 0.200000 0.200000 0.200000 0.200000 0.600000 
, et ||| , provide a shot ||| 0.200000 0.200000 0.600000 0.200000 0.200000 0.600000 
, et ||| , provide a ||| 0.200000 0.200000 0.600000 0.200000 0.200000 0.600000 
, et ||| , provide ||| 0.200000 0.200000 0.600000 0.200000 0.200000 0.600000 
, et ||| , the US is ||| 0.200000 0.200000 0.600000 0.200000 0.200000 0.600000 
, et ||| , the US ||| 0.200000 0.200000 0.600000 0.200000 0.200000 0.600000 
, et ||| , the ||| 0.200000 0.200000 0.600000 0.200000 0.200000 0.600000 
, et ||| , while spreading ||| 0.600000 0.200000 0.200000 0.200000 0.200000 0.600000 
, et ||| , while ||| 0.714286 0.142857 0.142857 0.428571 0.142857 0.428571 
, et ||| , will invariably ||| 0.200000 0.200000 0.600000 0.200000 0.600000 0.200000 
, et ||| , will ||| 0.200000 0.200000 0.600000 0.200000 0.200000 0.600000 
, et ||| , with ||| 0.600000 0.200000 0.200000 0.200000 0.200000 0.600000 
, et ||| , ||| 0.466667 0.013333 0.520000 0.520000 0.013333 0.466667 
, et ||| - and ||| 0.428571 0.142857 0.428571 0.142857 0.142857 0.714286 
, et ||| -- and , ||| 0.600000 0.200000 0.200000 0.200000 0.200000 0.600000 
, et ||| -- and ||| 0.090909 0.090909 0.818182 0.636364 0.090909 0.272727 
, et ||| . the ||| 0.200000 0.200000 0.600000 0.200000 0.200000 0.600000 
, et ||| ; ||| 0.600000 0.200000 0.200000 0.600000 0.200000 0.200000 
, et ||| Nations ||| 0.200000 0.200000 0.600000 0.200000 0.200000 0.600000 
, et ||| Ron Kirk and ||| 0.200000 0.200000 0.600000 0.200000 0.200000 0.600000 
, et ||| Zardari , and ||| 0.200000 0.200000 0.600000 0.600000 0.200000 0.200000 
, et ||| a ||| 0.200000 0.200000 0.600000 0.600000 0.200000 0.200000 
, et ||| agencies , ||| 0.600000 0.200000 0.200000 0.600000 0.200000 0.200000 
, et ||| an evenhanded manner , and ||| 0.200000 0.200000 0.600000 0.600000 0.200000 0.200000 
, et ||| and , ||| 0.200000 0.200000 0.600000 0.600000 0.200000 0.200000 
, et ||| and - ||| 0.600000 0.200000 0.200000 0.200000 0.200000 0.600000 
, et ||| and adjusted ||| 0.600000 0.200000 0.200000 0.600000 0.200000 0.200000 
, et ||| and the non @-@ ||| 0.600000 0.200000 0.200000 0.600000 0.200000 0.200000 
, et ||| and the non ||| 0.600000 0.200000 0.200000 0.200000 0.200000 0.600000 
, et ||| and the ||| 0.600000 0.200000 0.200000 0.200000 0.200000 0.600000 
, et ||| and ||| 0.555556 0.037037 0.407407 0.333333 0.037037 0.629630 
, et ||| beneath ||| 0.200000 0.200000 0.600000 0.200000 0.200000 0.600000 
, et ||| centre , and ||| 0.200000 0.200000 0.600000 0.200000 0.600000 0.200000 
, et ||| claims , ||| 0.200000 0.200000 0.600000 0.600000 0.200000 0.200000 
, et ||| commissioner , and ||| 0.200000 0.200000 0.600000 0.200000 0.200000 0.600000 
, et ||| conducted , and ||| 0.600000 0.200000 0.200000 0.600000 0.200000 0.200000 
, et ||| constraints , and ||| 0.600000 0.200000 0.200000 0.600000 0.200000 0.200000 
, et ||| counseling centre , and ||| 0.200000 0.200000 0.600000 0.200000 0.600000 0.200000 
, et ||| course , will invariably ||| 0.200000 0.200000 0.600000 0.200000 0.600000 0.200000 
, et ||| course , will ||| 0.200000 0.200000 0.600000 0.200000 0.200000 0.600000 
, et ||| course , ||| 0.200000 0.200000 0.600000 0.200000 0.200000 0.600000 
, et ||| crises , and possibly ||| 0.200000 0.200000 0.600000 0.200000 0.200000 0.600000 
, et ||| entry , and ||| 0.600000 0.200000 0.200000 0.600000 0.200000 0.200000 
, et ||| evenhanded manner , and ||| 0.200000 0.200000 0.600000 0.600000 0.200000 0.200000 
, et ||| forever , and ||| 0.200000 0.200000 0.600000 0.600000 0.200000 0.200000 
, et ||| guard . they want to ||| 0.600000 0.200000 0.200000 0.200000 0.200000 0.600000 
, et ||| guard . they want ||| 0.600000 0.200000 0.200000 0.200000 0.200000 0.600000 
, et ||| guard . they ||| 0.600000 0.200000 0.200000 0.200000 0.200000 0.600000 
, et ||| guard . ||| 0.600000 0.200000 0.200000 0.200000 0.200000 0.600000 
, et ||| guard ||| 0.600000 0.200000 0.200000 0.200000 0.200000 0.600000 
, et ||| housekeeping and ||| 0.200000 0.200000 0.600000 0.200000 0.200000 0.600000 
, et ||| in an evenhanded manner , and ||| 0.200000 0.200000 0.600000 0.600000 0.200000 0.200000 
, et ||| insist , ||| 0.600000 0.200000 0.200000 0.200000 0.200000 0.600000 
, et ||| manner , and ||| 0.200000 0.200000 0.600000 0.600000 0.200000 0.200000 
, et ||| motion , and ||| 0.200000 0.200000 0.600000 0.600000 0.200000 0.200000 
, et ||| newspaper , and ||| 0.200000 0.200000 0.600000 0.200000 0.200000 0.600000 
, et ||| of course , will invariably ||| 0.200000 0.200000 0.600000 0.200000 0.600000 0.200000 
, et ||| of course , will ||| 0.200000 0.200000 0.600000 0.200000 0.200000 0.600000 
, et ||| of course , ||| 0.200000 0.200000 0.600000 0.200000 0.200000 0.600000 
, et ||| one and ||| 0.600000 0.200000 0.200000 0.600000 0.200000 0.200000 
, et ||| plants , and ||| 0.200000 0.200000 0.600000 0.200000 0.200000 0.600000 
, et ||| priority , ||| 0.200000 0.200000 0.600000 0.200000 0.200000 0.600000 
, et ||| psychology counseling centre , and ||| 0.200000 0.200000 0.600000 0.200000 0.600000 0.200000 
, et ||| rule , and ||| 0.200000 0.200000 0.600000 0.600000 0.200000 0.200000 
, et ||| safety -- and ||| 0.600000 0.200000 0.200000 0.200000 0.200000 0.600000 
, et ||| services , ||| 0.200000 0.200000 0.600000 0.200000 0.200000 0.600000 
, et ||| suit and ||| 0.600000 0.200000 0.200000 0.600000 0.200000 0.200000 
, et ||| the ||| 0.142857 0.142857 0.714286 0.142857 0.142857 0.714286 
, et ||| time -- and ||| 0.200000 0.200000 0.600000 0.600000 0.200000 0.200000 
, et ||| tool , and ||| 0.600000 0.200000 0.200000 0.600000 0.200000 0.200000 
, et ||| widely ||| 0.600000 0.200000 0.200000 0.600000 0.200000 0.200000 
, et ||| will , and ||| 0.200000 0.200000 0.600000 0.600000 0.200000 0.200000 
, et ||| with ||| 0.600000 0.200000 0.200000 0.200000 0.200000 0.600000 
, et ||| work , and ||| 0.600000 0.200000 0.200000 0.600000 0.200000 0.200000 
, et à ||| , and ||| 0.600000 0.200000 0.200000 0.600000 0.200000 0.200000 
, et à ||| 1930s , and to ||| 0.200000 0.600000 0.200000 0.200000 0.200000 0.600000 
, il s&apos; est ||| , he has ||| 0.600000 0.200000 0.200000 0.600000 0.200000 0.200000 
, il s&apos; est ||| , he ||| 0.428571 0.142857 0.428571 0.428571 0.142857 0.428571 
, il s&apos; est ||| he has ||| 0.600000 0.200000 0.200000 0.600000 0.200000 0.200000 
, il s&apos; ||| , his opposition ||| 0.600000 0.200000 0.200000 0.600000 0.200000 0.200000 
, il s&apos; ||| , his ||| 0.600000 0.200000 0.200000 0.200000 0.200000 0.600000 
, il s&apos; ||| , it was ||| 0.600000 0.200000 0.200000 0.600000 0.200000 0.200000 
, il ||| , and ||| 0.600000 0.200000 0.200000 0.600000 0.200000 0.200000 
, il ||| , but ||| 0.600000 0.200000 0.200000 0.200000 0.200000 0.600000 
, il ||| , concerns ||| 0.200000 0.200000 0.600000 0.600000 0.200000 0.200000 
, il ||| , he failed ||| 0.600000 0.200000 0.200000 0.600000 0.200000 0.200000 
, il ||| , he is ||| 0.600000 0.200000 0.200000 0.600000 0.200000 0.200000 
, il ||| , he ||| 0.703704 0.037037 0.259259 0.777778 0.037037 0.185185 
, il ||| , it has ||| 0.600000 0.200000 0.200000 0.600000 0.200000 0.200000 
, il ||| , it retains ||| 0.600000 0.200000 0.200000 0.200000 0.200000 0.600000 
, il ||| , it ||| 0.714286 0.015873 0.269841 0.714286 0.015873 0.269841 
, il ||| , one has ||| 0.600000 0.200000 0.200000 0.600000 0.200000 0.200000 
, il ||| , one ||| 0.600000 0.200000 0.200000 0.200000 0.200000 0.600000 
, il ||| , show the same ||| 0.600000 0.200000 0.200000 0.200000 0.200000 0.600000 
, il ||| , significant assistance ||| 0.600000 0.200000 0.200000 0.200000 0.200000 0.600000 
, il ||| , significant ||| 0.600000 0.200000 0.200000 0.200000 0.200000 0.600000 
, il ||| , suggest ||| 0.200000 0.200000 0.600000 0.200000 0.200000 0.600000 
, il ||| , there is ||| 0.600000 0.200000 0.200000 0.600000 0.200000 0.200000 
, il ||| , there ||| 0.600000 0.200000 0.200000 0.200000 0.200000 0.600000 
, il ||| , this ||| 0.200000 0.200000 0.600000 0.600000 0.200000 0.200000 
, il ||| , ||| 0.560976 0.024390 0.414634 0.170732 0.073171 0.756098 
, il ||| ; it ||| 0.600000 0.200000 0.200000 0.600000 0.200000 0.200000 
, il ||| around with ||| 0.600000 0.200000 0.200000 0.200000 0.200000 0.600000 
, il ||| away , ||| 0.200000 0.200000 0.600000 0.200000 0.200000 0.600000 
, il ||| be , ||| 0.200000 0.600000 0.200000 0.200000 0.200000 0.600000 
, il ||| but there ||| 0.200000 0.200000 0.600000 0.600000 0.200000 0.200000 
, il ||| can actually be transformed ||| 0.200000 0.200000 0.600000 0.200000 0.200000 0.600000 
, il ||| can actually be ||| 0.200000 0.200000 0.600000 0.200000 0.200000 0.600000 
, il ||| can actually ||| 0.200000 0.200000 0.600000 0.200000 0.200000 0.600000 
, il ||| can ||| 0.200000 0.200000 0.600000 0.200000 0.200000 0.600000 
, il ||| dwindling away , ||| 0.200000 0.200000 0.600000 0.200000 0.200000 0.600000 
, il ||| he was ||| 0.600000 0.200000 0.200000 0.600000 0.200000 0.200000 
, il ||| he ||| 0.555556 0.111111 0.333333 0.777778 0.111111 0.111111 
, il ||| it ||| 0.200000 0.200000 0.600000 0.200000 0.200000 0.600000 
, il ||| mind , it ||| 0.200000 0.200000 0.600000 0.600000 0.200000 0.200000 
, il ||| politicians , it ||| 0.200000 0.200000 0.600000 0.200000 0.200000 0.600000 
, il ||| skin , he ||| 0.200000 0.200000 0.600000 0.600000 0.200000 0.200000 
, il ||| there ||| 0.200000 0.200000 0.600000 0.200000 0.200000 0.600000 
, il ||| time , he ||| 0.600000 0.200000 0.200000 0.600000 0.200000 0.200000 
, il ||| unpopularity ||| 0.200000 0.200000 0.600000 0.200000 0.200000 0.600000 
, il ||| using ||| 0.600000 0.200000 0.200000 0.600000 0.200000 0.200000 
, il ||| with ||| 0.200000 0.200000 0.600000 0.200000 0.200000 0.600000 
, ils ont ||| , they ||| 0.600000 0.200000 0.200000 0.600000 0.200000 0.200000 
, ils ont ||| , ||| 0.200000 0.200000 0.600000 0.200000 0.600000 0.200000 
, ils ||| , there ||| 0.600000 0.200000 0.200000 0.200000 0.200000 0.600000 
, ils ||| , they chose ||| 0.200000 0.200000 0.600000 0.200000 0.200000 0.600000 
, ils ||| , they do ||| 0.600000 0.200000 0.200000 0.200000 0.200000 0.600000 
, ils ||| , they have ||| 0.600000 0.200000 0.200000 0.200000 0.200000 0.600000 
, ils ||| , they must ||| 0.200000 0.200000 0.600000 0.200000 0.200000 0.600000 
, ils ||| , they will ||| 0.600000 0.200000 0.200000 0.600000 0.200000 0.200000 
, ils ||| , they ||| 0.757576 0.030303 0.212121 0.696970 0.030303 0.272727 
, ils ||| , ||| 0.200000 0.200000 0.600000 0.200000 0.600000 0.200000 
, ils ||| . they ||| 0.600000 0.200000 0.200000 0.600000 0.200000 0.200000 
, ils ||| collapse , they ||| 0.200000 0.200000 0.600000 0.600000 0.200000 0.200000 
, ils ||| that they ||| 0.200000 0.200000 0.600000 0.200000 0.200000 0.600000 
, ils ||| they are ||| 0.200000 0.200000 0.600000 0.600000 0.200000 0.200000 
, ils ||| they ||| 0.142857 0.142857 0.714286 0.428571 0.142857 0.428571 
, ils ||| thus , they chose ||| 0.200000 0.200000 0.600000 0.200000 0.200000 0.600000 
, ils ||| thus , they ||| 0.200000 0.200000 0.600000 0.200000 0.200000 0.600000 
, jour ||| , ||| 0.200000 0.200000 0.600000 0.200000 0.200000 0.600000 
, l&apos; ||| , Europe &apos;s ||| 0.600000 0.200000 0.200000 0.200000 0.200000 0.600000 
, l&apos; ||| , Iran &apos;s ||| 0.600000 0.200000 0.200000 0.200000 0.200000 0.600000 
, l&apos; ||| , and Institute ||| 0.200000 0.200000 0.600000 0.200000 0.200000 0.600000 
, l&apos; ||| , and the ||| 0.200000 0.200000 0.600000 0.600000 0.200000 0.200000 
, l&apos; ||| , and ||| 0.200000 0.200000 0.600000 0.200000 0.200000 0.600000 
, l&apos; ||| , it ||| 0.600000 0.200000 0.200000 0.200000 0.200000 0.600000 
, l&apos; ||| , of the ||| 0.600000 0.200000 0.200000 0.600000 0.200000 0.200000 
, l&apos; ||| , or the sheer technical ||| 0.200000 0.200000 0.600000 0.600000 0.200000 0.200000 
, l&apos; ||| , or the sheer ||| 0.200000 0.200000 0.600000 0.200000 0.200000 0.600000 
, l&apos; ||| , or the ||| 0.200000 0.200000 0.600000 0.200000 0.200000 0.600000 
, l&apos; ||| , the &quot; ||| 0.600000 0.200000 0.200000 0.200000 0.200000 0.600000 
, l&apos; ||| , the Croatian Democratic ||| 0.200000 0.200000 0.600000 0.600000 0.200000 0.200000 
, l&apos; ||| , the Croatian ||| 0.200000 0.200000 0.600000 0.200000 0.200000 0.600000 
, l&apos; ||| , the willingness ||| 0.200000 0.200000 0.600000 0.200000 0.200000 0.600000 
, l&apos; ||| , the ||| 0.688312 0.012987 0.298701 0.558442 0.012987 0.428571 
, l&apos; ||| , when ||| 0.600000 0.200000 0.200000 0.200000 0.200000 0.600000 
, l&apos; ||| , ||| 0.677419 0.096774 0.225806 0.290323 0.032258 0.677419 
, l&apos; ||| . ||| 0.200000 0.200000 0.600000 0.200000 0.200000 0.600000 
, l&apos; ||| also ||| 0.200000 0.200000 0.600000 0.200000 0.200000 0.600000 
, l&apos; ||| balance , ||| 0.600000 0.200000 0.200000 0.200000 0.200000 0.600000 
, l&apos; ||| become ||| 0.200000 0.200000 0.600000 0.200000 0.200000 0.600000 
, l&apos; ||| by contrast , ||| 0.200000 0.200000 0.600000 0.200000 0.200000 0.600000 
, l&apos; ||| centered -- ||| 0.200000 0.200000 0.600000 0.600000 0.200000 0.200000 
, l&apos; ||| contrast , ||| 0.200000 0.200000 0.600000 0.600000 0.200000 0.200000 
, l&apos; ||| growth , or the sheer technical ||| 0.200000 0.200000 0.600000 0.600000 0.200000 0.200000 
, l&apos; ||| growth , or the sheer ||| 0.200000 0.200000 0.600000 0.200000 0.200000 0.600000 
, l&apos; ||| growth , or the ||| 0.200000 0.200000 0.600000 0.200000 0.200000 0.600000 
, l&apos; ||| newspaper Kommersant ||| 0.200000 0.200000 0.600000 0.200000 0.200000 0.600000 
, l&apos; ||| now has a huge ||| 0.600000 0.200000 0.200000 0.600000 0.200000 0.200000 
, l&apos; ||| now has a ||| 0.600000 0.200000 0.200000 0.200000 0.200000 0.600000 
, l&apos; ||| of South ||| 0.200000 0.600000 0.200000 0.200000 0.200000 0.600000 
, l&apos; ||| of all , ||| 0.600000 0.200000 0.200000 0.600000 0.200000 0.200000 
, l&apos; ||| of ||| 0.200000 0.600000 0.200000 0.200000 0.200000 0.600000 
, l&apos; ||| shortages , lack ||| 0.600000 0.200000 0.200000 0.200000 0.200000 0.600000 
, l&apos; ||| the future , ||| 0.600000 0.200000 0.200000 0.200000 0.200000 0.600000 
, l&apos; ||| the last five months ||| 0.200000 0.200000 0.600000 0.200000 0.200000 0.600000 
, l&apos; ||| the ||| 0.600000 0.200000 0.200000 0.200000 0.200000 0.600000 
, l&apos; ||| times , ||| 0.200000 0.200000 0.600000 0.600000 0.200000 0.200000 
, l&apos; ||| to ||| 0.200000 0.200000 0.600000 0.200000 0.200000 0.600000 
, la ||| , Brazil &apos;s ||| 0.600000 0.200000 0.200000 0.600000 0.200000 0.200000 
, la ||| , China ||| 0.600000 0.200000 0.200000 0.200000 0.200000 0.600000 
, la ||| , a ||| 0.600000 0.200000 0.200000 0.200000 0.200000 0.600000 
, la ||| , in ||| 0.600000 0.200000 0.200000 0.600000 0.200000 0.200000 
, la ||| , resource ||| 0.600000 0.200000 0.200000 0.600000 0.200000 0.200000 
, la ||| , the current ||| 0.600000 0.200000 0.200000 0.600000 0.200000 0.200000 
, la ||| , the public ||| 0.600000 0.200000 0.200000 0.200000 0.200000 0.600000 
, la ||| , the ||| 0.827957 0.010753 0.161290 0.526882 0.010753 0.462366 
, la ||| , there is ||| 0.200000 0.200000 0.600000 0.200000 0.200000 0.600000 
, la ||| , visiting ||| 0.200000 0.200000 0.600000 0.600000 0.200000 0.200000 
, la ||| , with the ||| 0.600000 0.200000 0.200000 0.200000 0.200000 0.600000 
, la ||| , ||| 0.647059 0.035294 0.317647 0.529412 0.082353 0.388235 
, la ||| ; ||| 0.600000 0.200000 0.200000 0.600000 0.200000 0.200000 
, la ||| Germany &apos;s ||| 0.200000 0.200000 0.600000 0.200000 0.200000 0.600000 
, la ||| a consequence , the ||| 0.600000 0.200000 0.200000 0.600000 0.200000 0.200000 
, la ||| and settlers in the occupied territories , ||| 0.200000 0.200000 0.600000 0.200000 0.200000 0.600000 
, la ||| another way , ||| 0.600000 0.200000 0.200000 0.200000 0.200000 0.600000 
, la ||| consequence , the ||| 0.200000 0.200000 0.600000 0.600000 0.200000 0.200000 
, la ||| current ||| 0.200000 0.200000 0.600000 0.200000 0.200000 0.600000 
, la ||| deepened ||| 0.200000 0.600000 0.200000 0.200000 0.200000 0.600000 
, la ||| democratic , ||| 0.200000 0.200000 0.600000 0.600000 0.200000 0.200000 
, la ||| end ||| 0.200000 0.200000 0.600000 0.200000 0.200000 0.600000 
, la ||| firms , the ||| 0.200000 0.200000 0.600000 0.600000 0.200000 0.200000 
, la ||| held firms , the ||| 0.200000 0.200000 0.600000 0.600000 0.200000 0.200000 
, la ||| in the occupied territories , which he ||| 0.200000 0.200000 0.600000 0.200000 0.200000 0.600000 
, la ||| in the occupied territories , which ||| 0.200000 0.200000 0.600000 0.200000 0.200000 0.600000 
, la ||| in the occupied territories , ||| 0.200000 0.200000 0.600000 0.200000 0.200000 0.600000 
, la ||| in ||| 0.200000 0.600000 0.200000 0.200000 0.200000 0.600000 
, la ||| is now ||| 0.200000 0.200000 0.600000 0.200000 0.600000 0.200000 
, la ||| many , the ||| 0.200000 0.200000 0.600000 0.200000 0.200000 0.600000 
, la ||| media , the ||| 0.600000 0.200000 0.200000 0.200000 0.200000 0.600000 
, la ||| more democratic , ||| 0.600000 0.200000 0.200000 0.600000 0.200000 0.200000 
, la ||| nothing , ||| 0.200000 0.200000 0.600000 0.200000 0.200000 0.600000 
, la ||| overcoming ||| 0.200000 0.200000 0.600000 0.200000 0.200000 0.600000 
, la ||| people , ||| 0.428571 0.142857 0.428571 0.428571 0.428571 0.142857 
, la ||| reduce ||| 0.200000 0.200000 0.600000 0.600000 0.200000 0.200000 
, la ||| settlers in the occupied territories , which ||| 0.200000 0.200000 0.600000 0.200000 0.200000 0.600000 
, la ||| settlers in the occupied territories , ||| 0.200000 0.200000 0.600000 0.200000 0.200000 0.600000 
, la ||| started to fall , ||| 0.200000 0.200000 0.600000 0.200000 0.200000 0.600000 
, la ||| that ||| 0.600000 0.200000 0.200000 0.200000 0.200000 0.600000 
, la ||| the occupied territories , which he argues ||| 0.200000 0.200000 0.600000 0.200000 0.200000 0.600000 
, la ||| the occupied territories , which he ||| 0.200000 0.200000 0.600000 0.200000 0.200000 0.600000 
, la ||| the occupied territories , which ||| 0.200000 0.200000 0.600000 0.200000 0.200000 0.600000 
, la ||| the occupied territories , ||| 0.200000 0.200000 0.600000 0.200000 0.200000 0.600000 
, la ||| the ||| 0.818182 0.090909 0.090909 0.454545 0.090909 0.454545 
, la ||| three--free ||| 0.600000 0.200000 0.200000 0.200000 0.200000 0.600000 
, la ||| to fall , ||| 0.200000 0.200000 0.600000 0.200000 0.200000 0.600000 
, la ||| verifiable ||| 0.200000 0.200000 0.600000 0.200000 0.200000 0.600000 
, la ||| way , ||| 0.200000 0.200000 0.600000 0.200000 0.200000 0.600000 
, la ||| widely held firms , the ||| 0.200000 0.200000 0.600000 0.600000 0.200000 0.200000 
, le &quot; ||| the &quot; ||| 0.600000 0.200000 0.200000 0.200000 0.200000 0.600000 
, le président de ||| President ||| 0.200000 0.600000 0.200000 0.200000 0.600000 0.200000 
, le président ||| &apos;s President ||| 0.200000 0.200000 0.600000 0.200000 0.200000 0.600000 
, le président ||| , President ||| 0.636364 0.090909 0.272727 0.818182 0.090909 0.090909 
, le président ||| President @-@ ||| 0.200000 0.200000 0.600000 0.200000 0.600000 0.200000 
, le président ||| President ||| 0.200000 0.200000 0.600000 0.200000 0.600000 0.200000 
, le ||| , Russia , Kazakhstan , ||| 0.600000 0.200000 0.200000 0.200000 0.200000 0.600000 
, le ||| , Turkey ||| 0.200000 0.200000 0.600000 0.200000 0.200000 0.600000 
, le ||| , Venezuela , ||| 0.600000 0.200000 0.200000 0.200000 0.200000 0.600000 
, le ||| , a ||| 0.600000 0.200000 0.200000 0.200000 0.200000 0.600000 
, le ||| , access ||| 0.600000 0.200000 0.200000 0.600000 0.200000 0.200000 
, le ||| , after the ||| 0.600000 0.200000 0.200000 0.200000 0.200000 0.600000 
, le ||| , an ||| 0.600000 0.200000 0.200000 0.200000 0.200000 0.600000 
, le ||| , as the ||| 0.600000 0.200000 0.200000 0.600000 0.200000 0.200000 
, le ||| , can be ||| 0.200000 0.600000 0.200000 0.200000 0.200000 0.600000 
, le ||| , expressed ||| 0.200000 0.200000 0.600000 0.200000 0.200000 0.600000 
, le ||| , or ||| 0.200000 0.200000 0.600000 0.200000 0.200000 0.600000 
, le ||| , over the past year ||| 0.200000 0.200000 0.600000 0.600000 0.200000 0.200000 
, le ||| , over the past ||| 0.200000 0.200000 0.600000 0.200000 0.200000 0.600000 
, le ||| , reflected ||| 0.200000 0.200000 0.600000 0.200000 0.200000 0.600000 
, le ||| , so the ||| 0.200000 0.200000 0.600000 0.600000 0.200000 0.200000 
, le ||| , the Palestinian ||| 0.600000 0.200000 0.200000 0.200000 0.200000 0.600000 
, le ||| , the United Nations ||| 0.200000 0.200000 0.600000 0.200000 0.200000 0.600000 
, le ||| , the army ||| 0.600000 0.200000 0.200000 0.200000 0.200000 0.600000 
, le ||| , the combined bar ||| 0.600000 0.200000 0.200000 0.200000 0.200000 0.600000 
, le ||| , the combined ||| 0.600000 0.200000 0.200000 0.200000 0.200000 0.600000 
, le ||| , the constituency ||| 0.200000 0.200000 0.600000 0.600000 0.200000 0.200000 
, le ||| , the ||| 0.733333 0.006061 0.260606 0.660606 0.006061 0.333333 
, le ||| , too , ||| 0.600000 0.200000 0.200000 0.200000 0.200000 0.600000 
, le ||| , with the ||| 0.200000 0.200000 0.600000 0.200000 0.200000 0.600000 
, le ||| , yet he ||| 0.200000 0.200000 0.600000 0.200000 0.200000 0.600000 
, le ||| , yet ||| 0.200000 0.200000 0.600000 0.200000 0.200000 0.600000 
, le ||| , ||| 0.544304 0.088608 0.367089 0.443038 0.037975 0.518987 
, le ||| Green New Deal &quot; packages ||| 0.200000 0.200000 0.600000 0.200000 0.200000 0.600000 
, le ||| Green New Deal &quot; ||| 0.200000 0.200000 0.600000 0.200000 0.200000 0.600000 
, le ||| Ireland , the ||| 0.600000 0.200000 0.200000 0.200000 0.200000 0.600000 
, le ||| Ministers , the ||| 0.200000 0.200000 0.600000 0.600000 0.200000 0.200000 
, le ||| Movement , ||| 0.200000 0.200000 0.600000 0.600000 0.200000 0.200000 
, le ||| advisors , the ||| 0.200000 0.200000 0.600000 0.200000 0.200000 0.600000 
, le ||| an important issue in ||| 0.200000 0.200000 0.600000 0.200000 0.600000 0.200000 
, le ||| an important issue ||| 0.200000 0.200000 0.600000 0.200000 0.200000 0.600000 
, le ||| and others ||| 0.200000 0.200000 0.600000 0.200000 0.200000 0.600000 
, le ||| bodyguard , ||| 0.200000 0.200000 0.600000 0.600000 0.200000 0.200000 
, le ||| case in point ||| 0.600000 0.200000 0.200000 0.200000 0.200000 0.600000 
, le ||| case in ||| 0.600000 0.200000 0.200000 0.200000 0.200000 0.600000 
, le ||| concerns ||| 0.200000 0.200000 0.600000 0.200000 0.200000 0.600000 
, le ||| deregulated , the ||| 0.200000 0.200000 0.600000 0.200000 0.200000 0.600000 
, le ||| divided , with the ||| 0.200000 0.200000 0.600000 0.200000 0.200000 0.600000 
, le ||| doing so is the ||| 0.200000 0.200000 0.600000 0.600000 0.200000 0.200000 
, le ||| hand , the ||| 0.600000 0.200000 0.200000 0.600000 0.200000 0.200000 
, le ||| indeed , the ||| 0.200000 0.200000 0.600000 0.200000 0.200000 0.600000 
, le ||| it imperative that ||| 0.200000 0.200000 0.600000 0.200000 0.200000 0.600000 
, le ||| makes it imperative that ||| 0.600000 0.200000 0.200000 0.200000 0.200000 0.600000 
, le ||| modern totalitarian movements ||| 0.200000 0.200000 0.600000 0.200000 0.200000 0.600000 
, le ||| modern totalitarian ||| 0.200000 0.200000 0.600000 0.200000 0.200000 0.600000 
, le ||| now , the ||| 0.600000 0.200000 0.200000 0.200000 0.200000 0.600000 
, le ||| on the ||| 0.600000 0.200000 0.200000 0.200000 0.200000 0.600000 
, le ||| operators went underground and others ||| 0.200000 0.200000 0.600000 0.200000 0.200000 0.600000 
, le ||| others ||| 0.200000 0.200000 0.600000 0.200000 0.200000 0.600000 
, le ||| recent members also include ||| 0.200000 0.200000 0.600000 0.200000 0.600000 0.200000 
, le ||| recent members also ||| 0.200000 0.200000 0.600000 0.200000 0.200000 0.600000 
, le ||| room , the ||| 0.600000 0.200000 0.200000 0.200000 0.200000 0.600000 
, le ||| scheme , the ||| 0.200000 0.200000 0.600000 0.200000 0.200000 0.600000 
, le ||| so is the ||| 0.200000 0.200000 0.600000 0.600000 0.200000 0.200000 
, le ||| so the ||| 0.200000 0.200000 0.600000 0.600000 0.200000 0.200000 
, le ||| textbooks , ||| 0.200000 0.200000 0.600000 0.600000 0.200000 0.200000 
, le ||| the discredited election ||| 0.200000 0.200000 0.600000 0.200000 0.200000 0.600000 
, le ||| the process , ||| 0.600000 0.200000 0.200000 0.600000 0.200000 0.200000 
, le ||| the share ||| 0.600000 0.200000 0.200000 0.600000 0.200000 0.200000 
, le ||| the world , the ||| 0.200000 0.200000 0.600000 0.600000 0.200000 0.200000 
, le ||| the ||| 0.538462 0.076923 0.384615 0.538462 0.076923 0.384615 
, le ||| totalitarian movements ||| 0.200000 0.200000 0.600000 0.200000 0.200000 0.600000 
, le ||| totalitarian ||| 0.200000 0.200000 0.600000 0.200000 0.200000 0.600000 
, le ||| under the microscope , ||| 0.200000 0.200000 0.600000 0.600000 0.200000 0.200000 
, le ||| underground and others ||| 0.200000 0.200000 0.600000 0.200000 0.200000 0.600000 
, le ||| view , the ||| 0.600000 0.200000 0.200000 0.200000 0.200000 0.600000 
, le ||| went underground and others ||| 0.200000 0.200000 0.600000 0.200000 0.200000 0.600000 
, le ||| were deregulated , the ||| 0.200000 0.200000 0.600000 0.200000 0.200000 0.600000 
, les autorités ont ||| , the authorities ||| 0.200000 0.200000 0.600000 0.200000 0.200000 0.600000 
, les autorités ||| , public officials ||| 0.200000 0.200000 0.600000 0.600000 0.200000 0.200000 
, les autorités ||| , the authorities ||| 0.200000 0.200000 0.600000 0.200000 0.200000 0.600000 
, les deux ||| , both ||| 0.714286 0.142857 0.142857 0.714286 0.142857 0.142857 
, les deux ||| , the two ||| 0.714286 0.142857 0.142857 0.428571 0.142857 0.428571 
, les ||| &apos;s ||| 0.200000 0.200000 0.600000 0.600000 0.200000 0.200000 
, les ||| , Chile &apos;s ||| 0.600000 0.200000 0.200000 0.600000 0.200000 0.200000 
, les ||| , Palestinians &apos; ||| 0.200000 0.200000 0.600000 0.200000 0.200000 0.600000 
, les ||| , Ukraine &apos;s money supply ||| 0.600000 0.200000 0.200000 0.200000 0.200000 0.600000 
, les ||| , Ukraine &apos;s money ||| 0.600000 0.200000 0.200000 0.200000 0.200000 0.600000 
, les ||| , Ukraine &apos;s ||| 0.600000 0.200000 0.200000 0.200000 0.200000 0.600000 
, les ||| , and ||| 0.428571 0.142857 0.428571 0.428571 0.142857 0.428571 
, les ||| , are that ||| 0.200000 0.200000 0.600000 0.200000 0.200000 0.600000 
, les ||| , are ||| 0.200000 0.200000 0.600000 0.200000 0.200000 0.600000 
, les ||| , arrangements ||| 0.428571 0.142857 0.428571 0.428571 0.142857 0.428571 
, les ||| , both Arab ||| 0.200000 0.200000 0.600000 0.600000 0.200000 0.200000 
, les ||| , both ||| 0.200000 0.200000 0.600000 0.200000 0.200000 0.600000 
, les ||| , estimates ||| 0.600000 0.200000 0.200000 0.200000 0.200000 0.600000 
, les ||| , finance ||| 0.200000 0.200000 0.600000 0.600000 0.200000 0.200000 
, les ||| , foreigners ||| 0.200000 0.200000 0.600000 0.200000 0.200000 0.600000 
, les ||| , government ||| 0.600000 0.200000 0.200000 0.600000 0.200000 0.200000 
, les ||| , however , ||| 0.714286 0.142857 0.142857 0.428571 0.142857 0.428571 
, les ||| , insurgents ||| 0.200000 0.200000 0.600000 0.200000 0.200000 0.600000 
, les ||| , it makes ||| 0.600000 0.200000 0.200000 0.600000 0.200000 0.200000 
, les ||| , it ||| 0.714286 0.142857 0.142857 0.142857 0.142857 0.714286 
, les ||| , most ||| 0.600000 0.200000 0.200000 0.200000 0.200000 0.600000 
, les ||| , or ||| 0.200000 0.200000 0.600000 0.200000 0.200000 0.600000 
, les ||| , solvency ratios ||| 0.200000 0.200000 0.600000 0.200000 0.200000 0.600000 
, les ||| , solvency ||| 0.200000 0.200000 0.600000 0.200000 0.200000 0.600000 
, les ||| , the banks &apos; supervisors are ||| 0.600000 0.200000 0.200000 0.200000 0.200000 0.600000 
, les ||| , the impact of ||| 0.200000 0.200000 0.600000 0.200000 0.200000 0.600000 
, les ||| , the impact ||| 0.200000 0.200000 0.600000 0.200000 0.200000 0.600000 
, les ||| , the joint ||| 0.600000 0.200000 0.200000 0.600000 0.200000 0.200000 
, les ||| , the ||| 0.669173 0.007519 0.323308 0.774436 0.007519 0.218045 
, les ||| , then ||| 0.600000 0.200000 0.200000 0.200000 0.200000 0.600000 
, les ||| , there ||| 0.600000 0.200000 0.200000 0.200000 0.200000 0.600000 
, les ||| , those who favor ||| 0.200000 0.200000 0.600000 0.200000 0.200000 0.600000 
, les ||| , those who ||| 0.200000 0.200000 0.600000 0.200000 0.200000 0.600000 
, les ||| , to ||| 0.600000 0.200000 0.200000 0.200000 0.200000 0.600000 
, les ||| , too , ||| 0.200000 0.600000 0.200000 0.200000 0.200000 0.600000 
, les ||| , too ||| 0.200000 0.600000 0.200000 0.200000 0.200000 0.600000 
, les ||| , when ||| 0.600000 0.200000 0.200000 0.200000 0.200000 0.600000 
, les ||| , with industrial ||| 0.600000 0.200000 0.200000 0.600000 0.200000 0.200000 
, les ||| , with ||| 0.714286 0.142857 0.142857 0.142857 0.142857 0.714286 
, les ||| , yet in ||| 0.200000 0.200000 0.600000 0.200000 0.200000 0.600000 
, les ||| , ||| 0.533981 0.029126 0.436893 0.359223 0.029126 0.611650 
, les ||| - fiscal ||| 0.600000 0.200000 0.200000 0.200000 0.200000 0.600000 
, les ||| - ||| 0.600000 0.200000 0.200000 0.200000 0.200000 0.600000 
, les ||| and the ||| 0.200000 0.200000 0.600000 0.200000 0.200000 0.600000 
, les ||| are lower transactions ||| 0.200000 0.200000 0.600000 0.200000 0.200000 0.600000 
, les ||| are lower ||| 0.200000 0.200000 0.600000 0.200000 0.200000 0.600000 
, les ||| are ||| 0.142857 0.428571 0.428571 0.428571 0.142857 0.428571 
, les ||| assassination , Pakistanis ||| 0.600000 0.200000 0.200000 0.200000 0.200000 0.600000 
, les ||| assassination , ||| 0.600000 0.200000 0.200000 0.200000 0.200000 0.600000 
, les ||| assets over ||| 0.200000 0.200000 0.600000 0.200000 0.200000 0.600000 
, les ||| assets ||| 0.200000 0.200000 0.600000 0.200000 0.200000 0.600000 
, les ||| at ||| 0.200000 0.600000 0.200000 0.200000 0.200000 0.600000 
, les ||| autocratic style , the ||| 0.200000 0.200000 0.600000 0.200000 0.200000 0.600000 
, les ||| autocratic style , ||| 0.200000 0.200000 0.600000 0.200000 0.200000 0.600000 
, les ||| bad , the ||| 0.200000 0.200000 0.600000 0.200000 0.200000 0.600000 
, les ||| blocked , license ||| 0.200000 0.200000 0.600000 0.600000 0.200000 0.200000 
, les ||| blocked , ||| 0.200000 0.200000 0.600000 0.200000 0.200000 0.600000 
, les ||| cleaned up , ||| 0.200000 0.200000 0.600000 0.200000 0.200000 0.600000 
, les ||| concerned , ||| 0.200000 0.200000 0.600000 0.600000 0.200000 0.200000 
, les ||| continuing , the world ||| 0.200000 0.200000 0.600000 0.200000 0.200000 0.600000 
, les ||| costs ||| 0.200000 0.200000 0.600000 0.200000 0.200000 0.600000 
, les ||| dispute settlement , ||| 0.200000 0.200000 0.600000 0.200000 0.200000 0.600000 
, les ||| example--Iraq &apos;s ||| 0.200000 0.200000 0.600000 0.600000 0.200000 0.200000 
, les ||| further , ||| 0.200000 0.200000 0.600000 0.200000 0.600000 0.200000 
, les ||| has changed ||| 0.600000 0.200000 0.200000 0.200000 0.200000 0.600000 
, les ||| healthier , solvency ratios ||| 0.200000 0.200000 0.600000 0.200000 0.200000 0.600000 
, les ||| healthier , solvency ||| 0.200000 0.200000 0.600000 0.200000 0.200000 0.600000 
, les ||| healthier , ||| 0.200000 0.200000 0.600000 0.200000 0.200000 0.600000 
, les ||| her , ||| 0.200000 0.200000 0.600000 0.200000 0.200000 0.600000 
, les ||| in ||| 0.200000 0.600000 0.200000 0.200000 0.200000 0.600000 
, les ||| is concerned , ||| 0.200000 0.200000 0.600000 0.600000 0.200000 0.200000 
, les ||| is lacking , ||| 0.600000 0.200000 0.200000 0.200000 0.200000 0.600000 
, les ||| its demands by ||| 0.200000 0.200000 0.600000 0.200000 0.200000 0.600000 
, les ||| makes ||| 0.200000 0.200000 0.600000 0.600000 0.200000 0.200000 
, les ||| matter , ||| 0.200000 0.200000 0.600000 0.600000 0.200000 0.200000 
, les ||| might disappear ||| 0.200000 0.600000 0.200000 0.200000 0.200000 0.600000 
, les ||| minded people ||| 0.200000 0.200000 0.600000 0.200000 0.200000 0.600000 
, les ||| of the so ||| 0.200000 0.200000 0.600000 0.200000 0.200000 0.600000 
, les ||| of the ||| 0.200000 0.200000 0.600000 0.200000 0.200000 0.600000 
, les ||| one ||| 0.200000 0.200000 0.600000 0.200000 0.200000 0.600000 
, les ||| pay , ||| 0.600000 0.200000 0.200000 0.600000 0.200000 0.200000 
, les ||| progress , ||| 0.200000 0.200000 0.600000 0.600000 0.200000 0.200000 
, les ||| proposed , the ||| 0.600000 0.200000 0.200000 0.600000 0.200000 0.200000 
, les ||| qualified , ||| 0.200000 0.200000 0.600000 0.600000 0.200000 0.200000 
, les ||| remaining , the United ||| 0.200000 0.200000 0.600000 0.200000 0.200000 0.600000 
, les ||| running , ||| 0.200000 0.200000 0.600000 0.600000 0.200000 0.200000 
, les ||| settlement , ||| 0.200000 0.200000 0.600000 0.200000 0.200000 0.600000 
, les ||| side , the ||| 0.200000 0.200000 0.600000 0.600000 0.200000 0.200000 
, les ||| style , the ||| 0.200000 0.200000 0.600000 0.200000 0.200000 0.600000 
, les ||| style , ||| 0.200000 0.200000 0.600000 0.200000 0.200000 0.600000 
, les ||| targets , yet in ||| 0.200000 0.200000 0.600000 0.200000 0.200000 0.600000 
, les ||| terms of the so ||| 0.200000 0.200000 0.600000 0.200000 0.200000 0.600000 
, les ||| terms of the ||| 0.200000 0.200000 0.600000 0.200000 0.200000 0.600000 
, les ||| the EU ||| 0.200000 0.200000 0.600000 0.200000 0.200000 0.600000 
, les ||| the Syrians ||| 0.200000 0.200000 0.600000 0.200000 0.200000 0.600000 
, les ||| the obvious ||| 0.200000 0.200000 0.600000 0.200000 0.200000 0.600000 
, les ||| the so ||| 0.200000 0.200000 0.600000 0.200000 0.200000 0.600000 
, les ||| the ||| 0.200000 0.066667 0.733333 0.200000 0.066667 0.733333 
, les ||| then seek ||| 0.200000 0.200000 0.600000 0.200000 0.200000 0.600000 
, les ||| to say that a ||| 0.200000 0.200000 0.600000 0.200000 0.200000 0.600000 
, les ||| to say that ||| 0.200000 0.200000 0.600000 0.200000 0.200000 0.600000 
, les ||| to the obvious ||| 0.200000 0.200000 0.600000 0.200000 0.200000 0.600000 
, les ||| up , ||| 0.200000 0.200000 0.600000 0.200000 0.200000 0.600000 
, les ||| used to say that a ||| 0.200000 0.200000 0.600000 0.200000 0.200000 0.600000 
, les ||| used to say that ||| 0.200000 0.200000 0.600000 0.200000 0.200000 0.600000 
, les ||| violated , ||| 0.200000 0.200000 0.600000 0.600000 0.200000 0.200000 
, les ||| winning side , the ||| 0.200000 0.200000 0.600000 0.600000 0.200000 0.200000 
, les ||| zero , are that ||| 0.200000 0.200000 0.600000 0.200000 0.200000 0.600000 
, les ||| zero , are ||| 0.200000 0.200000 0.600000 0.200000 0.200000 0.600000 
, lors du ||| in the ||| 0.200000 0.200000 0.600000 0.200000 0.200000 0.600000 
, lors ||| , during ||| 0.600000 0.200000 0.200000 0.200000 0.200000 0.600000 
, lors ||| during ||| 0.200000 0.200000 0.600000 0.600000 0.200000 0.200000 
, lors ||| in ||| 0.200000 0.200000 0.600000 0.600000 0.200000 0.200000 
, lui ||| , hand ||| 0.200000 0.200000 0.600000 0.200000 0.200000 0.600000 
, mais les ||| , but rather placed ||| 0.600000 0.200000 0.200000 0.200000 0.200000 0.600000 
, mais les ||| , but rather ||| 0.600000 0.200000 0.200000 0.200000 0.200000 0.600000 
, mais les ||| , but the subsequent ||| 0.200000 0.200000 0.600000 0.200000 0.200000 0.600000 
, mais les ||| , but ||| 0.428571 0.142857 0.428571 0.428571 0.142857 0.428571 
, mais ||| &apos;s , but ||| 0.200000 0.200000 0.600000 0.600000 0.200000 0.200000 
, mais ||| , 2001 ||| 0.200000 0.200000 0.600000 0.200000 0.200000 0.600000 
, mais ||| , although ||| 0.200000 0.200000 0.600000 0.600000 0.200000 0.200000 
, mais ||| , but believes ||| 0.600000 0.200000 0.200000 0.200000 0.200000 0.600000 
, mais ||| , but bold ideas are ||| 0.200000 0.200000 0.600000 0.200000 0.200000 0.600000 
, mais ||| , but bold ideas ||| 0.200000 0.200000 0.600000 0.200000 0.200000 0.600000 
, mais ||| , but bold ||| 0.200000 0.200000 0.600000 0.200000 0.200000 0.600000 
, mais ||| , but chances ||| 0.200000 0.200000 0.600000 0.200000 0.200000 0.600000 
, mais ||| , but for ||| 0.600000 0.200000 0.200000 0.600000 0.200000 0.200000 
, mais ||| , but how ||| 0.600000 0.200000 0.200000 0.600000 0.200000 0.200000 
, mais ||| , but its ||| 0.200000 0.200000 0.600000 0.200000 0.200000 0.600000 
, mais ||| , but one ||| 0.200000 0.200000 0.600000 0.600000 0.200000 0.200000 
, mais ||| , but rather placed ||| 0.600000 0.200000 0.200000 0.200000 0.200000 0.600000 
, mais ||| , but rather ||| 0.600000 0.200000 0.200000 0.200000 0.200000 0.600000 
, mais ||| , but that ||| 0.600000 0.200000 0.200000 0.600000 0.200000 0.200000 
, mais ||| , but there ||| 0.600000 0.200000 0.200000 0.200000 0.200000 0.600000 
, mais ||| , but you cannot doubt ||| 0.600000 0.200000 0.200000 0.200000 0.200000 0.600000 
, mais ||| , but you cannot ||| 0.600000 0.200000 0.200000 0.200000 0.200000 0.600000 
, mais ||| , but you ||| 0.600000 0.200000 0.200000 0.200000 0.200000 0.600000 
, mais ||| , but ||| 0.569507 0.022422 0.408072 0.668161 0.004484 0.327354 
, mais ||| , that is ||| 0.600000 0.200000 0.200000 0.200000 0.200000 0.600000 
, mais ||| , the ||| 0.200000 0.200000 0.600000 0.200000 0.200000 0.600000 
, mais ||| , though ||| 0.600000 0.200000 0.200000 0.600000 0.200000 0.200000 
, mais ||| , ||| 0.280000 0.040000 0.680000 0.440000 0.120000 0.440000 
, mais ||| - but ||| 0.200000 0.200000 0.600000 0.600000 0.200000 0.200000 
, mais ||| . but ||| 0.428571 0.142857 0.428571 0.714286 0.142857 0.142857 
, mais ||| : but ||| 0.200000 0.200000 0.600000 0.600000 0.200000 0.200000 
, mais ||| ; but ||| 0.600000 0.200000 0.200000 0.600000 0.200000 0.200000 
, mais ||| China . ||| 0.200000 0.200000 0.600000 0.200000 0.200000 0.600000 
, mais ||| China ||| 0.200000 0.200000 0.600000 0.200000 0.200000 0.600000 
, mais ||| accepted , but ||| 0.600000 0.200000 0.200000 0.600000 0.200000 0.200000 
, mais ||| and which ||| 0.200000 0.200000 0.600000 0.200000 0.200000 0.600000 
, mais ||| authority , but ||| 0.600000 0.200000 0.200000 0.200000 0.200000 0.600000 
, mais ||| behind , but ||| 0.600000 0.200000 0.200000 0.200000 0.200000 0.600000 
, mais ||| but did ||| 0.600000 0.200000 0.200000 0.600000 0.200000 0.200000 
, mais ||| but partially blocked ||| 0.600000 0.200000 0.200000 0.200000 0.200000 0.600000 
, mais ||| but ||| 0.384615 0.076923 0.538462 0.538462 0.076923 0.384615 
, mais ||| conditions , but ||| 0.600000 0.200000 0.200000 0.200000 0.200000 0.600000 
, mais ||| dictatorships , but ||| 0.200000 0.200000 0.600000 0.600000 0.200000 0.200000 
, mais ||| empire , but ||| 0.600000 0.200000 0.200000 0.600000 0.200000 0.200000 
, mais ||| feathers , but ||| 0.200000 0.200000 0.600000 0.600000 0.200000 0.200000 
, mais ||| fellow dictatorships , but ||| 0.200000 0.200000 0.600000 0.600000 0.200000 0.200000 
, mais ||| forward , ||| 0.200000 0.200000 0.600000 0.600000 0.200000 0.200000 
, mais ||| groups , but ||| 0.200000 0.200000 0.600000 0.200000 0.200000 0.600000 
, mais ||| have chosen to ignore , ||| 0.600000 0.200000 0.200000 0.600000 0.200000 0.200000 
, mais ||| it : but ||| 0.200000 0.200000 0.600000 0.600000 0.200000 0.200000 
, mais ||| level , but ||| 0.600000 0.200000 0.200000 0.200000 0.200000 0.600000 
, mais ||| occur , but ||| 0.200000 0.200000 0.600000 0.600000 0.200000 0.200000 
, mais ||| one , but ||| 0.200000 0.200000 0.600000 0.200000 0.200000 0.600000 
, mais ||| outcome , ||| 0.600000 0.200000 0.200000 0.200000 0.200000 0.600000 
, mais ||| porous , but ||| 0.200000 0.200000 0.600000 0.600000 0.200000 0.200000 
, mais ||| small but ||| 0.200000 0.200000 0.600000 0.200000 0.200000 0.600000 
, mais ||| to occur , but ||| 0.600000 0.200000 0.200000 0.600000 0.200000 0.200000 
, mais ||| utilized , but ||| 0.200000 0.200000 0.600000 0.600000 0.200000 0.200000 
, mais ||| which ||| 0.200000 0.200000 0.600000 0.200000 0.200000 0.600000 
, n&apos; a pas ||| maintained , has not ||| 0.600000 0.200000 0.200000 0.600000 0.200000 0.200000 
, n&apos; a pas ||| out , giving ||| 0.200000 0.200000 0.600000 0.200000 0.200000 0.600000 
, n&apos; a pas ||| out , ||| 0.200000 0.200000 0.600000 0.200000 0.200000 0.600000 
, n&apos; a ||| , has ||| 0.600000 0.200000 0.200000 0.600000 0.200000 0.200000 
, n&apos; a ||| does not ||| 0.200000 0.200000 0.600000 0.200000 0.200000 0.600000 
, n&apos; a ||| out , giving ||| 0.200000 0.200000 0.600000 0.200000 0.200000 0.600000 
, n&apos; a ||| out , ||| 0.200000 0.200000 0.600000 0.200000 0.200000 0.600000 
, n&apos; ||| , giving ||| 0.200000 0.600000 0.200000 0.200000 0.200000 0.600000 
, n&apos; ||| , ||| 0.428571 0.428571 0.142857 0.142857 0.142857 0.714286 
, n&apos; ||| this , agreeing ||| 0.200000 0.200000 0.600000 0.200000 0.200000 0.600000 
, n&apos; ||| this , ||| 0.200000 0.200000 0.600000 0.200000 0.200000 0.600000 
, on ||| , it is ||| 0.600000 0.200000 0.200000 0.200000 0.200000 0.600000 
, on ||| , it ||| 0.600000 0.200000 0.200000 0.200000 0.200000 0.600000 
, on ||| , one can ||| 0.200000 0.200000 0.600000 0.600000 0.200000 0.200000 
, on ||| , one heavily discounts ||| 0.600000 0.200000 0.200000 0.200000 0.200000 0.600000 
, on ||| , one heavily ||| 0.600000 0.200000 0.200000 0.200000 0.200000 0.600000 
, on ||| , one ||| 0.555556 0.111111 0.333333 0.555556 0.111111 0.333333 
