
\data\
ngram 1=3305
ngram 2=14915
ngram 3=2103
ngram 4=980
ngram 5=568

\1-grams:
-3.633995	!	-0.4091952
-3.153928	"	-0.140739
-3.114292	%	-0.2657339
-2.600031	'	-0.539336
-3.246044	's	-0.1144005
-2.907312	(	-0.2032895
-2.862648	)	-0.1810055
-1.316643	,	-0.6232185
-2.278978	-	-0.2823942
-3.894805	-20ºc	-0.1018
-4.047755	-40ºc	-0.1018
-1.428996	.	-2.373986
-4.047755	....	-0.1018
-2.803238	/	-0.3627484
-4.047755	0066	-0.1018
-4.047755	0083	-0.1018
-4.047755	0106	-0.1018
-3.197549	1	-0.1639946
-4.047755	1.1	-0.1018
-3.894805	10	-0.1018
-4.047755	101	-0.1018
-4.047755	11	-0.1018
-4.047755	110	-0.1018
-4.047755	12	-0.1018
-4.047755	13	-0.1018
-4.047755	143	-0.1018
-4.047755	148	-0.1018
-3.894805	15	-0.1018
-3.894805	158	-0.1018
-4.047755	16	-0.1018
-4.047755	164	-0.1018
-4.047755	166	-0.1018
-3.894805	17	-0.1018
-3.894805	18	-0.1018
-4.047755	180	-0.1018
-4.047755	19	-0.1018
-4.047755	1989	-0.1018
-4.047755	1993	-0.1018
-4.047755	1994	-0.1018
-4.047755	1994-1999	-0.1018
-4.047755	1995-1997	-0.1018
-4.047755	1996	-0.1018
-3.7819	1997	-0.1018
-3.300644	1998	-0.1290274
-3.197549	1999	-0.1744058
-3.633995	2	-0.1018
-4.047755	2.1	-0.1018
-4.047755	2.5	-0.1018
-3.7819	20	-0.1018
-3.633995	2000	-0.1018
-3.7819	2000-2006	-0.1234436
-3.894805	2001	-0.2227466
-3.894805	2003	-0.1018
-4.047755	2005	-0.1018
-4.047755	2006	-0.1018
-4.047755	2007	-0.1018
-4.047755	2107	-0.1018
-4.047755	2108	-0.1018
-4.047755	2110	-0.1018
-4.047755	2123	-0.1018
-4.047755	2124	-0.1018
-4.047755	2127	-0.1018
-4.047755	21st	-0.1018
-4.047755	23	-0.1018
-4.047755	23.7	-0.1018
-4.047755	24	-0.1018
-4.047755	2496	-0.1018
-3.7819	25	-0.1018
-4.047755	27	-0.1018
-4.047755	299	-0.1018
-3.894805	3	-0.1018
-4.047755	3.6	-0.1018
-4.047755	34	-0.1018
-4.047755	344	-0.1018
-4.047755	35	-0.1018
-4.047755	37	-0.1018
-3.894805	4	-0.2227466
-3.894805	40	-0.1018
-4.047755	422	-0.1018
-4.047755	5	-0.1018
-4.047755	5.5	-0.1018
-4.047755	50	-0.1018
-4.047755	55	-0.1018
-3.894805	6	-0.1018
-4.047755	7	-0.1018
-4.047755	743	-0.1018
-4.047755	8.25	-0.1018
-3.894805	81	-0.1018
-3.894805	82	-0.1018
-4.047755	85	-0.1018
-4.047755	86	-0.1018
-4.047755	9002	-0.1018
-3.894805	94	-0.1018
-4.047755	95	-0.1018
-3.894805	96	-0.2227466
-3.894805	99	-0.1018
-2.907312	:	-0.1906493
-2.984313	;	-0.1433091
-3.013345	</s>
-99	<s>	-0.7233205
-2.822153	?	-1.168863
-3.436091	[	-0.2810622
-4.047755	]	-0.1018
-2.061501	a	-0.2060677
-4.047755	a5-0069	-0.1018
-4.047755	a5-0073	-0.1018
-4.047755	a5-0078	-0.1018
-4.047755	a5-0087	-0.1018
-4.047755	a5-0104	-0.1018
-4.047755	a5-0105	-0.1018
-4.047755	a5-0107	-0.1018
-4.047755	a5-0108	-0.1018
-4.047755	abc	-0.1018
-4.047755	abide	-0.1018
-4.047755	ability	-0.1018
-3.363109	able	-0.5320018
-4.047755	abolish	-0.1018
-2.841929	about	-0.2428519
-3.894805	above	-0.2227466
-4.047755	abreast	-0.1018
-4.047755	abroad	-0.1018
-4.047755	absent	-0.1018
-4.047755	absolute	-0.1018
-3.633995	absolutely	-0.1018
-3.7819	abstentions	-0.1785816
-4.047755	abuses	-0.1018
-4.047755	acceding	-0.1018
-3.300644	accept	-0.2821244
-4.047755	acceptable	-0.1018
-3.894805	acceptance	-0.2227466
-3.523867	accepted	-0.201881
-4.047755	accepts	-0.1018
-3.894805	access	-0.2227466
-4.047755	accession	-0.1018
-3.7819	accident	-0.1018
-3.633995	accidents	-0.1018
-4.047755	accommodated	-0.1018
-4.047755	accompanied	-0.1018
-4.047755	accompanying	-0.1018
-4.047755	accomplished	-0.1018
-3.894805	accordance	-0.2227466
-3.894805	according	-0.2227466
-4.047755	accords	-0.1018
-3.300644	account	-0.2656777
-4.047755	accumulation	-0.1018
-4.047755	accurate	-0.1018
-4.047755	accuse	-0.1018
-3.7819	accused	-0.2842565
-3.894805	achieve	-0.1462227
-3.633995	achieved	-0.1462227
-3.523867	achieving	-0.1462227
-4.047755	acknowledged	-0.1018
-4.047755	acquis	-0.1018
-4.047755	acquitted	-0.1018
-4.047755	across	-0.1018
-4.047755	act	-0.1018
-3.300644	action	-0.1183524
-4.047755	active	-0.1018
-3.7819	activities	-0.1785816
-3.523867	activity	-0.1018
-4.047755	actors	-0.1018
-4.047755	acts	-0.1018
-4.047755	actual	-0.1018
-3.153928	actually	-0.1183524
-4.047755	ad	-0.1018
-4.047755	adapt	-0.1018
-4.047755	adapted	-0.1018
-4.047755	adapting	-0.1018
-3.7819	add	-0.1785816
-4.047755	added	-0.1018
-4.047755	addition	-0.1018
-3.894805	additional	-0.1018
-3.7819	additionality	-0.1785816
-3.894805	additions	-0.1018
-3.7819	address	-0.1384962
-4.047755	addressed	-0.1018
-3.7819	adequate	-0.1018
-4.047755	adhere	-0.1018
-4.047755	adjacent	-0.1018
-4.047755	adjourned	-0.1018
-3.523867	administration	-0.201881
-3.894805	administrations	-0.1018
-3.633995	administrative	-0.1580766
-4.047755	administrator	-0.1018
-4.047755	admiration	-0.1018
-4.047755	admit	-0.1018
-3.7819	adopt	-0.2842565
-3.077973	adopted	-0.2288501
-3.7819	adopting	-0.1580765
-4.047755	adoption	-0.1018
-4.047755	adopts	-0.1018
-4.047755	adr	-0.1018
-4.047755	adult	-0.1018
-4.047755	advance	-0.1018
-3.894805	advanced	-0.1018
-4.047755	advances	-0.1018
-4.047755	advertising	-0.1018
-4.047755	advice	-0.1018
-4.047755	advise	-0.1018
-4.047755	advisers	-0.1018
-4.047755	advisors	-0.1018
-4.047755	advocating	-0.1018
-3.894805	affairs	-0.1384962
-3.894805	affect	-0.1018
-3.363109	affected	-0.1929966
-4.047755	affects	-0.1018
-4.047755	afford	-0.1018
-4.047755	afresh	-0.1018
-3.197549	after	-0.1635735
-4.047755	afternoon	-0.1018
-4.047755	afterwards	-0.1018
-3.114292	again	-0.2656777
-3.197549	against	-0.1862847
-3.523867	agenda	-0.1731608
-4.047755	aggravates	-0.1018
-3.633995	ago	-0.2282128
-3.363109	agree	-0.2110311
-3.300644	agreed	-0.1018
-3.633995	agreement	-0.1018
-3.894805	agreements	-0.1018
-3.894805	agrees	-0.1018
-3.523867	agricultural	-0.1785816
-3.436091	agriculture	-0.2288501
-4.047755	ah	-0.1018
-4.047755	ahern	-0.1018
-3.300644	aid	-0.1604231
-4.047755	aided	-0.1018
-3.633995	aim	-0.201881
-3.894805	aimed	-0.2227466
-3.894805	aims	-0.1018
-3.7819	air	-0.1018
-4.047755	albeit	-0.1018
-4.047755	alert	-0.1018
-3.894805	alexander	-0.2227466
-4.047755	alike	-0.1018
-2.588591	all	-0.2823199
-4.047755	alleviate	-0.1018
-4.047755	allocation	-0.1018
-3.523867	allow	-0.1018
-4.047755	allowances	-0.1018
-4.047755	allowed	-0.1018
-4.047755	allowing	-0.1018
-4.047755	allows	-0.1018
-4.047755	almost	-0.1018
-3.7819	alone	-0.1018
-3.894805	along	-0.1018
-4.047755	alpine	-0.1018
-3.363109	already	-0.1423447
-2.623857	also	-0.1604134
-4.047755	alternative	-0.1018
-4.047755	alternatively	-0.1018
-3.894805	although	-0.1018
-3.363109	always	-0.1018
-3.523867	am	-0.1018
-3.894805	ambition	-0.1018
-4.047755	amend	-0.1018
-3.894805	amended	-0.1018
-4.047755	amending	-0.1018
-3.197549	amendment	-0.1825247
-2.931493	amendments	-0.1437769
-3.7819	america	-0.1785816
-3.7819	among	-0.1018
-3.633995	amongst	-0.1580766
-3.894805	amount	-0.2227466
-3.894805	amounts	-0.1018
-4.047755	amsterdam	-0.1018
-2.515979	an	-0.1565659
-4.047755	analyse	-0.1018
-4.047755	analysed	-0.1018
-3.894805	analyses	-0.1018
-3.300644	analysis	-0.2276225
-1.584301	and	-0.2831986
-4.047755	angelilli	-0.1018
-4.047755	annex	-0.1018
-3.894805	annexes	-0.1018
-3.7819	annual	-0.1018
-4.047755	annually	-0.1018
-3.363109	another	-0.1018
-3.894805	answer	-0.1018
-3.894805	answered	-0.1018
-4.047755	ante	-0.1018
-4.047755	anti	-0.1018
-4.047755	anticipated	-0.1018
-4.047755	anxious	-0.1018
-3.077973	any	-0.1136908
-4.047755	anyone	-0.1018
-3.633995	anything	-0.1018
-4.047755	anyway	-0.1018
-4.047755	aparicio	-0.1018
-4.047755	apart	-0.1018
-4.047755	appeal	-0.1018
-4.047755	appealing	-0.1018
-4.047755	appear	-0.1018
-3.894805	appeared	-0.1018
-4.047755	appears	-0.1018
-4.047755	applause	-0.1018
-4.047755	applicable	-0.1018
-4.047755	applicant	-0.1018
-3.436091	application	-0.2951595
-3.7819	applied	-0.1018
-3.894805	apply	-0.1018
-4.047755	appoint	-0.1018
-4.047755	appraisal	-0.1018
-3.894805	appreciate	-0.1018
-3.894805	appreciation	-0.1018
-3.436091	approach	-0.1384962
-3.300644	appropriate	-0.1197606
-4.047755	appropriately	-0.1018
-4.047755	appropriation	-0.1018
-3.894805	appropriations	-0.2227466
-4.047755	approvals	-0.1018
-3.894805	approve	-0.1018
-3.523867	approved	-0.1462227
-3.894805	approving	-0.1018
-4.047755	approximation	-0.1018
-4.047755	aptitude	-0.1018
-2.392151	are	-0.2012282
-3.300644	area	-0.1234436
-2.841929	areas	-0.325089
-4.047755	arguments	-0.1018
-4.047755	ari	-0.1018
-3.894805	arms	-0.1018
-3.7819	around	-0.1018
-4.047755	arrangement	-0.1018
-3.894805	arrangements	-0.1018
-3.523867	article	-0.1785816
-3.7819	articles	-0.1785816
-2.301702	as	-0.3038985
-3.153928	ask	-0.2368824
-3.523867	asked	-0.201881
-3.7819	asking	-0.1018
-3.894805	aspect	-0.2227466
-3.436091	aspects	-0.1018
-4.047755	assassinated	-0.1018
-4.047755	assess	-0.1018
-4.047755	assessed	-0.1018
-4.047755	assesses	-0.1018
-3.7819	assessing	-0.1018
-3.633995	assessment	-0.1018
-3.894805	assessments	-0.1018
-3.894805	assist	-0.1018
-3.7819	assistance	-0.1580766
-4.047755	assisting	-0.1018
-3.894805	associations	-0.1785816
-4.047755	assume	-0.1018
-3.7819	assure	-0.2842565
-4.047755	astonished	-0.1018
-2.378018	at	-0.3870743
-3.894805	attach	-0.1018
-4.047755	attaches	-0.1018
-4.047755	attain	-0.1018
-4.047755	attaining	-0.1018
-3.894805	attempted	-0.2227466
-4.047755	attend	-0.1018
-3.197549	attention	-0.3737506
-3.7819	attentive	-0.2842565
-3.894805	attitude	-0.1018
-4.047755	attracting	-0.1018
-4.047755	attributed	-0.1018
-4.047755	auditing	-0.1018
-4.047755	augurs	-0.1018
-4.047755	austere	-0.1018
-3.633995	austria	-0.1018
-4.047755	austrian	-0.1018
-4.047755	author	-0.1018
-4.047755	authorisation	-0.1018
-3.7819	authorities	-0.1667461
-3.894805	authority	-0.1018
-3.633995	available	-0.1580766
-4.047755	avalanche	-0.1018
-3.633995	average	-0.1580765
-4.047755	averages	-0.1018
-4.047755	aviation	-0.1018
-3.894805	avoid	-0.1018
-4.047755	avoided	-0.1018
-3.894805	awaited	-0.1018
-3.363109	aware	-0.2032664
-3.7819	away	-0.1785816
-4.047755	azores	-0.1018
-3.894805	b	-0.2227466
-3.523867	back	-0.1462227
-4.047755	backed	-0.1018
-4.047755	background	-0.1018
-4.047755	backward	-0.1018
-3.7819	bad	-0.1018
-4.047755	badly	-0.1018
-3.894805	balance	-0.1018
-3.894805	balanced	-0.1018
-4.047755	barely	-0.1018
-4.047755	barents	-0.1018
-4.047755	barnier	-0.1018
-4.047755	barón	-0.1018
-3.7819	base	-0.1018
-3.7819	based	-0.2309718
-4.047755	bases	-0.1018
-3.894805	basic	-0.1018
-3.894805	basically	-0.1018
-3.300644	basis	-0.2800027
-2.577444	be	-0.1872321
-3.894805	bear	-0.2227466
-3.633995	bearing	-0.1580766
-2.649066	because	-0.2613258
-3.523867	become	-0.1384962
-4.047755	becomes	-0.1018
-4.047755	becoming	-0.1018
-2.984313	been	-0.1395309
-3.114292	before	-0.2076858
-4.047755	begin	-0.1018
-3.7819	beginning	-0.1018
-4.047755	behalf	-0.1018
-4.047755	behaviour	-0.1018
-3.633995	behind	-0.1018
-2.884406	being	-0.1099973
-4.047755	belatedly	-0.1018
-4.047755	belgium	-0.1018
-4.047755	belief	-0.1018
-3.7819	believe	-0.1514512
-4.047755	believes	-0.1018
-3.894805	below	-0.1018
-4.047755	benchmark	-0.1018
-3.894805	beneficial	-0.1018
-4.047755	beneficiaries	-0.1018
-3.7819	benefit	-0.1018
-4.047755	benefited	-0.1018
-4.047755	benefits	-0.1018
-3.894805	berend	-0.1018
-4.047755	berenguer	-0.1018
-3.7819	berlin	-0.1785816
-4.047755	bernié	-0.1018
-3.894805	best	-0.1018
-3.436091	better	-0.1018
-2.689857	between	-0.2987295
-4.047755	beyond	-0.1018
-4.047755	bills	-0.1018
-4.047755	binding	-0.1018
-4.047755	biodiversity	-0.1018
-3.894805	bit	-0.1018
-4.047755	blame	-0.1018
-4.047755	blanc	-0.1018
-3.894805	blessing	-0.1018
-3.894805	bodies	-0.1018
-4.047755	body	-0.1018
-4.047755	bomb	-0.1018
-4.047755	book	-0.1018
-3.894805	boost	-0.1018
-3.7819	boosting	-0.1018
-4.047755	borders	-0.1018
-4.047755	born	-0.1018
-3.300644	both	-0.1171489
-4.047755	bound	-0.1018
-4.047755	bourlanges	-0.1018
-4.047755	bradbourn	-0.1018
-4.047755	brainpower	-0.1018
-4.047755	brake	-0.1018
-4.047755	brandenburg	-0.1018
-4.047755	breach	-0.1018
-4.047755	brenner	-0.1018
-4.047755	bridge	-0.1018
-4.047755	bridges	-0.1018
-3.894805	brief	-0.1018
-3.436091	briefly	-0.1667462
-4.047755	bring	-0.1018
-4.047755	brings	-0.1018
-4.047755	british	-0.1018
-4.047755	brittany	-0.1018
-3.633995	broad	-0.1580766
-4.047755	broaden	-0.1018
-4.047755	broader	-0.1018
-3.894805	broadly	-0.1018
-3.894805	broke	-0.1018
-3.7819	brought	-0.1580766
-4.047755	brussels	-0.1018
-4.047755	budget	-0.1018
-3.894805	budgetary	-0.1018
-4.047755	budgets	-0.1018
-4.047755	bug	-0.1018
-4.047755	build	-0.1018
-3.894805	building	-0.1018
-4.047755	buildings	-0.1018
-4.047755	built	-0.1018
-4.047755	burden	-0.1018
-3.436091	bureaucracy	-0.1384962
-4.047755	bureaucratic	-0.1018
-4.047755	bush	-0.1018
-3.363109	business	-0.1785816
-3.7819	businesses	-0.1957125
-3.894805	businesspeople	-0.1018
-2.785114	but	-0.2154506
-2.278978	by	-0.3566065
-4.047755	c	-0.1018
-4.047755	c5-0004	-0.1018
-4.047755	c5-0104	-0.1018
-4.047755	c5-0105	-0.1018
-4.047755	c5-0107	-0.1018
-4.047755	c5-0120	-0.1018
-4.047755	c5-0121	-0.1018
-4.047755	c5-0122	-0.1018
-4.047755	c5-0208	-0.1018
-3.300644	call	-0.1731608
-3.7819	called	-0.1018
-3.894805	calling	-0.1018
-3.894805	calls	-0.1018
-4.047755	came	-0.1018
-2.862648	can	-0.2205244
-3.197549	cannot	-0.1161086
-4.047755	capabilities	-0.1018
-4.047755	capable	-0.1018
-4.047755	capacities	-0.1018
-4.047755	capita	-0.1018
-3.436091	capital	-0.1835162
-3.7819	card	-0.1785816
-3.894805	cards	-0.1018
-3.894805	careful	-0.1018
-3.894805	carefully	-0.1018
-3.7819	cargo	-0.1018
-3.894805	carried	-0.2227466
-4.047755	carry	-0.1018
-3.7819	carrying	-0.1018
-3.300644	case	-0.18676
-3.436091	cases	-0.2282127
-4.047755	castro	-0.1018
-4.047755	catalogue	-0.1018
-4.047755	catastrophe	-0.1018
-4.047755	catastrophic	-0.1018
-4.047755	catch	-0.1018
-3.633995	cause	-0.1018
-4.047755	caused	-0.1018
-3.894805	causes	-0.1018
-4.047755	causing	-0.1018
-3.894805	cen	-0.1018
-3.363109	central	-0.1384962
-3.894805	centralised	-0.1018
-4.047755	centralism	-0.1018
-4.047755	centre	-0.1018
-4.047755	centres	-0.1018
-4.047755	century	-0.1018
-3.246044	certain	-0.1214308
-3.300644	certainly	-0.1018
-4.047755	certainty	-0.1018
-4.047755	certificate	-0.1018
-3.894805	certificates	-0.1018
-4.047755	chairman	-0.1018
-4.047755	chairmanship	-0.1018
-4.047755	chairmen	-0.1018
-3.633995	challenge	-0.1018
-3.633995	challenges	-0.1384962
-4.047755	chamber	-0.1018
-3.7819	chance	-0.1580766
-3.7819	change	-0.1018
-3.894805	changed	-0.1018
-4.047755	changeover	-0.1018
-3.7819	changes	-0.1580765
-4.047755	changing	-0.1018
-4.047755	channel	-0.1018
-3.894805	channels	-0.1018
-4.047755	chapeau	-0.1018
-3.7819	chapter	-0.1018
-4.047755	characterisations	-0.1018
-3.894805	characterised	-0.1018
-4.047755	charged	-0.1018
-4.047755	cheat	-0.1018
-4.047755	check	-0.1018
-4.047755	chiefly	-0.1018
-4.047755	children	-0.1018
-4.047755	chipped	-0.1018
-4.047755	choice	-0.1018
-3.7819	circumstances	-0.1018
-3.894805	cities	-0.1018
-3.300644	citizens	-0.1825248
-4.047755	city	-0.1018
-4.047755	civil	-0.1018
-3.894805	claim	-0.1018
-3.894805	clarification	-0.1018
-3.894805	clarify	-0.1018
-3.894805	clarity	-0.1018
-4.047755	classification	-0.1018
-4.047755	clause	-0.1018
-3.077973	clear	-0.1450089
-4.047755	clearer	-0.1018
-3.300644	clearly	-0.1018
-3.7819	climate	-0.1018
-4.047755	climates	-0.1018
-4.047755	climatic	-0.1018
-3.633995	close	-0.1018
-3.894805	closed	-0.1018
-4.047755	closely	-0.1018
-4.047755	closing	-0.1018
-4.047755	coasts	-0.1018
-4.047755	cocilovo	-0.1018
-4.047755	cod	-0.1018
-3.7819	code	-0.1018
-4.047755	cofinanced	-0.1018
-4.047755	cofinancing	-0.1018
-4.047755	coherence	-0.1018
-3.114292	cohesion	-0.1713391
-4.047755	coinciding	-0.1018
-3.523867	cold	-0.1018
-4.047755	colleague	-0.1018
-3.894805	colleagues	-0.1018
-4.047755	college	-0.1018
-4.047755	colleges	-0.1018
-4.047755	com	-0.1018
-3.894805	combat	-0.1018
-4.047755	combating	-0.1018
-3.114292	come	-0.1687973
-3.7819	comes	-0.1018
-3.633995	coming	-0.1018
-3.894805	comitology	-0.2227466
-4.047755	commandment	-0.1018
-4.047755	commence	-0.1018
-4.047755	commend	-0.1018
-4.047755	commendable	-0.1018
-3.7819	comment	-0.1580766
-4.047755	commented	-0.1018
-4.047755	commenting	-0.1018
-3.197549	comments	-0.1556217
-4.047755	commerce	-0.1018
-3.246044	commission	-0.1357066
-3.363109	commissioner	-0.1515481
-3.633995	commitment	-0.1580766
-4.047755	committed	-0.1018
-3.246044	committee	-0.1634712
-3.363109	common	-0.1616011
-4.047755	communautaire	-0.1018
-3.523867	communication	-0.1018
-4.047755	communications	-0.1018
-3.114292	community	-0.1119721
-3.523867	companies	-0.1018
-4.047755	company	-0.1018
-4.047755	comparison	-0.1018
-4.047755	compensate	-0.1018
-4.047755	compensated	-0.1018
-3.894805	competence	-0.2227466
-3.894805	competent	-0.1018
-4.047755	competently	-0.1018
-3.300644	competition	-0.2479887
-4.047755	competition-friendly	-0.1018
-4.047755	competition-inhibiting	-0.1018
-3.7819	competitive	-0.1018
-3.197549	competitiveness	-0.1462227
-4.047755	compilation	-0.1018
-4.047755	complain	-0.1018
-4.047755	complementing	-0.1018
-3.894805	complete	-0.1018
-3.894805	completed	-0.1018
-4.047755	completely	-0.1018
-4.047755	completes	-0.1018
-4.047755	completion	-0.1018
-4.047755	complex	-0.1018
-3.7819	complicated	-0.1580766
-4.047755	compliment	-0.1018
-4.047755	compliments	-0.1018
-3.894805	comply	-0.2227466
-3.894805	comprehensive	-0.1018
-4.047755	comprise	-0.1018
-4.047755	compromise	-0.1018
-4.047755	compulsory	-0.1018
-4.047755	conceded	-0.1018
-3.894805	concentrate	-0.2227466
-4.047755	concentrated	-0.1018
-4.047755	concentrating	-0.1018
-3.7819	concentration	-0.1018
-4.047755	concentrations	-0.1018
-3.894805	concept	-0.1018
-3.523867	concern	-0.1018
-3.363109	concerned	-0.2504629
-3.300644	concerning	-0.2288501
-3.436091	concerns	-0.1835162
-3.894805	conclude	-0.1018
-3.894805	concluded	-0.1018
-4.047755	concluding	-0.1018
-3.523867	conclusion	-0.1667462
-3.523867	conclusions	-0.1018
-4.047755	conclusive	-0.1018
-4.047755	concrete	-0.1018
-3.894805	condemned	-0.1018
-4.047755	condition	-0.1018
-3.363109	conditions	-0.1259164
-4.047755	conduct	-0.1018
-3.7819	conference	-0.1018
-4.047755	conferred	-0.1018
-3.633995	confidence	-0.2309718
-4.047755	confident	-0.1018
-4.047755	confines	-0.1018
-4.047755	confirm	-0.1018
-4.047755	confused	-0.1018
-3.7819	congratulate	-0.1384962
-4.047755	congratulates	-0.1018
-4.047755	conjunction	-0.1018
-4.047755	connected	-0.1018
-3.894805	connection	-0.1018
-3.894805	consequences	-0.1018
-3.894805	consequently	-0.1018
-4.047755	conservation	-0.1018
-3.894805	conservative	-0.1018
-3.633995	consider	-0.1384962
-3.633995	considerable	-0.1018
-3.7819	considerably	-0.1018
-3.363109	consideration	-0.1731608
-4.047755	considered	-0.1018
-3.523867	considering	-0.1462227
-4.047755	considers	-0.1018
-4.047755	consistency	-0.1018
-3.7819	consistent	-0.1018
-4.047755	consistently	-0.1018
-4.047755	consists	-0.1018
-4.047755	consolidate	-0.1018
-4.047755	consolidated	-0.1018
-4.047755	constantly	-0.1018
-4.047755	constitute	-0.1018
-4.047755	constitutes	-0.1018
-4.047755	constitutional	-0.1018
-4.047755	constructed	-0.1018
-4.047755	construction	-0.1018
-4.047755	constructive	-0.1018
-4.047755	constructively	-0.1018
-3.894805	consultation	-0.1018
-4.047755	consultative	-0.1018
-4.047755	consulted	-0.1018
-3.7819	contained	-0.1785816
-4.047755	containers	-0.1018
-3.523867	contains	-0.201881
-3.633995	content	-0.1018
-4.047755	contents	-0.1018
-3.7819	context	-0.1018
-3.246044	continue	-0.3068038
-3.7819	continued	-0.1785816
-4.047755	continues	-0.1018
-3.7819	continuing	-0.1785816
-4.047755	contrary	-0.1018
-3.7819	contribute	-0.2842565
-4.047755	contributing	-0.1018
-3.436091	contribution	-0.4070631
-4.047755	contributions	-0.1018
-4.047755	control	-0.1018
-3.894805	controversial	-0.1018
-4.047755	convenient	-0.1018
-3.523867	convergence	-0.1290274
-4.047755	conversion	-0.1018
-4.047755	convey	-0.1018
-4.047755	convinced	-0.1018
-4.047755	cooperate	-0.1018
-3.436091	cooperation	-0.2282128
-3.300644	coordination	-0.1514512
-4.047755	cornerstones	-0.1018
-4.047755	corollary	-0.1018
-4.047755	corporate	-0.1018
-3.894805	correct	-0.1018
-3.7819	correctly	-0.1018
-3.894805	corresponding	-0.1018
-4.047755	corroborate	-0.1018
-4.047755	cos	-0.1018
-3.894805	cost	-0.1018
-4.047755	cost-intensive	-0.1018
-4.047755	costly	-0.1018
-3.7819	costs	-0.1785816
-3.436091	could	-0.1330602
-3.894805	council	-0.1018
-4.047755	counted	-0.1018
-2.841929	countries	-0.1839769
-3.436091	country	-0.207741
-4.047755	country-specific	-0.1018
-3.894805	coup	-0.1018
-4.047755	couple	-0.1018
-3.894805	course	-0.1018
-3.633995	courts	-0.1018
-4.047755	cox	-0.1018
-4.047755	crash	-0.1018
-4.047755	crashes	-0.1018
-3.894805	create	-0.1290274
-4.047755	created	-0.1018
-3.894805	creates	-0.1018
-3.7819	creating	-0.1018
-3.894805	creation	-0.1018
-3.894805	credibility	-0.1018
-4.047755	crespo	-0.1018
-4.047755	criminal	-0.1018
-3.633995	criteria	-0.1018
-3.894805	criterion	-0.1018
-4.047755	critical	-0.1018
-4.047755	criticising	-0.1018
-3.894805	criticisms	-0.1018
-3.894805	critics	-0.1018
-4.047755	cross-border	-0.1018
-4.047755	crossed	-0.1018
-3.633995	crucial	-0.1018
-4.047755	crust	-0.1018
-3.894805	culture	-0.1018
-4.047755	cunha	-0.1018
-3.894805	currency	-0.1018
-3.894805	current	-0.1018
-3.523867	currently	-0.1018
-3.894805	cut	-0.1018
-4.047755	cutting-down	-0.1018
-4.047755	dam	-0.1018
-3.894805	damage	-0.1018
-4.047755	damaged	-0.1018
-4.047755	damaging	-0.1018
-4.047755	dampened	-0.1018
-3.246044	dangerous	-0.2127536
-4.047755	dared	-0.1018
-4.047755	daring	-0.1018
-3.633995	data	-0.1580766
-3.523867	date	-0.1462227
-4.047755	dates	-0.1018
-4.047755	dawn	-0.1018
-3.436091	day	-0.1018
-4.047755	days	-0.1018
-3.7819	de	-0.1785816
-4.047755	deadline	-0.1018
-4.047755	deadlines	-0.1018
-3.436091	deal	-0.2288501
-3.894805	dealing	-0.2227466
-3.894805	dealt	-0.1018
-4.047755	death	-0.1018
-4.047755	deaths	-0.1018
-2.9571	debate	-0.2123369
-3.633995	debated	-0.1018
-4.047755	debates	-0.1018
-3.7819	debating	-0.1018
-4.047755	debureaucratisation	-0.1018
-4.047755	decade	-0.1018
-3.894805	decades	-0.1785816
-3.7819	december	-0.1785816
-4.047755	decent	-0.1018
-3.523867	decentralisation	-0.1018
-3.894805	decentralised	-0.2227466
-4.047755	decentralising	-0.1018
-3.7819	decide	-0.1018
-3.894805	decides	-0.1018
-3.363109	decision	-0.1355606
-4.047755	decision-making	-0.1018
-3.436091	decisions	-0.1330602
-3.894805	decisive	-0.1018
-4.047755	decisively	-0.1018
-4.047755	declare	-0.1018
-3.7819	declared	-0.1018
-4.047755	decreased	-0.1018
-4.047755	dedicating	-0.1018
-4.047755	deep	-0.1018
-4.047755	deepening	-0.1018
-4.047755	deeply	-0.1018
-4.047755	defects	-0.1018
-4.047755	defending	-0.1018
-4.047755	deficiencies	-0.1018
-4.047755	define	-0.1018
-4.047755	defined	-0.1018
-4.047755	definite	-0.1018
-4.047755	definition	-0.1018
-4.047755	definitions	-0.1018
-4.047755	definitively	-0.1018
-3.523867	degree	-0.201881
-3.894805	degrees	-0.2227466
-3.7819	delay	-0.1462227
-4.047755	delayed	-0.1018
-3.633995	delays	-0.1580765
-4.047755	delegating	-0.1018
-4.047755	deletes	-0.1018
-4.047755	deliberations	-0.1018
-4.047755	delight	-0.1018
-4.047755	delivered	-0.1018
-4.047755	demand	-0.1018
-3.894805	demand-orientated	-0.2227466
-4.047755	demanded	-0.1018
-3.894805	demands	-0.1018
-4.047755	demographic	-0.1018
-3.894805	demonstrate	-0.2227466
-4.047755	demonstrated	-0.1018
-4.047755	demonstrates	-0.1018
-4.047755	denied	-0.1018
-4.047755	denominator	-0.1018
-3.894805	departments	-0.1018
-3.894805	depend	-0.1018
-3.894805	dependent	-0.2227466
-4.047755	depopulation	-0.1018
-4.047755	deprived	-0.1018
-4.047755	depth	-0.1018
-4.047755	describe	-0.1018
-4.047755	describes	-0.1018
-4.047755	description	-0.1018
-3.894805	deserves	-0.1018
-4.047755	desire	-0.1018
-4.047755	desired	-0.1018
-4.047755	desk	-0.1018
-4.047755	desperately	-0.1018
-3.7819	despite	-0.2309718
-4.047755	destroyed	-0.1018
-4.047755	detail	-0.1018
-3.894805	detailed	-0.1018
-3.523867	details	-0.1462227
-4.047755	determined	-0.1018
-3.7819	develop	-0.1462227
-3.633995	developed	-0.1018
-3.894805	developing	-0.1018
-2.767715	development	-0.2635447
-3.7819	developments	-0.1018
-4.047755	deviate	-0.1018
-4.047755	devote	-0.1018
-4.047755	dialogue	-0.1018
-3.894805	dictates	-0.1018
-3.246044	did	-0.3257602
-4.047755	differ	-0.1018
-3.436091	differences	-0.2810622
-3.633995	different	-0.1018
-4.047755	differentiating	-0.1018
-4.047755	differently	-0.1018
-3.633995	difficult	-0.1018
-3.894805	difficulties	-0.1018
-4.047755	dilatory	-0.1018
-4.047755	dilemma	-0.1018
-3.894805	dimension	-0.1018
-4.047755	diminished	-0.1018
-4.047755	direct	-0.1018
-3.633995	direction	-0.4091952
-3.246044	directive	-0.1813945
-3.7819	directives	-0.1462227
-3.894805	directly	-0.1018
-3.894805	directorate	-0.1018
-4.047755	disabled	-0.1018
-4.047755	disadvantaged	-0.1018
-3.894805	disagreed	-0.1018
-4.047755	disappearing	-0.1018
-3.523867	disaster	-0.1462227
-3.7819	disasters	-0.1018
-4.047755	disbursed	-0.1018
-4.047755	disbursement	-0.1018
-4.047755	discontent	-0.1018
-4.047755	discover	-0.1018
-4.047755	discredited	-0.1018
-4.047755	discuss	-0.1018
-3.633995	discussed	-0.1018
-3.633995	discussing	-0.1384962
-3.633995	discussion	-0.1018
-4.047755	disgraceful	-0.1018
-4.047755	disintegration	-0.1018
-3.7819	disparities	-0.1462227
-3.894805	disparity	-0.2227466
-4.047755	dispose	-0.1018
-4.047755	disregards	-0.1018
-4.047755	dissatisfaction	-0.1018
-4.047755	dissatisfied	-0.1018
-4.047755	distance	-0.1018
-4.047755	distances	-0.1018
-4.047755	distant	-0.1018
-4.047755	distinguished	-0.1018
-4.047755	distortions	-0.1018
-3.633995	distributed	-0.1018
-4.047755	distribution	-0.1018
-3.894805	districts	-0.1018
-4.047755	diversification	-0.1018
-4.047755	diversified	-0.1018
-3.633995	diversity	-0.2309718
-4.047755	diverted	-0.1018
-2.822153	do	-0.2949323
-3.523867	document	-0.1330602
-3.7819	documents	-0.1785816
-3.044458	does	-0.5018514
-3.7819	doing	-0.1018
-4.047755	domestic	-0.1018
-3.246044	done	-0.1687973
-3.894805	doubt	-0.2227466
-4.047755	doubtless	-0.1018
-4.047755	doubts	-0.1018
-3.7819	down	-0.1018
-3.7819	draft	-0.1018
-4.047755	drafted	-0.1018
-3.7819	drafting	-0.1580766
-4.047755	drag	-0.1018
-3.894805	drains	-0.1018
-4.047755	dramatic	-0.1018
-4.047755	dramatised	-0.1018
-3.633995	draw	-0.1545351
-3.894805	drawing	-0.1018
-3.633995	drawn	-0.2227466
-4.047755	dreaded	-0.1018
-3.7819	dreadful	-0.1018
-4.047755	drew	-0.1018
-4.047755	drill	-0.1018
-4.047755	drive	-0.1018
-4.047755	drivers	-0.1018
-4.047755	dropping	-0.1018
-4.047755	drove	-0.1018
-3.363109	due	-0.1018
-3.363109	during	-0.2951595
-3.7819	dutch	-0.1785816
-3.894805	duty	-0.1018
-4.047755	dwellers	-0.1018
-4.047755	díez	-0.1018
-4.047755	e	-0.1018
-3.300644	each	-0.1545351
-4.047755	eaggf	-0.1018
-3.7819	earlier	-0.1018
-3.633995	early	-0.1018
-4.047755	earn	-0.1018
-4.047755	earned	-0.1018
-4.047755	ease	-0.1018
-3.894805	easier	-0.1785816
-3.894805	east	-0.1018
-3.7819	eastern	-0.2227467
-4.047755	eastward	-0.1018
-4.047755	eastwards	-0.1018
-4.047755	easy	-0.1018
-3.894805	ec	-0.1018
-2.907312	economic	-0.305611
-4.047755	economies	-0.1018
-3.523867	economy	-0.1785816
-4.047755	ecsc	-0.1018
-4.047755	edge	-0.1018
-4.047755	educated	-0.1018
-3.7819	education	-0.1018
-4.047755	educational	-0.1018
-3.363109	effect	-0.1018
-3.523867	effective	-0.1018
-3.894805	effectiveness	-0.1785816
-3.7819	effects	-0.1018
-3.7819	efficiency	-0.1018
-3.894805	efficient	-0.1018
-3.894805	efficiently	-0.1580765
-3.633995	effort	-0.1462227
-3.523867	efforts	-0.1018
-4.047755	eight	-0.1018
-4.047755	eighteen	-0.1018
-3.300644	either	-0.1290274
-4.047755	eldr	-0.1018
-3.7819	elected	-0.1785816
-4.047755	elections	-0.1018
-4.047755	electorate	-0.1018
-3.894805	electronic	-0.1018
-4.047755	electronically	-0.1018
-3.7819	elements	-0.1018
-4.047755	elimination	-0.1018
-4.047755	elisabeth	-0.1018
-3.894805	else	-0.1018
-4.047755	elsewhere	-0.1018
-4.047755	elucidation	-0.1018
-3.894805	embargo	-0.1018
-3.7819	emphasis	-0.1018
-4.047755	emphasised	-0.1018
-4.047755	emphasises	-0.1018
-4.047755	emphasising	-0.1018
-4.047755	employ	-0.1018
-3.894805	employed	-0.1018
-4.047755	employee	-0.1018
-4.047755	employees	-0.1018
-3.894805	employers	-0.1018
-4.047755	employing	-0.1018
-2.931493	employment	-0.3230213
-4.047755	empowered	-0.1018
-3.7819	enable	-0.1018
-4.047755	enabled	-0.1018
-3.894805	enabling	-0.1018
-3.894805	enacting	-0.1018
-4.047755	enactment	-0.1018
-4.047755	encompass	-0.1018
-3.894805	encourage	-0.1018
-4.047755	encouraging	-0.1018
-3.523867	end	-0.1708582
-4.047755	endeavour	-0.1018
-4.047755	endeavouring	-0.1018
-4.047755	endlessly	-0.1018
-3.894805	endorse	-0.1018
-3.894805	endorsed	-0.1018
-4.047755	energies	-0.1018
-3.633995	energy	-0.1462227
-4.047755	enforceable	-0.1018
-4.047755	enforced	-0.1018
-3.7819	enforcement	-0.1018
-4.047755	enforcing	-0.1018
-3.894805	engaged	-0.2227466
-4.047755	enhance	-0.1018
-4.047755	enjoy	-0.1018
-3.894805	enjoyed	-0.1018
-4.047755	enlarged	-0.1018
-3.197549	enlargement	-0.1234436
-4.047755	enlighten	-0.1018
-4.047755	enormous	-0.1018
-3.436091	enough	-0.1018
-3.523867	ensure	-0.1731608
-4.047755	ensured	-0.1018
-3.894805	ensures	-0.2227466
-3.894805	ensuring	-0.1018
-3.894805	entail	-0.2227466
-3.894805	entails	-0.1018
-3.894805	enter	-0.2227466
-3.894805	entered	-0.1018
-4.047755	entering	-0.1018
-3.523867	enterprises	-0.1667462
-4.047755	entirely	-0.1018
-4.047755	entitled	-0.1018
-4.047755	entitlement	-0.1018
-4.047755	entrenchment	-0.1018
-4.047755	entrepreneur	-0.1018
-3.894805	entrepreneurial	-0.1018
-3.7819	entrepreneurs	-0.1018
-3.894805	entrepreneurship	-0.1018
-3.894805	entry	-0.2227466
-3.894805	environment	-0.1580766
-3.7819	environmental	-0.1018
-3.894805	envisaged	-0.1018
-4.047755	envisages	-0.1018
-4.047755	envy	-0.1018
-3.523867	equal	-0.2810622
-3.894805	equality	-0.1018
-3.894805	equally	-0.1018
-4.047755	equation	-0.1018
-4.047755	equilibrium	-0.1018
-4.047755	equitably	-0.1018
-4.047755	erika	-0.1018
-3.894805	escape	-0.1018
-3.633995	especially	-0.1290274
-3.363109	essential	-0.1018
-4.047755	essentially	-0.1018
-3.7819	establish	-0.1018
-3.633995	established	-0.1018
-4.047755	establishes	-0.1018
-3.633995	establishing	-0.1384962
-4.047755	establishment	-0.1018
-4.047755	etc	-0.1018
-3.246044	eu	-0.1018
-4.047755	euro	-0.1018
-2.9571	europe	-0.2320364
-2.841929	european	-0.1816439
-4.047755	european-wide	-0.1018
-4.047755	eurostat	-0.1018
-4.047755	evaluated	-0.1018
-4.047755	evaluation	-0.1018
-4.047755	evans	-0.1018
-3.114292	even	-0.176077
-4.047755	evening	-0.1018
-4.047755	event	-0.1018
-3.894805	events	-0.1018
-3.7819	eventually	-0.1018
-3.7819	ever	-0.1018
-4.047755	ever-expanding	-0.1018
-3.246044	every	-0.1018
-4.047755	everyday	-0.1018
-3.633995	everyone	-0.1018
-3.633995	everything	-0.1018
-4.047755	evidence	-0.1018
-4.047755	evolving	-0.1018
-4.047755	ex	-0.1018
-4.047755	exacerbates	-0.1018
-3.436091	examination	-0.2282128
-4.047755	examinations	-0.1018
-3.894805	examine	-0.1018
-3.894805	examined	-0.1785816
-3.633995	example	-0.1835162
-3.523867	excellent	-0.2657329
-4.047755	exception	-0.1018
-4.047755	exceptional	-0.1018
-4.047755	exceptionally	-0.1018
-3.894805	excessive	-0.1018
-4.047755	exchange	-0.1018
-4.047755	exciting	-0.1018
-4.047755	excluded	-0.1018
-4.047755	excluding	-0.1018
-3.894805	exclusion	-0.1018
-4.047755	exclusive	-0.1018
-4.047755	exclusively	-0.1018
-4.047755	excuse	-0.1018
-4.047755	executed	-0.1018
-3.894805	execution	-0.1018
-3.894805	exemption	-0.1018
-3.7819	exercise	-0.1018
-4.047755	exercised	-0.1018
-4.047755	exercises	-0.1018
-4.047755	exile	-0.1018
-3.894805	exist	-0.1018
-4.047755	existence	-0.1018
-4.047755	existing	-0.1018
-4.047755	exists	-0.1018
-4.047755	exit	-0.1018
-4.047755	exodus	-0.1018
-4.047755	expansion	-0.1018
-3.633995	expect	-0.2309718
-3.894805	expectations	-0.1018
-3.7819	expected	-0.1018
-4.047755	expects	-0.1018
-4.047755	expeditiously	-0.1018
-4.047755	expenditure	-0.1018
-3.894805	expense	-0.1018
-3.633995	experience	-0.1018
-4.047755	experiencing	-0.1018
-3.7819	experts	-0.1018
-3.7819	explain	-0.1018
-4.047755	explained	-0.1018
-4.047755	explaining	-0.1018
-4.047755	explanation	-0.1018
-3.894805	explanations	-0.1018
-4.047755	explicit	-0.1018
-3.894805	explicitly	-0.1018
-4.047755	exploiting	-0.1018
-4.047755	explosions	-0.1018
-3.7819	express	-0.1462227
-3.523867	expressed	-0.1384962
-3.894805	expressing	-0.1018
-4.047755	expression	-0.1018
-4.047755	extending	-0.1018
-4.047755	extension	-0.1018
-4.047755	extensive	-0.1018
-3.436091	extent	-0.1835162
-4.047755	extents	-0.1018
-4.047755	external	-0.1018
-4.047755	extraordinarily	-0.1018
-3.300644	extremely	-0.1234436
-4.047755	eyes	-0.1018
-3.633995	face	-0.1580765
-4.047755	faced	-0.1018
-4.047755	faces	-0.1018
-3.894805	facing	-0.2227466
-3.436091	fact	-0.1708582
-4.047755	factor	-0.1018
-4.047755	factors	-0.1018
-3.894805	facts	-0.1018
-3.894805	fail	-0.2227466
-3.894805	failed	-0.2227466
-3.894805	failure	-0.1018
-4.047755	fair	-0.1018
-4.047755	fairer	-0.1018
-4.047755	faith	-0.1018
-3.633995	fall	-0.1018
-3.894805	familiar	-0.2227466
-4.047755	familiarised	-0.1018
-3.363109	far	-0.1462227
-4.047755	far-reaching	-0.1018
-4.047755	farm	-0.1018
-3.894805	farmers	-0.1018
-3.894805	fashion	-0.1018
-4.047755	fast	-0.1018
-4.047755	faster	-0.1018
-4.047755	fault	-0.1018
-3.894805	favour	-0.1018
-4.047755	favourable	-0.1018
-4.047755	fear	-0.1018
-4.047755	feared	-0.1018
-4.047755	feasible	-0.1018
-3.894805	february	-0.1384962
-4.047755	federal	-0.1018
-3.523867	feel	-0.2288501
-4.047755	feeling	-0.1018
-4.047755	feet	-0.1018
-4.047755	fell	-0.1018
-3.7819	fellow	-0.1018
-4.047755	fertile	-0.1018
-4.047755	festive	-0.1018
-3.7819	few	-0.1259164
-4.047755	ffh	-0.1018
-4.047755	field	-0.1018
-3.7819	fields	-0.1785816
-4.047755	fifth	-0.1018
-4.047755	fifthly	-0.1018
-4.047755	fifths	-0.1018
-3.7819	fight	-0.1018
-3.894805	figure	-0.1018
-3.894805	figures	-0.1018
-4.047755	fill	-0.1018
-3.633995	final	-0.1580765
-3.7819	finally	-0.1785816
-4.047755	financed	-0.1018
-3.363109	financial	-0.1514512
-3.894805	financially	-0.1018
-3.7819	financing	-0.1018
-3.436091	find	-0.1708582
-4.047755	finding	-0.1018
-3.894805	findings	-0.1018
-4.047755	finer	-0.1018
-4.047755	finland	-0.1018
-4.047755	finnish	-0.1018
-3.894805	fire	-0.1018
-3.894805	firm	-0.1018
-3.894805	firmly	-0.1018
-3.153928	first	-0.1514512
-3.523867	firstly	-0.1462227
-4.047755	fischler	-0.1018
-3.633995	fisheries	-0.1580766
-4.047755	fit	-0.1018
-3.633995	five	-0.1330602
-3.894805	five-year	-0.1580765
-4.047755	flautre	-0.1018
-4.047755	fleet	-0.1018
-4.047755	flexibilisation	-0.1018
-3.363109	flexibility	-0.1667461
-3.894805	flexible	-0.1018
-4.047755	flexibly	-0.1018
-3.7819	floor	-0.1785816
-4.047755	focus	-0.1018
-4.047755	focused	-0.1018
-4.047755	foggy	-0.1018
-3.894805	follow	-0.1580765
-4.047755	follow-up	-0.1018
-3.894805	followed	-0.1018
-3.7819	following	-0.1018
-4.047755	follows	-0.1018
-1.900733	for	-0.358536
-3.633995	force	-0.1018
-3.7819	forcefully	-0.1018
-4.047755	forces	-0.1018
-4.047755	fore	-0.1018
-4.047755	forefront	-0.1018
-4.047755	forego	-0.1018
-4.047755	foremost	-0.1018
-4.047755	foreseeable	-0.1018
-3.894805	forget	-0.1018
-4.047755	forgot	-0.1018
-3.894805	forgotten	-0.1018
-3.523867	form	-0.1785816
-4.047755	formal	-0.1018
-4.047755	formally	-0.1018
-4.047755	former	-0.1018
-4.047755	formulas	-0.1018
-4.047755	formulation	-0.1018
-4.047755	forthcoming	-0.1018
-3.633995	forward	-0.1018
-4.047755	foundation	-0.1018
-4.047755	founded	-0.1018
-3.523867	four	-0.1018
-4.047755	fourth	-0.1018
-4.047755	fourthly	-0.1018
-4.047755	fracture	-0.1018
-3.7819	framework	-0.1018
-4.047755	frameworks	-0.1018
-3.7819	france	-0.1785816
-4.047755	frank	-0.1018
-4.047755	frankly	-0.1018
-4.047755	free	-0.1018
-4.047755	freedom	-0.1018
-3.633995	french	-0.1018
-4.047755	frequently	-0.1018
-3.894805	friday	-0.1018
-4.047755	friend	-0.1018
-2.462143	from	-0.3326245
-4.047755	frost	-0.1018
-4.047755	frost-resistance	-0.1018
-4.047755	fruits	-0.1018
-4.047755	fruteau	-0.1018
-4.047755	fulfil	-0.1018
-4.047755	fulfils	-0.1018
-3.7819	full	-0.1018
-4.047755	fully	-0.1018
-4.047755	functionality	-0.1018
-3.633995	fund	-0.1330602
-4.047755	fund-users	-0.1018
-3.436091	fundamental	-0.1018
-3.894805	fundamentally	-0.1018
-4.047755	funded	-0.1018
-3.523867	funding	-0.1018
-3.246044	funds	-0.1902229
-3.363109	further	-0.1018
-3.7819	furthermore	-0.1785816
-4.047755	fuster	-0.1018
-3.436091	future	-0.1604231
-3.894805	gap	-0.1018
-4.047755	gave	-0.1018
-3.523867	gdp	-0.1785816
-3.633995	general	-0.1018
-3.633995	generally	-0.1018
-4.047755	generate	-0.1018
-4.047755	generated	-0.1018
-4.047755	gentlemen	-0.1018
-3.894805	genuine	-0.1018
-3.894805	genuinely	-0.1018
-3.894805	geographical	-0.1018
-4.047755	german	-0.1018
-3.7819	germany	-0.2842565
-4.047755	gesture	-0.1018
-3.523867	get	-0.1514512
-4.047755	getting	-0.1018
-4.047755	ghost	-0.1018
-3.436091	give	-0.1330602
-3.114292	given	-0.2551791
-3.633995	gives	-0.1018
-3.7819	giving	-0.1785816
-4.047755	gladly	-0.1018
-4.047755	global	-0.1018
-3.7819	globalisation	-0.1785816
-3.633995	go	-0.1018
-3.894805	goal	-0.1018
-3.894805	goes	-0.1018
-3.633995	going	-0.1580766
-4.047755	gone	-0.1018
-4.047755	gonzález	-0.1018
-3.197549	good	-0.1018
-3.523867	goods	-0.1130568
-4.047755	gorsel	-0.1018
-4.047755	governing	-0.1018
-3.7819	government	-0.1018
-3.633995	governments	-0.1580765
-4.047755	governor	-0.1018
-3.894805	gradual	-0.1018
-4.047755	grandiose-sounding	-0.1018
-4.047755	grant-giving	-0.1018
-3.894805	granted	-0.1018
-4.047755	granting	-0.1018
-4.047755	grass-roots	-0.1018
-3.894805	grateful	-0.1018
-3.300644	great	-0.1259164
-3.153928	greater	-0.1018
-4.047755	greatest	-0.1018
-4.047755	greatly	-0.1018
-4.047755	greece	-0.1018
-4.047755	greek	-0.1018
-4.047755	grew	-0.1018
-3.7819	gross	-0.2842565
-3.7819	ground	-0.1018
-4.047755	grounds	-0.1018
-3.044458	group	-0.1537503
-3.300644	groups	-0.2276226
-4.047755	grow	-0.1018
-3.633995	growing	-0.1018
-3.363109	growth	-0.1214308
-3.7819	guarantee	-0.1018
-4.047755	guaranteeing	-0.1018
-3.894805	guarantees	-0.1018
-4.047755	guard	-0.1018
-3.633995	guidance	-0.1018
-3.894805	guide	-0.1018
-3.894805	guideline	-0.1018
-2.931493	guidelines	-0.1691317
-3.894805	gulf	-0.1018
-2.9571	had	-0.221733
-4.047755	hague	-0.1018
-3.894805	half	-0.1018
-3.7819	halfway	-0.2842565
-3.523867	hand	-0.201881
-4.047755	hand-out	-0.1018
-4.047755	hand-up	-0.1018
-4.047755	handicapped	-0.1018
-4.047755	handling	-0.1018
-4.047755	hands	-0.1018
-3.894805	happen	-0.1018
-4.047755	happening	-0.1018
-4.047755	happens	-0.1018
-4.047755	happy	-0.1018
-3.523867	hard	-0.1462227
-4.047755	hardly	-0.1018
-4.047755	harmed	-0.1018
-3.894805	harmful	-0.1018
-3.363109	harmonisation	-0.1330602
-4.047755	harmonised	-0.1018
-4.047755	harmonises	-0.1018
-3.7819	harmonising	-0.2309718
-2.338186	has	-0.3160701
-4.047755	haste	-0.1018
-4.047755	hasten	-0.1018
-4.047755	hat	-0.1018
-4.047755	hatzidakis	-0.1018
-2.37112	have	-0.3027196
-3.523867	having	-0.1462227
-3.300644	he	-0.201881
-4.047755	head	-0.1018
-4.047755	heading	-0.1018
-3.7819	health	-0.2842565
-3.436091	hear	-0.1330602
-4.047755	heard	-0.1018
-4.047755	hearing	-0.1018
-3.894805	heart	-0.1018
-4.047755	heavy	-0.1018
-4.047755	hedkvist	-0.1018
-4.047755	held	-0.1018
-4.047755	hell	-0.1018
-3.523867	help	-0.1018
-3.894805	helped	-0.2227466
-4.047755	helping	-0.1018
-3.894805	hence	-0.1462227
-3.077973	her	-0.166392
-2.907312	here	-0.2230703
-4.047755	hereby	-0.1018
-3.894805	heritage	-0.1018
-4.047755	hesitant	-0.1018
-4.047755	hi-tech	-0.1018
-4.047755	hicks	-0.1018
-4.047755	hidden	-0.1018
-3.633995	high	-0.1018
-3.633995	higher	-0.1018
-4.047755	highest	-0.1018
-3.894805	highlight	-0.1018
-3.7819	highlighted	-0.1018
-4.047755	highlights	-0.1018
-3.7819	highly	-0.1018
-4.047755	highly-developed	-0.1018
-3.523867	him	-0.1018
-4.047755	hindering	-0.1018
-4.047755	hindrance	-0.1018
-3.114292	his	-0.1214308
-4.047755	historic	-0.1018
-4.047755	historical	-0.1018
-4.047755	hit	-0.1018
-3.894805	hitherto	-0.1018
-4.047755	hoc	-0.1018
-3.633995	hold	-0.2309718
-3.894805	holding	-0.1018
-4.047755	hole	-0.1018
-4.047755	home	-0.1018
-3.436091	hope	-0.1616011
-4.047755	hopefully	-0.1018
-3.894805	horizontal	-0.1018
-4.047755	hospitals	-0.1018
-3.894805	hot	-0.1018
-4.047755	hours	-0.1018
-3.7819	house	-0.1330602
-3.013345	how	-0.1580766
-3.7819	however	-0.1462227
-4.047755	huge	-0.1018
-3.7819	human	-0.1580766
-4.047755	humanist	-0.1018
-4.047755	humility	-0.1018
-4.047755	hypothesis	-0.1018
-4.047755	hänsch	-0.1018
-2.623857	i	-0.3156472
-4.047755	i.e.	-0.1018
-3.7819	idea	-0.1462227
-4.047755	ideas	-0.1018
-4.047755	identify	-0.1018
-2.884406	if	-0.2462947
-4.047755	ignited	-0.1018
-4.047755	ignorance	-0.1018
-4.047755	ignore	-0.1018
-4.047755	ill	-0.1018
-4.047755	imagine	-0.1018
-4.047755	imbalances	-0.1018
-4.047755	immediate	-0.1018
-3.894805	immediately	-0.1018
-3.7819	impact	-0.1018
-4.047755	imperative	-0.1018
-4.047755	impetus	-0.1018
-4.047755	implement	-0.1018
-3.523867	implementation	-0.1708582
-3.523867	implemented	-0.1330602
-3.300644	implementing	-0.1259164
-4.047755	imply	-0.1018
-3.197549	importance	-0.207741
-3.044458	important	-0.1864094
-4.047755	importantly	-0.1018
-3.894805	impose	-0.1018
-4.047755	impoverished	-0.1018
-3.894805	impression	-0.2227466
-3.7819	improve	-0.1018
-3.363109	improved	-0.1259165
-3.633995	improvement	-0.2309718
-3.7819	improvements	-0.1018
-4.047755	improves	-0.1018
-3.633995	improving	-0.1708582
-1.633994	in	-0.4551755
-3.894805	in-depth	-0.1018
-4.047755	inactivity	-0.1018
-4.047755	inadequate	-0.1018
-4.047755	inadmissibility	-0.1018
-4.047755	inadmissible	-0.1018
-4.047755	inasmuch	-0.1018
-4.047755	inaugural	-0.1018
-4.047755	incentives	-0.1018
-4.047755	incidentally	-0.1018
-3.523867	include	-0.1384962
-3.523867	included	-0.1384962
-4.047755	includes	-0.1018
-3.633995	including	-0.1018
-4.047755	income	-0.1018
-3.894805	incomes	-0.2227466
-3.7819	incorporate	-0.1018
-3.523867	increase	-0.1545351
-3.300644	increased	-0.1018
-3.436091	increasing	-0.1018
-4.047755	incumbent	-0.1018
-3.436091	indeed	-0.1489639
-4.047755	india	-0.1018
-3.894805	indicated	-0.1018
-4.047755	indicates	-0.1018
-4.047755	indication	-0.1018
-3.7819	indicative	-0.1018
-4.047755	indicator	-0.1018
-3.523867	indicators	-0.1462227
-4.047755	indirectly	-0.1018
-3.894805	individual	-0.1018
-4.047755	individually	-0.1018
-4.047755	individuals	-0.1018
-3.894805	indonesia	-0.1018
-3.7819	industrial	-0.1018
-3.894805	industries	-0.2227466
-3.523867	industry	-0.1835161
-3.7819	inequalities	-0.1018
-3.894805	inequality	-0.1018
-4.047755	inequitably	-0.1018
-4.047755	inevitable	-0.1018
-4.047755	infancy	-0.1018
-4.047755	influence	-0.1018
-4.047755	influenced	-0.1018
-4.047755	influential	-0.1018
-3.7819	inform	-0.1580766
-4.047755	informal	-0.1018
-3.363109	information	-0.1330602
-3.246044	infrastructure	-0.1514512
-4.047755	infrastructures	-0.1018
-4.047755	infrastrucutres	-0.1018
-4.047755	inhabitant	-0.1018
-4.047755	inhabitants	-0.1018
-4.047755	inherent	-0.1018
-4.047755	initial	-0.1018
-4.047755	initially	-0.1018
-3.894805	initiated	-0.1018
-3.7819	initiative	-0.1018
-3.523867	initiatives	-0.1462227
-4.047755	inject	-0.1018
-3.894805	inland	-0.2227466
-4.047755	innocent	-0.1018
-4.047755	innovative	-0.1018
-4.047755	insensitive	-0.1018
-4.047755	insignificant	-0.1018
-4.047755	inspire	-0.1018
-3.894805	instead	-0.1018
-3.7819	institution	-0.1018
-4.047755	institutional	-0.1018
-3.7819	institutions	-0.201881
-4.047755	instruction	-0.1018
-4.047755	instructions	-0.1018
-4.047755	instructive	-0.1018
-3.523867	instrument	-0.1835162
-3.894805	instruments	-0.1018
-3.7819	insufficient	-0.1018
-4.047755	insularity	-0.1018
-4.047755	insurance	-0.1018
-3.633995	integrated	-0.1462227
-4.047755	integrating	-0.1018
-4.047755	integration	-0.1018
-4.047755	intend	-0.1018
-3.523867	intended	-0.5061052
-4.047755	intending	-0.1018
-4.047755	intense	-0.1018
-3.7819	intention	-0.1018
-4.047755	intentions	-0.1018
-4.047755	interaction	-0.1018
-3.523867	interest	-0.1018
-4.047755	interested	-0.1018
-3.7819	interesting	-0.1018
-4.047755	interests	-0.1018
-4.047755	interfaces	-0.1018
-3.894805	interim	-0.1018
-3.633995	internal	-0.2309718
-4.047755	international	-0.1018
-4.047755	internationally	-0.1018
-4.047755	internet	-0.1018
-4.047755	interpret	-0.1018
-4.047755	interpretation	-0.1018
-4.047755	interregional	-0.1018
-4.047755	intersectoral	-0.1018
-4.047755	intervention	-0.1018
-3.894805	interventions	-0.1018
-2.734879	into	-0.3051998
-4.047755	intolerable	-0.1018
-4.047755	intrinsically	-0.1018
-3.894805	introduce	-0.1018
-3.894805	introduced	-0.1785816
-3.894805	introducing	-0.1018
-3.894805	invest	-0.2227466
-3.7819	investment	-0.1785816
-4.047755	investments	-0.1018
-4.047755	investor	-0.1018
-4.047755	invitation	-0.1018
-4.047755	invite	-0.1018
-4.047755	involve	-0.1018
-3.363109	involved	-0.1708582
-3.523867	involvement	-0.1462227
-3.7819	involving	-0.1785816
-4.047755	irreparably	-0.1018
-4.047755	irresponsible	-0.1018
-2.085642	is	-0.3192135
-3.633995	island	-0.2309718
-4.047755	islander	-0.1018
-3.7819	islands	-0.1018
-4.047755	iso	-0.1018
-3.246044	issue	-0.1419108
-4.047755	issued	-0.1018
-3.300644	issues	-0.1702631
-2.325681	it	-0.3125638
-3.7819	italy	-0.1018
-3.633995	item	-0.1290274
-4.047755	itemise	-0.1018
-2.785114	its	-0.1127645
-3.523867	itself	-0.1384962
-3.633995	january	-0.1018
-4.047755	japan	-0.1018
-4.047755	jeopardise	-0.1018
-4.047755	jiménez	-0.1018
-3.436091	job	-0.4070631
-3.300644	jobs	-0.1462227
-4.047755	join	-0.1018
-4.047755	joining	-0.1018
-3.7819	joint	-0.1785816
-4.047755	jonckheer	-0.1018
-3.894805	judge	-0.1018
-3.894805	july	-0.1018
-4.047755	juncture	-0.1018
-4.047755	june	-0.1018
-2.785114	just	-0.1951852
-4.047755	justice	-0.1018
-3.894805	justification	-0.1018
-4.047755	justified	-0.1018
-4.047755	justifying	-0.1018
-3.894805	keen	-0.2227466
-3.894805	keep	-0.1018
-4.047755	keeping	-0.1018
-3.7819	kept	-0.1018
-3.436091	key	-0.1018
-4.047755	killings	-0.1018
-4.047755	kilos	-0.1018
-3.894805	kind	-0.1018
-4.047755	kinds	-0.1018
-4.047755	kingdom	-0.1018
-3.436091	know	-0.1580766
-4.047755	know-how	-0.1018
-4.047755	knowing	-0.1018
-3.7819	knowledge	-0.1018
-3.894805	known	-0.1018
-4.047755	knows	-0.1018
-4.047755	koch	-0.1018
-4.047755	kumar	-0.1018
-3.633995	labour	-0.1580766
-4.047755	labour-intensive	-0.1018
-3.436091	lack	-0.4070631
-3.894805	lacking	-0.1018
-3.894805	lacks	-0.1018
-3.894805	ladies	-0.2227466
-4.047755	lag	-0.1018
-4.047755	lagging	-0.1018
-3.7819	laid	-0.2842565
-4.047755	lament	-0.1018
-3.894805	land	-0.1018
-4.047755	langen	-0.1018
-4.047755	lanka	-0.1018
-4.047755	lankan	-0.1018
-4.047755	lapland	-0.1018
-3.633995	large	-0.1018
-4.047755	largely	-0.1018
-3.246044	last	-0.1289195
-4.047755	lasted	-0.1018
-4.047755	lasting	-0.1018
-4.047755	lastly	-0.1018
-3.633995	late	-0.1580766
-3.7819	later	-0.1018
-4.047755	latest	-0.1018
-3.894805	latter	-0.1018
-4.047755	laughter	-0.1018
-3.7819	law	-0.1580766
-4.047755	laws	-0.1018
-4.047755	layers	-0.1018
-4.047755	lays	-0.1018
-4.047755	lead	-0.1018
-4.047755	leader	-0.1018
-4.047755	leaders	-0.1018
-4.047755	leads	-0.1018
-3.7819	learn	-0.1018
-4.047755	learns	-0.1018
-3.633995	least	-0.1018
-4.047755	least-developed	-0.1018
-4.047755	leave	-0.1018
-4.047755	leavers	-0.1018
-3.894805	led	-0.2227466
-3.7819	left	-0.1785816
-3.633995	legal	-0.1018
-4.047755	legally	-0.1018
-3.523867	legislation	-0.1018
-3.363109	legislative	-0.2288501
-3.7819	legislature	-0.1580765
-4.047755	lengthy	-0.1018
-3.523867	less	-0.1018
-4.047755	lesser	-0.1018
-3.894805	lesson	-0.1018
-3.894805	lessons	-0.1018
-3.436091	let	-0.2821243
-3.633995	letter	-0.1018
-3.153928	level	-0.2951595
-3.363109	levels	-0.1929966
-4.047755	lies	-0.1018
-3.633995	life	-0.1462227
-4.047755	life-support	-0.1018
-3.7819	light	-0.1785816
-2.9571	like	-0.3714229
-4.047755	liked	-0.1018
-4.047755	limit	-0.1018
-3.894805	limited	-0.1018
-4.047755	limits	-0.1018
-3.7819	line	-0.1785816
-4.047755	lines	-0.1018
-3.7819	link	-0.1018
-3.894805	linked	-0.1018
-3.894805	linking	-0.1018
-3.894805	links	-0.1018
-4.047755	lion	-0.1018
-4.047755	list	-0.1018
-4.047755	listen	-0.1018
-4.047755	listening	-0.1018
-4.047755	literacy	-0.1018
-3.633995	little	-0.1018
-3.7819	live	-0.1785816
-4.047755	lived	-0.1018
-4.047755	livelihood	-0.1018
-4.047755	lively	-0.1018
-3.894805	lives	-0.1018
-3.894805	living	-0.1462227
-4.047755	loaded	-0.1018
-3.153928	local	-0.1556217
-4.047755	located	-0.1018
-4.047755	locating	-0.1018
-4.047755	location	-0.1018
-4.047755	logic	-0.1018
-4.047755	logical	-0.1018
-4.047755	logically	-0.1018
-4.047755	london	-0.1018
-3.246044	long	-0.1018
-3.7819	long-term	-0.1018
-3.7819	longer	-0.1018
-3.523867	look	-0.1785816
-4.047755	looked	-0.1018
-3.894805	looking	-0.1018
-3.894805	looks	-0.1018
-4.047755	loose	-0.1018
-4.047755	lorries	-0.1018
-4.047755	losing	-0.1018
-3.7819	loss	-0.2842565
-4.047755	lot	-0.1018
-4.047755	loud	-0.1018
-4.047755	love	-0.1018
-4.047755	low	-0.1018
-3.633995	lower	-0.1580765
-4.047755	lowered	-0.1018
-4.047755	lowest	-0.1018
-4.047755	luxembourg	-0.1018
-4.047755	lynne	-0.1018
-4.047755	länder	-0.1018
-4.047755	machine	-0.1018
-4.047755	macroeconomic	-0.1018
-3.894805	madam	-0.2227466
-2.907312	made	-0.2315931
-4.047755	madeira	-0.1018
-3.894805	magnificent	-0.1018
-4.047755	magnificently	-0.1018
-3.894805	main	-0.1018
-4.047755	mainland	-0.1018
-4.047755	mainly	-0.1018
-4.047755	maintain	-0.1018
-3.894805	maintained	-0.1018
-3.894805	maintaining	-0.1018
-3.246044	major	-0.140739
-3.894805	majority	-0.1580766
-3.153928	make	-0.1583729
-3.633995	makes	-0.1018
-3.436091	making	-0.1785816
-4.047755	man	-0.1018
-3.894805	manage	-0.1018
-3.894805	management	-0.2227466
-4.047755	managers	-0.1018
-4.047755	managing	-0.1018
-4.047755	mandate	-0.1018
-3.246044	manner	-0.1514512
-4.047755	manufacturing	-0.1018
-3.114292	many	-0.1450089
-4.047755	map	-0.1018
-4.047755	march	-0.1018
-4.047755	margarine	-0.1018
-4.047755	marginalisation	-0.1018
-4.047755	marginalised	-0.1018
-4.047755	margins	-0.1018
-3.894805	marked	-0.1018
-3.633995	market	-0.1290274
-4.047755	markov	-0.1018
-4.047755	marks	-0.1018
-4.047755	mass	-0.1018
-4.047755	massive	-0.1018
-4.047755	matched	-0.1018
-4.047755	matches	-0.1018
-3.894805	materialise	-0.2227466
-4.047755	materials	-0.1018
-3.363109	matter	-0.1681125
-3.7819	matters	-0.1018
-3.7819	maximum	-0.1018
-2.984313	may	-0.1601705
-4.047755	mccarthy	-0.1018
-3.153928	me	-0.2096618
-3.436091	mean	-0.1785816
-4.047755	meaning	-0.1018
-4.047755	meaningful	-0.1018
-3.363109	means	-0.2657329
-4.047755	meant	-0.1018
-4.047755	meantime	-0.1018
-4.047755	measure	-0.1018
-4.047755	measured	-0.1018
-3.044458	measures	-0.1486915
-4.047755	mechanisms	-0.1018
-4.047755	media	-0.1018
-4.047755	mediterranean	-0.1018
-4.047755	medium-sized	-0.1018
-3.894805	meet	-0.1018
-3.633995	meeting	-0.1462227
-2.822153	member	-0.6014152
-3.114292	members	-0.2377042
-3.894805	memorandums	-0.1018
-4.047755	memory	-0.1018
-3.894805	men	-0.2227466
-3.436091	mention	-0.1259164
-3.114292	mentioned	-0.2273698
-3.894805	mentioning	-0.1018
-3.7819	merely	-0.1018
-4.047755	merging	-0.1018
-3.7819	message	-0.1018
-4.047755	messrs	-0.1018
-4.047755	met	-0.1018
-3.894805	method	-0.1018
-4.047755	methodological	-0.1018
-4.047755	methods	-0.1018
-4.047755	meticulous	-0.1018
-4.047755	mid-term	-0.1018
-4.047755	mid-way	-0.1018
-4.047755	middle-class	-0.1018
-4.047755	midlands	-0.1018
-3.436091	might	-0.1419912
-4.047755	migration	-0.1018
-4.047755	milestone	-0.1018
-4.047755	military	-0.1018
-3.7819	millennium	-0.1018
-3.894805	mind	-0.1018
-4.047755	minds	-0.1018
-4.047755	minimal	-0.1018
-3.300644	minimum	-0.2127536
-4.047755	minister	-0.1018
-4.047755	ministers	-0.1018
-4.047755	minor	-0.1018
-3.894805	minute	-0.1785816
-3.894805	minutes	-0.1330602
-4.047755	misapprehension	-0.1018
-4.047755	missed	-0.1018
-4.047755	misspent	-0.1018
-4.047755	mist	-0.1018
-3.894805	mistaken	-0.1018
-4.047755	mix	-0.1018
-4.047755	model	-0.1018
-4.047755	models	-0.1018
-3.300644	modernisation	-0.1545351
-3.7819	modest	-0.1018
-4.047755	modules	-0.1018
-3.7819	moment	-0.1018
-3.894805	monday	-0.1018
-4.047755	monetary	-0.1018
-3.436091	money	-0.1018
-3.894805	monies	-0.1018
-4.047755	monitor	-0.1018
-4.047755	monitoring	-0.1018
-3.7819	monopolies	-0.1785816
-4.047755	monopoly	-0.1018
-4.047755	mont	-0.1018
-3.7819	month	-0.1018
-3.363109	months	-0.1290274
-4.047755	moor	-0.1018
-4.047755	moral	-0.1018
-2.462143	more	-0.1700422
-4.047755	moreover	-0.1018
-3.153928	most	-0.1475912
-4.047755	motion	-0.1018
-4.047755	motivated	-0.1018
-4.047755	motives	-0.1018
-4.047755	motorways	-0.1018
-3.894805	move	-0.1018
-4.047755	movement	-0.1018
-4.047755	moves	-0.1018
-2.767715	mr	-0.2489767
-3.153928	mrs	-0.2457162
-3.197549	much	-0.1861642
-4.047755	much-trumpeted	-0.1018
-4.047755	multi-functional	-0.1018
-4.047755	multiannual	-0.1018
-4.047755	multifunctional	-0.1018
-4.047755	municipalities	-0.1018
-2.67583	must	-0.3600682
-4.047755	mutual	-0.1018
-2.649066	my	-0.2053806
-3.7819	myself	-0.1580765
-4.047755	name	-0.1018
-4.047755	namely	-0.1018
-4.047755	narrow	-0.1018
-2.984313	national	-0.1861066
-4.047755	nations	-0.1018
-3.7819	natural	-0.1785816
-4.047755	naturally	-0.1018
-3.523867	nature	-0.201881
-3.894805	necessarily	-0.1018
-3.246044	necessary	-0.2276226
-4.047755	necessity	-0.1018
-3.114292	need	-0.5039731
-3.633995	needed	-0.1835161
-4.047755	needing	-0.1018
-4.047755	needless	-0.1018
-3.300644	needs	-0.3084549
-3.894805	negative	-0.1018
-4.047755	negotiation	-0.1018
-3.633995	negotiations	-0.1330602
-4.047755	neither	-0.1018
-4.047755	net	-0.1018
-4.047755	netherlands	-0.1018
-3.633995	networks	-0.1018
-3.7819	never	-0.1580766
-4.047755	nevertheless	-0.1018
-3.077973	new	-0.1171489
-3.894805	news	-0.1018
-3.894805	newspaper	-0.1018
-3.523867	next	-0.1018
-4.047755	ngos	-0.1018
-4.047755	night	-0.1018
-4.047755	nikitin	-0.1018
-2.862648	no	-0.1266255
-4.047755	no-smoking	-0.1018
-4.047755	nogueira	-0.1018
-4.047755	non-agricultural	-0.1018
-4.047755	non-attached	-0.1018
-3.894805	none	-0.1018
-3.7819	nonetheless	-0.1018
-4.047755	north	-0.1018
-3.633995	northern	-0.1462227
-4.047755	norway	-0.1018
-4.047755	nos	-0.1018
-2.623857	not	-0.2059893
-3.7819	note	-0.2309718
-4.047755	noted	-0.1018
-3.7819	nothing	-0.1018
-4.047755	notice	-0.1018
-4.047755	notices	-0.1018
-4.047755	notification	-0.1018
-3.894805	november	-0.1018
-2.907312	now	-0.176077
-4.047755	nowadays	-0.1018
-4.047755	nuisance	-0.1018
-3.363109	number	-0.6522332
-4.047755	numerous	-0.1018
-3.894805	object	-0.1018
-4.047755	objection	-0.1018
-2.907312	objective	-0.4455491
-3.013345	objectives	-0.2001891
-3.7819	obligation	-0.1018
-3.894805	obliged	-0.2227466
-4.047755	obliges	-0.1018
-4.047755	observance	-0.1018
-3.633995	observation	-0.1018
-3.894805	observations	-0.1018
-3.894805	observe	-0.1018
-3.7819	observed	-0.1018
-4.047755	obstacle	-0.1018
-4.047755	obstructing	-0.1018
-4.047755	obtain	-0.1018
-4.047755	obtaining	-0.1018
-4.047755	obvious	-0.1018
-3.7819	occasion	-0.1018
-4.047755	occasional	-0.1018
-4.047755	occasionally	-0.1018
-4.047755	occasions	-0.1018
-4.047755	occurred	-0.1018
-4.047755	occurring	-0.1018
-4.047755	october	-0.1018
-1.520957	of	-0.4057705
-3.436091	off	-0.1835162
-3.894805	offer	-0.1018
-4.047755	offered	-0.1018
-4.047755	offers	-0.1018
-4.047755	office	-0.1018
-4.047755	officer	-0.1018
-3.894805	offices	-0.1018
-4.047755	official	-0.1018
-3.7819	officials	-0.1018
-3.363109	often	-0.1018
-4.047755	oil	-0.1018
-3.894805	omission	-0.1018
-1.993341	on	-0.4272301
-3.114292	once	-0.3207808
-2.704351	one	-0.1886249
-4.047755	ones	-0.1018
-3.633995	ongoing	-0.1018
-2.750987	only	-0.1539107
-3.894805	onto	-0.2227466
-3.7819	open	-0.1018
-4.047755	opening	-0.1018
-4.047755	openness	-0.1018
-4.047755	operability	-0.1018
-4.047755	operate	-0.1018
-3.894805	operation	-0.2227466
-4.047755	operational	-0.1018
-3.894805	operations	-0.2227466
-3.894805	operators	-0.1018
-3.436091	opinion	-0.1731608
-4.047755	opinions	-0.1018
-4.047755	opportune	-0.1018
-3.523867	opportunities	-0.2018809
-3.436091	opportunity	-0.1731608
-4.047755	oppose	-0.1018
-4.047755	opposite	-0.1018
-4.047755	optimism	-0.1018
-3.7819	optimum	-0.1018
-2.479358	or	-0.1341328
-3.7819	oral	-0.1785816
-3.436091	order	-0.1785816
-3.894805	organisation	-0.1018
-3.7819	organisations	-0.2842565
-4.047755	organise	-0.1018
-3.894805	original	-0.1018
-3.894805	originally	-0.1018
-4.047755	originated	-0.1018
-3.153928	other	-0.1290274
-3.436091	others	-0.1384962
-3.894805	otherwise	-0.1018
-4.047755	ought	-0.1018
-2.577444	our	-0.1598304
-4.047755	ours	-0.1018
-3.523867	ourselves	-0.1018
-3.013345	out	-0.2342959
-3.894805	outcome	-0.2227466
-4.047755	outcomes	-0.1018
-4.047755	outermost	-0.1018
-4.047755	outlines	-0.1018
-3.7819	outside	-0.1785816
-3.246044	over	-0.2276225
-4.047755	over-simplified	-0.1018
-3.894805	overall	-0.1018
-4.047755	overarching	-0.1018
-3.894805	overcome	-0.1018
-4.047755	overlook	-0.1018
-4.047755	overnight	-0.1018
-4.047755	overseas	-0.1018
-4.047755	oversight	-0.1018
-4.047755	owing	-0.1018
-3.363109	own	-0.1018
-4.047755	owner	-0.1018
-4.047755	ownership	-0.1018
-4.047755	p.m	-0.1018
-4.047755	p.m.	-0.1018
-4.047755	packaging	-0.1018
-4.047755	pacts	-0.1018
-4.047755	paddington	-0.1018
-4.047755	page	-0.1018
-4.047755	paid	-0.1018
-4.047755	paint	-0.1018
-4.047755	palacio	-0.1018
-4.047755	paper	-0.1018
-4.047755	paradoxical	-0.1018
-3.7819	paragraph	-0.1018
-4.047755	parallel	-0.1018
-2.704351	parliament	-0.2508883
-3.7819	parliamentary	-0.1018
-3.077973	part	-0.3507441
-3.633995	part-session	-0.2282128
-4.047755	part-time	-0.1018
-3.894805	partially	-0.1018
-3.894805	participate	-0.2227466
-3.894805	participation	-0.1018
-3.436091	particular	-0.1018
-3.153928	particularly	-0.1197606
-3.894805	partly	-0.1018
-4.047755	partners	-0.1018
-3.436091	partnership	-0.2127536
-4.047755	partnerships	-0.1018
-3.7819	parts	-0.2842565
-3.7819	party	-0.1018
-3.894805	pass	-0.1018
-3.894805	passes	-0.1018
-3.894805	passing	-0.1018
-4.047755	passionately	-0.1018
-3.633995	past	-0.1580766
-3.7819	path	-0.2309718
-4.047755	patience	-0.1018
-3.894805	pay	-0.1785816
-4.047755	paying	-0.1018
-4.047755	payments	-0.1018
-4.047755	peaceful	-0.1018
-3.894805	penalties	-0.1018
-2.907312	people	-0.1654477
-3.633995	per	-0.1462227
-4.047755	perceive	-0.1018
-4.047755	percent	-0.1018
-3.894805	perfectly	-0.1018
-4.047755	performance	-0.1018
-3.894805	perhaps	-0.1018
-2.984313	period	-0.2062076
-3.523867	periodic	-0.3278818
-4.047755	periodical	-0.1018
-3.7819	peripheral	-0.1785816
-3.894805	permanent	-0.1018
-4.047755	permission	-0.1018
-4.047755	permit	-0.1018
-3.894805	person	-0.1018
-3.633995	personal	-0.1018
-4.047755	personality	-0.1018
-3.7819	personally	-0.1018
-3.894805	persons	-0.1018
-3.894805	perspective	-0.1018
-4.047755	persuades	-0.1018
-4.047755	pertains	-0.1018
-4.047755	petersen	-0.1018
-4.047755	petition	-0.1018
-3.7819	phase	-0.1785816
-4.047755	phases	-0.1018
-4.047755	phenomena	-0.1018
-3.894805	piece	-0.2227466
-4.047755	pillars	-0.1018
-4.047755	pity	-0.1018
-3.300644	place	-0.1234436
-3.894805	placed	-0.2227466
-3.894805	places	-0.1018
-3.7819	plan	-0.1018
-3.894805	planned	-0.1018
-3.436091	planning	-0.1330602
-3.633995	plans	-0.4091952
-3.7819	play	-0.1018
-3.894805	played	-0.2227466
-4.047755	players	-0.1018
-4.047755	plays	-0.1018
-4.047755	pleasant	-0.1018
-3.894805	please	-0.1018
-3.633995	pleased	-0.1785816
-4.047755	pleasing	-0.1018
-4.047755	pleasure	-0.1018
-3.523867	plenary	-0.258598
-4.047755	plooij-van	-0.1018
-4.047755	poettering	-0.1018
-4.047755	pohjamo	-0.1018
-2.984313	point	-0.1987706
-3.300644	pointed	-0.7102252
-4.047755	pointing	-0.1018
-3.197549	points	-0.153479
-3.044458	policies	-0.170508
-2.785114	policy	-0.2284405
-3.363109	political	-0.1462227
-4.047755	politicians	-0.1018
-4.047755	polycentric	-0.1018
-4.047755	ponnambalam	-0.1018
-3.436091	poor	-0.1580766
-4.047755	poorer	-0.1018
-3.894805	poorest	-0.1018
-3.633995	population	-0.1785816
-4.047755	populations	-0.1018
-4.047755	ports	-0.1018
-4.047755	portugal	-0.1018
-4.047755	portuguese	-0.1018
-4.047755	pose	-0.1018
-4.047755	posed	-0.1018
-3.363109	position	-0.1330602
-3.894805	positions	-0.1018
-3.246044	positive	-0.1018
-4.047755	possibilities	-0.1018
-3.894805	possibility	-0.2227466
-3.246044	possible	-0.2469001
-3.894805	possibly	-0.1018
-4.047755	post-leaving	-0.1018
-4.047755	postponing	-0.1018
-3.523867	potential	-0.1018
-4.047755	pouring	-0.1018
-3.633995	poverty	-0.1580766
-4.047755	power	-0.1018
-3.894805	powerful	-0.1018
-3.894805	powers	-0.1018
-4.047755	ppe	-0.1018
-4.047755	ppe-de	-0.1018
-3.633995	practical	-0.1018
-4.047755	practically	-0.1018
-3.633995	practice	-0.1580765
-4.047755	praise	-0.1018
-4.047755	pre-accession	-0.1018
-4.047755	pre-requisite	-0.1018
-4.047755	preaching	-0.1018
-4.047755	preamble	-0.1018
-3.894805	precise	-0.1018
-3.7819	precisely	-0.1018
-4.047755	predecessor	-0.1018
-4.047755	preferred	-0.1018
-4.047755	preparation	-0.1018
-3.894805	prepare	-0.1018
-3.633995	prepared	-0.1580766
-4.047755	preparing	-0.1018
-4.047755	prerequisite	-0.1018
-4.047755	prerequisites	-0.1018
-3.300644	present	-0.1234436
-3.633995	presentation	-0.1580766
-3.300644	presented	-0.1018
-4.047755	presenting	-0.1018
-3.894805	presently	-0.1018
-4.047755	presents	-0.1018
-4.047755	preserving	-0.1018
-4.047755	presidency	-0.1018
-3.153928	president	-0.2182783
-3.894805	presidents	-0.1018
-4.047755	press	-0.1018
-4.047755	prestigious	-0.1018
-4.047755	presume	-0.1018
-4.047755	pretext	-0.1018
-4.047755	prevailing	-0.1018
-4.047755	prevails	-0.1018
-4.047755	prevent	-0.1018
-4.047755	preventative	-0.1018
-4.047755	prevention	-0.1018
-3.523867	previous	-0.1234436
-3.894805	previously	-0.1018
-4.047755	pricing	-0.1018
-3.894805	prime	-0.1018
-4.047755	principal	-0.1018
-4.047755	principality	-0.1018
-3.300644	principle	-0.201881
-3.633995	principles	-0.1580766
-3.633995	prior	-0.1018
-3.153928	priorities	-0.1744058
-3.894805	prioritise	-0.1018
-3.523867	priority	-0.1489639
-3.7819	private	-0.1580766
-4.047755	privatisation	-0.1018
-4.047755	probable	-0.1018
-4.047755	probably	-0.1018
-4.047755	probing	-0.1018
-4.047755	probity	-0.1018
-3.363109	problem	-0.1929966
-3.114292	problems	-0.1805487
-4.047755	procedural	-0.1018
-3.197549	procedure	-0.2432736
-3.7819	procedures	-0.1785816
-3.633995	proceed	-0.1580766
-3.894805	proceeding	-0.1018
-4.047755	proceedings	-0.1018
-3.363109	process	-0.2039552
-4.047755	processes	-0.1018
-3.7819	prodi	-0.1018
-3.7819	produce	-0.1018
-3.436091	produced	-0.1384962
-4.047755	producers	-0.1018
-4.047755	producing	-0.1018
-3.894805	product	-0.1018
-3.7819	production	-0.1580766
-4.047755	productive	-0.1018
-3.633995	productivity	-0.1580765
-4.047755	products	-0.1018
-4.047755	profile	-0.1018
-4.047755	profit	-0.1018
-4.047755	profitable	-0.1018
-2.9571	programme	-0.1924678
-2.907312	programmes	-0.2435
-3.363109	programming	-0.1214308
-3.633995	progress	-0.1018
-4.047755	progressive	-0.1018
-4.047755	prohibition	-0.1018
-3.363109	project	-0.1330602
-3.300644	projects	-0.1462227
-4.047755	proliferation	-0.1018
-4.047755	prolongs	-0.1018
-3.894805	promote	-0.1018
-3.633995	promoting	-0.1018
-4.047755	promotion	-0.1018
-4.047755	pronounced	-0.1018
-4.047755	proof	-0.1018
-3.436091	proper	-0.1018
-3.633995	properly	-0.1580766
-4.047755	proportion	-0.1018
-3.197549	proposal	-0.2065782
-3.300644	proposals	-0.1018
-3.633995	propose	-0.1384962
-3.300644	proposed	-0.1234436
-4.047755	proposing	-0.1018
-4.047755	prosecutor	-0.1018
-4.047755	prosperity	-0.1018
-3.894805	prosperous	-0.2227466
-4.047755	protect	-0.1018
-3.894805	protecting	-0.2227466
-3.7819	protection	-0.1018
-4.047755	prove	-0.1018
-3.894805	proved	-0.1785816
-3.894805	provide	-0.1018
-3.7819	provided	-0.1018
-4.047755	provider	-0.1018
-3.894805	provides	-0.1018
-3.894805	providing	-0.1018
-4.047755	province	-0.1018
-4.047755	proving	-0.1018
-3.7819	provision	-0.1018
-3.436091	provisions	-0.1384962
-4.047755	pse	-0.1018
-3.363109	public	-0.1214308
-4.047755	publicity	-0.1018
-4.047755	publicly	-0.1018
-4.047755	published	-0.1018
-4.047755	publishing	-0.1018
-4.047755	puerta	-0.1018
-4.047755	pulled	-0.1018
-4.047755	purely	-0.1018
-3.7819	purpose	-0.1018
-3.894805	purposes	-0.1018
-4.047755	pursuant	-0.1018
-4.047755	pursue	-0.1018
-4.047755	pursued	-0.1018
-4.047755	pursuing	-0.1018
-3.197549	put	-0.1744058
-3.894805	putting	-0.1018
-3.894805	quaestors	-0.1785816
-4.047755	qualified	-0.1018
-3.633995	quality	-0.1384962
-4.047755	quantities	-0.1018
-4.047755	quarrel	-0.1018
-4.047755	quarters	-0.1018
-3.300644	question	-0.1290274
-3.523867	questions	-0.1462227
-4.047755	quick	-0.1018
-3.7819	quickly	-0.1018
-3.153928	quite	-0.1515481
-4.047755	quota	-0.1018
-4.047755	quotation	-0.1018
-4.047755	quoted	-0.1018
-3.894805	rack	-0.1018
-3.363109	rail	-0.1290274
-3.894805	railway	-0.1018
-3.7819	railways	-0.2309718
-3.633995	raise	-0.1018
-3.633995	raised	-0.1018
-4.047755	raises	-0.1018
-3.7819	raising	-0.2842565
-4.047755	range	-0.1018
-3.894805	rapid	-0.1018
-3.894805	rapidly	-0.1018
-4.047755	rapkay	-0.1018
-3.894805	rapporteur	-0.1018
-4.047755	rapporteurs	-0.1018
-4.047755	raschhofer	-0.1018
-3.894805	rate	-0.1018
-4.047755	rates	-0.1018
-3.300644	rather	-0.1929966
-4.047755	ratify	-0.1018
-4.047755	rating	-0.1018
-4.047755	ratings	-0.1018
-4.047755	rationalisation	-0.1018
-4.047755	re-establish	-0.1018
-4.047755	re-establishes	-0.1018
-4.047755	re-integrating	-0.1018
-4.047755	reach	-0.1018
-3.523867	reached	-0.1462227
-4.047755	react	-0.1018
-4.047755	reactions	-0.1018
-4.047755	read	-0.1018
-3.7819	reading	-0.1018
-4.047755	reads	-0.1018
-3.436091	ready	-0.2810622
-3.633995	real	-0.1462227
-4.047755	realise	-0.1018
-4.047755	realistic	-0.1018
-4.047755	reality	-0.1018
-3.436091	really	-0.1018
-4.047755	reaped	-0.1018
-3.436091	reason	-0.1330602
-4.047755	reasonable	-0.1018
-3.7819	reasons	-0.1462227
-4.047755	reassure	-0.1018
-4.047755	rebuild	-0.1018
-3.7819	recall	-0.1785816
-3.7819	received	-0.1018
-4.047755	receiving	-0.1018
-3.7819	recent	-0.1785816
-3.633995	recently	-0.1018
-4.047755	recession	-0.1018
-4.047755	recitals	-0.1018
-4.047755	recognise	-0.1018
-3.894805	recognition	-0.2227466
-3.894805	recommend	-0.1018
-4.047755	recommendation	-0.1018
-3.523867	recommendations	-0.1018
-4.047755	recommended	-0.1018
-4.047755	reconciliation	-0.1018
-4.047755	reconsider	-0.1018
-4.047755	record	-0.1018
-4.047755	records	-0.1018
-4.047755	recovery	-0.1018
-4.047755	red	-0.1018
-4.047755	redevelopment	-0.1018
-4.047755	redistribute	-0.1018
-4.047755	redistribution	-0.1018
-4.047755	redondo	-0.1018
-4.047755	reduce	-0.1018
-4.047755	reduced	-0.1018
-3.894805	reducing	-0.1018
-3.633995	reduction	-0.1580766
-3.633995	refer	-0.1580766
-3.633995	reference	-0.4091952
-3.633995	referred	-0.4091952
-4.047755	referring	-0.1018
-4.047755	refers	-0.1018
-3.7819	reflect	-0.1785816
-4.047755	reflected	-0.1018
-3.246044	reform	-0.1810419
-4.047755	reforms	-0.1018
-4.047755	refuse	-0.1018
-4.047755	refusing	-0.1018
-3.7819	regard	-0.1018
-4.047755	regarded	-0.1018
-3.077973	regarding	-0.2853618
-4.047755	regards	-0.1018
-3.894805	regeneration	-0.1018
-3.894805	region	-0.1018
-2.689857	regional	-0.3014701
-2.555975	regions	-0.3543818
-3.7819	regret	-0.1018
-4.047755	regrets	-0.1018
-4.047755	regretted	-0.1018
-4.047755	regular	-0.1018
-3.633995	regulation	-0.1018
-3.246044	regulations	-0.2690152
-3.7819	regulatory	-0.1785816
-4.047755	reinforce	-0.1018
-4.047755	reinforces	-0.1018
-4.047755	reinstated	-0.1018
-4.047755	reinstatement	-0.1018
-4.047755	reiterate	-0.1018
-3.894805	reiterated	-0.1018
-3.894805	rejected	-0.1018
-3.894805	rejection	-0.1018
-4.047755	rejects	-0.1018
-3.894805	relate	-0.1018
-3.633995	related	-0.1018
-3.894805	relates	-0.2227466
-3.523867	relating	-0.5061052
-4.047755	relation	-0.1018
-3.894805	relations	-0.2227466
-4.047755	relationships	-0.1018
-3.894805	relative	-0.1018
-3.894805	relatively	-0.1018
-4.047755	relativises	-0.1018
-3.633995	relevant	-0.1462227
-4.047755	reliability	-0.1018
-4.047755	reliable	-0.1018
-4.047755	reluctant	-0.1018
-4.047755	reluctantly	-0.1018
-3.633995	remain	-0.1018
-4.047755	remained	-0.1018
-3.7819	remains	-0.1785816
-4.047755	remarked	-0.1018
-3.523867	remember	-0.1462227
-4.047755	remembered	-0.1018
-3.436091	remind	-0.2504629
-4.047755	reminded	-0.1018
-4.047755	reminiscent	-0.1018
-4.047755	remit	-0.1018
-3.523867	remote	-0.2504629
-3.894805	remoteness	-0.2227466
-4.047755	removed	-0.1018
-4.047755	renew	-0.1018
-3.894805	renewable	-0.1018
-4.047755	renewables	-0.1018
-4.047755	renewal	-0.1018
-4.047755	renovation	-0.1018
-4.047755	reopen	-0.1018
-4.047755	repair	-0.1018
-3.633995	repeat	-0.1018
-2.704351	report	-0.290092
-3.197549	reports	-0.1462227
-3.523867	represent	-0.1018
-4.047755	representations	-0.1018
-3.894805	representative	-0.1018
-3.7819	representatives	-0.1580766
-3.894805	represented	-0.1018
-4.047755	representing	-0.1018
-4.047755	represents	-0.1018
-4.047755	reprieve	-0.1018
-4.047755	republic	-0.1018
-3.300644	request	-0.1234436
-3.7819	requested	-0.1018
-4.047755	requesting	-0.1018
-3.894805	requests	-0.1018
-3.436091	require	-0.1018
-3.894805	required	-0.1018
-3.894805	requirement	-0.1018
-3.436091	requirements	-0.1917677
-4.047755	requires	-0.1018
-4.047755	requisite	-0.1018
-3.436091	research	-0.1835162
-4.047755	reservation	-0.1018
-4.047755	reservations	-0.1018
-3.894805	reserve	-0.1018
-4.047755	reserves	-0.1018
-4.047755	resolution	-0.1018
-3.894805	resolutions	-0.1018
-4.047755	resolve	-0.1018
-3.363109	resources	-0.1580766
-3.523867	respect	-0.1018
-4.047755	respectfully	-0.1018
-4.047755	respecting	-0.1018
-3.523867	respond	-0.2810622
-4.047755	responded	-0.1018
-3.7819	response	-0.1785816
-4.047755	responsibilities	-0.1018
-3.633995	responsibility	-0.1580766
-3.300644	responsible	-0.3596074
-4.047755	restructuring	-0.1018
-3.436091	result	-0.207741
-4.047755	resulted	-0.1018
-3.894805	resulting	-0.1018
-3.894805	results	-0.1018
-4.047755	resumed	-0.1018
-4.047755	resumption	-0.1018
-3.894805	retained	-0.1785816
-4.047755	retraining	-0.1018
-4.047755	retrograde	-0.1018
-3.894805	return	-0.1018
-4.047755	reunion	-0.1018
-4.047755	revenue-based	-0.1018
-4.047755	reversing	-0.1018
-3.894805	review	-0.1018
-3.7819	revision	-0.1785816
-4.047755	revitalise	-0.1018
-4.047755	revitalising	-0.1018
-4.047755	revolves	-0.1018
-4.047755	ribeiro	-0.1018
-3.894805	rich	-0.1018
-4.047755	richer	-0.1018
-4.047755	richest	-0.1018
-3.300644	right	-0.1309047
-3.894805	rightly	-0.1018
-4.047755	rigorous	-0.1018
-4.047755	ripple	-0.1018
-3.7819	rise	-0.1018
-3.7819	risk	-0.1785816
-3.633995	risks	-0.1580766
-3.7819	road	-0.1018
-3.523867	roads	-0.348009
-3.246044	role	-0.1835161
-4.047755	romano	-0.1018
-4.047755	román	-0.1018
-4.047755	room	-0.1018
-4.047755	root	-0.1018
-3.894805	rose	-0.1018
-4.047755	round	-0.1018
-4.047755	route	-0.1018
-4.047755	routine	-0.1018
-3.633995	rule	-0.1018
-3.246044	rules	-0.1290274
-4.047755	ruling	-0.1018
-4.047755	running	-0.1018
-3.013345	rural	-0.4299253
-3.894805	russia	-0.1018
-4.047755	s	-0.1018
-3.894805	sadly	-0.1018
-4.047755	safe	-0.1018
-3.894805	safer	-0.1018
-2.841929	safety	-0.2937462
-3.300644	said	-0.2800027
-4.047755	same	-0.1018
-4.047755	satisfactorily	-0.1018
-4.047755	satisfactory	-0.1018
-4.047755	satisfied	-0.1018
-4.047755	satisfy	-0.1018
-4.047755	satisfying	-0.1018
-4.047755	savary	-0.1018
-3.300644	say	-0.1598352
-3.633995	saying	-0.1462227
-4.047755	says	-0.1018
-3.894805	scale	-0.1018
-4.047755	scant	-0.1018
-4.047755	scenario	-0.1018
-4.047755	sceptical	-0.1018
-4.047755	scheduled	-0.1018
-3.7819	schemes	-0.1785816
-4.047755	school	-0.1018
-4.047755	schools	-0.1018
-3.7819	schroedter	-0.1290274
-4.047755	scope	-0.1018
-4.047755	scratch	-0.1018
-4.047755	scrutiny	-0.1018
-4.047755	se	-0.1018
-3.633995	sea	-0.1580765
-4.047755	sealing	-0.1018
-4.047755	searches	-0.1018
-4.047755	seasonal	-0.1018
-4.047755	seattle	-0.1018
-3.894805	sec	-0.1018
-3.633995	second	-0.1259164
-3.894805	secondly	-0.2227466
-4.047755	secretary	-0.1018
-3.633995	section	-0.1580766
-3.894805	sections	-0.2227466
-3.300644	sector	-0.1604231
-4.047755	sectoral	-0.1018
-3.523867	sectors	-0.1462227
-3.246044	see	-0.1608939
-4.047755	seek	-0.1018
-4.047755	seeking	-0.1018
-3.523867	seem	-0.1462227
-3.633995	seems	-0.1580766
-3.894805	seen	-0.1018
-4.047755	segni	-0.1018
-4.047755	sek	-0.1018
-4.047755	self-restraint	-0.1018
-4.047755	self-supporting	-0.1018
-4.047755	seminar	-0.1018
-3.894805	send	-0.1018
-3.633995	sense	-0.1462227
-4.047755	sensible	-0.1018
-4.047755	sensitive	-0.1018
-4.047755	sent	-0.1018
-4.047755	sentenced	-0.1018
-4.047755	separates	-0.1018
-4.047755	seppänen	-0.1018
-3.894805	september	-0.1580765
-4.047755	series	-0.1018
-3.246044	serious	-0.1018
-3.300644	seriously	-0.1018
-3.7819	serve	-0.1018
-4.047755	served	-0.1018
-3.894805	service	-0.1018
-3.363109	services	-0.1929966
-4.047755	session	-0.1018
-3.153928	set	-0.2387173
-4.047755	set-piece	-0.1018
-3.7819	setting	-0.1018
-4.047755	seven	-0.1018
-4.047755	seven-year	-0.1018
-4.047755	seventh	-0.1018
-3.197549	several	-0.148964
-4.047755	severely	-0.1018
-3.523867	shall	-0.1319439
-3.894805	shape	-0.1018
-3.633995	share	-0.1580766
-3.153928	she	-0.1917676
-4.047755	shifted	-0.1018
-3.894805	shifting	-0.1018
-4.047755	shipment	-0.1018
-3.894805	ships	-0.1018
-4.047755	shores	-0.1018
-3.894805	short	-0.1018
-4.047755	shortage	-0.1018
-3.894805	shortcomings	-0.1018
-4.047755	shortly	-0.1018
-2.662242	should	-0.3223718
-3.633995	show	-0.1580766
-3.7819	shown	-0.1018
-4.047755	shows	-0.1018
-4.047755	shutting	-0.1018
-4.047755	side	-0.1018
-3.894805	sides	-0.1018
-4.047755	sign	-0.1018
-3.894805	signed	-0.1018
-3.894805	significance	-0.1018
-3.894805	significant	-0.1018
-4.047755	signs	-0.1018
-4.047755	silence	-0.1018
-4.047755	simple	-0.1018
-4.047755	simpler	-0.1018
-4.047755	simplification	-0.1018
-4.047755	simplifying	-0.1018
-3.363109	simply	-0.1330602
-4.047755	simpson	-0.1018
-3.077973	since	-0.1452976
-4.047755	sincerely	-0.1018
-4.047755	single	-0.1018
-4.047755	sir	-0.1018
-3.523867	sitting	-0.1018
-3.153928	situation	-0.1687805
-3.894805	situations	-0.2227466
-4.047755	six	-0.1018
-3.633995	sixth	-0.2282128
-4.047755	size	-0.1018
-4.047755	skills	-0.1018
-4.047755	slow	-0.1018
-4.047755	slowly	-0.1018
-3.246044	small	-0.2800027
-4.047755	small-scale	-0.1018
-3.894805	smaller	-0.2227466
-4.047755	smell	-0.1018
-3.894805	smes	-0.1018
-2.662242	so	-0.2888506
-3.013345	social	-0.1820177
-4.047755	socialist	-0.1018
-3.894805	socialists	-0.1018
-4.047755	societies	-0.1018
-3.523867	society	-0.1667462
-4.047755	sole	-0.1018
-4.047755	solely	-0.1018
-3.894805	solid	-0.1018
-3.633995	solution	-0.1018
-2.9571	some	-0.2570806
-3.894805	someone	-0.1018
-3.523867	something	-0.1462227
-3.894805	sometimes	-0.1018
-3.7819	somewhat	-0.1018
-3.894805	soon	-0.1018
-4.047755	sooner	-0.1018
-4.047755	sorely	-0.1018
-4.047755	sorry	-0.1018
-3.894805	sort	-0.2227466
-4.047755	sorting	-0.1018
-3.894805	sound	-0.1018
-3.633995	sources	-0.4091952
-3.894805	south	-0.1018
-4.047755	southern	-0.1018
-4.047755	spanish	-0.1018
-4.047755	sparse	-0.1018
-3.523867	speak	-0.1616011
-4.047755	speaker	-0.1018
-3.523867	speakers	-0.1708582
-3.7819	speaking	-0.1018
-3.7819	special	-0.1462227
-4.047755	specialised	-0.1018
-3.246044	specific	-0.1018
-3.436091	specifically	-0.1018
-4.047755	specifics	-0.1018
-4.047755	specify	-0.1018
-3.7819	speech	-0.1462227
-3.894805	speeches	-0.1018
-4.047755	speed	-0.1018
-4.047755	spend	-0.1018
-3.894805	spending	-0.1018
-3.523867	spent	-0.1018
-4.047755	sphere	-0.1018
-4.047755	spillage	-0.1018
-3.894805	spirit	-0.1018
-4.047755	splendid	-0.1018
-4.047755	spoke	-0.1018
-4.047755	sport	-0.1018
-4.047755	spring	-0.1018
-3.894805	sri	-0.1018
-4.047755	stability	-0.1018
-3.7819	stage	-0.1018
-4.047755	stagnation	-0.1018
-4.047755	staircases	-0.1018
-3.894805	stand	-0.1018
-3.7819	standard	-0.2842565
-3.894805	standardisation	-0.1018
-3.363109	standards	-0.1462227
-3.7819	stands	-0.1018
-3.7819	start	-0.1018
-4.047755	start-up	-0.1018
-3.633995	starting	-0.1580766
-3.197549	state	-0.215804
-3.633995	stated	-0.1018
-3.7819	statement	-0.1018
-3.523867	states	-0.1171489
-3.894805	statistics	-0.1785816
-4.047755	status	-0.1018
-4.047755	stay	-0.1018
-3.894805	steel	-0.1018
-3.894805	steer	-0.1018
-3.7819	step	-0.1785816
-4.047755	steps	-0.1018
-4.047755	stern	-0.1018
-3.246044	still	-0.1223881
-4.047755	stimulating	-0.1018
-4.047755	stipulated	-0.1018
-4.047755	stipulates	-0.1018
-4.047755	stop	-0.1018
-3.7819	storms	-0.1018
-4.047755	straight	-0.1018
-4.047755	strasbourg	-0.1018
-3.197549	strategic	-0.1419912
-4.047755	strategically	-0.1018
-3.894805	strategies	-0.1018
-3.523867	strategy	-0.1384962
-3.894805	strengthen	-0.2227466
-4.047755	strengthened	-0.1018
-4.047755	strengthening	-0.1018
-3.523867	stressed	-0.1462227
-4.047755	stretched	-0.1018
-4.047755	strictly	-0.1018
-4.047755	strike	-0.1018
-3.7819	stringent	-0.1785816
-4.047755	strong	-0.1018
-4.047755	strongest	-0.1018
-4.047755	strongly	-0.1018
-3.894805	struck	-0.1018
-2.862648	structural	-0.3494216
-4.047755	structurally	-0.1018
-3.7819	structure	-0.1018
-3.894805	structures	-0.1018
-4.047755	studied	-0.1018
-4.047755	study	-0.1018
-3.633995	subject	-0.1018
-4.047755	subjects	-0.1018
-4.047755	submit	-0.1018
-4.047755	submits	-0.1018
-3.436091	submitted	-0.1785816
-4.047755	subordinate	-0.1018
-4.047755	subsequent	-0.1018
-3.894805	subsequently	-0.1018
-3.894805	subsidiarity	-0.1018
-4.047755	subsidiary	-0.1018
-4.047755	subsidies	-0.1018
-4.047755	substance	-0.1018
-3.7819	substantial	-0.1018
-4.047755	substantiates	-0.1018
-4.047755	substantive	-0.1018
-4.047755	substitute	-0.1018
-4.047755	subvert	-0.1018
-3.894805	succeed	-0.2227466
-3.633995	success	-0.1462227
-3.7819	successful	-0.1018
-4.047755	successfully	-0.1018
-2.884406	such	-0.2999038
-4.047755	suddenly	-0.1018
-4.047755	sudre	-0.1018
-3.894805	suffered	-0.1018
-3.633995	sufficient	-0.1018
-3.7819	sufficiently	-0.1018
-4.047755	suggest	-0.1018
-3.7819	suggested	-0.1018
-4.047755	suggesting	-0.1018
-3.894805	suggestions	-0.1018
-4.047755	suggests	-0.1018
-4.047755	summarise	-0.1018
-4.047755	summit	-0.1018
-3.894805	sums	-0.1018
-4.047755	superb	-0.1018
-4.047755	supervising	-0.1018
-4.047755	supervision	-0.1018
-4.047755	supervisory	-0.1018
-3.894805	supplements	-0.1018
-4.047755	supply	-0.1018
-2.907312	support	-0.2223507
-3.436091	supported	-0.2810622
-3.7819	supporting	-0.1018
-3.894805	supports	-0.1018
-4.047755	sure	-0.1018
-3.894805	surely	-0.1018
-4.047755	surprise	-0.1018
-4.047755	surprised	-0.1018
-4.047755	survey	-0.1018
-4.047755	surveys	-0.1018
-3.894805	sustainability	-0.1018
-3.436091	sustainable	-0.2504629
-3.894805	sweden	-0.2227466
-3.894805	swoboda	-0.1018
-4.047755	syndrome	-0.1018
-4.047755	synergies	-0.1018
-3.894805	synergy	-0.1018
-3.523867	system	-0.1835162
-3.894805	systems	-0.1018
-4.047755	sánchez	-0.1018
-4.047755	table	-0.1018
-3.523867	tabled	-0.1018
-4.047755	tackling	-0.1018
-4.047755	tailor-made	-0.1018
-3.044458	take	-0.2485907
-4.047755	take-up	-0.1018
-2.984313	taken	-0.1946118
-3.523867	takes	-0.1018
-3.436091	taking	-0.1785816
-3.894805	talking	-0.1018
-4.047755	tampere	-0.1018
-3.894805	tankers	-0.1018
-3.894805	tanks	-0.1018
-4.047755	tape	-0.1018
-4.047755	targeted	-0.1018
-4.047755	targets	-0.1018
-4.047755	tauern	-0.1018
-4.047755	taught	-0.1018
-3.633995	tax	-0.1384962
-3.894805	taxation	-0.1018
-3.894805	taxpayer	-0.2227466
-3.523867	technical	-0.1462227
-3.7819	technological	-0.1018
-3.894805	technologies	-0.1018
-4.047755	technology	-0.1018
-4.047755	telecommunication	-0.1018
-3.894805	television	-0.1018
-3.523867	tell	-0.207741
-4.047755	telling	-0.1018
-3.7819	temperatures	-0.1018
-4.047755	temporary	-0.1018
-4.047755	temptation	-0.1018
-3.523867	ten	-0.1462227
-3.894805	tend	-0.2227466
-4.047755	tending	-0.1018
-3.633995	term	-0.1018
-4.047755	terminating	-0.1018
-3.523867	terms	-0.1957125
-3.894805	terrible	-0.1018
-4.047755	terribly	-0.1018
-3.633995	territorial	-0.1580766
-4.047755	territory	-0.1018
-4.047755	test	-0.1018
-3.894805	texas	-0.1018
-3.523867	text	-0.1929966
-4.047755	texts	-0.1018
-3.013345	than	-0.1711979
-3.7819	thank	-0.1616011
-4.047755	thanking	-0.1018
-3.7819	thanks	-0.1785816
-1.891564	that	-0.4674127
-1.657164	the	-0.3238469
-2.611781	their	-0.1418009
-2.767715	them	-0.2629411
-4.047755	thematic	-0.1018
-3.523867	themselves	-0.1462227
-3.153928	then	-0.1774091
-2.662242	there	-0.376749
-3.894805	thereby	-0.1018
-2.984313	therefore	-0.1171489
-2.704351	these	-0.176899
-4.047755	thesis	-0.1018
-2.767715	they	-0.2872791
-3.7819	thing	-0.1018
-4.047755	things	-0.1018
-3.363109	think	-0.2026886
-3.523867	thinking	-0.1290274
-3.633995	third	-0.1018
-4.047755	third-level	-0.1018
-4.047755	thirdly	-0.1018
-2.19381	this	-0.2772197
-4.047755	thorough	-0.1018
-2.884406	those	-0.1604231
-3.633995	though	-0.1018
-3.7819	thought	-0.1785816
-4.047755	thought-out	-0.1018
-4.047755	thousands	-0.1018
-3.523867	three	-0.1018
-4.047755	threshold	-0.1018
-3.246044	through	-0.1903566
-3.7819	throughout	-0.1785816
-4.047755	throwing	-0.1018
-3.7819	thursday	-0.1462227
-3.363109	thus	-0.1290274
-4.047755	tide	-0.1018
-2.750987	time	-0.2552471
-4.047755	time-consuming	-0.1018
-3.523867	times	-0.1462227
-4.047755	timetable	-0.1018
-1.606079	to	-0.3728715
-4.047755	tobin	-0.1018
-2.803238	today	-0.2530874
-3.436091	together	-0.1384962
-4.047755	told	-0.1018
-3.300644	tomorrow	-0.1580765
-4.047755	tonight	-0.1018
-2.931493	too	-0.1130568
-3.894805	took	-0.1018
-3.523867	tool	-0.1018
-4.047755	tools	-0.1018
-4.047755	topical	-0.1018
-4.047755	total	-0.1018
-3.894805	totally	-0.1018
-4.047755	touched	-0.1018
-3.894805	tourism	-0.1462227
-3.114292	towards	-0.153479
-4.047755	tower	-0.1018
-3.894805	towns	-0.1018
-4.047755	tracks	-0.1018
-4.047755	trade	-0.1018
-4.047755	traditional	-0.1018
-3.633995	traffic	-0.1018
-3.363109	training	-0.1514512
-4.047755	trans-european	-0.1018
-4.047755	transfer	-0.1018
-4.047755	transferred	-0.1018
-4.047755	transhipped	-0.1018
-3.633995	transit	-0.1580765
-3.894805	transition	-0.1018
-3.894805	transitional	-0.1018
-3.523867	transparency	-0.1384962
-3.633995	transparent	-0.1580765
-4.047755	transpired	-0.1018
-2.884406	transport	-0.2940619
-3.894805	transportation	-0.2227466
-3.633995	transported	-0.1018
-3.894805	transposed	-0.1018
-4.047755	tread	-0.1018
-4.047755	treason	-0.1018
-4.047755	treat	-0.1018
-3.894805	treaties	-0.1018
-3.894805	treatment	-0.1018
-3.894805	treaty	-0.1018
-3.894805	trends	-0.1018
-4.047755	troublesome	-0.1018
-3.894805	true	-0.1018
-3.7819	truly	-0.1018
-4.047755	truth	-0.1018
-4.047755	try	-0.1018
-4.047755	trying	-0.1018
-4.047755	tuesday	-0.1018
-3.633995	tunnel	-0.1462227
-3.7819	tunnels	-0.1018
-3.894805	turn	-0.1018
-4.047755	twenty-five	-0.1018
-2.984313	two	-0.1475912
-4.047755	two-speed	-0.1018
-4.047755	twofold	-0.1018
-4.047755	tying	-0.1018
-3.894805	type	-0.1580766
-3.894805	types	-0.2227466
-3.894805	uk	-0.1018
-4.047755	ultimate	-0.1018
-4.047755	ultraperipheral	-0.1018
-3.7819	unable	-0.2842565
-4.047755	unacceptable	-0.1018
-4.047755	unacceptably	-0.1018
-4.047755	unambiguous	-0.1018
-4.047755	unanimous	-0.1018
-3.633995	unanimously	-0.1018
-4.047755	unavailable	-0.1018
-4.047755	uncertainty	-0.1018
-4.047755	unclear	-0.1018
-4.047755	unconditional	-0.1018
-4.047755	uncontrolled	-0.1018
-4.047755	uncovers	-0.1018
-3.300644	under	-0.1545351
-4.047755	undergo	-0.1018
-4.047755	underspends	-0.1018
-3.894805	understand	-0.1018
-4.047755	understanding	-0.1018
-4.047755	understands	-0.1018
-3.894805	understood	-0.1018
-4.047755	undertake	-0.1018
-3.7819	undertaken	-0.1018
-4.047755	underwater	-0.1018
-4.047755	undeveloped	-0.1018
-3.894805	undoubtedly	-0.1018
-4.047755	unemployed	-0.1018
-2.907312	unemployment	-0.1604231
-4.047755	unequivocally	-0.1018
-4.047755	uneven	-0.1018
-4.047755	unfavourable	-0.1018
-4.047755	unfortunate	-0.1018
-3.633995	unfortunately	-0.1462227
-4.047755	unified	-0.1018
-4.047755	uniform	-0.1018
-4.047755	unilaterally	-0.1018
-3.363109	union	-0.1492161
-4.047755	unions	-0.1018
-4.047755	united	-0.1018
-4.047755	uniting	-0.1018
-4.047755	units	-0.1018
-4.047755	universities	-0.1018
-4.047755	unjustifiable	-0.1018
-4.047755	unjustified	-0.1018
-3.894805	unknown	-0.1018
-4.047755	unless	-0.1018
-3.894805	unnecessarily	-0.1018
-3.633995	unnecessary	-0.1018
-4.047755	unquestionably	-0.1018
-4.047755	unscathed	-0.1018
-3.363109	until	-0.1290274
-2.884406	up	-0.3230213
-4.047755	upgrading	-0.1018
-3.894805	upheld	-0.1018
-3.436091	upon	-0.1330602
-4.047755	upturn	-0.1018
-3.246044	urban	-0.1818651
-3.894805	urge	-0.1580765
-4.047755	urged	-0.1018
-3.894805	urgency	-0.1018
-3.7819	urgent	-0.1785816
-3.894805	urging	-0.1018
-2.750987	us	-0.1979965
-3.114292	use	-0.4038499
-3.197549	used	-0.3257602
-3.7819	useful	-0.1018
-4.047755	usefulness	-0.1018
-4.047755	useless	-0.1018
-3.7819	using	-0.1580766
-4.047755	usual	-0.1018
-4.047755	utilisation	-0.1018
-4.047755	utilised	-0.1018
-4.047755	utilising	-0.1018
-4.047755	vacuum	-0.1018
-4.047755	vague	-0.1018
-4.047755	vain	-0.1018
-4.047755	valid	-0.1018
-4.047755	validity	-0.1018
-4.047755	valuable	-0.1018
-3.894805	value	-0.1018
-4.047755	van	-0.1018
-4.047755	variations	-0.1018
-4.047755	varies	-0.1018
-4.047755	various	-0.1018
-3.894805	vast	-0.1018
-3.894805	vatanen	-0.1018
-4.047755	vehicles	-0.1018
-4.047755	ventilators	-0.1018
-4.047755	verification	-0.1018
-4.047755	version	-0.1018
-2.636279	very	-0.1445262
-4.047755	via	-0.1018
-4.047755	viability	-0.1018
-4.047755	viable	-0.1018
-3.894805	vice-president	-0.1018
-4.047755	victims	-0.1018
-3.363109	view	-0.1514512
-4.047755	viewed	-0.1018
-4.047755	viewpoint	-0.1018
-4.047755	views	-0.1018
-4.047755	vigilance	-0.1018
-4.047755	vigorous	-0.1018
-4.047755	violations	-0.1018
-4.047755	violent	-0.1018
-4.047755	visit	-0.1018
-4.047755	visited	-0.1018
-4.047755	vivid	-0.1018
-4.047755	vocational	-0.1018
-4.047755	volatile	-0.1018
-4.047755	volume	-0.1018
-4.047755	von	-0.1018
-3.114292	vote	-0.2393841
-3.436091	voted	-0.1384962
-3.633995	votes	-0.1018
-3.633995	voting	-0.1018
-3.7819	wait	-0.1018
-3.300644	wales	-0.1818651
-3.523867	want	-0.1462227
-3.7819	wanted	-0.2842565
-3.894805	wants	-0.2227466
-4.047755	warrant	-0.1018
-2.689857	was	-0.1439194
-4.047755	water	-0.1018
-4.047755	watered	-0.1018
-4.047755	waterway	-0.1018
-3.7819	waterways	-0.1018
-3.044458	way	-0.196747
-3.894805	ways	-0.1018
-2.421876	we	-0.3343346
-4.047755	weak	-0.1018
-4.047755	weakest	-0.1018
-3.7819	wealth	-0.1018
-4.047755	wealthiest	-0.1018
-3.7819	wealthy	-0.1785816
-4.047755	weather	-0.1018
-3.7819	wednesday	-0.1018
-3.7819	week	-0.1290274
-3.7819	weeks	-0.1580765
-3.894805	weight	-0.1018
-3.894805	welcome	-0.1018
-4.047755	welcomed	-0.1018
-3.246044	well	-0.1462227
-4.047755	well-intentioned	-0.1018
-4.047755	well-off	-0.1018
-4.047755	well-rehearsed	-0.1018
-4.047755	well-trained	-0.1018
-4.047755	went	-0.1018
-2.884406	were	-0.1091421
-4.047755	west	-0.1018
-2.767715	what	-0.2699145
-3.894805	whatever	-0.1018
-4.047755	whatsoever	-0.1018
-2.803238	when	-0.2734784
-3.894805	whenever	-0.2227466
-2.907312	where	-0.2157091
-4.047755	whereas	-0.1018
-3.077973	whether	-0.1788097
-2.23182	which	-0.3318364
-3.633995	while	-0.1330602
-3.894805	whilst	-0.1018
-3.633995	white	-0.4091952
-3.114292	who	-0.2039552
-3.894805	whole	-0.1330602
-4.047755	wholehearted	-0.1018
-3.894805	whom	-0.1018
-3.523867	whose	-0.1018
-3.246044	why	-0.1384962
-4.047755	wide	-0.1018
-4.047755	widen	-0.1018
-4.047755	widening	-0.1018
-4.047755	wider	-0.1018
-4.047755	widest	-0.1018
-2.462143	will	-0.2460806
-4.047755	willing	-0.1018
-4.047755	willingness	-0.1018
-3.300644	wish	-0.2288501
-3.894805	wished	-0.1785816
-3.633995	wishes	-0.1580766
-2.222001	with	-0.4212114
-3.7819	withdrawn	-0.2842565
-2.785114	within	-0.3298343
-3.436091	without	-0.1667461
-4.047755	witnessed	-0.1018
-4.047755	wogau	-0.1018
-3.523867	women	-0.1616011
-4.047755	wonder	-0.1018
-4.047755	word	-0.1018
-4.047755	worded	-0.1018
-4.047755	wording	-0.1018
-3.7819	words	-0.1018
-2.822153	work	-0.1992309
-4.047755	workable	-0.1018
-4.047755	workers	-0.1018
-3.114292	working	-0.1639946
-4.047755	works	-0.1018
-4.047755	worry	-0.1018
-4.047755	worrying	-0.1018
-3.894805	worse	-0.1018
-3.894805	worst	-0.1785816
-3.894805	worth	-0.1018
-3.894805	worthwhile	-0.2227466
-2.803238	would	-0.2226516
-4.047755	write	-0.1018
-4.047755	writing	-0.1018
-3.7819	wrong	-0.1018
-3.7819	wrote	-0.1785816
-3.894805	wulf-mathies	-0.1018
-4.047755	wurtz	-0.1018
-4.047755	wynn	-0.1018
-4.047755	xxviiith	-0.1018
-3.436091	year	-0.1687973
-4.047755	year-old	-0.1018
-3.153928	years	-0.2183522
-3.894805	yes	-0.2227466
-3.363109	yesterday	-0.1330602
-3.523867	yet	-0.1330602
-2.649066	you	-0.2330539
-3.7819	young	-0.1785816
-2.931493	your	-0.1537503
-3.894805	yourself	-0.1018
-3.894805	yourselves	-0.1018
-4.047755	youth	-0.1018
-4.047755	zero	-0.1018
-4.047755	zimeray	-0.1018
-4.047755	zone	-0.1018
-3.633995	zoning	-0.1018

\2-grams:
-0.2142352	! </s>
-0.8326545	" .	-0.3398814
-1.737351	" :
-1.756832	" coup
-1.757511	" hand-up
-1.465828	" in
-1.753758	" indicators
-1.75019	" modernisation
-1.757511	" retrograde
-1.451898	" to
-1.756832	" value
-0.6820196	% .	-0.4648201
-1.778953	% ;
-0.9085506	% in
-1.790496	% lower
-0.8955704	% of
-1.789522	% ten
-2.283802	' agriculture
-2.288678	' annual
-2.289602	' associations
-2.287047	' bearing
-2.289602	' failed
-2.285421	' gdp
-2.290527	' greatest
-2.289602	' incomes
-2.285421	' initiatives
-2.287047	' meeting
-2.288678	' millennium
-2.288678	' representatives
-0.1904896	' s	-0.059813
-2.251115	' time
-1.323905	's agenda	-0.1092076
-1.893497	's attention
-1.893497	's comments
-1.898781	's common
-1.898781	's decision
-1.898781	's legislative
-1.905928	's long-term
-1.907966	's motion
-1.89175	's other
-1.898781	's position
-1.893497	's proposal
-1.905928	's regret
-1.90234	's roads
-1.893497	's strategic
-1.90234	's ten
-1.898781	's view
-2.040773	( 1
-1.470647	( 1999	-0.1828164
-2.052958	( 2	0
-2.056192	( 99
-2.057365	( a5-0104
-2.057365	( a5-0105
-2.057365	( a5-0107
-2.057365	( a5-0108
-2.057365	( applause	0
-2.057365	( c5-0208
-2.056192	( cen
-1.47505	( cod	-0.1828164
-0.7326054	( cos	-0.6409116
-2.00246	( parliament	0
-2.00246	( report
-2.056192	( steel
-1.647895	( the
-2.104047	) )
-1.411619	) ,
-1.289914	) .	-0.1828163
-2.153397	) 0066
-2.153397	) 101
-2.153397	) 148
-2.151859	) 158
-2.153397	) 344
-2.153397	) 743
-2.151859	) 94
-2.116415	) ;
-0.8277757	) </s>
-1.57173	) ]	-0.0790122
-1.896657	) a
-2.046994	) an
-1.981602	) by	0
-2.150325	) carrying
-2.151859	) enacting
-2.144933	) equal
-2.000399	) has
-1.571413	) of	0
-2.129146	) president
-1.667952	) the
-2.853206	, -
-3.767239	, 166
-3.767239	, 1993
-3.767239	, 1994
-3.688493	, 2
-3.767239	, 23.7
-3.744938	, 81
-3.744938	, 82
-3.767239	, 95
-1.859007	, a	-0.0321332
-3.037592	, about
-3.218412	, above	-0.1828164
-3.744938	, access
-3.139351	, after
-3.767239	, ah
-3.570672	, aid
-3.744938	, aimed
-3.767239	, albeit
-2.783707	, all
-3.145259	, also
-2.973963	, although
-3.723722	, among
-3.688493	, amongst
-2.755173	, an
-1.241542	, and	-0.1696874
-3.744938	, annexes
-3.767239	, apart
-3.744938	, apply
-2.313368	, are	-0.1142116
-1.396221	, as	-0.2571923
-3.744938	, assist
-3.767239	, assisting
-3.218412	, associations
-2.199041	, at	-0.1630784
-3.20084	, austria	-0.1828164
-3.767239	, backed
-3.723722	, based
-3.744938	, basically
-2.344408	, be	-0.09477804
-3.20084	, bearing	-0.1828164
-2.232059	, because	-0.07150529
-3.401816	, been
-3.478088	, before
-3.723722	, boosting
-2.48174	, both	-0.05207344
-3.767239	, bureaucratic
-3.597268	, business
-3.744938	, businesspeople
-1.565567	, but	-0.1854426
-2.429964	, by
-2.683201	, can
-3.597268	, central
-3.545611	, certain
-3.570672	, certainly
-3.570672	, citizens
-3.457728	, clear
-3.767239	, climates
-3.767239	, coinciding
-3.744938	, colleagues
-3.478088	, come
-2.732719	, commissioner	-0.1671002
-3.655909	, communication
-3.570672	, competition
-3.767239	, compilation
-3.767239	, comprise
-3.723722	, concentration
-3.570672	, concerning
-3.688493	, considerable
-3.655909	, considering
-3.655909	, contains
-3.545611	, continue
-3.723722	, continued
-3.767239	, contrary
-3.655909	, convergence
-3.625599	, cooperation
-3.744938	, corresponding
-3.767239	, created
-3.744938	, culture
-3.655909	, currently
-3.744938	, cut
-3.767239	, dates
-3.384671	, debate
-3.767239	, deeply
-3.767239	, deletes
-2.977662	, demand	-0.1105741
-3.767239	, demanded
-2.601638	, despite	-0.3132593
-3.293973	, do
-3.102718	, does	0
-3.169008	, during	-0.1828164
-3.158896	, each
-3.352288	, economic
-3.158896	, either	-0.1828164
-3.744938	, electronic
-3.767239	, elisabeth
-3.744938	, employers
-3.368178	, employment
-3.744938	, enabling
-3.744938	, entail
-2.490231	, especially	-0.04853199
-3.597268	, essential
-3.224928	, etc	-0.1828164
-3.077138	, europe
-3.307834	, european
-2.577393	, even	-0.40286
-3.688493	, everyone
-3.767239	, exacerbates
-3.767239	, exceptional
-3.767239	, external
-3.767239	, faced
-3.767239	, factor
-3.744938	, familiar
-3.767239	, fear
-3.767239	, financed
-3.767239	, finland
-3.129899	, first	-0.1828164
-3.189969	, firstly	-0.1828164
-3.767239	, follow-up
-3.723722	, following
-1.688503	, for	-0.3012956
-3.688493	, french
-3.744938	, fundamentally
-3.211992	, furthermore	-0.1828164
-3.625599	, give
-2.915615	, given	-0.1079227
-3.723722	, giving
-3.723722	, globalisation
-3.688493	, going
-3.521918	, good
-3.744938	, guarantees
-3.368178	, guidelines
-3.384671	, had
-3.723722	, halfway
-2.369385	, has	-0.04701918
-2.799273	, have
-2.939072	, he
-3.767239	, hearing
-3.767239	, heavy
-3.218412	, hence
-3.744938	, heritage
-3.767239	, hospitals
-1.878121	, however	-0.767056
-3.211992	, human
-1.311209	, i	-0.3681569
-2.977662	, i.e.
-1.89295	, if	-0.1627658
-3.597268	, improved
-3.723722	, improvements
-1.286855	, in	-0.2615516
-2.598876	, including
-2.951293	, increasing	-0.1121291
-3.179362	, indeed
-3.723722	, indicative
-3.545611	, infrastructure
-3.767239	, instruction
-3.723722	, insufficient
-1.885793	, is	-0.1661259
-3.688493	, island
-1.713634	, it	-0.3397747
-3.723722	, italy
-3.267511	, its
-3.625599	, job
-3.015485	, just
-3.744938	, known
-3.744938	, lacks
-2.216631	, ladies	-0.8627603
-3.744938	, led
-2.736482	, let	-0.2235596
-3.767239	, lies
-3.077138	, like
-3.545611	, long
-2.603204	, madam	-0.5617303
-3.224928	, mainly
-3.744938	, maintaining
-3.49945	, make
-3.767239	, matches
-3.767239	, meaning
-3.293973	, member
-3.478088	, members
-3.723722	, merely
-3.767239	, methods
-2.3264	, more	-0.08482002
-1.682666	, mr	-0.1838862
-1.923149	, mrs	-0.4266831
-2.967899	, must
-2.805302	, my
-2.752371	, namely
-3.767239	, naturally
-3.478088	, need
-3.723722	, never
-3.457728	, new
-3.655909	, next
-3.767239	, ngos
-3.322153	, no
-3.744938	, none
-1.962444	, not	-0.09838559
-3.060885	, now
-3.744938	, object
-3.767239	, occasional
-1.774786	, of	-0.2782715
-3.218412	, offer
-3.597268	, often
-1.733261	, on	-0.4111081
-3.120648	, once
-2.532622	, one
-2.487754	, or
-3.218412	, otherwise	-0.1828164
-2.779515	, our
-3.723722	, outside
-3.545611	, over
-3.723722	, paragraph
-2.823385	, parliament
-1.851297	, particularly	-0.2643017
-3.625599	, partnership
-3.744938	, persons
-3.744938	, please
-3.767239	, pointing
-3.545611	, positive
-3.688493	, practical
-3.723722	, precisely
-3.570672	, presented
-3.625599	, proper
-3.767239	, proving
-3.597268	, rail	0
-3.723722	, railways
-3.688493	, raise
-3.570672	, rather
-3.111591	, regarding
-3.196612	, regional
-3.090713	, regions
-3.625599	, require
-3.625599	, research
-3.570672	, responsible
-3.218412	, resulting
-3.723722	, road
-3.307834	, safety
-3.744938	, secondly
-3.655909	, seem
-3.169008	, services
-3.49945	, set
-3.655909	, shall
-3.175337	, should
-3.597268	, simply
-2.257641	, since
-3.767239	, sir
-3.149014	, small	-0.1828164
-2.138092	, so	-0.229562
-3.744938	, solid
-3.767239	, sparse
-3.723722	, speaking
-3.723722	, special
-2.951293	, specifically
-3.767239	, sport
-3.521918	, state
-2.933088	, still
-3.723722	, storms
-3.521918	, strategic
-3.322153	, structural
-3.767239	, submits
-3.052981	, such	-0.1828164
-3.744938	, sustainability
-3.744938	, sweden
-3.401816	, taken
-3.723722	, technological
-3.744938	, tend
-1.735081	, that	-0.2257386
-1.192084	, the	-0.1020847
-3.135679	, their
-2.077965	, then	-0.124704
-2.138092	, there	-0.2787205
-3.744938	, thereby
-2.567038	, therefore	-0.5617304
-2.823385	, these
-2.299551	, they	-0.2562584
-1.925877	, this	-0.08144583
-3.20084	, though
-3.655909	, three
-3.545611	, through
-3.169008	, thus
-1.569081	, to	-0.08209425
-3.280541	, today
-3.179362	, together	-0.1828164
-2.882647	, too	-0.3398816
-3.478088	, towards
-3.688493	, traffic
-3.597268	, training
-3.052981	, transport	0
-3.401816	, two
-3.767239	, tying
-3.767239	, uncontrolled
-3.158896	, under
-2.877388	, unemployment
-2.963868	, unfortunately	-0.1084958
-3.767239	, unions
-3.767239	, unjustifiable
-3.767239	, unless
-3.169008	, until
-3.521918	, used
-3.211992	, using
-2.948999	, very
-2.974386	, was
-3.767239	, water
-1.466677	, we	-0.1639715
-3.744938	, weight
-2.842255	, what
-2.302324	, when	-0.06013356
-2.459212	, where
-3.767239	, whereas
-3.111591	, whether
-1.357088	, which	-0.2825805
-3.20084	, while
-3.218412	, whilst
-2.258897	, who	-0.03029936
-3.655909	, whose
-2.483511	, will
-1.903747	, with	-0.1190393
-2.847103	, within	-0.3398815
-3.179362	, without
-3.655909	, women
-3.744938	, worthwhile
-3.02273	, would
-3.189969	, yet
-2.52327	, you
-3.068935	, your
-2.56086	- 1998
-2.005046	- 1999	-0.1828164
-1.851293	- a
-2.416405	- all
-2.389507	- an
-0.6791933	- and	-0.2233913
-1.360822	- as
-2.583557	- bearing
-1.982576	- but
-2.596135	- c5-0004
-2.596135	- c5-0104
-2.596135	- c5-0105
-2.596135	- c5-0107
-2.596135	- c5-0120
-2.596135	- c5-0121
-2.596135	- c5-0122
-2.539291	- cohesion
-2.596135	- cooperate
-2.539291	- even
-2.52379	- how
-2.589421	- however
-2.428463	- i
-1.385295	- in
-1.668794	- is
-2.305115	- it
-2.596135	- measured
-1.981119	- mr
-2.108605	- on
-2.453633	- one
-2.374853	- or
-2.453633	- parliament
-2.56086	- present
-2.583557	- promoting
-2.57206	- remind
-2.534062	- since
-2.57777	- stressed
-2.57206	- taking
-1.446624	- that	-0.08009265
-1.854468	- the
-1.889623	- this
-2.499123	- those
-1.648181	- to
-1.938206	- we
-2.499123	- were
-1.694339	- which
-2.250417	- with
-0.8731006	-20ºc .
-0.9758306	-20ºc would
-0.622666	-40ºc .
-3.42458	. 2496
-0.002001726	. </s>
-0.6783513	.... </s>
-2.168808	/ 0083
-2.168808	/ 0106
-0.3626567	/ 1999	-0.5617303
-2.168808	/ 2107
-2.168808	/ 2108
-2.168808	/ 2110
-2.168808	/ 2123
-2.168808	/ 2124
-2.168808	/ 2127
-1.586277	/ 35	-0.1828164
-2.168808	/ 55	0
-2.167758	/ 96
-2.167758	/ 99
-1.586002	/ ec	0
-2.168808	/ ecsc
-0.671379	0066 -
-0.6779122	0083 (
-0.6779122	0106 (
-1.827661	1 )
-1.062667	1 ,
-1.852517	1 additionality
-1.146598	1 and	-0.1828164
-1.016728	1 january	-0.1121619
-1.85332	1 july
-1.461092	1 of
-1.830353	1 programmes
-1.85332	1 region
-1.800352	1 regions	0
-1.854124	1 status
-0.6786808	1.1 %
-0.8457767	10 ,
-0.8917221	10 of
-0.671379	101 -
-0.8917221	11 of
-0.9488041	11 on
-0.6330287	110 of
-0.6797954	12 p.m	0
-0.679561	13 january
-0.6791207	143 concerning
-0.671379	148 -
-1.044534	15 and
-1.141008	15 or	0
-1.156436	15 september
-0.9673495	158 ,
-1.131863	158 -
-1.02924	158 of
-0.6391063	16 and
-0.679561	164 votes
-0.679561	166 votes
-0.8731006	17 .
-0.9804297	17 december
-0.9804297	18 december
-0.9805539	18 november
-0.6701919	180 with
-0.6797954	19 march
-0.607105	1989 ,
-0.607105	1993 ,
-0.6391063	1994 and
-0.6779122	1994-1999 programmes
-0.6776928	1995-1997 )
-0.679561	1996 establishing
-1.043857	1997 ,
-1.087792	1997 .
-1.137625	1997 and
